<?xml version="1.0"?>
<opencv_storage>
<opencv_ml_svm>
  <format>3</format>
  <svmType>C_SVC</svmType>
  <kernel>
    <type>RBF</type>
    <gamma>5.0625000000000009e-01</gamma></kernel>
  <C>3.1250000000000000e+02</C>
  <term_criteria><epsilon>1.1920928955078125e-07</epsilon>
    <iterations>1000</iterations></term_criteria>
  <var_count>100</var_count>
  <class_count>5</class_count>
  <class_labels type_id="opencv-matrix">
    <rows>5</rows>
    <cols>1</cols>
    <dt>i</dt>
    <data>
      0 1 2 3 4</data></class_labels>
  <sv_total>793</sv_total>
  <support_vectors>
    <_>
      1.08401086e-02 2.71002715e-03 1.89701896e-02 0. 5.42005431e-03
      2.71002715e-03 1.62601620e-02 5.42005431e-03 1.08401086e-02
      1.62601620e-02 5.42005431e-03 2.71002715e-03 2.16802172e-02
      8.13008100e-03 0. 8.13008100e-03 8.13008100e-03 2.71002715e-03
      8.13008100e-03 8.13008100e-03 5.42005431e-03 3.79403792e-02 0.
      5.42005431e-03 0. 5.42005431e-03 1.35501362e-02 2.71002715e-03
      2.71002715e-03 1.08401086e-02 8.13008100e-03 5.42005431e-03
      5.42005431e-03 1.35501362e-02 1.35501362e-02 2.71002715e-03
      2.43902449e-02 1.08401086e-02 1.35501362e-02 1.08401086e-02
      2.43902449e-02 5.42005431e-03 1.08401086e-02 8.13008100e-03
      2.43902449e-02 1.89701896e-02 0. 0. 5.42005431e-03 1.08401086e-02
      8.13008100e-03 2.71002715e-03 5.42005431e-03 2.71002715e-03
      8.13008100e-03 2.71002725e-02 5.42005431e-03 0. 1.62601620e-02
      2.71002715e-03 2.71002715e-03 2.71002715e-03 8.13008100e-03
      4.60704602e-02 2.71002715e-03 1.35501362e-02 2.71002715e-03
      1.08401086e-02 2.16802172e-02 2.71002715e-03 1.89701896e-02
      2.71002715e-03 0. 5.42005431e-03 1.62601620e-02 0. 8.13008100e-03
      1.08401086e-02 5.42005431e-03 2.43902449e-02 5.42005431e-03
      1.35501362e-02 8.13008100e-03 2.71002725e-02 2.16802172e-02
      8.13008100e-03 1.08401086e-02 1.89701896e-02 2.16802172e-02
      1.62601620e-02 2.71002715e-03 1.35501362e-02 0. 1.35501362e-02
      2.43902449e-02 0. 5.42005431e-03 2.16802172e-02 8.13008100e-03
      1.08401086e-02</_>
    <_>
      0. 0. 1.44927539e-02 0. 1.44927539e-02 0. 4.34782617e-02 0. 0. 0.
      1.44927539e-02 0. 0. 2.89855078e-02 1.44927539e-02 1.44927539e-02
      2.89855078e-02 0. 1.44927539e-02 0. 0. 0. 0. 1.44927539e-02 0.
      1.44927539e-02 1.44927539e-02 0. 0. 0. 0. 0. 1.44927539e-02 0. 0.
      0. 1.44927539e-02 1.44927539e-02 1.44927539e-02 0. 1.44927539e-02
      0. 2.89855078e-02 0. 4.34782617e-02 0. 2.89855078e-02 0.
      1.44927539e-02 4.34782617e-02 1.44927539e-02 0. 0. 0. 0. 0.
      5.79710156e-02 0. 1.44927539e-02 0. 0. 1.44927539e-02 0. 0.
      2.89855078e-02 1.44927539e-02 0. 2.89855078e-02 2.89855078e-02 0.
      1.44927539e-02 0. 0. 0. 1.44927539e-02 0. 0. 5.79710156e-02
      1.44927539e-02 1.44927539e-02 2.89855078e-02 0. 0. 2.89855078e-02
      4.34782617e-02 0. 1.44927539e-02 0. 2.89855078e-02 0. 0.
      2.89855078e-02 0. 2.89855078e-02 0. 0. 1.44927539e-02 0. 0. 0.</_>
    <_>
      3.74531839e-03 7.49063678e-03 7.49063678e-03 7.49063678e-03
      2.99625471e-02 0. 1.12359552e-02 1.12359552e-02 0. 7.49063678e-03
      2.62172297e-02 1.12359552e-02 2.24719103e-02 1.87265910e-02 0.
      7.49063678e-03 1.49812736e-02 7.49063678e-03 7.49063678e-03
      7.49063678e-03 3.74531839e-03 2.24719103e-02 7.49063678e-03
      2.24719103e-02 0. 3.74531839e-03 0. 7.49063678e-03 3.74531839e-03
      1.12359552e-02 1.49812736e-02 0. 1.49812736e-02 2.99625471e-02
      1.12359552e-02 2.24719103e-02 2.62172297e-02 3.74531839e-03
      3.37078646e-02 1.12359552e-02 1.49812736e-02 2.62172297e-02
      1.12359552e-02 0. 1.87265910e-02 1.87265910e-02 0. 7.49063678e-03
      0. 1.49812736e-02 1.12359552e-02 0. 7.49063678e-03 0.
      2.62172297e-02 3.74531839e-03 1.12359552e-02 7.49063678e-03
      7.49063678e-03 0. 7.49063678e-03 0. 7.49063678e-03 7.49063678e-03
      1.49812736e-02 7.49063678e-03 1.49812736e-02 1.49812736e-02
      1.87265910e-02 0. 0. 0. 3.74531839e-03 1.87265910e-02
      2.99625471e-02 7.49063678e-03 1.12359552e-02 7.49063678e-03
      1.12359552e-02 3.74531839e-03 7.49063678e-03 0. 1.87265910e-02
      1.12359552e-02 3.74531839e-03 7.49063678e-03 3.74531839e-03
      3.74531839e-03 1.87265910e-02 1.87265910e-02 3.74531839e-03
      1.12359552e-02 1.12359552e-02 3.74531839e-03 3.74531839e-03
      7.49063678e-03 7.49063678e-03 3.74531839e-03 7.49063678e-03
      1.12359552e-02</_>
    <_>
      2.44977931e-03 1.12689855e-02 1.51886325e-02 6.85938261e-03
      1.27388528e-02 2.49877498e-02 8.81920569e-03 6.36942638e-03
      1.95982354e-03 2.30279267e-02 1.22488970e-02 6.85938261e-03
      9.79911722e-03 1.42087210e-02 2.93973531e-03 6.36942638e-03
      1.22488970e-02 1.95982354e-03 1.95982344e-02 4.89955861e-03
      1.12689855e-02 8.81920569e-03 5.87947061e-03 2.00881921e-02
      2.44977931e-03 4.89955861e-03 6.36942638e-03 1.12689855e-02
      4.89955861e-03 6.85938261e-03 9.30916145e-03 6.36942638e-03
      1.76384114e-02 1.07790297e-02 7.34933838e-03 7.83929415e-03
      6.36942638e-03 8.32924992e-03 1.51886325e-02 1.56785883e-02
      1.07790297e-02 6.36942638e-03 1.37187652e-02 2.15580594e-02
      1.22488970e-02 1.17589412e-02 8.32924992e-03 3.91964708e-03
      4.40960284e-03 9.79911722e-03 1.17589412e-02 7.34933838e-03
      5.38951484e-03 7.83929415e-03 1.12689855e-02 9.30916145e-03
      6.85938261e-03 3.42969131e-03 1.32288085e-02 6.85938261e-03
      2.93973531e-03 5.87947061e-03 9.79911722e-03 1.12689855e-02
      9.79911722e-03 1.32288085e-02 1.12689855e-02 9.79911722e-03
      1.91082787e-02 2.44977931e-03 6.85938261e-03 2.64576171e-02
      1.71484556e-02 7.83929415e-03 1.91082787e-02 2.93973531e-03
      1.95982354e-03 1.12689855e-02 1.71484556e-02 1.12689855e-02
      8.81920569e-03 1.02890739e-02 2.79274862e-02 7.34933838e-03
      1.22488970e-02 1.12689855e-02 8.81920569e-03 5.38951484e-03
      1.51886325e-02 1.76384114e-02 1.37187652e-02 1.86183229e-02
      6.85938261e-03 7.83929415e-03 4.89955861e-03 4.40960284e-03
      7.83929415e-03 7.34933838e-03 5.87947061e-03 1.46986765e-03</_>
    <_>
      1.06951874e-02 5.34759369e-03 3.56506230e-03 0. 5.34759369e-03
      2.31729057e-02 0. 3.56506230e-03 3.56506230e-03 5.16934022e-02
      5.34759369e-03 1.24777183e-02 1.42602492e-02 8.91265552e-03 0.
      1.42602492e-02 7.13012461e-03 7.13012461e-03 1.78253110e-02
      1.06951874e-02 1.06951874e-02 2.13903747e-02 8.91265552e-03
      2.13903747e-02 0. 7.13012461e-03 3.56506230e-03 1.06951874e-02
      1.78253115e-03 5.34759369e-03 1.96078420e-02 0. 1.42602492e-02
      1.42602492e-02 5.34759369e-03 3.56506230e-03 1.06951874e-02
      1.24777183e-02 7.13012461e-03 1.78253110e-02 1.06951874e-02
      2.13903747e-02 5.34759369e-03 4.45632786e-02 7.13012461e-03
      1.24777183e-02 0. 3.56506230e-03 5.34759369e-03 3.56506230e-03 0.
      0. 3.56506230e-03 5.34759369e-03 1.42602492e-02 1.78253115e-03
      1.96078420e-02 1.78253115e-03 3.56506230e-03 3.38680930e-02
      1.78253115e-03 1.06951874e-02 2.13903747e-02 5.34759369e-03
      1.06951874e-02 5.34759369e-03 5.34759369e-03 3.56506230e-03
      7.13012461e-03 2.31729057e-02 4.81283404e-02 5.34759369e-03
      1.96078420e-02 3.56506230e-03 3.56506230e-03 5.34759369e-03
      1.78253115e-03 3.56506230e-03 7.13012461e-03 7.13012461e-03 0.
      4.27807495e-02 4.45632786e-02 0. 8.91265552e-03 7.13012461e-03
      1.06951874e-02 7.13012461e-03 0. 1.24777183e-02 1.24777183e-02
      8.91265552e-03 7.13012461e-03 1.42602492e-02 1.78253115e-03
      1.06951874e-02 5.34759369e-03 1.78253115e-03 3.56506230e-03
      1.78253115e-03</_>
    <_>
      1.10701108e-02 9.36701708e-03 4.25773486e-03 7.09622493e-03
      1.37666762e-02 5.96082862e-03 5.10928174e-03 6.52852654e-03
      7.80584710e-03 7.23814918e-03 1.60374679e-02 1.27732046e-02
      8.94124340e-03 6.95430022e-03 1.00766392e-02 1.27732046e-02
      6.38660230e-03 8.79931822e-03 7.80584710e-03 8.23162030e-03
      5.81890438e-03 1.00766392e-02 5.67697966e-03 2.01532785e-02
      8.94124340e-03 9.79278982e-03 9.50894132e-03 1.47601478e-02
      6.95430022e-03 9.65086557e-03 6.67045126e-03 9.50894132e-03
      8.79931822e-03 8.37354548e-03 5.25120646e-03 1.75986364e-02
      1.36247519e-02 1.40505247e-02 1.71728637e-02 1.40505247e-02
      1.20635824e-02 1.29151288e-02 9.50894132e-03 2.83848983e-03
      6.24467758e-03 8.08969606e-03 1.27732046e-02 7.23814918e-03
      7.38007389e-03 8.37354548e-03 4.39965911e-03 3.97388590e-03
      1.23474309e-02 7.52199814e-03 1.37666762e-02 1.23474309e-02
      1.51859205e-02 8.08969606e-03 1.54697699e-02 9.22509190e-03
      7.80584710e-03 1.12120351e-02 1.27732046e-02 8.94124340e-03
      1.27732046e-02 1.67470910e-02 8.65739398e-03 5.53505542e-03
      1.07862614e-02 6.67045126e-03 1.07862614e-02 8.08969606e-03
      5.53505542e-03 1.02185635e-02 1.66051667e-02 1.33409025e-02
      1.26312803e-02 9.08316765e-03 7.94777181e-03 1.27732046e-02
      5.39313070e-03 7.94777181e-03 5.10928174e-03 1.34828268e-02
      1.29151288e-02 1.47601478e-02 1.13539593e-02 1.16378088e-02
      9.50894132e-03 8.37354548e-03 1.07862614e-02 1.12120351e-02
      1.14958845e-02 1.06443372e-02 9.50894132e-03 1.24893552e-02
      6.10275334e-03 1.24893552e-02 1.31989783e-02 9.50894132e-03</_>
    <_>
      4.29184549e-03 4.29184549e-03 2.03862656e-02 1.07296137e-03
      1.07296137e-02 3.11158802e-02 1.18025746e-02 1.07296137e-03 0.
      3.75536494e-02 5.36480686e-03 3.21888411e-03 6.43776823e-03
      6.43776823e-03 3.21888411e-03 4.29184549e-03 1.28755365e-02
      3.21888411e-03 1.60944201e-02 2.14592274e-03 1.18025746e-02
      9.65665281e-03 7.51072960e-03 2.68240348e-02 2.14592274e-03
      9.65665281e-03 7.51072960e-03 3.21888411e-03 6.43776823e-03
      3.21888411e-03 2.68240348e-02 4.29184549e-03 9.65665281e-03
      5.36480686e-03 9.65665281e-03 1.07296137e-02 8.58369097e-03
      7.51072960e-03 1.50214592e-02 7.51072960e-03 2.14592274e-02
      1.39484983e-02 7.51072960e-03 4.29184549e-02 7.51072960e-03
      7.51072960e-03 5.36480686e-03 1.07296137e-03 2.14592274e-03
      1.18025746e-02 1.28755365e-02 1.28755365e-02 4.29184549e-03
      1.07296137e-03 9.65665281e-03 1.18025746e-02 9.65665281e-03
      3.21888411e-03 1.18025746e-02 1.28755365e-02 0. 6.43776823e-03
      1.18025746e-02 5.36480686e-03 1.18025746e-02 1.60944201e-02
      1.28755365e-02 1.50214592e-02 2.14592274e-02 2.14592274e-03
      7.51072960e-03 1.18025746e-02 2.78969966e-02 5.36480686e-03
      1.50214592e-02 1.07296137e-03 2.14592274e-03 1.18025746e-02
      1.18025746e-02 1.07296137e-02 1.28755365e-02 1.18025746e-02
      3.54077257e-02 7.51072960e-03 4.29184549e-03 1.50214592e-02
      1.18025746e-02 1.18025746e-02 1.71673819e-02 1.82403438e-02
      7.51072960e-03 1.82403438e-02 2.14592274e-03 3.21888411e-03
      4.29184549e-03 2.14592274e-03 8.58369097e-03 5.36480686e-03 0.
      4.29184549e-03</_>
    <_>
      5.50206332e-03 1.51306745e-02 1.23796426e-02 2.75103166e-03
      1.65061895e-02 8.25309474e-03 1.37551583e-03 5.50206332e-03
      2.47592852e-02 1.78817064e-02 9.62861069e-03 2.75103166e-03
      1.23796426e-02 1.10041266e-02 2.75103166e-03 4.12654737e-03
      9.62861069e-03 1.37551583e-03 1.23796426e-02 2.75103166e-03
      1.37551583e-03 5.50206332e-03 5.50206332e-03 2.61348002e-02
      1.37551583e-03 1.10041266e-02 6.87757926e-03 2.75103166e-03
      1.23796426e-02 9.62861069e-03 1.37551583e-03 1.51306745e-02
      8.25309474e-03 1.23796426e-02 9.62861069e-03 2.06327382e-02
      1.37551585e-02 9.62861069e-03 1.51306745e-02 5.50206332e-03
      1.23796426e-02 5.50206332e-03 1.23796426e-02 5.50206332e-03
      6.87757926e-03 5.50206332e-03 1.65061895e-02 5.50206332e-03
      5.50206332e-03 1.37551585e-02 8.25309474e-03 5.50206332e-03
      6.87757926e-03 1.10041266e-02 1.10041266e-02 2.47592852e-02
      1.10041266e-02 2.75103166e-03 1.65061895e-02 1.37551583e-03
      4.12654737e-03 2.75103166e-03 8.25309474e-03 1.51306745e-02
      1.92572214e-02 9.62861069e-03 8.25309474e-03 5.50206332e-03
      1.37551585e-02 4.12654737e-03 8.25309474e-03 3.30123790e-02
      9.62861069e-03 9.62861069e-03 5.50206332e-03 6.87757926e-03
      9.62861069e-03 1.10041266e-02 1.23796426e-02 2.20082533e-02
      6.87757926e-03 1.37551585e-02 1.23796426e-02 1.23796426e-02
      1.10041266e-02 2.06327382e-02 1.78817064e-02 1.51306745e-02
      1.10041266e-02 2.61348002e-02 6.87757926e-03 1.92572214e-02
      4.12654737e-03 4.12654737e-03 9.62861069e-03 4.12654737e-03
      5.50206332e-03 9.62861069e-03 5.50206332e-03 4.12654737e-03</_>
    <_>
      1.49253728e-02 1.49253728e-02 4.47761193e-02 0. 0. 0.
      1.49253728e-02 1.49253728e-02 0. 0. 2.98507456e-02 0.
      1.49253728e-02 2.98507456e-02 0. 1.49253728e-02 1.49253728e-02 0.
      1.49253728e-02 0. 0. 0. 0. 5.97014911e-02 0. 0. 0. 0.
      1.49253728e-02 0. 1.49253728e-02 1.49253728e-02 0. 4.47761193e-02
      0. 0. 0. 1.49253728e-02 1.49253728e-02 1.49253728e-02 0.
      1.49253728e-02 1.49253728e-02 0. 1.49253728e-02 1.49253728e-02 0.
      0. 0. 0. 1.49253728e-02 2.98507456e-02 0. 0. 1.49253728e-02 0. 0.
      0. 0. 0. 0. 0. 0. 0. 1.49253728e-02 1.49253728e-02 0.
      1.49253728e-02 1.49253728e-02 0. 0. 0. 0. 1.49253728e-02
      1.49253728e-02 0. 1.49253728e-02 2.98507456e-02 5.97014911e-02 0.
      0. 0. 0. 0. 5.97014911e-02 1.49253728e-02 1.49253728e-02
      2.98507456e-02 0. 0. 0. 2.98507456e-02 2.98507456e-02
      2.98507456e-02 0. 0. 2.98507456e-02 0. 0. 2.98507456e-02</_>
    <_>
      2.10970454e-03 3.16455681e-03 1.58227831e-02 6.32911362e-03
      6.32911362e-03 4.00843844e-02 1.79324895e-02 1.05485227e-03 0.
      1.16033750e-02 5.27426135e-03 2.63713077e-02 6.32911362e-03
      2.10970454e-03 2.10970454e-03 2.10970454e-03 4.00843844e-02
      2.10970454e-03 7.38396589e-03 6.32911362e-03 1.16033750e-02
      4.21940908e-03 0. 2.10970454e-03 6.32911362e-03 4.21940908e-03
      8.43881816e-03 2.00421922e-02 0. 3.16455681e-03 0. 9.49367043e-03
      3.16455681e-03 1.05485227e-03 1.89873409e-02 7.38396589e-03
      7.38396589e-03 3.16455681e-03 2.10970454e-03 8.43881816e-03
      8.43881816e-03 2.10970454e-03 3.16455681e-03 3.37552726e-02
      1.47679318e-02 0. 1.79324895e-02 0. 3.16455681e-03 1.79324895e-02
      2.21518986e-02 1.16033750e-02 1.68776363e-02 7.38396589e-03
      3.16455681e-03 5.27426135e-03 2.10970454e-03 0. 1.58227831e-02
      2.10970454e-03 6.32911362e-03 1.05485227e-03 2.10970454e-03
      4.21940908e-03 1.05485227e-03 7.38396589e-03 1.05485227e-02
      1.68776363e-02 7.38396589e-03 4.64134999e-02 3.16455681e-03
      2.53164545e-02 5.16877621e-02 3.16455681e-03 1.16033750e-02
      5.27426135e-03 0. 1.68776363e-02 7.38396589e-03 6.32911362e-03
      3.16455681e-03 2.42616013e-02 9.49367043e-03 1.05485227e-02
      8.43881816e-03 8.43881816e-03 4.21940908e-03 2.32067499e-02
      1.05485227e-02 8.43881816e-03 7.38396589e-03 6.32911362e-03
      3.69198285e-02 2.10970454e-03 1.05485227e-03 1.05485227e-03
      4.74683531e-02 4.21940908e-03 1.79324895e-02 1.68776363e-02</_>
    <_>
      5.12820529e-03 9.52380989e-03 1.31868133e-02 5.12820529e-03
      1.53846154e-02 4.24908437e-02 6.59340667e-03 4.39560460e-03
      1.31868133e-02 2.27106232e-02 9.52380989e-03 5.12820529e-03
      1.09890113e-02 9.52380989e-03 5.86080598e-03 5.12820529e-03
      1.90476198e-02 5.86080598e-03 9.52380989e-03 4.39560460e-03
      1.02564106e-02 1.02564106e-02 0. 1.39194140e-02 5.86080598e-03
      6.59340667e-03 8.79120920e-03 9.52380989e-03 7.32600736e-03
      6.59340667e-03 7.32600736e-03 1.17216120e-02 6.59340667e-03
      1.02564106e-02 1.39194140e-02 1.02564106e-02 8.79120920e-03
      2.93040299e-03 7.32600736e-03 8.79120920e-03 2.93040294e-02
      9.52380989e-03 6.59340667e-03 3.15018333e-02 8.79120920e-03
      8.79120920e-03 3.66300368e-03 4.39560460e-03 6.59340667e-03
      7.32600736e-03 1.46520147e-02 8.05860851e-03 7.32600736e-03
      2.19780230e-03 7.32600736e-03 8.79120920e-03 7.32600736e-03
      3.66300368e-03 6.59340667e-03 7.32600736e-03 5.12820529e-03
      4.39560460e-03 5.12820529e-03 1.39194140e-02 1.09890113e-02
      5.86080598e-03 7.32600736e-03 1.09890113e-02 1.39194140e-02
      6.59340667e-03 5.86080598e-03 2.19780225e-02 1.90476198e-02
      5.86080598e-03 8.05860851e-03 1.90476198e-02 1.46520149e-03
      1.17216120e-02 1.02564106e-02 1.09890113e-02 7.32600736e-03
      2.19780230e-03 2.12454218e-02 1.39194140e-02 7.32600736e-03
      1.90476198e-02 1.53846154e-02 8.79120920e-03 7.32600736e-03
      3.00366301e-02 7.32600736e-03 9.52380989e-03 8.05860851e-03
      1.17216120e-02 1.02564106e-02 4.39560460e-03 1.39194140e-02
      1.09890113e-02 8.79120920e-03 4.39560460e-03</_>
    <_>
      7.10227294e-03 1.13636367e-02 8.52272753e-03 9.58806835e-03
      5.32670459e-03 7.45738670e-03 4.61647753e-03 9.23295505e-03
      4.97159082e-03 1.20738642e-02 1.56250000e-02 8.52272753e-03
      1.27840918e-02 1.70454551e-02 1.56250000e-02 6.74715918e-03
      7.10227294e-03 4.26136376e-03 1.81107968e-02 7.81250000e-03
      1.81107968e-02 1.42045459e-02 9.94318165e-03 1.42045459e-02
      8.87784082e-03 7.45738670e-03 1.20738642e-02 1.38494326e-02
      6.03693211e-03 1.34943184e-02 1.27840918e-02 1.70454551e-02
      1.52698867e-02 7.10227294e-03 8.16761423e-03 5.68181835e-03
      8.16761423e-03 7.45738670e-03 9.94318165e-03 8.16761423e-03
      1.17187500e-02 1.56250000e-02 1.06534092e-02 6.74715918e-03
      8.87784082e-03 9.23295505e-03 1.20738642e-02 2.48579541e-03
      4.61647753e-03 1.02982959e-02 1.17187500e-02 3.55113647e-03
      8.87784082e-03 9.23295505e-03 1.10085234e-02 7.45738670e-03
      1.66903418e-02 5.68181835e-03 5.32670459e-03 1.31392051e-02
      9.23295505e-03 1.17187500e-02 9.58806835e-03 1.17187500e-02
      9.94318165e-03 1.02982959e-02 1.63352285e-02 7.81250000e-03
      1.20738642e-02 5.68181835e-03 9.23295505e-03 6.39204588e-03
      1.17187500e-02 1.34943184e-02 7.81250000e-03 7.45738670e-03
      1.06534092e-02 8.87784082e-03 1.45596592e-02 9.23295505e-03
      5.68181835e-03 9.23295505e-03 1.45596592e-02 3.19602294e-03
      1.31392051e-02 1.13636367e-02 1.81107968e-02 6.74715918e-03
      7.10227294e-03 8.87784082e-03 1.06534092e-02 1.49147734e-02
      1.02982959e-02 1.17187500e-02 2.13068188e-03 9.58806835e-03
      9.94318165e-03 1.49147734e-02 7.45738670e-03 9.58806835e-03</_>
    <_>
      4.50559566e-03 1.08521879e-02 5.42609394e-03 6.00746088e-03
      2.33031344e-02 6.44348655e-03 1.04646096e-02 6.39503915e-03
      8.23603536e-04 1.22571578e-02 1.89428814e-02 6.05590828e-03
      1.19180270e-02 1.36136813e-02 4.99006826e-03 1.48248635e-02
      4.74783219e-03 7.21864263e-03 8.04224610e-03 5.42609394e-03
      5.03851566e-03 5.76522481e-03 6.44348655e-03 2.24310849e-02
      2.76149414e-03 7.89690390e-03 3.87578132e-03 4.99006826e-03
      9.25342739e-03 3.48820304e-03 8.28448217e-03 3.05217784e-03
      1.46795213e-02 1.18211331e-02 3.63354501e-03 2.84385458e-02
      1.54062305e-02 1.87975392e-02 2.06869822e-02 2.11714543e-02
      1.24993948e-02 6.83106435e-03 9.64100566e-03 1.20149218e-02
      1.10459765e-02 1.16273435e-02 1.27900783e-02 6.58882828e-03
      8.38137697e-03 1.14335548e-02 4.11801739e-03 8.91429652e-03
      4.69938479e-03 1.50186522e-03 1.36621287e-02 1.56484675e-02
      1.77801456e-02 6.44348655e-03 2.36907136e-02 7.12174829e-03
      2.61615240e-03 1.58907026e-02 1.45341801e-02 1.30807620e-03
      1.29838670e-02 1.73441209e-02 5.81367174e-03 8.28448217e-03
      1.86521970e-02 2.56770500e-03 1.40497065e-03 6.00746088e-03
      6.68572262e-03 3.43975588e-03 1.74894631e-02 1.50186522e-03
      1.35652348e-03 1.32745504e-02 1.03192674e-02 1.42919431e-02
      7.89690390e-03 2.03478523e-03 1.29354196e-02 2.28186622e-02
      2.15590335e-02 1.68596487e-02 5.47454087e-03 2.78571770e-02
      9.25342739e-03 1.24509474e-02 1.39528122e-02 1.91851165e-02
      6.58882828e-03 1.48248635e-02 1.55031250e-03 5.08696306e-03
      4.84472653e-03 3.43975588e-03 4.84472653e-03 4.16646479e-03</_>
    <_>
      7.37618515e-03 8.42992589e-03 1.05374074e-02 5.26870368e-03
      8.42992589e-03 3.16122212e-02 5.26870368e-03 8.42992589e-03
      9.48366709e-03 3.37197036e-02 3.16122221e-03 7.37618515e-03
      1.05374074e-02 1.15911476e-02 8.42992589e-03 6.32244442e-03
      1.58061106e-02 2.10748147e-03 1.05374074e-02 9.48366709e-03
      7.37618515e-03 7.37618515e-03 5.26870368e-03 2.42360365e-02
      1.05374074e-03 3.16122221e-03 1.36986300e-02 3.16122221e-03
      3.16122221e-03 4.21496294e-03 7.37618515e-03 8.42992589e-03
      1.15911476e-02 1.05374074e-03 9.48366709e-03 1.05374074e-02
      6.32244442e-03 1.26448888e-02 1.05374074e-02 9.48366709e-03
      2.84509994e-02 1.26448888e-02 1.26448888e-02 8.42992589e-03
      1.05374074e-02 7.37618515e-03 1.79135930e-02 3.16122221e-03
      1.05374074e-03 1.36986300e-02 6.32244442e-03 1.58061106e-02
      8.42992589e-03 3.16122221e-03 5.26870368e-03 1.15911476e-02
      9.48366709e-03 3.16122221e-03 5.26870368e-03 7.37618515e-03
      3.16122221e-03 1.05374074e-02 1.15911476e-02 7.37618515e-03
      1.15911476e-02 1.36986300e-02 7.37618515e-03 6.32244442e-03
      1.26448888e-02 0. 1.15911476e-02 1.15911476e-02 9.48366709e-03
      6.32244442e-03 9.48366709e-03 1.36986300e-02 1.05374074e-03
      1.79135930e-02 9.48366709e-03 1.47523703e-02 1.47523703e-02
      9.48366709e-03 2.00210735e-02 1.15911476e-02 1.68598518e-02
      1.05374074e-02 1.15911476e-02 1.15911476e-02 1.79135930e-02
      2.63435189e-02 1.36986300e-02 2.10748147e-02 5.26870368e-03
      4.21496294e-03 1.05374074e-02 5.26870368e-03 1.26448888e-02
      1.36986300e-02 6.32244442e-03 1.05374074e-03</_>
    <_>
      1.38888890e-02 1.26262624e-02 1.26262624e-02 5.05050505e-03
      5.05050505e-03 1.64141413e-02 1.51515156e-02 7.57575780e-03
      5.05050505e-03 1.51515156e-02 3.78787890e-03 7.57575780e-03
      1.64141413e-02 1.51515156e-02 2.52525252e-03 1.01010101e-02
      1.38888890e-02 3.78787890e-03 3.78787890e-03 1.01010101e-02
      7.57575780e-03 1.26262624e-02 2.52525252e-03 2.27272734e-02
      7.57575780e-03 5.05050505e-03 5.05050505e-03 7.57575780e-03
      8.83838348e-03 1.01010101e-02 2.52525252e-03 5.05050505e-03
      6.31313119e-03 1.01010101e-02 6.31313119e-03 1.38888890e-02
      1.13636367e-02 6.31313119e-03 5.05050505e-03 8.83838348e-03
      1.76767670e-02 1.01010101e-02 6.31313119e-03 8.83838348e-03
      1.26262624e-02 1.01010101e-02 2.77777780e-02 1.26262626e-03
      2.52525252e-03 1.26262624e-02 6.31313119e-03 5.05050505e-03
      6.31313119e-03 6.31313119e-03 1.26262624e-02 1.01010101e-02
      1.13636367e-02 2.52525252e-03 1.13636367e-02 7.57575780e-03 0.
      1.26262626e-03 1.13636367e-02 1.64141413e-02 1.76767670e-02
      1.38888890e-02 5.05050505e-03 1.76767670e-02 1.89393945e-02
      5.05050505e-03 7.57575780e-03 2.39898991e-02 3.78787890e-03
      7.57575780e-03 1.13636367e-02 5.05050505e-03 1.26262626e-03
      1.64141413e-02 8.83838348e-03 1.26262624e-02 1.51515156e-02
      5.05050505e-03 1.76767670e-02 1.38888890e-02 1.51515156e-02
      1.89393945e-02 8.83838348e-03 2.02020202e-02 7.57575780e-03
      1.51515156e-02 1.26262624e-02 1.89393945e-02 7.57575780e-03
      7.57575780e-03 2.02020202e-02 6.31313119e-03 6.31313119e-03
      1.76767670e-02 2.52525252e-03 6.31313119e-03</_>
    <_>
      0. 2.73972601e-02 0. 0. 2.73972601e-02 0. 1.36986300e-02 0. 0.
      1.36986300e-02 1.36986300e-02 0. 0. 2.73972601e-02 0.
      1.36986300e-02 1.36986300e-02 0. 1.36986300e-02 1.36986300e-02
      1.36986300e-02 0. 1.36986300e-02 1.36986300e-02 0. 2.73972601e-02
      0. 0. 0. 1.36986300e-02 2.73972601e-02 0. 0. 1.36986300e-02 0.
      2.73972601e-02 2.73972601e-02 0. 0. 1.36986300e-02 1.36986300e-02
      0. 1.36986300e-02 0. 2.73972601e-02 0. 1.36986300e-02 0. 0.
      1.36986300e-02 0. 5.47945201e-02 0. 0. 0. 2.73972601e-02
      1.36986300e-02 1.36986300e-02 0. 1.36986300e-02 0. 0.
      1.36986300e-02 0. 1.36986300e-02 0. 0. 0. 1.36986300e-02 0.
      1.36986300e-02 4.10958901e-02 0. 0. 0. 0. 0. 2.73972601e-02 0.
      2.73972601e-02 1.36986300e-02 0. 2.73972601e-02 1.36986300e-02
      5.47945201e-02 0. 0. 0. 2.73972601e-02 2.73972601e-02
      1.36986300e-02 4.10958901e-02 1.36986300e-02 1.36986300e-02 0. 0.
      1.36986300e-02 0. 1.36986300e-02 0.</_>
    <_>
      4.35049040e-03 1.62377469e-02 5.88235352e-03 5.26960799e-03
      2.13848054e-02 2.29166672e-02 1.38480403e-02 6.67892210e-03
      1.65441190e-03 8.82352982e-03 1.66666675e-02 4.22794139e-03
      1.24387266e-02 1.29901972e-02 6.31127506e-03 1.67892165e-02
      4.77941195e-03 6.00490253e-03 9.55882389e-03 4.96323546e-03
      4.65686293e-03 3.92156886e-03 3.98284337e-03 1.81985311e-02
      1.53186289e-03 7.35294167e-03 2.75735301e-03 5.69852954e-03
      6.49509858e-03 2.14460795e-03 7.04656914e-03 4.59558843e-03
      1.42769618e-02 9.80392192e-03 5.57598053e-03 2.38357857e-02
      1.52573539e-02 1.93627458e-02 1.93627458e-02 2.02205889e-02
      1.18872561e-02 4.28921590e-03 1.51348049e-02 7.78186321e-03
      1.08455885e-02 9.06862784e-03 1.69117656e-02 6.12745155e-03
      8.82352982e-03 1.12745101e-02 7.29166716e-03 1.12132356e-02
      5.45343151e-03 6.74019626e-04 1.25000011e-02 1.22549031e-02
      1.66053940e-02 5.26960799e-03 2.54289228e-02 7.29166716e-03
      1.89950992e-03 1.68504920e-02 1.91789232e-02 2.20588245e-03
      1.26838246e-02 1.51960794e-02 4.77941195e-03 1.06004905e-02
      1.95465703e-02 1.22549024e-03 1.77696091e-03 1.21323541e-02
      6.37254957e-03 2.20588245e-03 1.53186284e-02 2.94117676e-03
      1.34803925e-03 1.26225501e-02 9.19117685e-03 1.15196081e-02
      9.98774543e-03 2.63480400e-03 9.12990235e-03 2.19362751e-02
      1.99142173e-02 1.56862754e-02 5.51470602e-03 2.01593153e-02
      1.43995108e-02 1.13357846e-02 2.11397074e-02 1.94240212e-02
      4.65686293e-03 1.71568636e-02 2.69607850e-03 4.04411787e-03
      6.00490253e-03 2.14460795e-03 4.16666688e-03 4.28921590e-03</_>
    <_>
      5.72737725e-03 6.30011503e-03 8.59106611e-03 8.01832788e-03
      1.66093931e-02 4.35280651e-02 9.73654073e-03 4.00916394e-03
      7.44559010e-03 2.69186720e-02 1.20274918e-02 8.01832788e-03
      1.54639184e-02 9.16380342e-03 1.71821308e-03 4.00916394e-03
      4.58190171e-03 2.29095086e-03 6.87285233e-03 1.08820163e-02
      4.00916394e-03 6.30011503e-03 5.72737714e-04 1.43184429e-02
      3.43642617e-03 6.87285233e-03 4.58190171e-03 5.72737725e-03
      9.73654073e-03 5.15463948e-03 6.87285233e-03 9.73654073e-03
      8.59106611e-03 4.00916394e-03 8.01832788e-03 1.66093931e-02
      8.59106611e-03 1.14547545e-02 1.37457047e-02 1.54639184e-02
      2.80641485e-02 9.16380342e-03 6.87285233e-03 8.59106611e-03
      1.20274918e-02 3.43642617e-03 1.37457047e-02 2.86368863e-03
      2.29095086e-03 1.03092790e-02 8.01832788e-03 1.20274918e-02
      9.16380342e-03 1.71821308e-03 6.87285233e-03 9.73654073e-03
      1.48911802e-02 2.86368863e-03 1.31729674e-02 2.29095086e-03
      5.72737725e-03 6.87285233e-03 8.59106611e-03 2.11912952e-02
      1.89003441e-02 8.01832788e-03 4.58190171e-03 1.14547545e-02
      1.20274918e-02 8.01832788e-03 1.26002301e-02 1.94730815e-02
      1.08820163e-02 3.43642617e-03 9.16380342e-03 2.11912952e-02
      2.86368863e-03 1.48911802e-02 8.59106611e-03 8.01832788e-03
      6.87285233e-03 1.20274918e-02 1.94730815e-02 1.37457047e-02
      1.20274918e-02 1.71821322e-02 9.16380342e-03 1.14547545e-02
      9.16380342e-03 1.66093931e-02 6.30011503e-03 1.31729674e-02
      1.03092790e-02 1.03092790e-02 1.43184429e-02 6.87285233e-03
      9.16380342e-03 2.23367717e-02 3.43642617e-03 5.72737725e-03</_>
    <_>
      3.08451569e-03 8.63664411e-03 9.25354660e-03 4.93522501e-03
      1.72732882e-02 8.01974069e-03 3.45465764e-02 3.08451569e-03
      1.23380625e-03 1.54225780e-02 9.25354660e-03 4.93522501e-03
      1.97409000e-02 1.35718687e-02 1.17211593e-02 6.16903137e-03
      1.85070932e-02 3.08451569e-03 2.71437373e-02 4.31832206e-03
      1.54225780e-02 4.93522501e-03 0. 8.01974069e-03 6.16903126e-04
      4.31832206e-03 1.85070932e-03 1.85070932e-03 6.78593433e-03
      2.46761250e-03 1.17211593e-02 2.46761250e-03 2.03578025e-02
      3.70141864e-03 2.34423187e-02 1.91239975e-02 4.31832206e-03
      6.16903137e-03 1.41887721e-02 1.04873534e-02 6.78593433e-03
      3.70141864e-03 6.78593433e-03 1.48056746e-02 2.22085118e-02
      6.16903137e-03 4.00987044e-02 1.23380625e-03 8.01974069e-03
      2.09747069e-02 1.54225780e-02 1.91239975e-02 4.31832206e-03
      6.16903126e-04 1.23380627e-02 6.78593433e-03 4.31832206e-03
      3.70141864e-03 8.01974069e-03 8.01974069e-03 1.85070932e-03
      6.16903137e-03 8.01974069e-03 3.08451569e-03 9.25354660e-03
      6.16903137e-03 2.03578025e-02 1.48056746e-02 1.48056746e-02
      4.31832206e-03 2.46761250e-03 8.01974069e-03 1.17211593e-02
      3.08451569e-03 6.78593433e-03 6.16903126e-04 7.40283728e-03
      2.89944466e-02 2.59099305e-02 1.35718687e-02 1.17211593e-02
      3.70141864e-03 1.41887721e-02 1.29549652e-02 2.22085118e-02
      1.04873534e-02 2.22085118e-02 1.11042559e-02 1.85070932e-02
      3.70141864e-03 7.40283728e-03 2.22085118e-02 4.31832206e-03
      8.63664411e-03 1.23380625e-03 1.85070932e-03 1.48056746e-02
      3.08451569e-03 3.08451569e-03 5.55212796e-03</_>
    <_>
      7.31261447e-03 5.48446085e-03 3.65630724e-03 7.31261447e-03
      1.46252289e-02 0. 9.14076809e-03 7.31261447e-03 1.82815362e-02
      2.01096907e-02 1.46252289e-02 1.82815362e-03 1.64533816e-02
      1.64533816e-02 5.48446085e-03 5.48446085e-03 1.64533816e-02
      7.31261447e-03 1.27970753e-02 1.27970753e-02 7.31261447e-03
      2.19378434e-02 5.48446085e-03 2.37659961e-02 1.82815362e-03
      5.48446085e-03 0. 5.48446085e-03 3.65630724e-03 7.31261447e-03
      9.14076809e-03 5.48446085e-03 1.64533816e-02 1.09689217e-02
      1.09689217e-02 9.14076809e-03 9.14076809e-03 7.31261447e-03
      7.31261447e-03 1.82815362e-03 2.01096907e-02 7.31261447e-03
      1.09689217e-02 0. 9.14076809e-03 1.64533816e-02 7.31261447e-03 0.
      3.65630724e-03 7.31261447e-03 1.82815362e-03 1.82815362e-03
      3.65630724e-03 5.48446085e-03 3.65630724e-03 9.14076809e-03
      2.19378434e-02 1.82815362e-03 2.37659961e-02 9.14076809e-03
      1.82815362e-03 1.46252289e-02 2.37659961e-02 9.14076809e-03
      2.37659961e-02 9.14076809e-03 1.27970753e-02 9.14076809e-03
      2.19378434e-02 1.82815362e-03 7.31261447e-03 2.37659961e-02 0.
      7.31261447e-03 1.64533816e-02 9.14076809e-03 3.65630724e-03
      3.65630724e-03 1.09689217e-02 2.55941506e-02 1.82815362e-03
      9.14076809e-03 7.31261447e-03 1.64533816e-02 3.65630724e-03
      2.55941506e-02 1.82815362e-03 1.27970753e-02 1.82815362e-02
      1.64533816e-02 2.55941506e-02 3.10786106e-02 3.65630724e-03
      1.09689217e-02 3.65630724e-03 5.48446085e-03 5.48446085e-03
      7.31261447e-03 1.09689217e-02 9.14076809e-03</_>
    <_>
      4.31034481e-03 1.29310340e-02 1.29310340e-02 6.46551698e-03
      1.07758623e-02 6.46551698e-03 2.80172415e-02 8.62068962e-03
      2.15517245e-02 1.29310340e-02 6.46551698e-03 6.46551698e-03
      2.15517245e-02 1.93965510e-02 1.07758623e-02 6.46551698e-03
      1.07758623e-02 0. 8.62068962e-03 2.15517241e-03 4.31034481e-03
      1.29310340e-02 8.62068962e-03 1.72413792e-02 0. 6.46551698e-03
      4.31034481e-03 6.46551698e-03 2.15517241e-03 2.15517241e-03
      1.07758623e-02 4.31034481e-03 8.62068962e-03 2.15517245e-02
      6.46551698e-03 1.29310340e-02 1.72413792e-02 1.07758623e-02
      8.62068962e-03 8.62068962e-03 8.62068962e-03 1.50862066e-02
      4.31034481e-03 1.29310340e-02 1.29310340e-02 4.31034481e-03
      6.46551698e-03 0. 4.31034481e-03 1.50862066e-02 6.46551698e-03
      6.46551698e-03 8.62068962e-03 0. 1.29310340e-02 1.72413792e-02
      1.93965510e-02 2.15517241e-03 1.50862066e-02 6.46551698e-03 0.
      6.46551698e-03 6.46551698e-03 2.58620679e-02 4.31034481e-03
      1.72413792e-02 1.07758623e-02 3.01724132e-02 2.37068962e-02 0.
      4.31034481e-03 6.46551698e-03 6.46551698e-03 2.15517241e-03
      1.50862066e-02 6.46551698e-03 0. 1.72413792e-02 8.62068962e-03
      2.80172415e-02 6.46551698e-03 8.62068962e-03 1.72413792e-02
      1.29310340e-02 1.93965510e-02 1.07758623e-02 4.31034481e-03
      8.62068962e-03 1.50862066e-02 2.15517241e-03 4.31034481e-03
      2.37068962e-02 0. 1.29310340e-02 3.23275849e-02 8.62068962e-03 0.
      1.50862066e-02 2.15517241e-03 4.31034481e-03</_>
    <_>
      3.78548889e-03 8.20189249e-03 6.94006309e-03 1.32492110e-02
      9.46372189e-03 2.77602524e-02 2.01892741e-02 7.57097779e-03
      1.89274445e-03 1.70347001e-02 8.20189249e-03 1.00946371e-02
      1.76656153e-02 1.07255522e-02 5.67823322e-03 1.07255522e-02
      1.26182958e-02 4.41640383e-03 1.26182958e-02 1.13564664e-02
      6.94006309e-03 4.41640383e-03 4.41640383e-03 1.51419556e-02
      3.78548889e-03 4.41640383e-03 2.52365926e-03 5.04731853e-03
      6.94006309e-03 2.52365926e-03 1.19873816e-02 8.20189249e-03
      1.57728698e-02 8.83280765e-03 8.83280765e-03 1.70347001e-02
      6.30914792e-03 6.30914792e-03 1.00946371e-02 1.19873816e-02
      1.57728698e-02 6.94006309e-03 8.83280765e-03 1.38801262e-02
      1.26182958e-02 6.30914792e-03 1.64037850e-02 3.78548889e-03
      3.78548889e-03 1.64037850e-02 1.07255522e-02 1.64037850e-02
      9.46372189e-03 7.57097779e-03 5.04731853e-03 1.00946371e-02
      9.46372189e-03 4.41640383e-03 9.46372189e-03 1.45110404e-02
      5.04731853e-03 6.30914792e-03 8.83280765e-03 4.41640383e-03
      6.30914792e-03 8.20189249e-03 1.00946371e-02 1.70347001e-02
      2.27129329e-02 5.04731853e-03 8.83280765e-03 1.95583589e-02
      6.94006309e-03 2.52365926e-03 1.32492110e-02 6.94006309e-03
      1.26182963e-03 1.51419556e-02 1.07255522e-02 9.46372189e-03
      1.82965305e-02 3.15457396e-03 2.08201893e-02 1.19873816e-02
      1.07255522e-02 8.20189249e-03 8.20189249e-03 1.13564664e-02
      2.08201893e-02 1.70347001e-02 1.19873816e-02 2.46056784e-02
      7.57097779e-03 1.07255522e-02 6.30914792e-03 5.04731853e-03
      1.13564664e-02 6.94006309e-03 5.67823322e-03 6.94006309e-03</_>
    <_>
      8.18732567e-03 8.02357960e-03 3.99541520e-02 7.20484694e-03
      3.60242347e-03 6.71360735e-03 1.63746520e-03 9.33355186e-03
      9.16980486e-03 5.40363509e-03 3.60242347e-03 4.09366284e-03
      1.26084816e-02 7.69608654e-03 1.09710163e-02 6.22236775e-03
      1.30997216e-02 9.00605880e-03 1.34272147e-02 9.00605880e-03
      1.35909608e-02 7.53234001e-03 5.73112816e-03 6.87735388e-03
      1.73571315e-02 8.02357960e-03 1.75208766e-02 1.55559191e-02
      1.27722286e-02 2.66906824e-02 7.36859348e-03 1.34272147e-02
      8.35107267e-03 1.44096939e-02 9.00605880e-03 3.60242347e-03
      8.02357960e-03 4.42115590e-03 5.40363509e-03 3.27493041e-03
      2.45619775e-03 7.85983261e-03 9.33355186e-03 2.57082041e-02
      8.84231180e-03 1.26084816e-02 4.09366284e-03 4.42115590e-03
      6.54986082e-03 9.66104493e-03 1.49009330e-02 6.54986082e-03
      9.16980486e-03 2.55444571e-02 9.98853799e-03 8.84231180e-03
      5.56738162e-03 1.26084816e-02 4.91239550e-03 8.84231180e-03
      1.44096939e-02 6.71360735e-03 4.74864896e-03 1.30997216e-02
      9.33355186e-03 1.22809885e-02 1.32634677e-02 5.89487469e-03
      9.82479099e-03 2.01408211e-02 1.39184538e-02 9.66104493e-03
      2.52169631e-02 2.32520048e-02 6.71360735e-03 6.05862122e-03
      1.67021453e-02 1.26084816e-02 1.52284261e-02 8.51481874e-03
      6.87735388e-03 9.98853799e-03 8.35107267e-03 4.09366284e-03
      2.61994428e-03 5.07614203e-03 1.37547078e-02 3.60242347e-03
      7.69608654e-03 2.45619775e-03 3.27493041e-03 1.16260024e-02
      4.09366284e-03 5.40363509e-03 1.47371870e-02 1.01522841e-02
      1.14622563e-02 1.52284261e-02 8.51481874e-03 7.04110041e-03</_>
    <_>
      8.57449044e-03 9.64630209e-03 6.43086806e-03 6.43086806e-03
      6.43086806e-03 9.64630209e-03 5.35905641e-03 1.28617361e-02
      1.07181128e-02 2.03644149e-02 9.64630209e-03 5.35905641e-03
      8.57449044e-03 1.71489809e-02 5.35905641e-03 8.57449044e-03
      9.64630209e-03 1.07181130e-03 1.50053585e-02 4.28724522e-03
      1.39335468e-02 1.39335468e-02 2.14362261e-03 1.39335468e-02
      4.28724522e-03 7.50267925e-03 5.35905641e-03 1.50053585e-02
      6.43086806e-03 5.35905641e-03 9.64630209e-03 1.39335468e-02
      1.60771701e-02 5.35905641e-03 7.50267925e-03 7.50267925e-03
      1.17899245e-02 7.50267925e-03 8.57449044e-03 8.57449044e-03
      1.82207916e-02 2.14362256e-02 1.71489809e-02 7.50267925e-03
      1.60771701e-02 1.28617361e-02 2.14362261e-03 4.28724522e-03
      7.50267925e-03 7.50267925e-03 8.57449044e-03 6.43086806e-03
      1.39335468e-02 1.28617361e-02 1.07181128e-02 8.57449044e-03
      6.43086806e-03 5.35905641e-03 3.21543403e-03 8.57449044e-03
      3.21543403e-03 9.64630209e-03 1.60771701e-02 1.71489809e-02
      1.60771701e-02 1.50053585e-02 1.50053585e-02 9.64630209e-03
      1.71489809e-02 6.43086806e-03 5.35905641e-03 1.50053585e-02
      1.17899245e-02 9.64630209e-03 9.64630209e-03 3.21543403e-03
      3.21543403e-03 1.39335468e-02 1.50053585e-02 1.71489809e-02
      6.43086806e-03 3.21543403e-03 2.89389044e-02 1.28617361e-02
      7.50267925e-03 1.60771701e-02 1.39335468e-02 1.07181128e-02
      1.60771701e-02 8.57449044e-03 1.60771701e-02 1.60771701e-02
      4.28724522e-03 2.14362261e-03 7.50267925e-03 8.57449044e-03
      6.43086806e-03 1.39335468e-02 6.43086806e-03 0.</_>
    <_>
      1.56521741e-02 1.39130438e-02 3.47826094e-03 5.21739153e-03
      5.21739153e-03 1.73913047e-03 0. 3.47826094e-03 1.21739134e-02
      5.21739153e-03 2.26086956e-02 6.95652189e-03 5.21739153e-03
      5.21739153e-03 6.95652189e-03 1.56521741e-02 0. 8.69565271e-03
      1.73913047e-03 1.04347831e-02 3.47826094e-03 4.17391323e-02
      4.86956537e-02 3.82608697e-02 1.91304348e-02 8.69565271e-03 0.
      5.21739153e-03 1.73913047e-03 3.65217403e-02 1.39130438e-02
      5.21739153e-03 1.39130438e-02 5.21739153e-03 5.21739153e-03
      1.56521741e-02 1.39130438e-02 1.21739134e-02 2.95652188e-02
      6.95652189e-03 8.69565271e-03 3.13043483e-02 1.39130438e-02
      1.73913047e-03 3.47826094e-03 8.69565271e-03 3.47826094e-03
      3.47826094e-03 1.73913047e-03 8.69565271e-03 6.95652189e-03
      5.21739153e-03 1.73913047e-03 5.21739153e-03 8.69565271e-03
      8.69565271e-03 3.65217403e-02 6.95652189e-03 1.04347831e-02
      8.69565271e-03 1.04347831e-02 1.73913054e-02 1.91304348e-02
      1.73913054e-02 5.21739153e-03 1.21739134e-02 1.04347831e-02
      3.47826094e-03 6.95652189e-03 3.47826094e-03 2.60869563e-02
      1.73913047e-03 0. 2.26086956e-02 8.69565271e-03 5.21739153e-03
      8.69565271e-03 3.47826094e-03 5.21739153e-03 6.95652189e-03 0. 0.
      6.95652189e-03 6.95652189e-03 5.21739153e-03 1.21739134e-02
      8.69565271e-03 6.95652189e-03 6.95652189e-03 1.04347831e-02
      1.56521741e-02 6.95652189e-03 1.73913047e-03 1.73913054e-02
      3.47826094e-03 1.21739134e-02 0. 1.04347831e-02 8.69565271e-03
      5.21739153e-03</_>
    <_>
      0. 4.42477874e-03 1.99115053e-02 6.63716812e-03 1.32743362e-02
      2.43362822e-02 4.42477874e-03 2.21238937e-03 0. 5.53097352e-02
      8.84955749e-03 8.84955749e-03 2.21238937e-03 1.32743362e-02
      8.84955749e-03 1.32743362e-02 8.84955749e-03 2.21238937e-03 0. 0.
      2.21238937e-03 1.10619469e-02 2.21238937e-03 2.43362822e-02
      2.21238937e-03 4.42477874e-03 1.10619469e-02 2.21238937e-03
      8.84955749e-03 6.63716812e-03 6.63716812e-03 8.84955749e-03
      8.84955749e-03 1.10619469e-02 1.32743362e-02 1.32743362e-02
      1.54867256e-02 6.63716812e-03 1.32743362e-02 1.32743362e-02
      1.32743362e-02 6.63716812e-03 1.10619469e-02 7.74336308e-02
      1.76991150e-02 1.10619469e-02 6.63716812e-03 0. 2.21238937e-03
      4.42477874e-03 8.84955749e-03 1.10619469e-02 4.42477874e-03
      8.84955749e-03 1.10619469e-02 1.10619469e-02 4.42477874e-03
      6.63716812e-03 1.54867256e-02 2.87610628e-02 4.42477874e-03
      8.84955749e-03 4.42477874e-03 6.63716812e-03 4.42477874e-03
      1.54867256e-02 4.42477874e-03 1.54867256e-02 1.54867256e-02
      1.54867256e-02 2.21238937e-03 6.63716812e-03 1.99115053e-02
      4.42477874e-03 8.84955749e-03 0. 0. 2.21238937e-03 4.42477874e-03
      1.99115053e-02 4.42477874e-03 2.21238937e-03 2.87610628e-02
      1.54867256e-02 6.63716812e-03 4.42477874e-03 1.76991150e-02
      8.84955749e-03 6.63716812e-03 3.09734512e-02 1.54867256e-02
      6.63716812e-03 8.84955749e-03 1.32743362e-02 0. 0. 6.63716812e-03
      4.42477874e-03 6.63716812e-03 4.42477874e-03</_>
    <_>
      1.35593219e-02 1.35593219e-02 0. 3.38983047e-03 6.77966094e-03 0.
      1.01694912e-02 6.77966094e-03 3.05084735e-02 1.35593219e-02
      3.38983051e-02 0. 1.69491526e-02 2.37288140e-02 3.38983047e-03
      3.38983047e-03 3.38983047e-03 0. 2.37288140e-02 1.01694912e-02
      1.01694912e-02 1.35593219e-02 1.69491526e-02 3.38983051e-02 0.
      1.01694912e-02 0. 3.38983047e-03 0. 1.69491526e-02 2.03389823e-02
      0. 2.03389823e-02 1.35593219e-02 0. 1.01694912e-02 2.03389823e-02
      6.77966094e-03 1.35593219e-02 2.03389823e-02 3.38983047e-03
      2.03389823e-02 1.35593219e-02 0. 1.01694912e-02 1.01694912e-02
      6.77966094e-03 0. 3.38983047e-03 6.77966094e-03 3.38983047e-03 0.
      0. 1.35593219e-02 3.38983047e-03 0. 6.77966094e-03 6.77966094e-03
      1.35593219e-02 3.05084735e-02 0. 3.38983047e-03 2.37288140e-02
      2.37288140e-02 6.77966094e-03 2.71186437e-02 3.38983047e-03
      3.38983047e-03 2.71186437e-02 0. 6.77966094e-03 3.38983047e-03 0.
      1.01694912e-02 3.38983047e-03 0. 6.77966094e-03 6.77966094e-03
      2.71186437e-02 1.35593219e-02 3.38983047e-03 6.77966094e-03
      1.01694912e-02 3.38983047e-03 6.77966094e-03 0. 6.77966094e-03 0.
      6.77966094e-03 1.35593219e-02 1.69491526e-02 1.35593219e-02
      1.69491526e-02 1.35593219e-02 5.76271191e-02 3.38983047e-03
      1.01694912e-02 6.77966094e-03 6.77966094e-03 0.</_>
    <_>
      0. 0. 1.79640725e-02 2.99401209e-03 1.49700604e-02 3.29341330e-02
      1.19760484e-02 8.98203626e-03 5.98802418e-03 1.19760484e-02
      2.09580846e-02 0. 2.39520967e-02 1.19760484e-02 1.79640725e-02
      2.99401209e-03 8.98203626e-03 0. 8.98203626e-03 2.99401209e-03
      8.98203626e-03 8.98203626e-03 2.99401209e-03 1.19760484e-02
      2.99401209e-03 1.19760484e-02 1.19760484e-02 2.99401209e-03
      2.99401209e-03 5.98802418e-03 5.98802418e-03 8.98203626e-03
      2.99401209e-03 2.09580846e-02 8.98203626e-03 8.98203626e-03
      1.49700604e-02 8.98203626e-03 8.98203626e-03 1.19760484e-02
      1.19760484e-02 8.98203626e-03 8.98203626e-03 5.98802418e-03
      1.49700604e-02 1.49700604e-02 1.19760484e-02 5.98802418e-03
      8.98203626e-03 2.39520967e-02 1.79640725e-02 2.09580846e-02
      8.98203626e-03 0. 8.98203626e-03 8.98203626e-03 5.98802418e-03 0.
      2.99401209e-03 5.98802418e-03 8.98203626e-03 0. 8.98203626e-03
      2.39520967e-02 1.49700604e-02 8.98203626e-03 0. 2.99401209e-02
      1.49700604e-02 0. 0. 5.98802418e-03 0. 0. 5.98802418e-03
      8.98203626e-03 0. 2.99401209e-02 8.98203626e-03 1.19760484e-02
      2.39520967e-02 2.99401209e-03 1.79640725e-02 1.19760484e-02
      8.98203626e-03 5.98802418e-03 5.98802418e-03 1.49700604e-02
      2.39520967e-02 1.79640725e-02 5.98802418e-03 3.29341330e-02
      8.98203626e-03 1.79640725e-02 2.39520967e-02 0. 5.98802418e-03
      5.98802418e-03 2.99401209e-03 0.</_>
    <_>
      9.70350392e-03 3.23450146e-03 5.39083546e-03 8.62533692e-03
      8.62533692e-03 2.53369268e-02 1.45552559e-02 7.54716992e-03
      5.39083546e-03 1.02425879e-02 1.13207549e-02 1.34770889e-02
      1.02425879e-02 6.46900292e-03 1.13207549e-02 7.54716992e-03
      1.18598379e-02 3.23450146e-03 1.29380058e-02 7.54716992e-03
      4.31266846e-03 1.83288418e-02 7.00808642e-03 1.23989219e-02
      2.69541773e-03 1.07816709e-02 3.77358496e-03 5.39083546e-03
      8.08625296e-03 4.31266846e-03 7.00808642e-03 7.00808642e-03
      1.50943398e-02 7.54716992e-03 7.54716992e-03 1.94070078e-02
      7.00808642e-03 7.54716992e-03 9.16442089e-03 1.77897569e-02
      1.77897569e-02 1.67115908e-02 3.77358496e-03 5.39083546e-03
      1.07816709e-02 7.54716992e-03 1.50943398e-02 3.77358496e-03
      3.77358496e-03 1.13207549e-02 9.16442089e-03 1.18598379e-02
      1.29380058e-02 0. 1.07816709e-02 8.62533692e-03 2.74932608e-02
      3.23450146e-03 5.92991896e-03 3.77358496e-03 2.69541773e-03
      5.92991896e-03 1.29380058e-02 5.92991896e-03 2.31805928e-02
      8.62533692e-03 5.39083546e-03 1.67115908e-02 2.15633418e-02
      3.23450146e-03 1.61725059e-02 2.04851758e-02 8.62533692e-03
      4.31266846e-03 4.31266846e-03 5.92991896e-03 4.85175196e-03
      1.29380058e-02 6.46900292e-03 1.18598379e-02 7.54716992e-03
      1.29380058e-02 8.08625296e-03 1.88679248e-02 1.45552559e-02
      1.29380058e-02 1.40161728e-02 1.56334229e-02 9.16442089e-03
      2.64150947e-02 9.70350392e-03 1.18598379e-02 1.40161728e-02
      8.08625296e-03 7.00808642e-03 6.46900292e-03 9.70350392e-03
      1.45552559e-02 3.23450146e-03 6.46900292e-03</_>
    <_>
      5.52486209e-03 5.52486209e-03 1.65745858e-02 1.10497242e-02
      5.52486209e-03 2.76243105e-03 1.65745858e-02 2.76243105e-03 0.
      1.65745858e-02 1.38121555e-02 8.28729291e-03 1.65745858e-02
      5.52486209e-03 2.76243105e-03 2.76243105e-03 1.38121555e-02
      8.28729291e-03 1.10497242e-02 2.76243105e-03 8.28729291e-03
      2.20994484e-02 5.52486209e-03 4.14364673e-02 0. 2.76243105e-03
      2.76243105e-03 0. 0. 1.38121555e-02 5.52486209e-03 1.93370171e-02
      8.28729291e-03 1.10497242e-02 1.93370171e-02 2.76243105e-03
      1.10497242e-02 2.76243105e-03 2.76243105e-03 5.52486209e-03
      2.48618796e-02 1.65745858e-02 1.38121555e-02 0. 5.52486209e-03
      8.28729291e-03 2.76243105e-03 0. 2.76243105e-03 2.20994484e-02
      1.10497242e-02 2.20994484e-02 5.52486209e-03 8.28729291e-03
      1.38121555e-02 1.93370171e-02 2.76243105e-03 2.76243105e-03
      8.28729291e-03 8.28729291e-03 2.76243105e-03 2.76243105e-03
      8.28729291e-03 3.03867422e-02 8.28729291e-03 2.48618796e-02 0.
      1.10497242e-02 2.20994484e-02 0. 5.52486209e-03 2.76243109e-02 0.
      0. 1.93370171e-02 0. 0. 5.52486209e-03 1.65745858e-02
      5.52486209e-03 1.65745858e-02 1.38121555e-02 2.48618796e-02
      1.10497242e-02 2.48618796e-02 1.38121555e-02 5.52486209e-03
      5.52486209e-03 1.10497242e-02 8.28729291e-03 1.38121555e-02
      1.65745858e-02 2.76243105e-03 1.10497242e-02 4.41988967e-02
      5.52486209e-03 1.65745858e-02 1.10497242e-02 0. 0.</_>
    <_>
      3.82978725e-03 7.23404251e-03 2.55319150e-03 9.14893579e-03
      1.70212761e-02 4.04255325e-03 2.29787230e-02 1.29787233e-02
      2.12765954e-04 5.95744653e-03 1.31914895e-02 7.44680827e-03
      1.38297873e-02 1.06382975e-02 4.04255325e-03 7.87234027e-03
      8.93617049e-03 9.99999978e-03 1.14893615e-02 7.87234027e-03
      6.38297852e-03 8.72340426e-03 1.48936163e-03 1.21276593e-02
      6.59574475e-03 9.36170202e-03 1.27659575e-03 2.97872326e-03
      1.08510638e-02 9.36170202e-03 5.31914877e-03 4.68085101e-03
      1.25531908e-02 8.29787180e-03 7.44680827e-03 2.76595745e-02
      1.40425526e-02 1.53191490e-02 1.93617009e-02 1.76595747e-02
      9.99999978e-03 6.59574475e-03 1.21276593e-02 2.97872326e-03
      1.51063828e-02 1.14893615e-02 2.74468083e-02 9.78723355e-03
      8.08510650e-03 1.25531908e-02 5.74468076e-03 1.42553188e-02
      1.70212763e-03 2.55319150e-03 1.08510638e-02 1.76595747e-02
      6.59574475e-03 8.29787180e-03 2.06382982e-02 4.68085101e-03
      7.44680827e-03 8.93617049e-03 7.23404251e-03 5.74468076e-03
      6.38297852e-03 1.63829792e-02 1.06382975e-02 1.12765953e-02
      2.17021275e-02 3.40425526e-03 2.76595750e-03 2.55319150e-03
      4.89361677e-03 1.23404255e-02 1.61702130e-02 1.06382975e-03
      2.55319150e-03 1.40425526e-02 7.87234027e-03 1.65957436e-02
      1.23404255e-02 4.04255325e-03 5.10638300e-03 1.95744671e-02
      1.78723410e-02 6.59574475e-03 5.95744653e-03 3.89361680e-02
      1.76595747e-02 7.23404251e-03 6.59574475e-03 2.14893613e-02
      4.04255325e-03 1.23404255e-02 4.25531907e-04 8.93617049e-03
      8.08510650e-03 1.08510638e-02 9.57446825e-03 1.04255313e-02</_>
    <_>
      2.20264308e-03 1.54185016e-02 2.20264308e-03 8.81057233e-03
      8.81057233e-03 4.40528616e-03 6.60792924e-03 1.10132154e-02 0.
      1.32158585e-02 1.76211447e-02 2.20264308e-03 1.54185016e-02
      1.98237877e-02 4.40528616e-03 1.98237877e-02 1.32158585e-02
      4.40528616e-03 1.10132154e-02 4.40528616e-03 1.10132154e-02
      1.10132154e-02 1.10132154e-02 2.20264308e-02 0. 1.10132154e-02
      8.81057233e-03 1.32158585e-02 1.10132154e-02 6.60792924e-03
      1.32158585e-02 2.20264308e-03 2.42290739e-02 3.08370031e-02
      1.10132154e-02 4.40528616e-03 1.32158585e-02 1.10132154e-02
      1.98237877e-02 1.98237877e-02 1.10132154e-02 2.20264308e-02
      8.81057233e-03 6.60792924e-03 1.10132154e-02 2.86343601e-02 0.
      8.81057233e-03 1.54185016e-02 8.81057233e-03 6.60792924e-03
      2.20264308e-03 6.60792924e-03 4.40528616e-03 1.54185016e-02
      1.10132154e-02 2.20264308e-02 6.60792924e-03 6.60792924e-03
      1.32158585e-02 2.20264308e-03 1.10132154e-02 1.32158585e-02
      4.40528616e-03 2.20264308e-02 1.54185016e-02 6.60792924e-03
      6.60792924e-03 6.60792924e-03 0. 6.60792924e-03 0. 1.32158585e-02
      4.40528616e-03 1.32158585e-02 0. 4.40528616e-03 1.10132154e-02
      1.10132154e-02 2.20264308e-03 8.81057233e-03 2.20264308e-03
      1.98237877e-02 1.32158585e-02 8.81057233e-03 2.64317170e-02
      2.20264308e-03 1.10132154e-02 8.81057233e-03 1.54185016e-02
      1.54185016e-02 8.81057233e-03 2.20264308e-03 2.20264308e-02
      2.20264308e-03 8.81057233e-03 2.20264308e-03 4.40528616e-03
      2.20264308e-03 4.40528616e-03</_>
    <_>
      8.13008100e-03 1.62601620e-02 8.13008100e-03 8.13008100e-03
      1.62601620e-02 8.13008100e-03 8.13008100e-03 0. 0. 8.13008100e-03
      8.13008100e-03 4.06504050e-02 3.25203240e-02 8.13008100e-03 0. 0.
      1.62601620e-02 8.13008100e-03 8.13008100e-03 1.62601620e-02 0.
      8.13008100e-03 0. 3.25203240e-02 0. 1.62601620e-02 0.
      8.13008100e-03 0. 8.13008100e-03 8.13008100e-03 8.13008100e-03
      8.13008100e-03 1.62601620e-02 8.13008100e-03 1.62601620e-02
      8.13008100e-03 0. 3.25203240e-02 8.13008100e-03 2.43902430e-02
      8.13008100e-03 8.13008100e-03 0. 4.06504050e-02 0. 0. 0. 0. 0.
      8.13008100e-03 8.13008100e-03 2.43902430e-02 0. 8.13008100e-03 0.
      0. 0. 0. 1.62601620e-02 0. 0. 8.13008100e-03 0. 1.62601620e-02
      1.62601620e-02 8.13008100e-03 2.43902430e-02 8.13008100e-03 0. 0.
      3.25203240e-02 0. 0. 3.25203240e-02 0. 0. 3.25203240e-02 0. 0.
      1.62601620e-02 8.13008100e-03 2.43902430e-02 2.43902430e-02
      3.25203240e-02 1.62601620e-02 8.13008100e-03 0. 8.13008100e-03
      8.13008100e-03 1.62601620e-02 8.13008100e-03 2.43902430e-02
      3.25203240e-02 0. 8.13008100e-03 1.62601620e-02 0. 0.
      1.62601620e-02</_>
    <_>
      2.80000009e-02 4.00000019e-03 0. 8.00000038e-03 1.60000008e-02
      1.20000001e-02 1.60000008e-02 4.00000019e-03 0. 8.00000038e-03
      8.00000038e-03 2.40000002e-02 1.20000001e-02 0. 0. 4.00000019e-03
      2.00000014e-02 4.00000019e-03 0. 8.00000038e-03 0. 8.00000038e-03
      8.00000038e-03 3.20000015e-02 0. 8.00000038e-03 0. 4.00000019e-03
      0. 4.00000019e-03 8.00000038e-03 0. 8.00000038e-03 4.00000019e-03
      0. 1.60000008e-02 8.00000038e-03 3.20000015e-02 1.20000001e-02
      2.80000009e-02 4.00000019e-03 8.00000038e-03 4.00000019e-03 0.
      4.00000019e-03 4.00000019e-03 0. 0. 4.00000019e-03 1.20000001e-02
      8.00000038e-03 0. 4.00000019e-03 0. 1.20000001e-02 2.80000009e-02
      2.00000014e-02 4.00000019e-03 2.00000014e-02 0. 0. 8.00000038e-03
      6.00000024e-02 4.00000019e-03 6.00000024e-02 1.20000001e-02
      4.00000019e-03 1.20000001e-02 8.00000038e-03 0. 8.00000038e-03
      1.20000001e-02 0. 1.20000001e-02 1.20000001e-02 0. 0.
      1.60000008e-02 8.00000038e-03 4.40000035e-02 8.00000038e-03 0.
      1.20000001e-02 1.20000001e-02 1.20000001e-02 1.60000008e-02 0.
      3.20000015e-02 0. 2.80000009e-02 3.20000015e-02 8.00000038e-03
      2.00000014e-02 8.00000038e-03 0. 8.00000038e-03 0. 8.00000038e-03
      1.20000001e-02 1.20000001e-02</_>
    <_>
      3.10366252e-03 1.24146501e-02 1.11731850e-02 3.10366252e-03
      1.36561152e-02 2.73122303e-02 1.80012416e-02 3.10366252e-03
      3.10366252e-03 1.98634397e-02 1.73805095e-02 5.58659248e-03
      1.42768472e-02 1.42768472e-02 8.06952268e-03 1.05524519e-02
      8.06952268e-03 3.10366252e-03 8.69025476e-03 8.06952268e-03
      1.11731850e-02 4.34512738e-03 3.10366252e-03 1.24146501e-02
      2.48292997e-03 4.96585993e-03 1.11731850e-02 3.72439483e-03
      3.72439483e-03 3.10366252e-03 6.82805758e-03 8.69025476e-03
      9.93171986e-03 9.31098778e-03 8.06952268e-03 1.98634397e-02
      1.36561152e-02 1.11731850e-02 9.93171986e-03 1.61390454e-02
      2.54500322e-02 7.44878966e-03 1.05524519e-02 9.31098778e-03
      1.17939170e-02 5.58659248e-03 2.23463699e-02 4.96585993e-03
      3.72439483e-03 1.11731850e-02 8.06952268e-03 1.55183123e-02
      4.96585993e-03 1.24146498e-03 1.11731850e-02 9.93171986e-03
      3.72439483e-03 6.82805758e-03 8.69025476e-03 1.36561152e-02
      1.86219742e-03 1.55183123e-02 2.42085680e-02 7.44878966e-03
      8.69025476e-03 7.44878966e-03 6.82805758e-03 1.42768472e-02
      8.69025476e-03 7.44878966e-03 5.58659248e-03 1.42768472e-02
      5.58659248e-03 3.10366252e-03 7.44878966e-03 4.96585993e-03
      3.72439483e-03 1.67597774e-02 7.44878966e-03 9.31098778e-03
      2.04841718e-02 8.06952268e-03 1.80012416e-02 1.11731850e-02
      1.48975793e-02 7.44878966e-03 8.69025476e-03 1.42768472e-02
      8.06952268e-03 3.10366247e-02 1.86219756e-02 1.30353821e-02
      8.06952268e-03 7.44878966e-03 2.48292997e-03 4.96585993e-03
      1.05524519e-02 9.31098778e-03 8.06952268e-03 1.17939170e-02</_>
    <_>
      3.01936804e-03 1.27034392e-02 2.76161707e-03 2.79843877e-03
      2.97150016e-02 8.54260288e-03 3.10037564e-02 4.34494438e-03
      1.21511158e-03 5.85462851e-03 1.65328812e-02 3.27711902e-03
      1.64960604e-02 9.68407094e-03 3.82944243e-03 1.14883278e-02
      6.37013046e-03 3.42440535e-03 9.42631997e-03 3.09301121e-03
      5.22866193e-03 2.72479560e-03 1.21511158e-03 1.37344431e-02
      6.62788108e-04 9.53678507e-03 2.43022316e-03 2.02518585e-03
      5.15501853e-03 1.65697036e-03 3.46122682e-03 1.25193316e-03
      1.03836805e-02 5.78098511e-03 5.15501853e-03 3.14456150e-02
      1.80057436e-02 1.94786061e-02 1.95890721e-02 1.92944985e-02
      8.80035385e-03 2.61433097e-03 1.22984014e-02 1.52441273e-02
      1.49495546e-02 6.03873609e-03 5.94300032e-02 4.71315999e-03
      5.78098511e-03 2.55909860e-02 6.03873609e-03 1.73061341e-02
      2.35657999e-03 8.46895913e-04 9.13174730e-03 1.59805585e-02
      1.17092570e-02 3.16665438e-03 1.66433454e-02 4.56587365e-03
      8.83717497e-04 1.24825099e-02 1.21511156e-02 8.83717497e-04
      1.27034392e-02 9.09492560e-03 5.30230487e-03 1.31084761e-02
      1.64960604e-02 1.50968402e-03 1.62014877e-03 8.72671045e-03
      1.41763017e-02 9.57360608e-04 1.12305768e-02 7.36431219e-04
      1.43604097e-03 2.89049260e-02 8.28485191e-03 1.66065246e-02
      1.49495546e-02 1.84107816e-03 5.74416388e-03 3.15192565e-02
      2.45968029e-02 1.54650565e-02 5.11819730e-03 2.99727526e-02
      1.03468588e-02 8.17438681e-03 1.36607997e-02 1.66433454e-02
      3.71897779e-03 1.40658366e-02 1.39921939e-03 4.82362462e-03
      5.41276950e-03 1.10464683e-03 3.49804852e-03 3.64533463e-03</_>
    <_>
      6.92041498e-03 1.03806220e-02 1.48294610e-03 4.44883807e-03
      2.76816599e-02 3.46020749e-03 3.26248147e-02 6.42609969e-03 0.
      8.40336084e-03 1.18635688e-02 5.43746864e-03 2.12555602e-02
      1.38408300e-02 3.95452278e-03 5.93178440e-03 1.33465147e-02
      2.96589220e-03 1.87839828e-02 3.95452278e-03 4.94315336e-03
      1.97726139e-03 1.48294610e-03 7.41473027e-03 4.44883807e-03
      7.90904555e-03 4.94315347e-04 4.94315347e-04 7.41473027e-03
      2.47157668e-03 1.97726139e-03 2.47157668e-03 1.13692526e-02
      1.08749373e-02 9.88630671e-03 2.57043988e-02 1.38408300e-02
      9.88630671e-03 1.38408300e-02 1.53237758e-02 9.88630671e-03
      3.46020749e-03 1.28521994e-02 3.95452278e-03 2.57043988e-02
      1.18635688e-02 7.81018212e-02 4.94315336e-03 8.40336084e-03
      3.16361822e-02 1.03806220e-02 1.87839828e-02 1.48294610e-03
      2.96589220e-03 6.42609969e-03 1.68067217e-02 8.40336084e-03
      1.97726139e-03 5.43746864e-03 3.95452278e-03 3.46020749e-03
      5.93178440e-03 6.42609969e-03 9.88630694e-04 1.33465147e-02
      3.95452278e-03 5.93178440e-03 1.87839828e-02 1.63124073e-02
      1.48294610e-03 9.88630694e-04 2.47157668e-03 2.96589220e-03
      5.43746864e-03 3.46020749e-03 4.94315347e-04 4.94315347e-04
      3.50963883e-02 1.13692526e-02 1.23578841e-02 1.68067217e-02
      1.97726139e-03 7.90904555e-03 2.22441908e-02 2.12555602e-02
      1.28521994e-02 9.39199142e-03 3.55907045e-02 1.73010379e-02
      8.40336084e-03 7.90904555e-03 1.48294605e-02 7.41473027e-03
      1.18635688e-02 2.47157668e-03 5.43746864e-03 1.03806220e-02
      1.97726139e-03 2.47157668e-03 4.94315336e-03</_>
    <_>
      1.14722755e-02 1.27469725e-03 2.42192484e-02 3.18674324e-03
      1.08349267e-02 2.86806878e-02 1.91204587e-03 5.73613774e-03
      7.64818350e-03 3.37794758e-02 4.46144026e-03 5.09878900e-03
      1.08349267e-02 5.09878900e-03 3.82409175e-03 9.56022926e-03
      1.08349267e-02 5.09878900e-03 1.08349267e-02 3.82409175e-03
      6.37348648e-03 2.29445510e-02 1.01975780e-02 1.59337148e-02
      6.37348648e-03 1.08349267e-02 8.28553177e-03 7.01083476e-03
      2.54939450e-03 6.37348648e-03 6.37348648e-03 1.27469730e-02
      9.56022926e-03 1.01975780e-02 1.14722755e-02 5.09878900e-03
      7.01083476e-03 8.28553177e-03 4.46144026e-03 5.09878900e-03
      3.82409170e-02 2.10325047e-02 3.82409175e-03 4.07903120e-02
      7.64818350e-03 1.08349267e-02 1.27469725e-03 1.01975780e-02
      9.56022926e-03 9.56022926e-03 8.92288052e-03 6.37348648e-03
      1.01975780e-02 1.21096242e-02 7.64818350e-03 4.46144026e-03
      8.92288052e-03 3.82409175e-03 3.82409175e-03 1.21096242e-02
      7.01083476e-03 1.08349267e-02 1.97578073e-02 1.46590183e-02
      8.28553177e-03 8.28553177e-03 5.09878900e-03 3.18674324e-03
      4.46144026e-03 1.27469730e-02 1.33843208e-02 2.23072022e-02
      2.54939459e-02 5.73613774e-03 7.01083476e-03 7.64818350e-03
      2.54939450e-03 1.14722755e-02 5.09878900e-03 7.64818350e-03
      4.46144026e-03 1.01975780e-02 2.93180365e-02 4.46144026e-03
      2.54939450e-03 9.56022926e-03 1.21096242e-02 1.91204587e-03
      2.54939450e-03 3.31421271e-02 1.52963670e-02 5.73613774e-03
      8.28553177e-03 7.01083476e-03 1.91204587e-03 8.92288052e-03
      7.01083476e-03 5.09878900e-03 9.56022926e-03 1.14722755e-02</_>
    <_>
      0. 1.08991824e-02 1.22615807e-02 5.44959120e-03 2.31607631e-02
      8.17438681e-03 2.17983648e-02 5.44959120e-03 0. 1.22615807e-02
      1.08991824e-02 4.08719340e-03 1.22615807e-02 2.31607631e-02
      8.17438681e-03 2.72479560e-03 1.22615807e-02 4.08719340e-03
      1.90735683e-02 4.08719340e-03 1.77111719e-02 1.22615807e-02
      2.72479560e-03 6.81198901e-03 4.08719340e-03 9.53678414e-03
      9.53678414e-03 6.81198901e-03 9.53678414e-03 2.72479560e-03
      5.44959120e-03 1.36239780e-03 1.49863753e-02 5.44959120e-03
      8.17438681e-03 2.72479560e-02 9.53678414e-03 8.17438681e-03
      9.53678414e-03 1.63487736e-02 1.22615807e-02 1.08991824e-02
      6.81198901e-03 5.44959120e-03 1.63487736e-02 5.44959120e-03
      2.99727507e-02 1.36239780e-03 1.36239780e-03 1.49863753e-02
      1.08991824e-02 2.17983648e-02 4.08719340e-03 8.17438681e-03
      1.22615807e-02 1.08991824e-02 1.36239780e-02 5.44959120e-03
      9.53678414e-03 8.17438681e-03 4.08719340e-03 9.53678414e-03
      1.22615807e-02 8.17438681e-03 1.36239780e-02 5.44959120e-03
      6.81198901e-03 1.36239780e-02 2.17983648e-02 1.36239780e-03
      5.44959120e-03 8.17438681e-03 1.36239780e-03 0. 5.44959120e-03
      4.08719340e-03 1.36239780e-03 2.58855578e-02 2.45231614e-02
      4.08719340e-03 1.63487736e-02 0. 2.04359666e-02 1.36239780e-02
      1.08991824e-02 1.90735683e-02 1.36239780e-02 1.90735683e-02
      1.36239780e-02 1.08991824e-02 1.22615807e-02 2.72479560e-02
      2.72479560e-03 4.08719340e-03 2.72479560e-03 4.08719340e-03
      1.49863753e-02 2.72479560e-03 1.22615807e-02 4.08719340e-03</_>
    <_>
      4.07895725e-03 1.08529394e-02 1.96663998e-02 6.26411289e-03
      7.13817496e-03 6.91965921e-03 1.71898901e-02 8.15791450e-03
      2.33083265e-03 7.72088300e-03 5.82708139e-03 4.66166530e-03
      1.06344242e-02 1.01245539e-02 1.57331210e-02 7.50236772e-03
      1.70442145e-02 1.05615854e-02 1.65343434e-02 5.31721208e-03
      1.98849160e-02 9.17765312e-03 1.39849959e-02 8.15791450e-03
      1.86466612e-02 3.78760300e-03 9.68752336e-03 1.42763499e-02
      8.15791450e-03 2.41095498e-02 1.49318967e-02 9.03197657e-03
      1.31837726e-02 1.58059597e-02 1.71170514e-02 8.15791450e-03
      6.55546691e-03 4.29747254e-03 7.28385197e-03 6.26411289e-03
      3.27773346e-03 7.35669071e-03 1.00517161e-02 2.35268418e-02
      1.01245539e-02 1.60244741e-02 1.00517161e-02 7.21101370e-03
      6.40978990e-03 7.79372174e-03 2.04676241e-02 9.25049186e-03
      5.82708139e-03 2.27256175e-02 8.66778381e-03 6.99249795e-03
      7.35669071e-03 1.08529394e-02 5.53572737e-03 1.39849959e-02
      1.63158290e-02 6.55546691e-03 5.39005036e-03 5.17153507e-03
      7.06533669e-03 1.10714547e-02 1.95935611e-02 1.19455177e-02
      1.13628088e-02 1.20183555e-02 5.68140438e-03 3.93328024e-03
      1.90836918e-02 2.33811643e-02 9.83319990e-03 3.71476449e-03
      5.02585806e-03 7.72088300e-03 1.52232507e-02 4.80734231e-03
      1.01245539e-02 3.64192598e-03 7.06533669e-03 7.28385197e-03
      8.01223703e-03 7.79372174e-03 1.50775732e-02 5.53572737e-03
      1.90836918e-02 3.86044150e-03 4.80734231e-03 1.09986169e-02
      4.29747254e-03 6.48262817e-03 2.98637943e-03 5.09869633e-03
      1.12899709e-02 6.33695116e-03 8.88629910e-03 6.19127415e-03</_>
    <_>
      7.09077204e-03 1.29746040e-02 4.27457877e-03 3.77168716e-03
      2.39879303e-02 9.25320573e-03 2.61000767e-02 6.48730202e-03
      1.00578321e-03 5.78325382e-03 1.60925314e-02 4.07342240e-03
      1.66960023e-02 9.60522983e-03 6.08498883e-03 7.39250705e-03
      6.58788020e-03 3.36937397e-03 1.11139053e-02 3.72139807e-03
      5.43122971e-03 3.21850646e-03 3.26879555e-03 1.38798095e-02
      1.50867493e-03 1.07115917e-02 4.02313285e-03 3.62081965e-03
      7.24163931e-03 2.36359076e-03 5.68267563e-03 3.46995238e-03
      1.12647731e-02 8.39829072e-03 6.93990476e-03 2.31330153e-02
      2.05179788e-02 1.60925314e-02 1.84058342e-02 1.33266281e-02
      1.02589894e-02 2.91677145e-03 1.52879059e-02 1.54890623e-02
      1.58913750e-02 9.20291711e-03 4.87301983e-02 5.93412109e-03
      7.64395297e-03 2.26804130e-02 6.33643474e-03 1.82549655e-02
      3.41966306e-03 2.31330143e-03 1.02589894e-02 1.85567010e-02
      1.05104353e-02 3.77168716e-03 1.45335682e-02 6.53759111e-03
      1.96127733e-03 9.40407347e-03 1.10636158e-02 1.15665072e-03
      1.49861705e-02 1.18682422e-02 6.43701293e-03 1.28740259e-02
      1.82046779e-02 1.81040983e-03 2.71561486e-03 5.73296472e-03
      9.40407347e-03 2.51445826e-03 1.10133272e-02 1.50867493e-03
      2.51445826e-03 2.39879303e-02 1.09127481e-02 1.66960023e-02
      1.37289418e-02 2.91677145e-03 5.53180790e-03 2.42393762e-02
      2.05179788e-02 1.75006296e-02 6.18556701e-03 2.29821485e-02
      1.41815441e-02 8.34800117e-03 1.16167972e-02 1.71988942e-02
      4.17400058e-03 1.22202663e-02 1.35780743e-03 6.23585610e-03
      7.74453115e-03 2.61503644e-03 3.87226557e-03 3.57053056e-03</_>
    <_>
      2.95857992e-03 1.18343197e-02 1.47928996e-02 0. 1.47928996e-02 0.
      8.87573976e-03 8.87573976e-03 1.47928996e-02 1.18343197e-02
      1.77514795e-02 5.91715984e-03 1.18343197e-02 1.47928996e-02
      1.18343197e-02 5.91715984e-03 1.18343197e-02 0. 8.87573976e-03
      1.18343197e-02 1.47928996e-02 2.95857992e-02 5.91715984e-03
      3.25443782e-02 0. 5.91715984e-03 2.95857992e-03 2.95857992e-03
      1.18343197e-02 2.95857992e-03 2.95857992e-03 8.87573976e-03
      1.18343197e-02 1.18343197e-02 5.91715984e-03 8.87573976e-03
      1.18343197e-02 2.95857992e-03 8.87573976e-03 8.87573976e-03
      1.47928996e-02 2.07100585e-02 2.95857992e-03 5.91715984e-03
      2.07100585e-02 5.91715984e-03 5.91715984e-03 8.87573976e-03
      1.18343197e-02 8.87573976e-03 8.87573976e-03 8.87573976e-03
      2.95857992e-03 0. 3.25443782e-02 1.77514795e-02 8.87573976e-03
      5.91715984e-03 5.91715984e-03 5.91715984e-03 5.91715984e-03
      5.91715984e-03 1.47928996e-02 3.55029590e-02 5.91715984e-03
      1.47928996e-02 1.77514795e-02 1.47928996e-02 2.95857992e-02 0. 0.
      0. 0. 1.47928996e-02 8.87573976e-03 0. 0. 2.95857992e-03
      1.18343197e-02 5.91715984e-03 2.95857992e-03 2.95857992e-03
      5.91715984e-03 8.87573976e-03 1.18343197e-02 5.91715984e-03
      5.91715984e-03 1.18343197e-02 8.87573976e-03 5.91715984e-03
      2.07100585e-02 2.66272202e-02 1.18343197e-02 1.18343197e-02
      4.14201170e-02 0. 1.77514795e-02 8.87573976e-03 5.91715984e-03
      8.87573976e-03</_>
    <_>
      4.56620986e-03 1.04370518e-02 4.13133297e-03 8.69754329e-03
      1.73950866e-02 1.71776470e-02 5.87084144e-03 8.04522727e-03
      4.78364853e-03 1.95694715e-02 1.28288763e-02 7.82778859e-03
      1.15242442e-02 1.50032612e-02 5.00108721e-03 6.52315700e-03
      7.17547303e-03 5.21852588e-03 1.45683847e-02 8.91498197e-03
      5.65340277e-03 9.56729706e-03 7.61034992e-03 1.89171564e-02
      3.04414006e-03 4.78364853e-03 3.26157850e-03 4.56620986e-03
      1.10893669e-02 6.95803436e-03 5.65340277e-03 8.69754329e-03
      1.36986300e-02 1.10893669e-02 6.08828012e-03 1.47858234e-02
      1.28288763e-02 1.02196131e-02 1.80474017e-02 1.43509461e-02
      2.69623827e-02 6.95803436e-03 1.21765602e-02 1.04370518e-02
      1.19591216e-02 1.28288763e-02 7.39291171e-03 5.21852588e-03
      8.26266594e-03 9.34985839e-03 6.52315700e-03 1.15242442e-02
      8.04522727e-03 1.30463147e-03 1.45683847e-02 1.10893669e-02
      1.19591216e-02 4.13133297e-03 1.58730168e-02 8.04522727e-03
      4.78364853e-03 9.78473574e-03 1.39160687e-02 4.56620986e-03
      1.67427696e-02 1.67427696e-02 9.78473574e-03 9.56729706e-03
      2.08741035e-02 4.34877165e-03 2.39182427e-03 9.13241971e-03
      5.43596456e-03 6.08828012e-03 1.56555772e-02 3.91389430e-03
      2.82670138e-03 1.02196131e-02 1.08719291e-02 1.28288763e-02
      8.48010462e-03 2.60926294e-03 1.45683847e-02 1.41335074e-02
      1.67427696e-02 1.84822790e-02 7.82778859e-03 1.39160687e-02
      9.78473574e-03 2.34833658e-02 1.58730168e-02 1.89171564e-02
      7.17547303e-03 1.06544904e-02 1.95694715e-03 6.52315700e-03
      8.48010462e-03 5.21852588e-03 6.95803436e-03 6.95803436e-03</_>
    <_>
      4.95867757e-03 0. 1.32231405e-02 1.32231405e-02 9.91735514e-03
      6.77685961e-02 4.95867757e-03 4.95867757e-03 4.95867757e-03
      5.12396693e-02 1.65289256e-03 4.95867757e-03 4.95867757e-03
      9.91735514e-03 9.91735514e-03 3.30578513e-03 6.61157025e-03
      1.65289256e-03 6.61157025e-03 2.31404956e-02 4.95867757e-03
      8.26446246e-03 0. 1.81818176e-02 8.26446246e-03 4.95867757e-03
      4.95867757e-03 6.61157025e-03 3.30578513e-03 8.26446246e-03
      1.32231405e-02 2.47933883e-02 1.65289256e-03 1.65289256e-03
      6.61157025e-03 1.65289256e-03 1.48760332e-02 6.61157025e-03
      6.61157025e-03 3.30578513e-03 1.98347103e-02 9.91735514e-03
      1.65289256e-03 5.95041327e-02 1.15702478e-02 6.61157025e-03
      8.26446246e-03 0. 4.95867757e-03 1.65289256e-03 4.95867757e-03
      3.30578513e-03 1.65289256e-03 1.65289249e-02 3.30578513e-03
      8.26446246e-03 1.65289249e-02 1.65289256e-03 6.61157025e-03
      1.65289249e-02 3.30578513e-03 3.30578513e-03 9.91735514e-03
      1.48760332e-02 1.65289256e-03 3.30578513e-03 0. 4.95867757e-03
      1.15702478e-02 1.32231405e-02 3.30578513e-03 2.80991737e-02
      3.30578499e-02 4.95867757e-03 1.65289256e-03 1.48760332e-02
      1.65289256e-03 0. 1.15702478e-02 6.61157025e-03 3.30578513e-03
      1.65289256e-03 5.61983474e-02 1.15702478e-02 3.30578513e-03
      6.61157025e-03 1.32231405e-02 8.26446246e-03 4.95867757e-03
      3.96694206e-02 1.48760332e-02 8.26446246e-03 4.95867757e-03
      3.30578513e-03 1.98347103e-02 1.65289256e-03 9.91735514e-03
      6.61157025e-03 3.30578513e-03 6.61157025e-03</_>
    <_>
      6.21600635e-03 6.21600635e-03 6.99300691e-03 7.77000794e-03
      1.24320127e-02 7.77000794e-03 1.55400159e-02 1.08780116e-02 0.
      1.70940179e-02 1.24320127e-02 5.43900579e-03 1.55400159e-02
      9.32400953e-03 3.88500397e-03 8.54700897e-03 1.08780116e-02
      3.10800318e-03 1.78710185e-02 1.24320127e-02 5.43900579e-03
      6.99300691e-03 2.33100238e-03 1.39860138e-02 5.43900579e-03
      6.21600635e-03 5.43900579e-03 6.99300691e-03 6.21600635e-03
      3.10800318e-03 6.21600635e-03 6.99300691e-03 1.08780116e-02
      1.08780116e-02 6.99300691e-03 1.08780116e-02 1.55400159e-02
      9.32400953e-03 2.09790207e-02 1.39860138e-02 1.70940179e-02
      1.08780116e-02 5.43900579e-03 1.16550121e-02 1.63170174e-02
      6.99300691e-03 1.55400159e-02 3.88500397e-03 9.32400953e-03
      1.01010101e-02 8.54700897e-03 1.70940179e-02 6.21600635e-03
      1.01010101e-02 1.47630153e-02 1.32090133e-02 7.77000794e-03
      1.55400159e-03 1.70940179e-02 5.43900579e-03 1.55400159e-03
      5.43900579e-03 5.43900579e-03 2.25330237e-02 5.43900579e-03
      1.32090133e-02 1.01010101e-02 1.55400159e-02 1.39860138e-02
      4.66200477e-03 1.01010101e-02 1.63170174e-02 5.43900579e-03
      9.32400953e-03 1.32090133e-02 4.66200477e-03 3.10800318e-03
      2.09790207e-02 1.16550121e-02 1.86480191e-02 1.63170174e-02
      7.77000794e-03 1.39860138e-02 1.39860138e-02 1.24320127e-02
      5.43900579e-03 6.21600635e-03 2.48640254e-02 1.55400159e-02
      1.08780116e-02 3.88500397e-03 1.47630153e-02 4.66200477e-03
      1.08780116e-02 9.32400953e-03 5.43900579e-03 1.08780116e-02
      8.54700897e-03 7.77000794e-03 1.08780116e-02</_>
    <_>
      4.04858310e-03 5.39811095e-03 9.98650491e-03 7.82726053e-03
      1.16059389e-02 1.91632938e-02 1.18758436e-02 7.82726053e-03
      6.20782748e-03 2.26720665e-02 1.13360332e-02 2.96896091e-03
      1.05263162e-02 9.17678885e-03 6.20782748e-03 4.58839443e-03
      1.02564106e-02 3.50877224e-03 1.02564106e-02 6.20782748e-03
      1.13360332e-02 9.17678885e-03 6.74763881e-03 1.51147107e-02
      5.39811095e-03 6.47773314e-03 1.43049937e-02 7.55735533e-03
      1.16059389e-02 9.44669452e-03 8.36707186e-03 1.05263162e-02
      1.16059389e-02 8.63697752e-03 7.55735533e-03 1.37651833e-02
      9.71660018e-03 8.36707186e-03 1.45748993e-02 1.34952776e-02
      1.43049937e-02 8.63697752e-03 6.20782748e-03 1.97031051e-02
      7.01754447e-03 5.93792181e-03 1.37651833e-02 7.82726053e-03
      3.77867767e-03 9.44669452e-03 1.13360332e-02 7.82726053e-03
      2.96896091e-03 1.02564106e-02 1.34952776e-02 9.98650491e-03
      7.01754447e-03 6.20782748e-03 1.61943324e-02 6.47773314e-03
      4.04858310e-03 6.20782748e-03 7.82726053e-03 8.90688319e-03
      9.71660018e-03 1.29554663e-02 1.29554663e-02 1.45748993e-02
      1.51147107e-02 7.01754447e-03 3.50877224e-03 1.51147107e-02
      1.59244277e-02 1.18758436e-02 1.64642390e-02 5.66801662e-03
      9.71660018e-03 1.21457493e-02 1.32253719e-02 1.56545211e-02
      9.44669452e-03 2.69905548e-03 2.02429164e-02 1.10661276e-02
      1.53846163e-02 1.05263162e-02 1.24156550e-02 1.59244277e-02
      1.05263162e-02 1.59244277e-02 4.58839443e-03 1.86234824e-02
      6.47773314e-03 9.98650491e-03 2.96896091e-03 4.31848876e-03
      1.05263162e-02 8.09716620e-03 9.98650491e-03 7.82726053e-03</_>
    <_>
      1.17647061e-02 0. 0. 1.17647061e-02 0. 0. 2.35294122e-02 0. 0.
      1.17647061e-02 4.70588244e-02 2.35294122e-02 2.35294122e-02
      2.35294122e-02 0. 1.17647061e-02 1.17647061e-02 0. 2.35294122e-02
      2.35294122e-02 0. 0. 0. 2.35294122e-02 0. 1.17647061e-02 0. 0. 0.
      2.35294122e-02 0. 0. 1.17647061e-02 0. 0. 2.35294122e-02
      1.17647061e-02 1.17647061e-02 2.35294122e-02 3.52941193e-02 0.
      1.17647061e-02 1.17647061e-02 0. 1.17647061e-02 0. 7.05882385e-02
      1.17647061e-02 3.52941193e-02 3.52941193e-02 2.35294122e-02
      1.17647061e-02 0. 0. 0. 1.17647061e-02 1.17647061e-02 0. 0. 0. 0.
      1.17647061e-02 0. 0. 1.17647061e-02 2.35294122e-02 0.
      1.17647061e-02 0. 0. 0. 0. 1.17647061e-02 2.35294122e-02 0. 0. 0.
      0. 2.35294122e-02 1.17647061e-02 1.17647061e-02 0. 0. 0.
      1.17647061e-02 1.17647061e-02 1.17647061e-02 1.17647061e-02
      1.17647061e-02 1.17647061e-02 0. 0. 1.17647061e-02 1.17647061e-02
      0. 2.35294122e-02 0. 2.35294122e-02 3.52941193e-02 1.17647061e-02</_>
    <_>
      8.40336177e-03 0. 0. 8.40336177e-03 8.40336177e-03 0. 0. 0. 0.
      2.52100863e-02 8.40336177e-03 1.68067235e-02 4.20168079e-02
      5.04201725e-02 0. 8.40336177e-03 0. 0. 1.68067235e-02
      8.40336177e-03 2.52100863e-02 1.68067235e-02 0. 3.36134471e-02 0.
      8.40336177e-03 0. 2.52100863e-02 8.40336177e-03 0. 0.
      8.40336177e-03 8.40336177e-03 8.40336177e-03 8.40336177e-03 0. 0.
      8.40336177e-03 8.40336177e-03 2.52100863e-02 8.40336177e-03 0.
      2.52100863e-02 0. 1.68067235e-02 2.52100863e-02 0. 0.
      8.40336177e-03 1.68067235e-02 8.40336177e-03 1.68067235e-02
      8.40336177e-03 0. 8.40336177e-03 0. 2.52100863e-02 0.
      8.40336177e-03 8.40336177e-03 0. 0. 8.40336177e-03 8.40336177e-03
      4.20168079e-02 1.68067235e-02 0. 1.68067235e-02 5.04201725e-02 0.
      2.52100863e-02 0. 0. 0. 2.52100863e-02 0. 0. 0. 0. 8.40336177e-03
      0. 2.52100863e-02 2.52100863e-02 0. 1.68067235e-02 2.52100863e-02
      0. 0. 0. 0. 0. 5.04201725e-02 8.40336177e-03 1.68067235e-02 0.
      8.40336177e-03 2.52100863e-02 0. 8.40336177e-03 8.40336177e-03</_>
    <_>
      5.83090354e-03 8.74635577e-03 1.36054419e-02 9.71817295e-04
      3.88726918e-03 3.01263370e-02 4.85908659e-03 2.91545177e-03
      3.88726918e-03 4.76190485e-02 2.91545177e-03 5.83090354e-03
      9.71817318e-03 9.71817318e-03 3.88726918e-03 7.77453836e-03
      5.83090354e-03 4.85908659e-03 5.83090354e-03 4.85908659e-03
      1.45772593e-02 2.23517977e-02 2.91545177e-03 1.55490767e-02
      2.91545177e-03 4.85908659e-03 8.74635577e-03 1.94363459e-03
      4.85908659e-03 8.74635577e-03 2.13799812e-02 2.81827021e-02
      1.55490767e-02 9.71817318e-03 1.36054419e-02 2.91545177e-03
      2.91545177e-03 4.85908659e-03 1.94363459e-03 7.77453836e-03
      3.88726927e-02 1.94363464e-02 6.80272095e-03 4.27599624e-02
      4.85908659e-03 7.77453836e-03 3.88726918e-03 9.71817295e-04
      2.91545177e-03 6.80272095e-03 9.71817318e-03 1.84645280e-02
      6.80272095e-03 3.88726918e-03 6.80272095e-03 5.83090354e-03
      9.71817318e-03 1.06899906e-02 5.83090354e-03 1.26336245e-02
      9.71817295e-04 6.80272095e-03 1.16618071e-02 9.71817318e-03
      1.94363459e-03 6.80272095e-03 1.16618071e-02 5.83090354e-03
      1.45772593e-02 1.16618071e-02 1.65208932e-02 1.36054419e-02
      2.13799812e-02 6.80272095e-03 9.71817318e-03 1.94363459e-03
      5.83090354e-03 5.83090354e-03 1.45772593e-02 2.91545177e-03
      1.36054419e-02 1.06899906e-02 3.49854231e-02 4.85908659e-03
      2.91545177e-03 2.04081628e-02 2.04081628e-02 1.94363459e-03
      1.06899906e-02 3.88726927e-02 1.06899906e-02 7.77453836e-03
      2.91545177e-03 3.88726918e-03 9.71817295e-04 6.80272095e-03
      3.88726918e-03 8.74635577e-03 4.85908659e-03 3.88726918e-03</_>
    <_>
      1.43840387e-02 3.86667717e-03 2.78400746e-03 7.03735230e-03
      1.43067054e-02 6.80535147e-03 9.04802419e-03 5.41334786e-03
      8.66135675e-03 8.50668922e-03 1.27600348e-02 5.64534869e-03
      7.65602058e-03 6.65068440e-03 1.13680307e-02 9.04802419e-03
      6.18668320e-03 1.03626950e-02 7.65602058e-03 6.18668320e-03
      9.89869330e-03 2.06480548e-02 9.20269173e-03 1.82507150e-02
      1.16773648e-02 7.57868728e-03 5.72268199e-03 1.09813632e-02
      5.33601455e-03 1.53893745e-02 8.42935592e-03 5.64534869e-03
      8.42935592e-03 1.24507006e-02 5.33601455e-03 1.80960484e-02
      1.65493786e-02 1.29920347e-02 1.09040290e-02 1.54667087e-02
      1.17546981e-02 1.67813785e-02 5.64534869e-03 8.50668922e-03
      8.66135675e-03 1.18320314e-02 1.24507006e-02 5.56801492e-03
      4.71734582e-03 9.28002503e-03 5.25868079e-03 6.88268524e-03
      6.80535147e-03 1.29147014e-02 1.10586965e-02 1.63173769e-02
      1.59307104e-02 1.03626950e-02 1.73227135e-02 8.89335759e-03
      9.82136000e-03 1.04400283e-02 1.00533608e-02 8.97069089e-03
      9.12535749e-03 1.25280339e-02 1.02080274e-02 5.80001576e-03
      1.32240355e-02 1.17546981e-02 7.96535518e-03 7.11468561e-03
      1.47707062e-02 1.84053835e-02 1.28373681e-02 6.96001854e-03
      5.25868079e-03 9.66669247e-03 7.88802095e-03 1.56987086e-02
      5.87734906e-03 5.80001576e-03 9.35735833e-03 1.67040452e-02
      1.00533608e-02 9.66669247e-03 1.21413656e-02 1.78640485e-02
      5.87734906e-03 1.19093657e-02 9.28002503e-03 1.23733664e-02
      8.66135675e-03 1.05173616e-02 7.19201937e-03 5.25868079e-03
      4.64001251e-03 1.05946949e-02 1.00533608e-02 7.42402021e-03</_>
    <_>
      7.72079080e-03 1.14236195e-02 5.51485084e-03 5.51485084e-03
      1.72536038e-02 2.19018348e-02 1.06357839e-02 7.01173861e-03
      2.20594020e-03 1.13448361e-02 1.66233350e-02 3.54526122e-03
      1.09509174e-02 8.90254509e-03 3.46647762e-03 9.13889520e-03
      7.87835848e-03 7.48444023e-03 7.56322406e-03 4.72701481e-03
      5.27849980e-03 6.93295524e-03 1.03994329e-02 1.83565747e-02
      3.23012681e-03 9.37524624e-03 2.67864182e-03 5.82998525e-03
      9.13889520e-03 6.61782082e-03 8.42984300e-03 6.30268641e-03
      1.11872684e-02 8.90254509e-03 6.77538803e-03 1.85929257e-02
      1.63869858e-02 2.11139992e-02 1.52052315e-02 1.49688805e-02
      1.25265894e-02 6.38147024e-03 1.25265894e-02 1.98534634e-02
      9.29646287e-03 7.40565686e-03 1.69384703e-02 6.85417140e-03
      5.51485084e-03 1.29992906e-02 6.61782082e-03 1.08721340e-02
      6.53903745e-03 4.25431319e-03 1.45749627e-02 1.93019770e-02
      1.43386116e-02 6.30268641e-03 2.19806191e-02 7.24808965e-03
      3.54526122e-03 1.15024028e-02 1.09509174e-02 2.99377600e-03
      1.25265894e-02 1.59142837e-02 7.24808965e-03 1.01630818e-02
      1.33144250e-02 5.59363421e-03 4.09674644e-03 1.60718504e-02
      1.88292768e-02 7.09052244e-03 1.74899548e-02 3.46647762e-03
      2.44229101e-03 1.32356416e-02 7.01173861e-03 1.63082015e-02
      8.58741067e-03 2.91499263e-03 1.13448361e-02 1.68596860e-02
      1.44961793e-02 1.37871271e-02 6.77538803e-03 1.76475216e-02
      9.53281298e-03 1.42598283e-02 1.13448361e-02 1.22902384e-02
      5.90876862e-03 1.43386116e-02 2.52107461e-03 6.46025361e-03
      6.14511920e-03 4.80579864e-03 5.27849980e-03 6.06633583e-03</_>
    <_>
      9.31315497e-03 7.31747877e-03 1.76284704e-02 8.31531640e-03
      3.99135193e-03 9.56261437e-03 1.74621644e-03 1.33045064e-02
      5.73756825e-03 4.15765820e-03 5.90387452e-03 5.90387452e-03
      8.39846954e-03 1.06436051e-02 1.45518035e-02 6.48594694e-03
      1.22235157e-02 1.61317140e-02 8.89738835e-03 8.98054149e-03
      9.56261437e-03 1.06436051e-02 1.02278395e-02 1.08930646e-02
      2.83552296e-02 6.48594694e-03 6.40279381e-03 1.32213533e-02
      1.30550470e-02 2.71910857e-02 1.13919834e-02 1.16414428e-02
      1.16414428e-02 1.21403625e-02 8.48162267e-03 3.32612661e-03
      1.09762177e-02 9.47946124e-03 7.89955072e-03 2.32828874e-03
      2.66090129e-03 9.64576751e-03 8.23216327e-03 1.12256771e-02
      7.31747877e-03 1.18077490e-02 2.66090129e-03 1.14751365e-02
      9.31315497e-03 4.57342388e-03 1.09762177e-02 4.07450506e-03
      5.65441512e-03 1.98736060e-02 9.56261437e-03 1.00615332e-02
      6.07018126e-03 1.68800931e-02 6.56910008e-03 1.30550470e-02
      3.00182924e-02 8.73108208e-03 5.15549630e-03 2.05388311e-02
      5.07234316e-03 1.64643265e-02 1.13088302e-02 5.65441512e-03
      7.73324445e-03 2.95193736e-02 1.00615332e-02 9.64576751e-03
      6.23648753e-03 2.79394630e-02 1.22235157e-02 1.02278395e-02
      1.21403625e-02 5.15549630e-03 8.81423522e-03 1.03941457e-02
      4.40711761e-03 6.15333440e-03 3.24297347e-03 4.49027075e-03
      4.07450506e-03 5.57126198e-03 8.81423522e-03 4.32396447e-03
      9.72892065e-03 2.66090129e-03 4.07450506e-03 1.10593708e-02
      5.40495571e-03 8.56477581e-03 7.23432517e-03 1.23066688e-02
      1.05604520e-02 2.07051374e-02 1.51338764e-02 1.22235157e-02</_>
    <_>
      1.14285713e-02 8.57142825e-03 1.14285713e-02 1.42857144e-02
      1.71428565e-02 1.99999996e-02 8.57142825e-03 2.85714283e-03
      1.14285713e-02 2.57142857e-02 1.42857144e-02 1.14285713e-02
      1.71428565e-02 1.71428565e-02 2.85714283e-03 8.57142825e-03
      5.71428565e-03 0. 2.85714283e-03 1.71428565e-02 8.57142825e-03
      1.71428565e-02 5.71428565e-03 1.42857144e-02 0. 8.57142825e-03
      8.57142825e-03 5.71428565e-03 1.14285713e-02 8.57142825e-03
      1.14285713e-02 8.57142825e-03 2.85714283e-03 8.57142825e-03
      8.57142825e-03 1.71428565e-02 8.57142825e-03 5.71428565e-03
      1.14285713e-02 1.42857144e-02 1.14285713e-02 1.71428565e-02
      5.71428565e-03 1.14285713e-02 1.71428565e-02 2.85714283e-03 0.
      5.71428565e-03 2.85714283e-03 5.71428565e-03 8.57142825e-03
      2.85714283e-03 2.85714283e-03 5.71428565e-03 2.85714287e-02
      1.42857144e-02 2.57142857e-02 2.85714283e-03 2.85714283e-03
      8.57142825e-03 0. 8.57142825e-03 8.57142825e-03 5.71428565e-03
      1.71428565e-02 5.71428565e-03 1.42857144e-02 3.14285718e-02
      1.14285713e-02 2.85714283e-03 5.71428565e-03 8.57142825e-03 0. 0.
      8.57142825e-03 8.57142825e-03 2.85714283e-03 1.14285713e-02
      1.14285713e-02 1.71428565e-02 2.85714283e-03 1.42857144e-02
      1.71428565e-02 1.71428565e-02 1.71428565e-02 2.85714287e-02
      1.99999996e-02 0. 5.71428565e-03 1.42857144e-02 5.71428565e-03
      1.42857144e-02 1.14285713e-02 5.71428565e-03 0. 2.85714283e-03
      2.28571426e-02 1.14285713e-02 2.85714283e-03 8.57142825e-03</_>
    <_>
      6.67913398e-03 1.12209450e-02 1.73657481e-02 8.81645735e-03
      6.67913398e-03 1.20224413e-02 4.27464582e-03 6.94629923e-03
      1.01522841e-02 8.54929164e-03 8.01496115e-03 5.87763824e-03
      9.35078785e-03 8.28212593e-03 8.54929164e-03 7.21346494e-03
      8.01496115e-03 8.54929164e-03 1.30911032e-02 1.01522841e-02
      7.48063019e-03 6.14480348e-03 3.74031509e-03 1.28239375e-02
      6.41196873e-03 8.54929164e-03 1.04194488e-02 1.04194488e-02
      8.54929164e-03 1.46940947e-02 1.04194488e-02 1.25567717e-02
      8.28212593e-03 1.41597642e-02 8.81645735e-03 6.14480348e-03
      9.88511834e-03 1.25567717e-02 8.01496115e-03 6.14480348e-03
      1.04194488e-02 5.34330728e-03 1.30911032e-02 2.69837026e-02
      9.88511834e-03 1.57627556e-02 2.40448816e-03 8.01496115e-03
      6.14480348e-03 6.94629923e-03 9.35078785e-03 9.35078785e-03
      1.06866146e-02 1.36254337e-02 8.28212593e-03 1.54955909e-02
      9.08362214e-03 6.94629923e-03 8.81645735e-03 8.01496115e-03
      8.01496115e-03 6.41196873e-03 6.67913398e-03 1.41597642e-02
      1.09537803e-02 1.49612604e-02 1.65642519e-02 6.41196873e-03
      6.67913398e-03 1.57627556e-02 1.65642519e-02 1.70985833e-02
      1.52284261e-02 1.36254337e-02 1.52284261e-02 3.74031509e-03
      1.12209450e-02 8.54929164e-03 1.41597642e-02 1.12209450e-02
      1.06866146e-02 9.08362214e-03 9.61795263e-03 6.94629923e-03
      7.21346494e-03 1.22896070e-02 1.33582680e-02 8.01496115e-03
      1.14881108e-02 8.81645735e-03 1.14881108e-02 8.28212593e-03
      6.41196873e-03 7.48063019e-03 9.88511834e-03 1.20224413e-02
      8.28212593e-03 1.84344109e-02 7.48063019e-03 8.81645735e-03</_>
    <_>
      1.18110236e-02 0. 3.93700786e-03 3.93700786e-03 7.87401572e-03
      7.87401572e-03 0. 0. 1.96850393e-02 2.75590550e-02 3.93700786e-03
      3.93700786e-03 7.87401572e-03 1.18110236e-02 7.87401572e-03
      7.87401572e-03 3.14960629e-02 7.87401572e-03 1.57480314e-02
      7.87401572e-03 0. 7.87401572e-03 0. 7.87401572e-03 7.87401572e-03
      7.87401572e-03 0. 1.18110236e-02 0. 1.18110236e-02 7.87401572e-03
      2.75590550e-02 0. 1.57480314e-02 0. 1.18110236e-02 3.93700786e-03
      7.87401572e-03 7.87401572e-03 1.18110236e-02 1.18110236e-02
      2.75590550e-02 3.93700786e-03 7.87401572e-03 7.87401572e-03
      7.87401572e-03 3.93700786e-03 3.93700786e-03 3.93700786e-03
      7.87401572e-03 7.87401572e-03 7.87401572e-03 3.93700786e-03
      2.36220472e-02 7.87401572e-03 3.93700786e-03 1.18110236e-02 0. 0.
      2.36220472e-02 0. 3.93700786e-03 7.87401572e-03 1.96850393e-02
      2.75590550e-02 3.93700786e-03 1.96850393e-02 7.87401572e-03
      2.75590550e-02 3.93700786e-03 3.93700786e-03 3.14960629e-02
      3.14960629e-02 7.87401572e-03 1.18110236e-02 1.96850393e-02
      3.93700786e-03 0. 3.93700786e-03 1.57480314e-02 3.93700786e-03 0.
      3.54330689e-02 0. 0. 3.14960629e-02 7.87401572e-03 7.87401572e-03
      1.18110236e-02 2.36220472e-02 1.96850393e-02 7.87401572e-03
      3.93700786e-03 7.87401572e-03 2.36220472e-02 0. 1.96850393e-02
      3.93700786e-03 7.87401572e-03 1.57480314e-02</_>
    <_>
      0. 1.20481923e-02 0. 6.02409616e-03 1.20481923e-02 0.
      6.02409616e-03 0. 0. 2.40963846e-02 1.80722885e-02 3.01204808e-02
      1.80722885e-02 6.02409616e-03 1.20481923e-02 0. 1.80722885e-02
      6.02409616e-03 2.40963846e-02 6.02409616e-03 1.80722885e-02
      1.20481923e-02 0. 0. 0. 0. 0. 6.02409616e-02 0. 1.20481923e-02
      6.02409616e-03 0. 3.01204808e-02 6.02409616e-03 1.20481923e-02
      1.20481923e-02 1.20481923e-02 0. 1.20481923e-02 1.20481923e-02 0.
      1.20481923e-02 6.02409616e-03 1.20481923e-02 1.20481923e-02 0. 0.
      0. 1.20481923e-02 6.02409616e-03 2.40963846e-02 1.80722885e-02 0.
      6.02409616e-03 0. 1.20481923e-02 1.20481923e-02 0. 0.
      1.20481923e-02 6.02409616e-03 1.80722885e-02 1.20481923e-02 0.
      3.01204808e-02 6.02409616e-03 2.40963846e-02 3.61445770e-02
      1.20481923e-02 6.02409616e-03 6.02409616e-03 0. 2.40963846e-02
      1.20481923e-02 6.02409616e-03 0. 0. 6.02409616e-03 2.40963846e-02
      0. 0. 0. 1.20481923e-02 0. 1.20481923e-02 1.80722885e-02
      1.20481923e-02 0. 1.80722885e-02 3.01204808e-02 0. 6.02409616e-03
      1.80722885e-02 1.20481923e-02 0. 6.02409616e-03 1.80722885e-02 0.
      3.61445770e-02 2.40963846e-02</_>
    <_>
      3.75939859e-03 4.69924835e-03 2.91353390e-02 7.51879718e-03
      1.40977446e-02 1.50375944e-02 3.75939859e-03 5.63909765e-03
      2.06766929e-02 1.78571437e-02 9.39849671e-03 2.81954883e-03
      1.03383465e-02 1.12781953e-02 2.81954883e-03 6.57894742e-03
      1.12781953e-02 7.51879718e-03 1.22180451e-02 4.69924835e-03
      8.45864695e-03 1.78571437e-02 1.87969930e-03 1.97368432e-02
      5.63909765e-03 8.45864695e-03 4.69924835e-03 4.69924835e-03
      9.39849671e-03 8.45864695e-03 9.39849671e-03 9.39849671e-03
      6.57894742e-03 1.69172939e-02 1.87969930e-03 4.69924835e-03
      5.63909765e-03 4.69924835e-03 1.59774441e-02 1.59774441e-02
      1.69172939e-02 1.03383465e-02 6.57894742e-03 8.45864695e-03
      4.69924835e-03 1.78571437e-02 6.57894742e-03 9.39849671e-03
      6.57894742e-03 1.50375944e-02 8.45864695e-03 5.63909765e-03
      9.39849671e-03 3.75939859e-03 1.97368432e-02 1.69172939e-02
      6.57894742e-03 1.87969930e-03 1.40977446e-02 5.63909765e-03
      2.81954883e-03 8.45864695e-03 1.40977446e-02 2.06766929e-02
      6.57894742e-03 1.03383465e-02 5.63909765e-03 1.22180451e-02
      1.22180451e-02 7.51879718e-03 6.57894742e-03 1.50375944e-02
      1.03383465e-02 1.03383465e-02 1.31578948e-02 1.40977446e-02
      9.39849648e-04 1.50375944e-02 9.39849671e-03 1.50375944e-02
      5.63909765e-03 8.45864695e-03 1.69172939e-02 1.69172939e-02
      9.39849671e-03 8.45864695e-03 9.39849671e-03 7.51879718e-03
      8.45864695e-03 2.16165427e-02 9.39849671e-03 1.69172939e-02
      5.63909765e-03 1.31578948e-02 2.16165427e-02 5.63909765e-03
      5.63909765e-03 1.03383465e-02 7.51879718e-03 4.69924835e-03</_>
    <_>
      1.35458168e-02 7.96812773e-03 3.98406386e-03 6.37450209e-03
      4.78087645e-03 1.59362552e-03 7.96812761e-04 3.98406386e-03
      3.98406386e-03 7.96812773e-03 2.78884470e-02 6.37450209e-03
      3.98406386e-03 6.37450209e-03 6.37450209e-03 1.75298806e-02
      3.18725104e-03 7.17131468e-03 3.18725104e-03 3.98406386e-03
      5.57768950e-03 3.02788857e-02 4.30278890e-02 2.54980084e-02
      1.27490042e-02 2.54980084e-02 7.96812761e-04 2.47011948e-02
      1.59362552e-03 7.17131468e-03 8.76494031e-03 1.11553790e-02
      8.76494031e-03 1.19521916e-02 2.39043823e-03 7.17131468e-03
      1.19521916e-02 9.56175290e-03 1.99203193e-02 6.37450209e-03
      1.35458168e-02 3.50597613e-02 3.18725104e-03 1.59362552e-03
      2.39043823e-03 1.67330671e-02 7.96812761e-04 3.98406386e-03
      1.59362552e-03 3.98406386e-03 3.18725104e-03 7.96812761e-04
      7.96812773e-03 5.57768950e-03 8.76494031e-03 1.03585655e-02
      2.70916335e-02 3.18725104e-03 1.27490042e-02 1.19521916e-02
      1.11553790e-02 2.07171310e-02 1.83266941e-02 1.43426294e-02
      1.35458168e-02 1.03585655e-02 4.78087645e-03 2.39043823e-03
      1.11553790e-02 4.78087645e-03 2.78884470e-02 1.19521916e-02
      2.39043823e-03 1.51394429e-02 7.96812773e-03 9.56175290e-03
      1.19521916e-02 7.17131468e-03 7.17131468e-03 4.78087645e-03
      7.96812761e-04 1.19521916e-02 1.03585655e-02 5.57768950e-03
      9.56175290e-03 1.59362555e-02 1.83266941e-02 7.96812761e-04
      3.98406386e-03 8.76494031e-03 1.11553790e-02 1.03585655e-02
      3.98406386e-03 1.35458168e-02 7.96812773e-03 1.91235058e-02
      9.56175290e-03 1.59362555e-02 7.17131468e-03 7.17131468e-03</_>
    <_>
      8.50125868e-03 5.98236732e-03 1.85768250e-02 2.51889159e-03
      2.20403005e-03 4.09319904e-03 0. 7.24181347e-03 7.55667500e-03
      4.40806011e-03 1.57430721e-03 2.51889159e-03 7.55667500e-03
      4.72292164e-03 1.35390423e-02 6.61209039e-03 5.98236732e-03
      7.55667500e-03 7.24181347e-03 2.20403005e-03 1.03904279e-02
      1.32241808e-02 1.95214096e-02 7.87153654e-03 2.64483616e-02
      5.35264472e-03 1.47984885e-02 1.25944577e-02 1.07052894e-02
      3.36901732e-02 1.03904279e-02 1.47984885e-02 8.18639807e-03
      1.54282106e-02 3.46347596e-03 1.57430721e-03 5.66750625e-03
      5.35264472e-03 3.14861443e-03 3.14861443e-03 2.20403005e-03
      1.22795962e-02 6.61209039e-03 9.13098175e-03 6.29722886e-03
      1.19647346e-02 0. 8.18639807e-03 3.46347596e-03 2.20403005e-03
      7.24181347e-03 3.77833750e-03 5.66750625e-03 1.18387908e-01
      4.72292164e-03 5.66750625e-03 3.77833750e-03 1.32241808e-02
      4.72292164e-03 1.70025174e-02 2.92821154e-02 3.77833750e-03
      3.77833750e-03 1.88916866e-02 5.66750625e-03 1.16498740e-02
      1.03904279e-02 1.25944579e-03 4.09319904e-03 1.05793446e-01
      1.03904279e-02 9.44584375e-04 1.03904279e-02 3.14861462e-02
      4.72292164e-03 1.10201510e-02 1.63727961e-02 6.29722897e-04
      5.98236732e-03 8.81612021e-03 1.88916875e-03 5.66750625e-03
      4.72292164e-03 0. 1.25944579e-03 3.46347596e-03 6.92695193e-03
      9.44584375e-04 3.14861443e-03 2.51889159e-03 5.03778318e-03
      4.72292164e-03 1.57430721e-03 8.18639807e-03 1.22795962e-02
      1.25944577e-02 3.14861443e-03 1.70025174e-02 7.24181347e-03
      9.44584329e-03</_>
    <_>
      1.08843539e-02 1.36054419e-02 3.26530635e-02 9.52380989e-03
      6.80272095e-03 4.08163294e-03 6.80272095e-03 1.08843539e-02
      1.36054424e-03 1.36054424e-03 1.36054419e-02 5.44217695e-03
      2.72108847e-03 1.49659868e-02 8.16326588e-03 1.63265318e-02
      2.72108847e-03 2.72108847e-03 1.76870748e-02 9.52380989e-03
      9.52380989e-03 1.49659868e-02 6.80272095e-03 1.76870748e-02
      4.08163294e-03 2.04081628e-02 0. 5.44217695e-03 5.44217695e-03
      2.31292527e-02 6.80272095e-03 5.44217695e-03 5.44217695e-03
      2.72108847e-03 1.22448979e-02 2.72108847e-03 6.80272095e-03
      1.22448979e-02 1.22448979e-02 6.80272095e-03 1.76870748e-02
      1.22448979e-02 8.16326588e-03 6.80272095e-03 2.72108847e-03
      1.36054424e-03 9.52380989e-03 2.72108847e-03 4.08163294e-03
      1.49659868e-02 9.52380989e-03 6.80272095e-03 1.36054424e-03 0.
      1.22448979e-02 1.49659868e-02 1.49659868e-02 1.36054424e-03
      1.36054419e-02 9.52380989e-03 0. 6.80272095e-03 1.49659868e-02
      6.80272095e-03 8.16326588e-03 1.36054419e-02 1.22448979e-02
      6.80272095e-03 6.80272095e-03 4.08163294e-03 1.76870748e-02
      1.49659868e-02 1.76870748e-02 2.31292527e-02 5.44217695e-03
      8.16326588e-03 6.80272095e-03 2.99319737e-02 2.72108838e-02
      5.44217695e-03 4.08163294e-03 2.17687078e-02 4.08163294e-03
      1.08843539e-02 9.52380989e-03 9.52380989e-03 1.36054419e-02
      2.72108847e-03 1.36054419e-02 1.49659868e-02 2.04081628e-02
      1.22448979e-02 1.49659868e-02 2.72108847e-03 6.80272095e-03
      1.36054419e-02 1.76870748e-02 9.52380989e-03 1.63265318e-02
      6.80272095e-03</_>
    <_>
      1.15755619e-02 1.15755619e-02 7.07395468e-03 5.78778097e-03
      1.35048227e-02 7.71704130e-03 1.67202558e-02 5.78778097e-03
      4.50160773e-03 3.21543403e-03 1.80064309e-02 7.71704130e-03
      1.60771701e-02 1.67202558e-02 5.14469435e-03 9.00321547e-03
      5.78778097e-03 2.57234718e-03 7.07395468e-03 4.50160773e-03
      7.07395468e-03 9.00321547e-03 1.02893887e-02 1.73633434e-02
      4.50160773e-03 1.60771701e-02 3.21543403e-03 1.02893887e-02
      7.71704130e-03 5.14469435e-03 6.43086794e-04 1.15755619e-02
      1.02893887e-02 7.71704130e-03 5.14469435e-03 1.35048227e-02
      1.54340826e-02 1.09324753e-02 1.80064309e-02 9.64630209e-03
      9.64630209e-03 9.64630209e-03 7.07395468e-03 5.78778097e-03
      1.54340826e-02 7.07395468e-03 7.07395468e-03 3.21543403e-03
      8.36012792e-03 1.35048227e-02 5.78778097e-03 1.35048227e-02
      1.28617361e-02 0. 7.07395468e-03 1.60771701e-02 2.50803847e-02
      5.78778097e-03 1.22186495e-02 3.21543403e-03 3.21543403e-03
      1.22186495e-02 1.80064309e-02 7.71704130e-03 1.92926042e-02
      1.15755619e-02 8.36012792e-03 5.14469435e-03 1.09324753e-02
      8.36012792e-03 1.22186495e-02 1.54340826e-02 1.22186495e-02
      5.14469435e-03 1.54340826e-02 6.43086806e-03 5.14469435e-03
      1.22186495e-02 9.64630209e-03 1.02893887e-02 9.64630209e-03
      1.60771701e-02 5.14469435e-03 1.35048227e-02 1.67202558e-02
      2.82958187e-02 1.54340826e-02 8.36012792e-03 1.28617361e-02
      1.09324753e-02 1.67202558e-02 1.09324753e-02 8.36012792e-03
      6.43086806e-03 3.85852065e-03 9.00321547e-03 1.35048227e-02
      8.36012792e-03 7.07395468e-03 7.71704130e-03</_>
    <_>
      5.81395347e-03 7.99418613e-03 6.17732573e-03 2.54360470e-03
      2.76162792e-02 1.16279069e-02 3.16133723e-02 7.26744160e-03
      1.45348837e-03 1.92587208e-02 5.81395347e-03 2.90697673e-03
      1.23546515e-02 6.54069753e-03 1.45348837e-03 6.90406980e-03
      3.63372080e-03 3.27034877e-03 7.63081387e-03 5.08720940e-03
      3.27034877e-03 4.36046533e-03 1.81686040e-03 1.23546515e-02
      1.45348837e-03 7.63081387e-03 4.36046533e-03 5.45058120e-03
      6.17732573e-03 2.90697673e-03 1.81686040e-03 4.72383713e-03
      6.17732573e-03 8.72093067e-03 3.99709307e-03 3.30668613e-02
      6.54069753e-03 6.17732573e-03 1.23546515e-02 2.28924416e-02
      1.05377911e-02 2.54360470e-03 7.99418613e-03 2.14389525e-02
      1.16279069e-02 7.26744160e-03 3.19767445e-02 6.17732573e-03
      5.08720940e-03 2.14389525e-02 6.17732573e-03 2.25290693e-02
      6.90406980e-03 5.45058120e-03 9.08430200e-03 1.45348832e-02
      5.08720940e-03 2.90697673e-03 1.81686040e-02 4.72383713e-03
      1.45348837e-03 6.90406980e-03 9.81104653e-03 2.54360470e-03
      7.99418613e-03 1.12645347e-02 6.54069753e-03 1.48982555e-02
      1.52616277e-02 1.30813951e-02 2.54360470e-03 9.81104653e-03
      3.05232555e-02 2.54360470e-03 1.16279069e-02 1.09011633e-03
      7.26744183e-04 2.18023248e-02 1.05377911e-02 1.45348832e-02
      2.39825584e-02 3.27034877e-03 1.85319763e-02 3.23401168e-02
      1.34447673e-02 9.44767427e-03 1.12645347e-02 3.77906971e-02
      1.41715119e-02 1.48982555e-02 9.81104653e-03 1.63517445e-02
      5.81395347e-03 9.44767427e-03 1.45348837e-03 6.90406980e-03
      6.90406980e-03 3.27034877e-03 3.27034877e-03 7.26744160e-03</_>
    <_>
      3.62318847e-03 5.43478271e-03 1.44927539e-02 1.08695654e-02
      1.81159424e-03 5.43478271e-03 3.62318847e-03 3.62318847e-03
      3.44202891e-02 4.52898555e-02 1.81159424e-03 1.44927539e-02
      7.24637695e-03 9.05797072e-03 1.08695654e-02 9.05797072e-03
      1.81159424e-03 5.43478271e-03 9.05797072e-03 1.44927539e-02
      2.53623202e-02 1.63043477e-02 0. 5.43478271e-03 7.24637695e-03 0.
      3.62318847e-03 5.43478271e-03 3.62318847e-03 7.24637695e-03
      1.08695654e-02 2.17391308e-02 1.63043477e-02 1.08695654e-02
      1.08695654e-02 5.43478271e-03 7.24637695e-03 3.62318847e-03
      5.43478271e-03 3.62318847e-03 1.26811601e-02 9.05797072e-03
      3.62318847e-03 3.26086953e-02 9.05797072e-03 1.26811601e-02 0. 0.
      3.62318847e-03 9.05797072e-03 1.44927539e-02 1.81159424e-03
      1.08695654e-02 1.44927539e-02 9.05797072e-03 0. 1.81159424e-03
      5.43478271e-03 1.81159424e-03 2.17391308e-02 3.62318847e-03
      3.62318847e-03 2.53623202e-02 3.26086953e-02 3.62318847e-03
      5.43478271e-03 2.35507246e-02 5.43478271e-03 9.05797072e-03
      1.44927539e-02 1.81159424e-03 5.43478271e-03 2.35507246e-02
      7.24637695e-03 1.81159424e-03 1.81159424e-03 7.24637695e-03
      1.08695654e-02 1.81159414e-02 5.43478271e-03 7.24637695e-03 0.
      5.07246405e-02 3.62318847e-03 1.81159424e-03 1.81159424e-03
      2.17391308e-02 1.81159424e-03 1.26811601e-02 1.26811601e-02
      5.43478271e-03 1.08695654e-02 1.26811601e-02 1.81159424e-03
      4.52898555e-02 5.43478271e-03 9.05797072e-03 9.05797072e-03
      1.08695654e-02 9.05797072e-03</_>
    <_>
      7.72430189e-03 4.75341640e-03 1.48544265e-02 5.94177051e-03
      1.78253110e-02 7.72430189e-03 5.34759369e-03 4.75341640e-03
      8.31847824e-03 1.96078420e-02 1.30718946e-02 2.97088525e-03
      8.91265552e-03 7.72430189e-03 5.94177051e-03 7.72430189e-03
      8.91265552e-03 4.15923912e-03 1.18835410e-02 2.37670820e-03
      8.31847824e-03 8.31847824e-03 1.66369565e-02 2.13903747e-02
      2.37670820e-03 5.94177051e-03 2.37670820e-03 1.78253115e-03
      4.75341640e-03 2.97088525e-03 1.18835410e-02 1.36660719e-02
      8.91265552e-03 6.53594732e-03 7.72430189e-03 2.07961965e-02
      1.12893637e-02 1.12893637e-02 1.24777183e-02 1.48544265e-02
      9.50683281e-03 9.50683281e-03 7.13012461e-03 2.37670820e-02
      6.53594732e-03 8.91265552e-03 1.24777183e-02 3.56506230e-03
      5.94177051e-04 9.50683281e-03 1.18835410e-02 8.31847824e-03
      3.56506230e-03 1.12893637e-02 2.61437893e-02 1.42602492e-02
      1.01010101e-02 4.15923912e-03 2.31729057e-02 6.53594732e-03
      2.37670820e-03 1.54486038e-02 5.34759369e-03 1.66369565e-02
      1.06951874e-02 1.30718946e-02 8.31847824e-03 7.72430189e-03
      1.72311347e-02 1.12893637e-02 5.94177051e-03 8.31847824e-03
      1.36660719e-02 4.75341640e-03 1.84194893e-02 1.01010101e-02
      1.24777183e-02 7.72430189e-03 1.48544265e-02 1.36660719e-02
      5.94177051e-03 1.18835410e-03 2.07961965e-02 1.42602492e-02
      1.06951874e-02 1.36660719e-02 1.01010101e-02 1.96078420e-02
      7.13012461e-03 1.60427801e-02 5.94177051e-03 1.48544265e-02
      1.18835410e-03 7.72430189e-03 2.79263221e-02 2.37670820e-03
      7.72430189e-03 1.18835410e-02 2.97088525e-03 4.15923912e-03</_>
    <_>
      2.13570204e-02 4.34700446e-03 8.69400892e-03 9.82800964e-03
      3.40200332e-03 4.15800419e-03 1.32300134e-03 4.91400482e-03
      7.56000727e-03 1.22850118e-02 4.34700446e-03 6.04800601e-03
      6.80400664e-03 9.45000909e-03 1.58760156e-02 1.60650164e-02
      1.17180115e-02 2.72160266e-02 1.53090153e-02 8.88300873e-03
