<?xml version="1.0"?>
<opencv_storage>
<opencv_ml_svm>
  <format>3</format>
  <svmType>C_SVC</svmType>
  <kernel>
    <type>RBF</type>
    <gamma>5.0625000000000009e-01</gamma></kernel>
  <C>3.1250000000000000e+02</C>
  <term_criteria><epsilon>1.1920928955078125e-07</epsilon>
    <iterations>1000</iterations></term_criteria>
  <var_count>100</var_count>
  <class_count>5</class_count>
  <class_labels type_id="opencv-matrix">
    <rows>5</rows>
    <cols>1</cols>
    <dt>i</dt>
    <data>
      0 1 2 3 4</data></class_labels>
  <sv_total>1106</sv_total>
  <support_vectors>
    <_>
      9.06344410e-03 1.20845921e-02 1.20845921e-02 6.04229607e-03
      9.06344410e-03 3.02114803e-03 1.20845921e-02 6.04229607e-03 0.
      9.06344410e-03 9.06344410e-03 1.20845921e-02 6.04229607e-03 0. 0.
      6.04229607e-03 1.20845921e-02 0. 6.04229607e-03 9.06344410e-03
      1.51057402e-02 2.41691843e-02 3.02114803e-03 6.04229607e-03
      1.20845921e-02 1.20845921e-02 1.51057402e-02 1.20845921e-02
      6.34441078e-02 1.51057402e-02 9.06344410e-03 3.02114803e-03
      1.20845921e-02 9.06344410e-03 6.04229607e-03 0. 2.41691843e-02
      6.04229607e-03 1.51057402e-02 9.06344410e-03 1.20845921e-02
      6.04229607e-03 1.20845921e-02 9.06344410e-03 6.04229607e-03
      6.04229607e-03 1.51057402e-02 1.20845921e-02 0. 3.02114803e-03
      3.62537764e-02 6.04229607e-03 6.04229607e-03 1.20845921e-02
      9.06344410e-03 6.04229607e-03 3.02114803e-03 1.51057402e-02
      1.51057402e-02 0. 1.51057402e-02 9.06344410e-03 3.02114803e-03
      1.51057402e-02 1.20845921e-02 0. 1.81268882e-02 1.51057402e-02
      1.20845921e-02 1.51057402e-02 0. 1.20845921e-02 3.02114803e-03
      1.81268882e-02 6.04229607e-03 1.81268882e-02 9.06344410e-03
      6.04229607e-03 9.06344410e-03 1.81268882e-02 0. 9.06344410e-03
      1.51057402e-02 9.06344410e-03 1.51057402e-02 3.02114803e-03
      9.06344410e-03 6.04229607e-03 1.20845921e-02 1.20845921e-02
      2.41691843e-02 3.02114803e-03 1.51057402e-02 0. 1.20845921e-02 0.
      1.20845921e-02 9.06344410e-03 1.51057402e-02 3.02114803e-03</_>
    <_>
      1.54185016e-02 9.91189387e-03 2.20264308e-03 1.10132154e-03
      1.54185016e-02 8.81057233e-03 1.43171800e-02 1.21145369e-02
      1.10132154e-03 2.20264308e-03 1.43171800e-02 1.43171800e-02
      9.91189387e-03 1.10132154e-03 3.30396462e-03 2.20264308e-03
      1.10132154e-02 5.50660770e-03 5.50660770e-03 1.54185016e-02
      2.09251083e-02 1.10132154e-02 1.10132154e-03 1.32158585e-02
      1.54185016e-02 2.20264308e-03 1.32158585e-02 1.21145369e-02
      8.81057233e-03 3.30396462e-03 1.98237877e-02 1.10132154e-02
      9.91189387e-03 1.87224671e-02 9.91189387e-03 4.40528616e-03
      5.50660770e-03 1.10132154e-02 1.32158585e-02 1.32158585e-02
      8.81057233e-03 1.98237877e-02 7.70925079e-03 6.60792924e-03
      5.50660770e-03 1.10132154e-02 8.81057233e-03 1.10132154e-02
      6.60792924e-03 6.60792924e-03 8.81057233e-03 1.54185016e-02
      1.21145369e-02 2.20264308e-03 1.21145369e-02 1.98237877e-02
      5.50660770e-03 1.43171800e-02 1.98237877e-02 1.43171800e-02
      1.54185016e-02 3.30396462e-03 2.20264308e-03 1.76211447e-02
      1.76211447e-02 8.81057233e-03 2.75330395e-02 1.54185016e-02
      9.91189387e-03 1.43171800e-02 3.30396462e-03 9.91189387e-03
      2.64317170e-02 1.32158585e-02 1.43171800e-02 1.21145369e-02
      8.81057233e-03 5.50660770e-03 3.30396462e-03 7.70925079e-03
      2.20264308e-03 5.50660770e-03 2.20264308e-03 1.43171800e-02
      5.50660770e-03 1.10132154e-03 6.60792924e-03 1.98237877e-02
      4.40528616e-03 6.60792924e-03 1.10132154e-02 5.50660770e-03
      1.43171800e-02 5.50660770e-03 9.91189387e-03 2.20264308e-03
      2.20264308e-03 1.10132154e-02 1.43171800e-02 1.87224671e-02</_>
    <_>
      5.25664818e-03 8.34879465e-03 8.65800865e-03 2.25726664e-02
      1.32962279e-02 7.11193588e-03 1.45330867e-02 1.02040824e-02
      2.16450216e-03 1.20593701e-02 1.20593701e-02 1.02040824e-02
      1.42238718e-02 2.47371686e-03 4.32900432e-03 6.49350695e-03
      1.36054428e-02 4.63821925e-03 2.16450216e-03 1.42238718e-02
      1.23685841e-02 6.18429203e-03 3.40136071e-03 1.36054428e-02
      1.02040824e-02 2.47371686e-03 6.80272141e-03 1.82436612e-02
      1.42238718e-02 8.34879465e-03 1.23685841e-02 1.29870139e-02
      9.27643850e-03 1.48423016e-02 8.96722358e-03 5.25664818e-03
      1.26777990e-02 2.35003103e-02 1.85528770e-02 1.48423016e-02
      7.42115080e-03 1.14409402e-02 1.23685841e-02 5.56586310e-03
      8.65800865e-03 1.29870139e-02 5.25664818e-03 7.42115080e-03
      4.94743371e-03 4.01978986e-03 4.63821925e-03 7.11193588e-03
      1.11317262e-02 4.63821925e-03 9.89486743e-03 4.32900432e-03
      6.49350695e-03 2.93753874e-02 1.97897349e-02 1.32962279e-02
      2.78293155e-03 1.02040824e-02 1.85528770e-03 1.17501551e-02
      5.56586310e-03 5.87507756e-03 2.59740278e-02 1.60791595e-02
      5.56586310e-03 1.17501551e-02 1.73160173e-02 1.51515156e-02
      1.48423016e-02 1.26777990e-02 1.63883734e-02 1.02040824e-02
      1.05132964e-02 4.63821925e-03 1.60791595e-02 6.18429203e-03
      1.54607301e-03 7.42115080e-03 2.78293155e-03 6.49350695e-03
      5.25664818e-03 5.56586310e-03 1.02040824e-02 2.16450226e-02
      2.47371686e-03 7.11193588e-03 7.73036527e-03 5.87507756e-03
      7.11193588e-03 4.94743371e-03 8.96722358e-03 6.80272141e-03
      6.18429203e-03 1.54607305e-02 1.57699455e-02 2.07173787e-02</_>
    <_>
      8.60117655e-03 7.69578991e-03 6.56405604e-03 6.56405604e-03
      1.49388863e-02 1.06382975e-02 1.60706192e-02 6.11136248e-03
      3.16885463e-03 7.92213622e-03 1.24490717e-02 1.38071524e-02
      8.82752333e-03 4.97962860e-03 3.84789496e-03 9.28021688e-03
      1.49388863e-02 5.65866893e-03 4.75328183e-03 1.47125395e-02
      1.51652331e-02 1.04119508e-02 5.65866893e-03 1.15436846e-02
      5.65866893e-03 1.81077409e-03 7.92213622e-03 1.72023531e-02
      1.31281121e-02 9.73291043e-03 1.51652331e-02 1.26754185e-02
      1.47125395e-02 1.06382975e-02 1.42598459e-02 6.33770926e-03
      5.20597538e-03 1.78813934e-02 1.51652331e-02 1.81077402e-02
      1.04119508e-02 7.24309636e-03 9.05387010e-03 1.13173376e-03
      7.24309636e-03 1.99185144e-02 9.95925721e-03 6.56405604e-03
      6.33770926e-03 5.20597538e-03 8.82752333e-03 8.60117655e-03
      1.24490717e-02 5.43232216e-03 7.01674959e-03 1.85604338e-02
      4.52693505e-03 1.53915798e-02 1.53915798e-02 1.58442724e-02
      9.73291043e-03 9.28021688e-03 1.58442731e-03 1.29017653e-02
      1.44861927e-02 6.11136248e-03 2.17292886e-02 8.60117655e-03
      1.17700314e-02 1.40334992e-02 4.07424150e-03 1.72023531e-02
      1.94658209e-02 1.94658209e-02 9.28021688e-03 7.92213622e-03
      5.43232216e-03 3.84789496e-03 7.92213622e-03 7.69578991e-03
      2.71616108e-03 8.60117655e-03 4.97962860e-03 1.04119508e-02
      4.97962860e-03 8.37482978e-03 8.14848300e-03 1.76550467e-02
      4.30058828e-03 9.95925721e-03 7.69578991e-03 7.24309636e-03
      1.85604338e-02 5.43232216e-03 9.73291043e-03 2.26346753e-03
      2.71616108e-03 1.96921676e-02 1.33544588e-02 1.56179266e-02</_>
    <_>
      4.82315104e-03 1.04501601e-02 4.82315104e-03 4.26045023e-02
      1.20578781e-02 8.03858507e-03 5.62700955e-03 1.92926042e-02
      8.03858507e-03 1.28617361e-02 6.43086806e-03 4.01929254e-03
      1.12540191e-02 3.21543403e-03 2.41157552e-03 4.82315104e-03
      2.25080382e-02 3.21543403e-03 8.84244405e-03 5.62700955e-03
      5.62700955e-03 5.62700955e-03 1.20578781e-02 1.36655942e-02
      9.64630209e-03 2.41157552e-03 1.36655942e-02 1.12540191e-02
      1.92926042e-02 5.62700955e-03 8.03858507e-03 8.84244405e-03
      9.64630209e-03 9.64630209e-03 8.03858507e-03 6.43086806e-03
      1.20578781e-02 6.43086806e-03 1.12540191e-02 7.23472657e-03
      1.60771701e-02 1.44694531e-02 1.92926042e-02 1.84887461e-02
      5.62700955e-03 8.03858507e-03 1.20578781e-02 1.60771701e-02
      6.43086806e-03 4.01929254e-03 1.20578781e-02 8.84244405e-03
      1.60771701e-02 8.03858507e-03 8.03858507e-03 9.64630209e-03
      2.17041802e-02 1.44694531e-02 1.44694531e-02 6.43086806e-03
      6.43086806e-03 5.62700955e-03 1.28617361e-02 8.84244405e-03
      1.04501601e-02 5.62700955e-03 1.84887461e-02 2.00964622e-02
      9.64630209e-03 8.84244405e-03 6.43086806e-03 1.20578781e-02
      6.43086806e-03 4.82315104e-03 2.25080382e-02 1.20578781e-02
      8.03858507e-03 4.82315104e-03 3.21543403e-02 5.62700955e-03
      9.64630209e-03 3.21543403e-03 2.41157552e-03 1.04501601e-02
      1.20578781e-02 1.20578781e-02 1.20578781e-02 1.12540191e-02
      3.21543403e-03 5.62700955e-03 7.23472657e-03 4.01929254e-03
      9.64630209e-03 5.62700955e-03 9.64630209e-03 4.82315104e-03
      4.01929254e-03 1.04501601e-02 7.23472657e-03 5.62700955e-03</_>
    <_>
      3.55618796e-03 5.92697971e-03 7.82361347e-03 2.98719779e-02
      1.37505932e-02 6.87529659e-03 8.29777215e-03 9.00900923e-03
      4.97866282e-03 1.16168801e-02 7.34945480e-03 7.82361347e-03
      1.39876725e-02 6.16405904e-03 6.87529659e-03 1.20910387e-02
      1.28022768e-02 5.45282150e-03 4.74158395e-03 1.30393552e-02
      7.34945480e-03 6.16405904e-03 7.82361347e-03 1.30393552e-02
      9.72024724e-03 5.21574216e-03 7.82361347e-03 1.13798007e-02
      2.70270277e-02 1.16168801e-02 1.30393552e-02 1.18539594e-02
      1.18539594e-02 1.30393552e-02 9.48316790e-03 4.26742528e-03
      9.24608856e-03 1.46989096e-02 1.37505932e-02 1.18539594e-02
      1.28022768e-02 1.28022768e-02 1.56472269e-02 1.20910387e-02
      5.92697971e-03 1.18539594e-02 7.58653414e-03 8.06069281e-03
      6.87529659e-03 5.92697971e-03 1.46989096e-02 9.72024724e-03
      8.06069281e-03 5.45282150e-03 5.92697971e-03 7.34945480e-03
      1.09056430e-02 2.06258893e-02 1.82550978e-02 1.25651974e-02
      5.92697971e-03 6.16405904e-03 6.63821725e-03 9.48316790e-03
      9.24608856e-03 7.58653414e-03 1.49359889e-02 1.70697011e-02
      4.03034640e-03 1.13798007e-02 1.77809391e-02 9.24608856e-03
      1.18539594e-02 1.11427223e-02 1.70697011e-02 1.06685637e-02
      1.06685637e-02 4.50450461e-03 2.29966808e-02 5.45282150e-03
      9.24608856e-03 1.49359889e-02 2.37079198e-03 7.11237593e-03
      6.16405904e-03 8.77192989e-03 8.29777215e-03 1.18539594e-02
      4.74158395e-03 7.58653414e-03 6.87529659e-03 6.16405904e-03
      4.50450461e-03 6.40113838e-03 9.48316790e-03 4.74158395e-03
      6.63821725e-03 9.72024724e-03 1.42247519e-02 1.09056430e-02</_>
    <_>
      7.97929708e-03 7.33232684e-03 6.03838684e-03 1.66055635e-02
      1.12141473e-02 9.48889367e-03 1.25080869e-02 1.03515200e-02
      6.46970049e-03 1.07828341e-02 1.48803107e-02 1.05671771e-02
      1.57429371e-02 3.45050683e-03 5.60707366e-03 6.46970049e-03
      9.27323755e-03 4.96010343e-03 4.96010343e-03 8.62626731e-03
      1.44489976e-02 6.68535708e-03 5.82273025e-03 9.48889367e-03
      8.62626731e-03 5.60707366e-03 9.27323755e-03 1.33707142e-02
      2.71727405e-02 8.19495413e-03 1.59585942e-02 5.60707366e-03
      1.05671771e-02 1.48803107e-02 8.84192344e-03 4.31313366e-03
      1.09984903e-02 1.68212205e-02 1.63899083e-02 1.25080869e-02
      1.12141473e-02 1.05671771e-02 1.20767737e-02 6.25404343e-03
      7.11667025e-03 1.44489976e-02 1.07828341e-02 7.11667025e-03
      8.62626731e-03 4.09747707e-03 2.73883976e-02 6.46970049e-03
      8.62626731e-03 5.39141707e-03 6.25404343e-03 1.14298034e-02
      8.41061026e-03 1.70368776e-02 1.61742512e-02 8.84192344e-03
      8.41061026e-03 7.54798390e-03 5.17576002e-03 8.19495413e-03
      9.92020685e-03 5.60707366e-03 1.94091015e-02 1.05671771e-02
      9.70455073e-03 1.18611176e-02 9.27323755e-03 1.89777873e-02
      1.42333405e-02 1.50959678e-02 1.50959678e-02 1.35863703e-02
      9.48889367e-03 4.09747707e-03 1.53116239e-02 7.76364049e-03
      9.27323755e-03 5.82273025e-03 2.80353683e-03 1.16454605e-02
      6.90101366e-03 7.33232684e-03 6.90101366e-03 1.01358639e-02
      4.31313366e-03 5.82273025e-03 7.76364049e-03 6.03838684e-03
      1.09984903e-02 6.03838684e-03 7.11667025e-03 7.76364049e-03
      3.66616342e-03 1.53116239e-02 1.22924307e-02 1.55272810e-02</_>
    <_>
      7.02493871e-03 9.48366709e-03 7.72743253e-03 1.22936433e-02
      6.32244488e-03 5.97119797e-03 1.33473836e-02 5.26870415e-03
      1.75623468e-03 6.32244488e-03 1.79135948e-02 1.01861609e-02
      8.42992682e-03 4.91745723e-03 4.91745723e-03 1.26448898e-02
      1.65086053e-02 3.86371627e-03 3.16122244e-03 1.51036186e-02
      1.44011248e-02 1.08886547e-02 9.13242064e-03 1.47523712e-02
      8.78117327e-03 2.45872862e-03 5.61995106e-03 2.00210754e-02
      1.58061124e-02 1.29961371e-02 2.00210754e-02 9.48366709e-03
      1.65086053e-02 1.22936433e-02 8.07867944e-03 6.67369179e-03
      8.07867944e-03 1.22936433e-02 9.48366709e-03 1.40498774e-02
      1.15911495e-02 1.01861609e-02 1.05374083e-02 7.72743253e-03
      5.26870415e-03 2.21285578e-02 4.91745723e-03 5.97119797e-03
      7.72743253e-03 3.51246935e-03 1.05374083e-02 3.51246935e-03
      9.83491447e-03 3.16122244e-03 9.48366709e-03 1.15911495e-02
      1.75623465e-02 2.07235701e-02 1.68598536e-02 1.72111001e-02
      8.07867944e-03 5.26870415e-03 1.05374083e-02 6.32244488e-03
      1.33473836e-02 4.56621032e-03 2.14260630e-02 1.54548651e-02
      4.91745723e-03 1.36986310e-02 4.56621032e-03 1.86160877e-02
      1.89673342e-02 1.22936433e-02 1.93185825e-02 1.15911495e-02
      6.67369179e-03 1.40498776e-03 8.07867944e-03 6.67369179e-03
      1.29961371e-02 6.32244488e-03 5.26870415e-03 7.72743253e-03
      1.08886547e-02 1.51036186e-02 7.02493871e-03 1.05374083e-02
      3.51246935e-03 3.16122244e-03 7.37618562e-03 2.45872862e-03
      8.42992682e-03 5.97119797e-03 8.07867944e-03 6.32244488e-03
      4.21496341e-03 1.26448898e-02 1.15911495e-02 2.35335454e-02</_>
    <_>
      7.31261447e-03 1.64533816e-02 2.46800743e-02 3.65630724e-02 0.
      9.14076809e-04 4.57038404e-03 0. 9.14076809e-03 3.65630724e-03
      1.82815362e-03 2.74223043e-03 6.39853766e-03 0. 2.74223043e-03
      1.00548454e-02 7.31261447e-03 2.01096907e-02 3.38208415e-02
      5.48446085e-03 4.57038404e-03 5.48446085e-03 5.48446085e-03
      8.22669081e-03 1.27970753e-02 6.39853766e-03 1.73674598e-02
      2.74223043e-03 5.30164540e-02 4.57038404e-03 1.82815362e-02
      4.57038404e-03 8.22669081e-03 5.48446085e-03 9.14076809e-04
      1.82815362e-03 2.83363815e-02 1.27970753e-02 9.14076809e-03
      7.31261447e-03 1.09689217e-02 2.74223043e-03 9.14076809e-03
      1.09689217e-02 0. 1.09689217e-02 1.18829980e-02 1.82815362e-03
      7.31261447e-03 2.10237671e-02 3.29067633e-02 2.74223043e-03
      8.22669081e-03 6.39853766e-03 1.73674598e-02 1.27970753e-02
      5.48446085e-03 2.74223043e-03 2.74223043e-03 3.65630724e-03
      2.01096907e-02 4.57038404e-03 5.48446085e-03 9.14076809e-04
      1.46252289e-02 6.39853766e-03 1.00548454e-02 1.55393053e-02
      1.09689217e-02 1.82815362e-03 0. 5.48446085e-03 5.48446085e-03
      5.48446085e-03 3.65630724e-03 5.48446085e-03 1.82815362e-03
      1.18829980e-02 4.29616086e-02 4.02193815e-02 4.11334559e-02
      4.57038404e-03 9.14076809e-04 1.00548454e-02 1.91956125e-02
      2.74223043e-03 4.75319922e-02 9.14076809e-04 0. 5.48446085e-03
      2.01096907e-02 1.82815362e-03 1.37111526e-02 1.82815362e-03
      1.82815362e-03 3.65630724e-03 3.65630724e-03 1.00548454e-02 0.
      4.57038404e-03</_>
    <_>
      6.94444450e-03 8.63363408e-03 8.25825892e-03 2.57132147e-02
      1.18243247e-02 7.88288284e-03 1.18243247e-02 1.37012014e-02
      4.69219219e-03 7.69519527e-03 9.38438438e-03 9.75975953e-03
      1.12612620e-02 1.87687692e-03 3.94144142e-03 1.10735735e-02
      1.21996999e-02 4.31681704e-03 5.06756781e-03 1.06981983e-02
      1.44519527e-02 9.57207195e-03 7.50750769e-03 1.48273278e-02
      1.12612620e-02 3.94144142e-03 9.38438438e-03 1.27627626e-02
      2.12087091e-02 1.31381387e-02 1.23873875e-02 1.20120123e-02
      1.18243247e-02 1.18243247e-02 9.38438438e-03 3.37837846e-03
      2.08333340e-02 1.37012014e-02 1.31381387e-02 1.53903905e-02
      1.03228232e-02 8.07057042e-03 1.14489496e-02 1.44519527e-02
      4.69219219e-03 1.12612620e-02 1.05105108e-02 9.75975953e-03
      6.19369373e-03 5.44294296e-03 9.94744804e-03 6.56906934e-03
      1.03228232e-02 5.06756781e-03 8.44594650e-03 6.56906934e-03
      1.14489496e-02 1.35135138e-02 1.10735735e-02 1.18243247e-02
      7.88288284e-03 7.31982011e-03 8.07057042e-03 1.37012014e-02
      1.06981983e-02 7.31982011e-03 1.74549557e-02 1.27627626e-02
      9.19669680e-03 9.75975953e-03 1.01351356e-02 1.31381387e-02
      1.06981983e-02 1.03228232e-02 1.42642651e-02 1.12612620e-02
      6.75675692e-03 2.43993988e-03 3.26576568e-02 8.07057042e-03
      1.91441439e-02 8.63363408e-03 2.81531550e-03 1.06981983e-02
      7.88288284e-03 7.13213254e-03 6.56906934e-03 1.31381387e-02
      4.31681704e-03 6.38138130e-03 9.38438438e-03 6.19369373e-03
      1.14489496e-02 3.75375384e-03 7.88288284e-03 2.81531550e-03
      3.37837846e-03 1.06981983e-02 7.69519527e-03 1.05105108e-02</_>
    <_>
      7.56495958e-03 4.71439539e-03 1.00866128e-02 2.25852430e-02
      7.23604858e-03 7.34568574e-03 1.71033870e-02 5.81076602e-03
      5.04330639e-03 5.92040317e-03 1.12926215e-02 9.97697562e-03
      8.88060499e-03 5.37221786e-03 5.04330639e-03 1.30468151e-02
      9.09987930e-03 4.38548392e-03 5.59149217e-03 1.45817343e-02
      1.10733472e-02 8.88060499e-03 8.22278205e-03 9.53842793e-03
      8.99024215e-03 5.15294354e-03 6.57822564e-03 1.07444357e-02
      3.67284268e-02 1.29371779e-02 1.10733472e-02 9.31915361e-03
      1.44720972e-02 9.09987930e-03 9.09987930e-03 6.90713711e-03
      1.35949999e-02 1.37046371e-02 1.28275407e-02 1.39239114e-02
      8.55169352e-03 7.67459674e-03 9.64806415e-03 9.31915361e-03
      8.00350774e-03 1.33757256e-02 7.01677427e-03 6.35895180e-03
      5.81076602e-03 5.04330639e-03 1.40335485e-02 5.26258070e-03
      7.89387152e-03 8.22278205e-03 7.78423389e-03 6.57822564e-03
      1.30468151e-02 1.16215320e-02 1.23889921e-02 1.21697178e-02
      6.57822564e-03 8.22278205e-03 5.15294354e-03 1.07444357e-02
      1.07444357e-02 4.93366923e-03 1.89672187e-02 1.68841127e-02
      6.13967748e-03 1.43624600e-02 1.24986293e-02 1.27179036e-02
      1.56781059e-02 1.03058871e-02 1.28275407e-02 7.34568574e-03
      7.45532289e-03 3.94693576e-03 2.77381856e-02 4.60475823e-03
      1.12926215e-02 1.04155242e-02 3.28911282e-03 1.24986293e-02
      9.09987930e-03 1.32660884e-02 4.93366923e-03 1.92961283e-02
      3.17947590e-03 8.00350774e-03 9.64806415e-03 5.81076602e-03
      1.38142742e-02 5.48185501e-03 8.77096783e-03 6.35895180e-03
      4.05657245e-03 1.72130242e-02 8.00350774e-03 1.43624600e-02</_>
    <_>
      3.81887611e-03 8.72885995e-03 1.30932899e-02 2.29132567e-02
      7.63775222e-03 6.54664496e-03 1.36388438e-02 1.47299515e-02
      2.18221499e-03 1.14566283e-02 8.72885995e-03 7.09219882e-03
      7.63775222e-03 4.90998384e-03 4.90998384e-03 6.54664496e-03
      9.81996767e-03 6.54664496e-03 4.36442997e-03 9.27441381e-03
      9.27441381e-03 7.09219882e-03 6.54664496e-03 9.27441381e-03
      7.63775222e-03 4.90998384e-03 1.14566283e-02 1.36388438e-02
      2.40043644e-02 9.81996767e-03 6.54664496e-03 8.72885995e-03
      1.58210583e-02 1.20021822e-02 8.18330608e-03 3.27332248e-03
      1.47299515e-02 1.47299515e-02 1.14566283e-02 1.09110754e-02
      2.01854892e-02 7.09219882e-03 1.74577199e-02 1.41843976e-02
      1.52755044e-02 1.30932899e-02 8.72885995e-03 1.30932899e-02
      5.45553770e-03 5.45553770e-03 1.74577199e-02 7.09219882e-03
      6.54664496e-03 5.45553770e-03 8.18330608e-03 8.72885995e-03
      1.36388438e-02 1.20021822e-02 1.25477361e-02 7.63775222e-03
      7.63775222e-03 1.03655215e-02 3.27332248e-03 9.81996767e-03
      8.72885995e-03 8.72885995e-03 1.25477361e-02 1.80032738e-02
      1.14566283e-02 1.36388438e-02 9.81996767e-03 1.20021822e-02
      9.81996767e-03 1.03655215e-02 1.36388438e-02 1.14566283e-02
      1.52755044e-02 6.54664496e-03 2.83687953e-02 7.09219882e-03
      5.45553770e-03 5.45553770e-03 1.63666124e-03 1.47299515e-02
      7.09219882e-03 1.69121660e-02 1.03655215e-02 9.27441381e-03
      4.36442997e-03 6.00109110e-03 8.72885995e-03 7.09219882e-03
      9.81996767e-03 9.27441381e-03 6.54664496e-03 1.14566283e-02
      4.36442997e-03 9.27441381e-03 1.03655215e-02 9.27441381e-03</_>
    <_>
      1.00976015e-02 1.32125430e-02 3.99750797e-03 1.42508568e-02
      9.16311890e-03 1.07205901e-02 1.66389793e-02 7.83926900e-03
      2.90727848e-03 3.86771886e-03 1.54968332e-02 1.95202995e-02
      1.03831375e-02 1.19406090e-03 2.51791091e-03 3.19281500e-03
      8.74779373e-03 5.21752657e-03 4.69836965e-03 1.15252826e-02
      2.01173294e-02 1.60159897e-02 3.66005604e-03 1.15252826e-02
      6.93074474e-03 2.59578438e-03 1.21742291e-02 1.62755679e-02
      9.34482366e-03 8.90354067e-03 2.13633068e-02 1.53151285e-02
      9.03332978e-03 1.19925244e-02 1.01235593e-02 7.11244950e-03
      5.71072567e-03 9.55248717e-03 7.52777513e-03 2.05586124e-02
      5.63285220e-03 8.85162503e-03 6.90478645e-03 5.58093656e-03
      5.03582181e-03 1.98577512e-02 1.23299761e-02 6.93074474e-03
      5.78859914e-03 4.88007488e-03 6.41158782e-03 6.10009348e-03
      1.61717366e-02 2.07662769e-03 7.06053386e-03 4.27785292e-02
      3.76388757e-03 9.63036064e-03 1.04090953e-02 9.76014975e-03
      2.30765231e-02 4.85411705e-03 2.64770025e-03 1.69764310e-02
      2.19603367e-02 5.21752657e-03 1.71321779e-02 6.41158782e-03
      1.63534414e-02 1.48998024e-02 5.29540051e-03 1.82743222e-02
      2.23497041e-02 1.22261448e-02 7.78735336e-03 7.50181731e-03
      3.84176103e-03 3.94559233e-03 9.94185451e-03 7.47585949e-03
      3.50430910e-03 2.80344719e-03 4.93199052e-03 6.87882863e-03
      4.98390617e-03 2.15450116e-03 7.94310030e-03 1.38095729e-02
      4.51666489e-03 7.26819644e-03 7.57969078e-03 5.45114744e-03
      2.44782474e-02 6.28179824e-03 1.04869688e-02 2.56982655e-03
      1.50555500e-03 2.97217313e-02 8.04693159e-03 1.99356247e-02</_>
    <_>
      4.70145745e-03 9.87306051e-03 1.88058300e-03 4.70145745e-03
      5.64174913e-03 1.50446640e-02 1.17536439e-02 9.87306051e-03
      2.82087456e-03 2.82087456e-03 3.24400552e-02 1.17536439e-02
      1.55148096e-02 1.41043728e-03 1.31640807e-02 2.35072873e-03
      7.99247809e-03 1.12834983e-02 4.23131185e-03 9.40291490e-03
      1.50446640e-02 6.11189473e-03 5.64174913e-03 8.93276930e-03
      7.05218641e-03 4.70145745e-03 1.50446640e-02 1.17536439e-02
      9.40291490e-03 9.87306051e-03 3.62012237e-02 1.08133527e-02
      5.64174913e-03 7.05218641e-03 6.11189473e-03 1.73953921e-02
      4.23131185e-03 2.44475789e-02 2.11565588e-02 1.83356851e-02
      8.93276930e-03 8.46262369e-03 7.05218641e-03 4.23131185e-03
      7.99247809e-03 1.97461210e-02 1.17536439e-02 7.05218641e-03
      7.99247809e-03 2.35072873e-03 1.69252474e-02 4.70145745e-03
      9.87306051e-03 4.23131185e-03 8.93276930e-03 1.59849562e-02
      3.76116601e-03 1.08133527e-02 1.50446640e-02 1.55148096e-02
      1.08133527e-02 1.12834983e-02 2.82087456e-03 7.52233202e-03
      1.03432061e-02 9.87306051e-03 1.55148096e-02 5.64174913e-03
      6.58204034e-03 1.22237895e-02 4.23131185e-03 2.77385991e-02
      7.99247809e-03 2.82087456e-02 8.93276930e-03 1.03432061e-02
      5.64174913e-03 7.99247809e-03 4.70145745e-03 7.52233202e-03
      9.40291502e-04 5.17160306e-03 1.69252474e-02 6.58204034e-03
      3.76116601e-03 3.76116601e-03 7.05218641e-03 7.52233202e-03
      7.99247809e-03 1.41043728e-03 7.99247809e-03 1.31640807e-02
      9.40291490e-03 1.73953921e-02 4.70145745e-03 1.73953921e-02
      7.99247809e-03 2.44475789e-02 3.29102017e-03 1.22237895e-02</_>
    <_>
      6.34316541e-03 4.44021588e-03 8.56327359e-03 2.02981289e-02
      1.17348554e-02 1.17348554e-02 1.20520145e-02 9.19758994e-03
      5.39169041e-03 1.23691726e-02 1.23691726e-02 1.20520145e-02
      1.23691726e-02 6.02600724e-03 6.34316541e-03 1.49064381e-02
      1.61750708e-02 5.70884859e-03 3.17158271e-03 1.30034890e-02
      1.04662227e-02 2.85442430e-03 1.01490645e-02 1.36378054e-02
      9.51474812e-03 5.39169041e-03 6.34316541e-03 1.45892799e-02
      1.20520145e-02 1.39549635e-02 9.83190630e-03 7.92895630e-03
      1.20520145e-02 1.17348554e-02 1.55407554e-02 6.97748177e-03
      1.07833808e-02 1.55407554e-02 1.68093871e-02 1.17348554e-02
      8.88043176e-03 1.14176972e-02 1.33206472e-02 7.92895630e-03
      9.19758994e-03 1.01490645e-02 6.02600724e-03 9.51474812e-03
      5.07453224e-03 3.17158271e-03 6.02600724e-03 1.14176972e-02
      8.56327359e-03 5.39169041e-03 5.07453224e-03 4.12305724e-03
      1.74437054e-02 2.53726617e-02 1.64922290e-02 1.39549635e-02
      3.17158271e-03 7.92895630e-03 2.85442430e-03 1.23691726e-02
      4.44021588e-03 3.80589906e-03 1.55407554e-02 1.23691726e-02
      4.44021588e-03 1.07833808e-02 1.42721217e-02 1.52235962e-02
      1.04662227e-02 1.71265472e-02 1.42721217e-02 1.04662227e-02
      1.36378054e-02 3.80589906e-03 1.49064381e-02 5.70884859e-03
      5.07453224e-03 1.52235962e-02 3.80589906e-03 7.61179812e-03
      9.51474812e-03 9.83190630e-03 1.11005390e-02 1.99809708e-02
      5.70884859e-03 6.66032359e-03 6.02600724e-03 8.56327359e-03
      5.07453224e-03 6.66032359e-03 8.24611448e-03 8.24611448e-03
      1.23691726e-02 1.11005390e-02 1.14176972e-02 9.51474812e-03</_>
    <_>
      7.56059587e-03 2.13475637e-02 4.66977991e-03 1.13408938e-02
      6.00400241e-03 2.89081596e-03 1.24527458e-02 5.11452090e-03
      1.11185235e-03 3.78029794e-03 1.44540798e-02 8.00533686e-03
      9.56192985e-03 9.78430081e-03 1.33422273e-03 3.55792744e-03
      1.17856348e-02 2.89081596e-03 3.33555695e-03 1.33422278e-02
      1.64554138e-02 2.75739376e-02 1.77896372e-03 1.69001557e-02
      6.44874340e-03 6.67111366e-04 1.73448958e-02 2.17923056e-02
      1.46764508e-02 1.00066708e-02 2.95752715e-02 9.33955982e-03
      1.26751168e-02 1.89014897e-02 4.89215041e-03 1.77896372e-03
      3.78029794e-03 4.66977991e-03 4.22503892e-03 2.06804536e-02
      6.00400241e-03 9.33955982e-03 9.78430081e-03 3.55792744e-03
      2.00133421e-03 3.22437175e-02 1.60106737e-02 3.78029794e-03
      5.78163192e-03 2.00133421e-03 5.55926142e-03 3.33555695e-03
      1.93462297e-02 1.33422273e-03 1.13408938e-02 3.49121615e-02
      3.78029794e-03 5.78163192e-03 1.33422278e-02 8.45007785e-03
      3.13542373e-02 6.89348439e-03 1.55659323e-03 1.37869688e-02
      2.73515675e-02 7.11585488e-03 2.11251937e-02 8.22770689e-03
      2.53502335e-02 1.51211917e-02 4.44740930e-04 1.62330437e-02
      2.91305315e-02 1.06737819e-02 1.04514118e-02 8.22770689e-03
      1.77896372e-03 2.89081596e-03 7.33822538e-03 7.78296636e-03
      4.44740930e-04 2.22370471e-03 1.77896372e-03 9.56192985e-03
      2.44607520e-03 1.04514118e-02 8.67244788e-03 1.11185228e-02
      2.44607520e-03 5.55926142e-03 7.33822538e-03 2.22370471e-03
      2.46831216e-02 6.00400241e-03 7.56059587e-03 1.55659323e-03
      1.33422273e-03 1.17856348e-02 6.00400241e-03 2.77963076e-02</_>
    <_>
      0. 8.69565178e-03 0. 0. 0. 8.69565178e-03 8.69565178e-03 0. 0. 0.
      1.73913036e-02 8.69565178e-03 0. 0. 4.34782580e-02 8.69565178e-03
      2.60869563e-02 2.60869563e-02 8.69565178e-03 8.69565178e-03
      4.34782580e-02 0. 1.73913036e-02 1.73913036e-02 8.69565178e-03 0.
      0. 0. 3.47826071e-02 8.69565178e-03 1.73913036e-02 0.
      8.69565178e-03 8.69565178e-03 1.73913036e-02 8.69565178e-03
      8.69565178e-03 2.60869563e-02 0. 3.47826071e-02 8.69565178e-03
      1.73913036e-02 0. 8.69565178e-03 0. 1.73913036e-02 1.73913036e-02
      0. 1.73913036e-02 2.60869563e-02 0. 1.73913036e-02 1.73913036e-02
      1.73913036e-02 0. 2.60869563e-02 8.69565178e-03 2.60869563e-02 0.
      8.69565178e-03 1.73913036e-02 1.73913036e-02 0. 1.73913036e-02
      8.69565178e-03 1.73913036e-02 8.69565178e-03 0. 8.69565178e-03 0.
      0. 0. 0. 8.69565178e-03 8.69565178e-03 0. 0. 8.69565178e-03
      8.69565178e-03 8.69565178e-03 8.69565178e-03 8.69565178e-03
      2.60869563e-02 1.73913036e-02 0. 0. 8.69565178e-03 3.47826071e-02
      8.69565178e-03 0. 1.73913036e-02 0. 0. 8.69565178e-03
      8.69565178e-03 1.73913036e-02 0. 1.73913036e-02 8.69565178e-03 0.</_>
    <_>
      8.46023671e-03 5.07614203e-03 6.76818937e-03 1.69204734e-02
      2.03045681e-02 8.46023671e-03 1.01522841e-02 1.52284261e-02
      5.07614203e-03 8.46023671e-03 6.76818937e-03 1.01522841e-02
      8.46023671e-03 6.76818937e-03 8.46023671e-03 3.89170870e-02
      2.70727575e-02 1.69204734e-03 5.07614203e-03 1.18443314e-02
      5.07614203e-03 3.38409469e-03 1.35363787e-02 1.01522841e-02
      2.19966155e-02 0. 1.01522841e-02 1.18443314e-02 1.18443314e-02
      1.86125208e-02 3.38409469e-03 1.35363787e-02 1.69204734e-03
      2.03045681e-02 6.76818937e-03 8.46023671e-03 8.46023671e-03
      1.01522841e-02 3.38409469e-03 1.01522841e-02 1.01522841e-02
      2.87648048e-02 1.52284261e-02 1.86125208e-02 8.46023671e-03 0.
      1.18443314e-02 1.18443314e-02 1.01522841e-02 6.76818937e-03
      1.69204734e-03 6.76818937e-03 1.69204734e-02 6.76818937e-03
      1.18443314e-02 1.69204734e-03 2.70727575e-02 2.36886628e-02
      1.18443314e-02 1.69204734e-02 0. 5.07614203e-03 3.38409469e-03
      6.76818937e-03 5.07614203e-03 3.38409469e-03 1.52284261e-02
      2.03045681e-02 1.18443314e-02 1.01522841e-02 5.07614203e-03
      1.18443314e-02 6.76818937e-03 3.38409469e-03 2.53807101e-02
      2.03045681e-02 5.07614203e-03 5.07614203e-03 2.03045681e-02
      1.69204734e-03 5.07614203e-03 1.01522841e-02 3.38409469e-03
      3.38409469e-03 1.01522841e-02 1.69204734e-03 1.52284261e-02
      1.18443314e-02 6.76818937e-03 3.38409469e-03 5.07614203e-03
      3.38409469e-03 1.69204734e-03 1.18443314e-02 3.38409469e-03
      3.38409469e-03 1.52284261e-02 8.46023671e-03 1.52284261e-02
      5.07614203e-03</_>
    <_>
      5.58659248e-03 4.34512738e-03 1.24146501e-02 9.06269401e-02
      9.31098778e-03 5.58659248e-03 1.17939170e-02 1.55183123e-02
      4.34512738e-03 1.80012416e-02 6.82805758e-03 4.96585993e-03
      1.05524519e-02 3.10366252e-03 3.10366252e-03 1.67597774e-02
      1.11731850e-02 5.58659248e-03 5.58659248e-03 8.69025476e-03
      3.72439483e-03 1.11731850e-02 1.42768472e-02 6.82805758e-03
      1.24146501e-02 4.34512738e-03 5.58659248e-03 9.31098778e-03
      3.10366247e-02 5.58659248e-03 3.72439483e-03 6.20732503e-03
      2.66914964e-02 8.06952268e-03 7.44878966e-03 3.72439483e-03
      9.93171986e-03 4.34512738e-03 6.82805758e-03 4.96585993e-03
      3.10366247e-02 8.06952268e-03 2.42085680e-02 1.42768472e-02
      6.20732503e-03 4.34512738e-03 5.58659248e-03 1.42768472e-02
      5.58659248e-03 5.58659248e-03 1.17939170e-02 5.58659248e-03
      5.58659248e-03 3.72439483e-03 6.82805758e-03 1.24146498e-03
      1.55183123e-02 9.31098778e-03 7.44878966e-03 3.10366252e-03
      4.34512738e-03 1.24146498e-03 1.11731850e-02 2.48292997e-03
      4.34512738e-03 1.86219742e-03 3.72439483e-03 2.29671020e-02
      1.17939170e-02 3.10366252e-03 4.96585993e-03 6.82805758e-03
      4.96585993e-03 4.34512738e-03 1.48975793e-02 1.11731850e-02
      1.61390454e-02 2.48292997e-03 6.45561814e-02 6.82805758e-03
      9.93171986e-03 2.60707643e-02 3.72439483e-03 2.35878341e-02
      1.17939170e-02 1.24146498e-03 3.72439483e-03 9.93171986e-03
      6.20732491e-04 7.44878966e-03 1.17939170e-02 5.58659248e-03
      3.72439483e-03 7.44878966e-03 1.05524519e-02 6.20732503e-03
      9.31098778e-03 4.34512738e-03 6.82805758e-03 2.48292997e-03</_>
    <_>
      3.99771566e-03 5.13992039e-03 6.56767609e-03 2.02741306e-02
      9.42318700e-03 7.99543131e-03 1.51342098e-02 6.28212467e-03
      2.85551138e-03 1.08509427e-02 1.02798408e-02 9.99428984e-03
      7.42432941e-03 1.71330683e-02 7.70988036e-03 1.54197607e-02
      1.42775560e-02 6.85322704e-03 3.14106233e-03 1.59908626e-02
      9.99428984e-03 3.99771566e-03 1.02798408e-02 1.05653917e-02
      9.42318700e-03 5.42547135e-03 5.42547135e-03 1.59908626e-02
      2.34151930e-02 1.25642493e-02 1.34209031e-02 6.85322704e-03
      1.22786984e-02 1.45631079e-02 7.13877799e-03 5.42547135e-03
      7.13877799e-03 1.51342098e-02 1.65619645e-02 9.70873795e-03
      1.17075965e-02 1.34209031e-02 1.14220455e-02 6.56767609e-03
      8.28098226e-03 1.77041702e-02 4.85436898e-03 7.70988036e-03
      8.85208510e-03 3.42661352e-03 9.42318700e-03 7.13877799e-03
      7.70988036e-03 5.99657372e-03 6.28212467e-03 3.42661352e-03
      1.57053117e-02 1.82752721e-02 1.62764136e-02 1.45631079e-02
      4.85436898e-03 7.42432941e-03 6.56767609e-03 9.70873795e-03
      5.99657372e-03 3.14106233e-03 1.97030269e-02 1.57053117e-02
      5.13992039e-03 1.11364936e-02 1.42775560e-02 1.59908626e-02
      1.68475173e-02 7.70988036e-03 1.62764136e-02 9.99428984e-03
      9.99428984e-03 4.28326707e-03 1.45631079e-02 3.71216470e-03
      9.13763605e-03 9.70873795e-03 2.85551138e-03 7.99543131e-03
      1.19931474e-02 2.14163344e-02 6.85322704e-03 2.08452325e-02
      2.56996020e-03 9.13763605e-03 6.56767609e-03 5.71102276e-03
      7.70988036e-03 5.99657372e-03 9.42318700e-03 5.42547135e-03
      4.56881803e-03 1.25642493e-02 1.19931474e-02 1.37064541e-02</_>
    <_>
      6.78098202e-03 8.41777027e-03 9.66484752e-03 1.91738103e-02
      1.13016367e-02 6.23538578e-03 1.16134062e-02 8.33982788e-03
      3.11769289e-03 8.80748220e-03 1.44972717e-02 7.40452064e-03
      8.65159743e-03 2.02650041e-03 4.75448137e-03 7.32657826e-03
      1.13016367e-02 5.68978954e-03 4.05300083e-03 1.27045987e-02
      1.20031172e-02 9.35307890e-03 7.56040495e-03 1.39516750e-02
      8.65159743e-03 4.36476991e-03 9.74278990e-03 1.54325794e-02
      2.56430227e-02 1.21590020e-02 1.79267339e-02 7.09275110e-03
      1.54325794e-02 1.28604826e-02 8.41777027e-03 3.89711605e-03
      7.40452064e-03 1.83943883e-02 1.67575981e-02 1.43413870e-02
      1.23148868e-02 8.49571265e-03 1.26266563e-02 3.89711605e-03
      5.61184715e-03 2.12003104e-02 7.32657826e-03 7.09275110e-03
      7.09275110e-03 4.59859706e-03 2.08106004e-02 6.85892440e-03
      8.02805927e-03 3.50740436e-03 6.00155862e-03 1.44972717e-02
      5.45596238e-03 2.19017919e-02 1.54325794e-02 9.50896274e-03
      9.97661706e-03 7.63834734e-03 5.61184715e-03 9.89867467e-03
      1.13795791e-02 5.30007761e-03 2.27591582e-02 1.15354639e-02
      1.02104442e-02 1.12236943e-02 1.06001552e-02 1.94855798e-02
      2.12003104e-02 1.59002338e-02 1.37178488e-02 8.88542458e-03
      9.11925174e-03 3.74123128e-03 1.28604826e-02 5.30007761e-03
      5.06625092e-03 5.06625092e-03 3.42946220e-03 1.05222138e-02
      5.61184715e-03 5.30007761e-03 6.31332817e-03 1.40296174e-02
      2.72798119e-03 6.78098202e-03 1.02104442e-02 4.91036614e-03
      1.13016367e-02 6.39127009e-03 8.10600165e-03 5.53390477e-03
      3.74123128e-03 1.30163673e-02 1.16913477e-02 1.83943883e-02</_>
    <_>
      6.91244239e-03 8.75576027e-03 7.83410110e-03 5.02304137e-02
      8.75576027e-03 4.14746534e-03 6.91244239e-03 1.52073735e-02
      4.14746534e-03 5.52995410e-03 1.05990786e-02 1.15207378e-02
      5.52995410e-03 1.42857144e-02 2.76497705e-03 1.75115205e-02
      1.70506909e-02 3.22580640e-03 3.22580640e-03 6.45161280e-03
      9.21658985e-03 7.37327198e-03 1.15207378e-02 1.52073735e-02
      1.38248848e-02 3.22580640e-03 1.10599082e-02 1.19815674e-02
      2.99539175e-02 5.99078368e-03 1.10599082e-02 1.05990786e-02
      1.47465440e-02 1.42857144e-02 2.76497705e-03 3.68663599e-03
      1.75115205e-02 8.29493068e-03 9.21658985e-03 5.99078368e-03
      1.29032256e-02 1.42857144e-02 1.42857144e-02 7.83410110e-03
      2.76497705e-03 9.21658985e-03 6.45161280e-03 1.19815674e-02
      1.01382490e-02 5.52995410e-03 3.36405523e-02 3.22580640e-03
      9.67741944e-03 1.15207378e-02 1.01382490e-02 1.01382490e-02
      1.15207378e-02 9.67741944e-03 8.75576027e-03 9.67741944e-03
      4.14746534e-03 3.68663599e-03 4.14746534e-03 8.29493068e-03
      9.21658985e-03 7.37327198e-03 8.75576027e-03 1.65898614e-02
      6.91244239e-03 9.21658985e-03 3.22580640e-03 1.05990786e-02
      1.01382490e-02 7.83410110e-03 1.93548389e-02 1.61290318e-02
      6.45161280e-03 2.30414746e-03 4.56221215e-02 7.37327198e-03
      9.21658985e-03 5.06912451e-03 4.14746534e-03 7.37327198e-03
      1.15207378e-02 2.30414756e-02 1.10599082e-02 3.68663599e-03
      3.22580640e-03 5.52995410e-03 1.05990786e-02 3.22580640e-03
      1.15207378e-02 4.60829493e-03 4.60829493e-03 6.45161280e-03
      4.14746534e-03 3.68663599e-03 9.21658985e-03 9.21658985e-03</_>
    <_>
      4.82315104e-03 1.04501601e-02 4.82315104e-03 4.26045023e-02
      1.20578781e-02 8.03858507e-03 5.62700955e-03 1.92926042e-02
      8.03858507e-03 1.28617361e-02 6.43086806e-03 4.01929254e-03
      1.12540191e-02 3.21543403e-03 2.41157552e-03 4.82315104e-03
      2.25080382e-02 3.21543403e-03 8.84244405e-03 5.62700955e-03
      5.62700955e-03 5.62700955e-03 1.20578781e-02 1.36655942e-02
      9.64630209e-03 2.41157552e-03 1.36655942e-02 1.12540191e-02
      1.92926042e-02 5.62700955e-03 8.03858507e-03 8.84244405e-03
      9.64630209e-03 9.64630209e-03 8.03858507e-03 6.43086806e-03
      1.20578781e-02 6.43086806e-03 1.12540191e-02 7.23472657e-03
      1.60771701e-02 1.44694531e-02 1.92926042e-02 1.84887461e-02
      5.62700955e-03 8.03858507e-03 1.20578781e-02 1.60771701e-02
      6.43086806e-03 4.01929254e-03 1.20578781e-02 8.84244405e-03
      1.60771701e-02 8.03858507e-03 8.03858507e-03 9.64630209e-03
      2.17041802e-02 1.44694531e-02 1.44694531e-02 6.43086806e-03
      6.43086806e-03 5.62700955e-03 1.28617361e-02 8.84244405e-03
      1.04501601e-02 5.62700955e-03 1.84887461e-02 2.00964622e-02
      9.64630209e-03 8.84244405e-03 6.43086806e-03 1.20578781e-02
      6.43086806e-03 4.82315104e-03 2.25080382e-02 1.20578781e-02
      8.03858507e-03 4.82315104e-03 3.21543403e-02 5.62700955e-03
      9.64630209e-03 3.21543403e-03 2.41157552e-03 1.04501601e-02
      1.20578781e-02 1.20578781e-02 1.20578781e-02 1.12540191e-02
      3.21543403e-03 5.62700955e-03 7.23472657e-03 4.01929254e-03
      9.64630209e-03 5.62700955e-03 9.64630209e-03 4.82315104e-03
      4.01929254e-03 1.04501601e-02 7.23472657e-03 5.62700955e-03</_>
    <_>
      7.52750458e-03 1.56340487e-02 1.38969310e-02 1.38969310e-02
      1.15807764e-02 4.05327184e-03 1.10017378e-02 6.94846548e-03
      1.15807762e-03 5.21134911e-03 7.52750458e-03 9.26462095e-03
      1.27388537e-02 4.05327184e-03 1.73711637e-03 3.47423274e-03
      1.96873192e-02 1.73711637e-03 2.31615524e-03 1.27388537e-02
      1.33178923e-02 1.15807764e-02 6.36942685e-03 1.96873192e-02
      9.26462095e-03 2.89519411e-03 1.15807764e-02 1.85292419e-02
      2.37405915e-02 1.27388537e-02 1.79502033e-02 1.10017378e-02
      1.27388537e-02 2.08453964e-02 5.79038821e-03 1.15807762e-03
      3.47423274e-03 1.04226982e-02 7.52750458e-03 1.67921260e-02
      1.96873192e-02 7.52750458e-03 1.67921260e-02 4.63231048e-03
      3.47423274e-03 2.08453964e-02 8.10654368e-03 9.84365959e-03
      6.94846548e-03 1.73711637e-03 2.14244351e-02 4.05327184e-03
      1.27388537e-02 6.36942685e-03 7.52750458e-03 4.05327184e-03
      8.10654368e-03 1.96873192e-02 1.91082805e-02 4.63231048e-03
      1.44759705e-02 4.05327184e-03 1.15807762e-03 1.21598151e-02
      4.63231048e-03 8.10654368e-03 2.60567460e-02 1.91082805e-02
      7.52750458e-03 8.10654368e-03 1.15807762e-03 9.84365959e-03
      2.25825142e-02 1.62130874e-02 1.15807764e-02 1.21598151e-02
      4.05327184e-03 5.79038810e-04 2.20034756e-02 6.36942685e-03
      1.15807762e-03 1.91082805e-02 0. 1.15807764e-02 1.62130874e-02
      1.56340487e-02 5.79038821e-03 1.44759705e-02 1.15807762e-03
      5.21134911e-03 1.04226982e-02 4.63231048e-03 9.84365959e-03
      3.47423274e-03 1.21598151e-02 1.73711637e-03 4.05327184e-03
      1.10017378e-02 6.94846548e-03 2.25825142e-02</_>
    <_>
      6.09137071e-03 3.04568536e-03 6.09137071e-03 7.71573633e-02
      9.13705584e-03 2.03045690e-03 9.13705584e-03 1.01522841e-02
      2.03045690e-03 5.07614203e-03 2.03045690e-03 5.07614203e-03
      6.09137071e-03 1.01522845e-03 2.03045690e-03 1.01522841e-02
      5.07614203e-03 6.09137071e-03 1.01522845e-03 4.06091381e-03
      2.03045690e-03 5.07614203e-03 1.01522841e-02 3.04568536e-03
      7.10659940e-03 4.06091381e-03 4.06091381e-03 7.10659940e-03
      1.50253817e-01 3.04568536e-03 0. 5.07614203e-03 3.75634544e-02
      3.04568536e-03 1.01522845e-03 4.06091381e-03 1.42131988e-02
      2.03045690e-03 5.07614203e-03 4.06091381e-03 3.85786816e-02
      6.09137071e-03 4.56852801e-02 9.13705584e-03 3.04568536e-03
      2.03045690e-03 5.07614203e-03 1.21827414e-02 3.04568536e-03
      6.09137071e-03 5.98984770e-02 4.06091381e-03 5.07614203e-03
      1.52284270e-02 4.06091381e-03 3.04568536e-03 1.62436552e-02
      2.03045690e-03 1.01522845e-03 1.01522845e-03 1.01522845e-03
      6.09137071e-03 5.07614203e-03 3.04568536e-03 9.13705584e-03
      1.01522845e-03 1.01522845e-03 2.74111684e-02 7.10659940e-03
      3.04568536e-03 1.01522841e-02 4.06091381e-03 3.04568536e-03
      2.03045690e-03 5.07614203e-03 9.13705584e-03 2.03045690e-03
      4.06091381e-03 2.23350264e-02 8.12182762e-03 1.01522845e-03
      3.75634544e-02 4.06091381e-03 3.45177688e-02 9.13705584e-03
      3.04568536e-03 5.07614203e-03 4.06091381e-03 3.04568536e-03
      1.21827414e-02 7.10659940e-03 2.03045690e-03 1.11675132e-02
      1.01522845e-03 1.52284270e-02 1.01522845e-03 1.11675132e-02
      5.07614203e-03 1.01522841e-02 1.01522845e-03</_>
    <_>
      4.80647571e-03 7.84214493e-03 1.08778141e-02 8.85403436e-03
      1.16367312e-02 7.84214493e-03 1.51783451e-02 6.32431032e-03
      1.01188961e-02 5.81836561e-03 1.31545654e-02 1.06248418e-02
      1.13837589e-02 9.35997907e-03 5.81836561e-03 1.08778141e-02
      8.34808964e-03 5.05944807e-03 3.28864134e-03 1.13837589e-02
      1.34075377e-02 8.09511729e-03 1.97318476e-02 9.35997907e-03
      7.33620021e-03 8.34808964e-03 6.32431032e-03 9.86592378e-03
      2.45383251e-02 9.61295143e-03 1.18897036e-02 1.31545654e-02
      9.86592378e-03 1.01188961e-02 7.08322786e-03 4.80647571e-03
      1.44194281e-02 1.69491526e-02 9.86592378e-03 1.59372613e-02
      8.34808964e-03 1.03718694e-02 9.35997907e-03 1.08778141e-02
      7.33620021e-03 1.51783451e-02 6.32431032e-03 5.31242089e-03
      6.32431032e-03 3.79458629e-03 1.77080687e-02 6.32431032e-03
      9.35997907e-03 7.33620021e-03 6.32431032e-03 1.06248418e-02
      1.44194281e-02 1.59372613e-02 1.21426759e-02 1.11307865e-02
      6.07133796e-03 5.56539325e-03 1.13837589e-02 7.58917257e-03
      1.08778141e-02 4.30053100e-03 1.82140134e-02 8.85403436e-03
      7.08322786e-03 1.26486206e-02 3.79458629e-03 1.23956483e-02
      1.87199581e-02 1.46724004e-02 1.03718694e-02 6.83025504e-03
      3.54161393e-03 3.79458629e-03 1.13837589e-02 7.08322786e-03
      2.15026550e-02 9.86592378e-03 7.08322786e-03 7.08322786e-03
      1.74550973e-02 1.13837589e-02 7.33620021e-03 1.31545654e-02
      4.55350336e-03 5.81836561e-03 5.05944807e-03 7.58917257e-03
      1.44194281e-02 6.32431032e-03 8.09511729e-03 6.83025504e-03
      1.41664557e-02 1.64432079e-02 1.08778141e-02 1.59372613e-02</_>
    <_>
      6.29378948e-03 4.27502673e-03 2.61251628e-03 8.90630577e-03
      7.83754885e-03 6.05628779e-03 1.25875790e-02 5.70003595e-03
      1.78126118e-03 8.07505101e-03 1.12813208e-02 1.10438196e-02
      1.00938128e-02 2.25626421e-03 4.86878073e-03 4.63127904e-03
      7.83754885e-03 3.68127297e-03 2.96876859e-03 1.63876023e-02
      2.24438906e-02 5.58128487e-03 2.49376567e-03 8.90630577e-03
      4.51252842e-03 2.13751337e-03 5.22503257e-03 1.87626183e-02
      1.31813325e-02 6.17503887e-03 3.36064622e-02 7.95629993e-03
      1.36563359e-02 1.22313267e-02 1.41313383e-02 3.56252235e-03
      3.20627005e-03 2.11376324e-02 1.50813442e-02 2.32751463e-02
      6.17503887e-03 7.60004763e-03 6.17503887e-03 9.50005953e-04
      6.17503887e-03 3.19439508e-02 4.98753134e-03 4.51252842e-03
      4.98753134e-03 5.34378365e-03 1.47250919e-02 1.10438196e-02
      1.03313150e-02 2.37501482e-03 3.20627005e-03 3.08751930e-02
      3.44377151e-03 2.10188814e-02 2.16126349e-02 7.83754885e-03
      1.40125882e-02 8.43130238e-03 4.03752550e-03 1.75751094e-02
      1.12813208e-02 4.15627612e-03 3.43189649e-02 5.10628195e-03
      6.05628779e-03 1.49625940e-02 1.09250685e-02 1.68626048e-02
      2.74314210e-02 2.20876392e-02 6.41254010e-03 5.70003595e-03
      6.88754302e-03 4.27502673e-03 7.83754885e-03 3.56252235e-03
      2.49376567e-03 7.12504494e-04 2.13751337e-03 1.35375848e-02
      1.90001191e-03 1.78126118e-03 2.13751337e-03 2.73126718e-02
      2.85001798e-03 7.60004763e-03 4.75002965e-03 9.97506268e-03
      9.61881038e-03 4.86878073e-03 1.16375731e-02 4.03752550e-03
      1.78126118e-03 4.45315279e-02 7.12504471e-03 2.55314093e-02</_>
    <_>
      7.77860871e-03 1.32136624e-02 5.03615057e-03 1.07205184e-02
      8.17751139e-03 4.33807028e-03 1.13687357e-02 4.68711043e-03
      8.47668911e-04 4.03889315e-03 1.39616057e-02 9.07504372e-03
      7.62902014e-03 1.14684610e-03 1.24657189e-03 3.29094985e-03
      8.17751139e-03 2.94190971e-03 3.04163550e-03 1.25654452e-02
      1.71029661e-02 1.59561206e-02 2.04437785e-03 1.23161301e-02
      5.03615057e-03 1.34629768e-03 1.10695586e-02 2.42832210e-02
      1.20668160e-02 6.23285957e-03 3.64497639e-02 9.37422086e-03
      1.18175019e-02 1.56070804e-02 9.07504372e-03 2.94190971e-03
      3.93916713e-03 1.83495376e-02 1.42607829e-02 2.01944653e-02
      4.88656200e-03 5.48491627e-03 5.73423086e-03 2.79232115e-03
      3.44053842e-03 3.98404375e-02 8.02792329e-03 2.64273235e-03
      7.52929412e-03 4.08875570e-03 5.33532770e-03 7.32984301e-03
      1.12690097e-02 1.49588624e-03 5.33532770e-03 2.53303405e-02
      3.14136129e-03 2.18399391e-02 2.24382933e-02 1.09199695e-02
      2.47319862e-02 7.87833426e-03 1.14684610e-03 1.63051598e-02
      1.33133875e-02 6.53203670e-03 3.54525037e-02 6.68162527e-03
      1.51084512e-02 1.04712043e-02 6.83121383e-03 2.09424086e-02
      3.60508598e-02 2.09424086e-02 6.38244813e-03 3.39067564e-03
      4.88656200e-03 2.39341799e-03 8.82572867e-03 4.28820727e-03
      2.59286957e-03 2.14410364e-03 2.84218392e-03 1.31139364e-02
      2.54300679e-03 8.77586659e-03 4.23834426e-03 1.82996746e-02
      2.74245813e-03 7.47943157e-03 5.33532770e-03 5.18573914e-03
      1.36624277e-02 4.18848172e-03 9.32435784e-03 1.24657189e-03
      2.24382943e-03 2.21391171e-02 6.93093985e-03 3.07653937e-02</_>
    <_>
      7.51408935e-03 8.76643695e-03 9.39261168e-03 2.56731380e-02
      6.26174081e-03 2.50469637e-03 1.62805263e-02 1.31496564e-02
      4.38321847e-03 1.44020040e-02 2.00375710e-02 6.26174081e-03
      1.25234816e-02 6.26174081e-03 4.38321847e-03 8.76643695e-03
      1.69067010e-02 4.38321847e-03 3.13087041e-03 1.25234816e-02
      7.51408935e-03 3.75704467e-03 1.00187855e-02 1.31496564e-02
      1.44020040e-02 4.38321847e-03 8.76643695e-03 1.18973078e-02
      2.25422680e-02 1.00187855e-02 1.62805263e-02 9.39261168e-03
      6.26174081e-03 1.69067010e-02 6.88791508e-03 3.75704467e-03
      1.18973078e-02 1.12711340e-02 7.51408935e-03 1.37758302e-02
      1.00187855e-02 9.39261168e-03 1.75328739e-02 1.31496564e-02
      4.38321847e-03 1.06449593e-02 5.63556701e-03 6.26174081e-03
      6.88791508e-03 1.25234819e-03 1.00187855e-02 3.75704467e-03
      8.14026315e-03 8.76643695e-03 6.26174081e-03 1.12711340e-02
      1.12711340e-02 1.75328739e-02 1.81590486e-02 8.14026315e-03
      6.88791508e-03 5.63556701e-03 1.00187855e-02 1.18973078e-02
      1.56543516e-02 2.50469637e-03 1.37758302e-02 1.31496564e-02
      8.14026315e-03 1.56543516e-02 5.63556701e-03 1.37758302e-02
      1.12711340e-02 8.76643695e-03 2.56731380e-02 1.31496564e-02
      9.39261168e-03 3.13087041e-03 2.19160933e-02 8.76643695e-03
      7.51408935e-03 1.18973078e-02 3.13087041e-03 6.26174081e-03
      9.39261168e-03 1.50281787e-02 7.51408935e-03 1.25234816e-02
      3.13087041e-03 5.00939274e-03 9.39261168e-03 5.63556701e-03
      1.31496564e-02 8.14026315e-03 6.88791508e-03 1.25234819e-03
      8.76643695e-03 1.31496564e-02 9.39261168e-03 1.56543516e-02</_>
    <_>
      7.62776518e-03 5.84795326e-03 6.35647075e-03 2.16120016e-02
      1.06788706e-02 5.08517679e-03 1.57640483e-02 7.11924722e-03
      3.30536487e-03 8.39054119e-03 1.50012709e-02 8.39054119e-03
      8.13628267e-03 8.39054119e-03 7.37350620e-03 8.89905915e-03
      1.11873886e-02 7.88202416e-03 4.57665883e-03 1.37299774e-02
      8.89905915e-03 4.83091781e-03 1.16959065e-02 1.04246121e-02
      8.13628267e-03 5.33943530e-03 7.88202416e-03 1.62725653e-02
      1.32214595e-02 1.06788706e-02 1.39842359e-02 6.35647075e-03
      1.24586830e-02 1.52555304e-02 7.88202416e-03 4.83091781e-03
      1.29672009e-02 1.65268239e-02 1.62725653e-02 8.89905915e-03
      7.88202416e-03 5.59369428e-03 9.40757710e-03 6.35647075e-03
      4.83091781e-03 1.98321883e-02 4.83091781e-03 5.84795326e-03
      7.11924722e-03 2.28832942e-03 1.88151542e-02 5.84795326e-03
      7.11924722e-03 7.11924722e-03 8.39054119e-03 7.62776518e-03
      8.39054119e-03 2.21205186e-02 2.05949657e-02 1.52555304e-02
      7.11924722e-03 5.59369428e-03 9.66183562e-03 8.13628267e-03
      8.89905915e-03 6.35647075e-03 2.41545886e-02 1.42384944e-02
      6.61072973e-03 1.04246121e-02 1.29672009e-02 1.88151542e-02
      2.28832942e-02 1.60183068e-02 1.70353428e-02 9.15331766e-03
      7.11924722e-03 4.32240032e-03 1.83066353e-02 4.57665883e-03
      9.15331766e-03 9.15331766e-03 3.81388259e-03 8.64480063e-03
      9.66183562e-03 1.32214595e-02 6.61072973e-03 1.19501650e-02
      2.54258839e-03 7.37350620e-03 6.86498871e-03 5.08517679e-03
      8.13628267e-03 9.91609413e-03 8.64480063e-03 8.39054119e-03
      4.32240032e-03 1.16959065e-02 1.11873886e-02 1.77981183e-02</_>
    <_>
      9.62861069e-03 9.62861069e-03 2.75103166e-03 3.30123790e-02
      1.23796426e-02 2.75103166e-03 1.10041266e-02 2.06327382e-02
      1.37551583e-03 6.87757926e-03 6.87757926e-03 1.10041266e-02
      2.75103170e-02 1.37551583e-03 0. 0. 3.85144427e-02 5.50206332e-03
      4.12654737e-03 8.25309474e-03 1.37551585e-02 1.23796426e-02
      1.37551583e-03 2.06327382e-02 1.92572214e-02 1.37551583e-03
      1.92572214e-02 1.10041266e-02 1.37551585e-02 2.75103166e-03
      1.10041266e-02 4.12654737e-03 9.62861069e-03 2.06327382e-02
      4.12654737e-03 4.12654737e-03 1.78817064e-02 6.87757926e-03
      6.87757926e-03 6.87757926e-03 2.47592852e-02 1.92572214e-02
      2.88858321e-02 8.25309474e-03 4.12654737e-03 9.62861069e-03
      9.62861069e-03 1.65061895e-02 1.10041266e-02 9.62861069e-03
      2.33837683e-02 6.87757926e-03 1.51306745e-02 1.37551583e-03
      1.37551585e-02 9.62861069e-03 1.37551583e-03 0. 1.37551585e-02
      1.23796426e-02 9.62861069e-03 4.12654737e-03 1.37551583e-03
      9.62861069e-03 1.78817064e-02 2.75103166e-03 6.87757926e-03
      1.92572214e-02 1.37551585e-02 1.37551585e-02 0. 2.75103166e-03
      8.25309474e-03 5.50206332e-03 2.20082533e-02 2.47592852e-02
      4.12654737e-03 5.50206332e-03 1.92572214e-02 1.78817064e-02 0.
      4.12654737e-03 0. 9.62861069e-03 5.50206332e-03 1.37551583e-03
      1.51306745e-02 6.87757926e-03 2.75103166e-03 5.50206332e-03
      1.37551585e-02 0. 9.62861069e-03 2.75103166e-03 9.62861069e-03
      1.37551583e-03 4.12654737e-03 1.10041266e-02 1.65061895e-02
      1.10041266e-02</_>
    <_>
      4.84114978e-03 7.26172468e-03 2.08774582e-02 4.17549163e-02
      9.07715596e-03 4.84114978e-03 1.14977304e-02 2.72314670e-03
      3.02571850e-03 2.72314670e-03 1.69440247e-02 6.65658107e-03
      6.95915287e-03 2.72314670e-03 5.74886519e-03 1.02874432e-02
      6.95915287e-03 3.32829054e-03 3.32829054e-03 1.42208776e-02
      1.08925868e-02 1.02874432e-02 1.39183057e-02 1.11951586e-02
      1.14977304e-02 4.23600618e-03 1.08925868e-02 1.66414529e-02
      3.57034802e-02 9.68229957e-03 1.18003022e-02 1.02874432e-02
      1.45234494e-02 1.60363093e-02 5.14372159e-03 3.32829054e-03
      1.14977304e-02 1.78517401e-02 1.45234494e-02 9.07715596e-03
      9.37972777e-03 6.95915287e-03 9.68229957e-03 1.02874432e-02
      2.11800309e-03 1.66414529e-02 7.86686875e-03 2.11800309e-03
      6.95915287e-03 1.81543117e-03 1.78517401e-02 3.32829054e-03
      1.14977304e-02 6.35400927e-03 5.44629339e-03 9.68229957e-03
      8.47201236e-03 1.69440247e-02 1.60363093e-02 1.21028740e-02
      6.35400927e-03 4.23600618e-03 9.68229957e-03 1.18003022e-02
      9.98487137e-03 3.32829054e-03 1.87594555e-02 1.81543119e-02
      6.95915287e-03 9.98487137e-03 4.84114978e-03 1.81543119e-02
      1.96671709e-02 1.21028740e-02 9.07715596e-03 9.98487137e-03
      4.84114978e-03 1.81543117e-03 3.44931930e-02 4.53857798e-03
      9.37972777e-03 5.74886519e-03 4.53857798e-03 8.77458416e-03
      1.39183057e-02 1.08925868e-02 5.14372159e-03 8.77458416e-03
      4.23600618e-03 4.53857798e-03 8.47201236e-03 3.02571850e-03
      9.68229957e-03 5.74886519e-03 4.84114978e-03 7.56429648e-03
      1.45234494e-02 9.98487137e-03 9.07715596e-03 1.60363093e-02</_>
    <_>
      5.32103609e-03 7.80418608e-03 9.22312867e-03 9.22312867e-03
      1.09968074e-02 1.20610148e-02 2.02199370e-02 5.32103609e-03
      7.09471479e-03 9.93260089e-03 1.45441648e-02 6.73997914e-03
      1.31252222e-02 3.90209304e-03 6.73997914e-03 7.80418608e-03
      8.15892220e-03 9.22312867e-03 4.61156433e-03 1.27704861e-02
      1.98652018e-02 7.09471479e-03 7.44945044e-03 1.17062796e-02
      8.86839349e-03 8.15892220e-03 7.44945044e-03 1.73820518e-02
      1.27704861e-02 1.45441648e-02 1.41894296e-02 9.93260089e-03
      9.57786478e-03 1.45441648e-02 8.15892220e-03 7.80418608e-03
      2.12841434e-03 2.16388796e-02 1.38346935e-02 2.23483518e-02
      7.80418608e-03 9.57786478e-03 8.86839349e-03 3.19262152e-03
      9.57786478e-03 1.66725796e-02 9.57786478e-03 8.15892220e-03
      5.32103609e-03 3.90209304e-03 9.22312867e-03 7.09471479e-03
      1.02873361e-02 4.25682869e-03 8.51365738e-03 1.02873361e-02
      8.51365738e-03 1.38346935e-02 1.38346935e-02 1.41894296e-02
      9.57786478e-03 9.22312867e-03 1.77367870e-03 1.17062796e-02
      1.13515435e-02 3.54735740e-03 1.59631073e-02 5.32103609e-03
      1.17062796e-02 1.80915222e-02 1.13515435e-02 1.66725796e-02
      2.19936147e-02 1.63178444e-02 8.51365738e-03 6.73997914e-03
      1.13515435e-02 8.15892220e-03 7.09471479e-03 6.73997914e-03
      1.77367870e-03 7.80418608e-03 9.22312867e-03 8.51365738e-03
      7.80418608e-03 6.38524303e-03 6.03050739e-03 2.12841444e-02
      6.73997914e-03 6.73997914e-03 6.38524303e-03 6.73997914e-03
      1.45441648e-02 6.03050739e-03 6.73997914e-03 1.02873361e-02
      9.22312867e-03 1.24157509e-02 7.80418608e-03 1.73820518e-02</_>
    <_>
      3.45542515e-03 1.03662750e-02 1.10573601e-02 6.49619922e-02
      5.52868005e-03 3.45542515e-03 4.14650980e-03 8.29301961e-03
      6.21976517e-03 1.10573601e-02 4.14650980e-03 7.60193495e-03
      7.60193495e-03 5.52868005e-03 5.52868005e-03 2.76434012e-02
      8.29301961e-03 2.07325490e-03 4.83759493e-03 4.14650980e-03
      2.07325490e-03 3.45542515e-03 5.52868005e-03 4.14650980e-03
      7.60193495e-03 7.60193495e-03 8.29301961e-03 5.52868005e-03
      6.01243973e-02 2.76434002e-03 6.21976517e-03 4.14650980e-03
      1.38217006e-02 1.03662750e-02 2.76434002e-03 3.45542515e-03
      6.91085029e-03 4.14650980e-03 1.38217001e-03 4.14650980e-03
      3.10988259e-02 7.60193495e-03 2.90255696e-02 6.21976517e-03
      6.21976517e-03 5.52868005e-03 4.83759493e-03 1.03662750e-02
      4.14650980e-03 8.29301961e-03 2.69523151e-02 4.14650980e-03
      2.76434002e-03 6.21976517e-03 8.29301961e-03 6.21976517e-03
      4.56116088e-02 2.07325490e-03 8.98410473e-03 5.52868005e-03
      7.60193495e-03 1.38217001e-03 2.14236360e-02 5.52868005e-03
      3.45542515e-03 1.38217001e-03 2.07325490e-03 1.72771253e-02
      8.98410473e-03 4.83759493e-03 2.07325490e-03 4.83759493e-03
      8.98410473e-03 3.45542515e-03 1.03662750e-02 6.21976517e-03
      1.45127848e-02 8.98410473e-03 2.69523151e-02 8.98410473e-03
      1.10573601e-02 1.03662750e-02 6.91085006e-04 1.10573601e-02
      7.60193495e-03 1.05736002e-01 6.21976517e-03 5.52868005e-03
      6.91085006e-04 4.83759493e-03 8.98410473e-03 3.45542515e-03
      6.21976517e-03 3.45542515e-03 1.24395303e-02 7.60193495e-03
      6.21976517e-03 6.91085029e-03 4.83759493e-03 6.21976517e-03</_>
    <_>
      7.04054395e-03 8.25443026e-03 9.95387230e-03 2.08788533e-02
      1.21388687e-02 5.58387954e-03 1.11677591e-02 9.46831796e-03
      5.82665671e-03 8.49720836e-03 1.52949747e-02 1.04394266e-02
      8.25443026e-03 1.69944158e-03 2.67055118e-03 7.52609875e-03
      1.09249819e-02 6.55498914e-03 6.55498914e-03 1.04394266e-02
      1.31099783e-02 8.98276269e-03 6.79776631e-03 8.98276269e-03
      6.79776631e-03 6.55498914e-03 1.16533134e-02 1.21388687e-02
      3.30177210e-02 8.49720836e-03 1.48094194e-02 8.73998553e-03
      1.74799711e-02 1.04394266e-02 1.06822047e-02 6.06943434e-03
      8.25443026e-03 1.31099783e-02 1.06822047e-02 1.04394266e-02
      1.65088605e-02 8.49720836e-03 1.60233062e-02 8.01165309e-03
      6.31221151e-03 1.52949747e-02 7.52609875e-03 8.73998553e-03
      9.22553986e-03 5.09832473e-03 2.84049530e-02 7.28332112e-03
      1.18960915e-02 3.39888316e-03 7.28332112e-03 7.52609875e-03
      7.52609875e-03 1.57805290e-02 1.62660833e-02 1.01966495e-02
      8.73998553e-03 8.49720836e-03 3.64166056e-03 1.16533134e-02
      1.04394266e-02 7.76887592e-03 1.60233062e-02 9.22553986e-03
      1.28672011e-02 9.46831796e-03 8.73998553e-03 9.71109513e-03
      2.03932989e-02 1.48094194e-02 1.23816459e-02 9.95387230e-03
      9.71109513e-03 3.39888316e-03 2.50060689e-02 7.04054395e-03
      7.52609875e-03 6.79776631e-03 1.69944158e-03 1.23816459e-02
      1.04394266e-02 6.55498914e-03 7.04054395e-03 1.28672011e-02
      3.88443796e-03 5.58387954e-03 8.98276269e-03 6.06943434e-03
      1.11677591e-02 3.64166056e-03 8.73998553e-03 5.58387954e-03
      2.18499638e-03 1.11677591e-02 8.73998553e-03 1.62660833e-02</_>
    <_>
      7.07547180e-03 4.17271396e-03 7.80116115e-03 1.94121916e-02
      9.97822918e-03 8.16400535e-03 1.28809866e-02 7.80116115e-03
      1.45137880e-03 1.14296079e-02 1.59651674e-02 9.79680661e-03
      1.12481853e-02 2.72133527e-03 3.44702462e-03 3.80986929e-03
      1.01596517e-02 4.71698120e-03 3.08417995e-03 1.77793913e-02
      1.48766330e-02 6.53120456e-03 5.98693779e-03 1.32438317e-02
      8.52685049e-03 2.53991294e-03 7.25689391e-03 1.39695210e-02
      1.30624091e-02 8.34542792e-03 1.88679248e-02 6.71262713e-03
      1.21552972e-02 1.34252543e-02 9.61538497e-03 6.34978246e-03
      1.70537010e-02 2.26777941e-02 1.74165461e-02 1.46952104e-02
      6.34978246e-03 1.08853411e-02 8.34542792e-03 7.43831648e-03
      4.89840331e-03 1.85050797e-02 7.07547180e-03 6.71262713e-03
      4.89840331e-03 3.26560228e-03 1.08853411e-02 6.34978246e-03
      8.70827306e-03 3.44702462e-03 6.34978246e-03 8.34542792e-03
      3.62844695e-03 2.77576204e-02 2.26777941e-02 1.32438317e-02
      6.71262713e-03 7.07547180e-03 5.44267066e-04 1.26995649e-02
      1.01596517e-02 5.26124798e-03 2.73947753e-02 1.05224960e-02
      6.71262713e-03 1.39695210e-02 1.88679248e-02 1.86865013e-02
      1.46952104e-02 1.88679248e-02 1.14296079e-02 7.98258372e-03
      9.79680661e-03 1.45137880e-03 1.99564584e-02 7.61973858e-03
      1.26995647e-03 4.17271396e-03 4.35413653e-03 1.16110304e-02
      6.53120456e-03 4.53555863e-03 7.25689391e-03 2.03193035e-02
      3.99129186e-03 7.61973858e-03 7.43831648e-03 6.71262713e-03
      9.25253984e-03 5.98693779e-03 7.98258372e-03 3.80986929e-03
      3.08417995e-03 2.23149490e-02 1.63280107e-02 1.90493464e-02</_>
    <_>
      5.70861250e-03 8.68701935e-03 6.20501395e-03 2.64333580e-02
      1.04244230e-02 5.21221152e-03 1.19136265e-02 4.09530895e-03
      1.73740392e-03 5.58451237e-03 1.78704392e-02 9.18342080e-03
      9.18342080e-03 3.84710846e-03 2.48200539e-03 6.20501395e-03
      1.20377271e-02 2.97840661e-03 2.23380490e-03 1.77463386e-02
      1.24100279e-02 1.15413256e-02 8.43881909e-03 1.55125344e-02
      7.07371579e-03 1.98560441e-03 7.69421691e-03 2.09729467e-02
      2.41995528e-02 1.12931253e-02 2.76743621e-02 7.57011678e-03
      1.42715313e-02 1.72499381e-02 4.83991066e-03 3.10250698e-03
      6.08091336e-03 1.70017369e-02 1.51402336e-02 1.22859273e-02
      1.09208245e-02 6.82551507e-03 1.14172250e-02 5.95681323e-03
      3.47480783e-03 2.61851586e-02 6.70141494e-03 4.09530895e-03
      7.07371579e-03 3.35070747e-03 8.31471849e-03 3.84710846e-03
      6.70141494e-03 2.85430625e-03 5.33631165e-03 1.25341276e-02
      6.94961566e-03 1.93596426e-02 1.91114433e-02 1.50161330e-02
      1.43956318e-02 5.70861250e-03 6.45321421e-03 9.18342080e-03
      1.05485236e-02 7.69421691e-03 2.66815592e-02 1.27823288e-02
      1.22859273e-02 1.36510301e-02 4.83991066e-03 2.38272529e-02
      3.02804671e-02 1.61330365e-02 1.25341276e-02 5.95681323e-03
      6.08091336e-03 2.35790526e-03 1.41474316e-02 4.96401079e-03
      9.55572166e-03 4.46760980e-03 2.85430625e-03 1.10449241e-02
      7.57011678e-03 9.43162106e-03 4.71581053e-03 8.81111994e-03
      2.85430625e-03 4.96401079e-03 6.32911408e-03 5.33631165e-03
      1.40233310e-02 5.33631165e-03 6.45321421e-03 3.10250698e-03
      4.21940954e-03 1.21618267e-02 9.30752046e-03 2.48200558e-02</_>
    <_>
      5.84581681e-03 7.85531662e-03 8.40336177e-03 1.93642676e-02
      1.37011334e-02 8.40336177e-03 1.55279506e-02 1.13262702e-02
      7.12458929e-03 7.67263444e-03 1.07782250e-02 1.04128616e-02
      1.13262702e-02 7.85531662e-03 7.30727101e-03 9.86481551e-03
      1.79028139e-02 4.93240776e-03 4.20168089e-03 1.33357700e-02
      1.18743153e-02 6.75922586e-03 4.56704432e-03 1.40664969e-02
      1.16916336e-02 5.48045337e-03 9.86481551e-03 1.38838151e-02
      1.09609067e-02 1.51625872e-02 1.66240409e-02 1.20569970e-02
      1.05955433e-02 1.89989042e-02 1.05955433e-02 5.29777166e-03
      1.42491786e-02 1.24223605e-02 1.31530873e-02 1.33357700e-02
      9.68213379e-03 1.26050422e-02 1.13262702e-02 8.03799834e-03
      6.57654367e-03 1.79028139e-02 9.49945208e-03 1.00474972e-02
      6.94190757e-03 3.10559012e-03 4.56704432e-03 7.67263444e-03
      9.13408864e-03 3.47095379e-03 7.30727101e-03 6.02849852e-03
      1.22396788e-02 1.93642676e-02 1.55279506e-02 1.20569970e-02
      8.58604349e-03 7.48995272e-03 1.91815868e-02 9.68213379e-03
      6.94190757e-03 5.84581681e-03 1.73547678e-02 1.26050422e-02
      6.02849852e-03 1.15089519e-02 9.49945208e-03 1.27877239e-02
      1.53452689e-02 1.38838151e-02 1.35184517e-02 1.26050422e-02
      7.85531662e-03 3.65363550e-03 1.68067235e-02 5.66313509e-03
      1.20569970e-02 3.83631722e-03 2.74022669e-03 7.85531662e-03
      6.57654367e-03 4.74972604e-03 5.84581681e-03 1.38838151e-02
      3.28827184e-03 5.66313509e-03 9.13408864e-03 7.30727101e-03
      7.48995272e-03 7.85531662e-03 8.95140693e-03 6.21118024e-03
      5.29777166e-03 1.26050422e-02 1.22396788e-02 1.16916336e-02</_>
    <_>
      5.93765453e-03 6.43245876e-03 8.90648179e-03 7.47154802e-02
      9.40128602e-03 6.43245876e-03 1.38545269e-02 9.89609025e-03
      3.95843619e-03 5.93765453e-03 6.92726346e-03 9.89609025e-03
      6.92726346e-03 4.45324089e-03 3.95843619e-03 2.91934665e-02
      7.91687239e-03 3.95843619e-03 2.47402256e-03 5.44284983e-03
      6.43245876e-03 4.45324089e-03 1.48441354e-02 7.91687239e-03
      7.42206769e-03 5.44284983e-03 7.91687239e-03 1.33597218e-02
      3.80999483e-02 2.96882726e-03 4.45324089e-03 6.92726346e-03
      2.12765951e-02 1.13805039e-02 6.43245876e-03 3.95843619e-03
      4.94804513e-03 9.89609049e-04 3.95843619e-03 5.93765453e-03
      2.57298350e-02 1.33597218e-02 2.57298350e-02 9.89609025e-03
      3.95843619e-03 2.47402256e-03 4.45324089e-03 7.91687239e-03
      5.44284983e-03 4.94804513e-03 4.15635817e-02 5.93765453e-03
      3.95843619e-03 8.41167662e-03 5.44284983e-03 7.91687239e-03
      2.12765951e-02 6.92726346e-03 9.40128602e-03 8.41167662e-03
      5.93765453e-03 1.48441363e-03 1.63285490e-02 6.43245876e-03
      4.94804513e-03 1.97921810e-03 7.91687239e-03 2.07817908e-02
      6.43245876e-03 1.13805039e-02 1.48441363e-03 8.90648179e-03
      6.43245876e-03 3.95843619e-03 9.40128602e-03 8.41167662e-03
      8.41167662e-03 2.96882726e-03 4.05739695e-02 1.18753091e-02
      1.97921805e-02 1.33597218e-02 4.45324089e-03 1.58337448e-02
      1.18753091e-02 1.08856997e-02 8.90648179e-03 9.89609025e-03
      9.89609049e-04 1.28649175e-02 6.92726346e-03 9.89609049e-04
      5.44284983e-03 3.46363173e-03 8.90648179e-03 6.92726346e-03
      2.22662035e-02 5.93765453e-03 7.91687239e-03 7.42206769e-03</_>
    <_>
      7.14053866e-03 8.43881816e-03 6.81596855e-03 8.76338780e-03
      1.29827969e-02 8.43881816e-03 1.26582272e-02 1.07108075e-02
      7.14053866e-03 9.41252802e-03 8.43881816e-03 1.00616682e-02
      1.16845174e-02 2.59655947e-03 1.03862379e-02 3.57026933e-03
      1.39565067e-02 5.51768905e-03 3.24569922e-03 1.59039274e-02
      1.16845174e-02 6.49139844e-03 7.14053866e-03 1.59039274e-02
      1.26582272e-02 6.16682880e-03 7.14053866e-03 1.23336576e-02
      1.10353781e-02 1.65530667e-02 1.23336576e-02 1.03862379e-02
      6.81596855e-03 1.62284970e-02 9.08795837e-03 4.21940908e-03
      1.52547872e-02 1.81759167e-02 1.39565067e-02 1.65530667e-02
      1.33073675e-02 1.00616682e-02 1.33073675e-02 7.46510830e-03
      1.13599477e-02 1.55793568e-02 8.11424851e-03 1.20090879e-02
      6.49139844e-03 3.24569922e-03 1.03862379e-02 8.43881816e-03
      1.00616682e-02 3.57026933e-03 8.76338780e-03 1.36319371e-02
      4.54397919e-03 1.72022060e-02 1.33073675e-02 1.29827969e-02
      6.16682880e-03 9.73709766e-03 4.21940908e-03 1.26582272e-02
      7.46510830e-03 4.21940908e-03 1.88250560e-02 1.33073675e-02
      4.86854883e-03 1.00616682e-02 2.36936044e-02 1.16845174e-02
      1.10353781e-02 1.52547872e-02 1.75267756e-02 1.68776363e-02
      1.33073675e-02 4.21940908e-03 1.36319371e-02 6.81596855e-03
      5.51768905e-03 6.16682880e-03 6.81596855e-03 6.49139844e-03
      7.46510830e-03 3.57026933e-03 1.00616682e-02 1.46056470e-02
      4.21940908e-03 8.11424851e-03 8.76338780e-03 9.73709766e-03
      7.46510830e-03 4.21940908e-03 6.16682880e-03 1.10353781e-02
      3.24569922e-03 2.01233365e-02 9.73709766e-03 9.08795837e-03</_>
    <_>
      6.50935713e-03 1.16625987e-02 8.67914315e-03 2.11554114e-02
      9.49281268e-03 6.50935713e-03 1.65446158e-02 6.50935713e-03
      1.62733928e-03 1.03064822e-02 1.68158393e-02 1.00352596e-02
      7.32302712e-03 8.13669642e-04 3.79712507e-03 7.59425014e-03
      1.13913752e-02 6.23813411e-03 3.79712507e-03 1.46460542e-02
      1.60021707e-02 9.76403616e-03 7.59425014e-03 9.76403616e-03
      7.32302712e-03 2.44100904e-03 1.11201517e-02 1.43748308e-02
      1.97992958e-02 1.00352596e-02 2.16978583e-02 9.22158919e-03
      1.13913752e-02 1.24762682e-02 5.69568761e-03 4.88201808e-03
      8.40791967e-03 1.19338222e-02 1.00352596e-02 1.46460542e-02
      8.95036664e-03 8.67914315e-03 8.67914315e-03 9.49281268e-03
      3.52590182e-03 2.03417409e-02 9.49281268e-03 4.06834856e-03
      7.86547363e-03 3.25467857e-03 2.11554114e-02 2.98345555e-03
      1.38323847e-02 2.98345555e-03 6.78058062e-03 2.19690818e-02
      7.86547363e-03 1.41036073e-02 1.32899377e-02 1.24762682e-02
      1.81719568e-02 7.86547363e-03 2.71223229e-03 1.16625987e-02
      1.87144019e-02 8.13669711e-03 1.92568488e-02 1.51885003e-02
      1.24762682e-02 1.41036073e-02 5.69568761e-03 1.89856254e-02
      1.79007333e-02 1.13913752e-02 1.22050447e-02 9.76403616e-03
      7.86547363e-03 3.79712507e-03 1.49172777e-02 8.67914315e-03
      1.62733928e-03 3.25467857e-03 4.33957158e-03 7.59425014e-03
      1.27474917e-02 5.96691109e-03 8.40791967e-03 1.30187143e-02
      3.25467857e-03 7.59425014e-03 9.22158919e-03 3.25467857e-03
      1.73582863e-02 6.78058062e-03 6.23813411e-03 5.69568761e-03
      2.44100904e-03 1.68158393e-02 7.05180364e-03 1.60021707e-02</_>
    <_>
      8.36550817e-03 1.02960104e-02 6.43500639e-03 2.38095243e-02
      5.14800521e-03 3.21750320e-03 8.36550817e-03 1.41570140e-02
      7.07850698e-03 3.86100402e-03 5.14800521e-03 1.09395115e-02
      1.67310163e-02 6.43500639e-03 5.79150580e-03 8.36550817e-03
      1.28700128e-02 4.50450461e-03 2.57400260e-03 8.36550817e-03
      1.28700128e-02 7.72200804e-03 1.09395115e-02 2.38095243e-02
      9.00900923e-03 4.50450461e-03 1.09395115e-02 1.99485198e-02
      1.02960104e-02 1.02960104e-02 8.36550817e-03 1.15830116e-02
      1.09395115e-02 1.48005150e-02 1.93050201e-03 3.21750320e-03
      1.02960104e-02 9.00900923e-03 7.07850698e-03 9.00900923e-03
      2.12355219e-02 1.22265127e-02 1.99485198e-02 1.22265127e-02
      5.79150580e-03 9.00900923e-03 7.72200804e-03 1.22265127e-02
      3.86100402e-03 3.86100402e-03 1.22265127e-02 3.86100402e-03
      1.54440161e-02 3.21750320e-03 9.00900923e-03 2.57400256e-02
      1.09395115e-02 8.36550817e-03 1.22265127e-02 8.36550817e-03
      1.09395115e-02 9.00900923e-03 4.50450461e-03 1.22265127e-02
      8.36550817e-03 6.43500639e-03 1.86615195e-02 2.38095243e-02
      9.00900923e-03 5.14800521e-03 5.14800521e-03 7.72200804e-03
      1.09395115e-02 8.36550817e-03 2.50965245e-02 1.48005150e-02
      6.43500639e-03 4.50450461e-03 9.65250935e-03 1.28700128e-02
      9.00900923e-03 1.67310163e-02 3.21750320e-03 1.67310163e-02
      1.60875171e-02 2.57400260e-03 1.48005150e-02 1.28700128e-02
      2.57400260e-03 1.15830116e-02 1.09395115e-02 5.79150580e-03
      9.65250935e-03 6.43500639e-03 1.48005150e-02 3.21750320e-03
      2.57400260e-03 1.60875171e-02 5.79150580e-03 8.36550817e-03</_>
    <_>
      7.07547134e-03 3.93081736e-03 5.50314458e-03 1.80817600e-02
      1.10062892e-02 7.07547134e-03 1.10062892e-02 1.10062892e-02
      1.57232699e-03 1.49371065e-02 1.10062892e-02 1.41509427e-02
      7.86163472e-03 3.14465398e-03 5.50314458e-03 8.64779856e-03
      1.41509427e-02 3.14465398e-03 7.86163495e-04 1.41509427e-02
      1.88679248e-02 9.43396240e-03 4.71698120e-03 1.25786159e-02
      1.10062892e-02 2.35849060e-03 7.07547134e-03 1.25786159e-02
      1.41509427e-02 2.04402506e-02 7.07547134e-03 1.10062892e-02
      9.43396240e-03 1.17924521e-02 1.33647798e-02 5.50314458e-03
      7.07547134e-03 1.65094342e-02 1.65094342e-02 1.65094342e-02
      9.43396240e-03 1.02201253e-02 1.17924521e-02 6.28930796e-03
      4.71698120e-03 1.41509427e-02 7.07547134e-03 7.86163472e-03
      1.02201253e-02 6.28930796e-03 1.17924521e-02 1.33647798e-02
      8.64779856e-03 2.35849060e-03 1.41509427e-02 4.71698120e-03
      2.43710689e-02 2.43710689e-02 1.72955971e-02 1.10062892e-02
      4.71698120e-03 7.07547134e-03 3.14465398e-03 1.17924521e-02
      4.71698120e-03 7.07547134e-03 1.57232694e-02 1.88679248e-02
      8.64779856e-03 9.43396240e-03 1.02201253e-02 1.10062892e-02
      1.02201253e-02 1.49371065e-02 2.20125783e-02 9.43396240e-03
      1.41509427e-02 5.50314458e-03 8.64779856e-03 6.28930796e-03
      4.71698120e-03 1.02201253e-02 3.14465398e-03 1.02201253e-02
      4.71698120e-03 2.67295595e-02 6.28930796e-03 1.33647798e-02
      7.86163495e-04 8.64779856e-03 1.33647798e-02 7.07547134e-03
      4.71698120e-03 3.93081736e-03 7.86163472e-03 1.02201253e-02
      3.93081736e-03 9.43396240e-03 1.80817600e-02 7.07547134e-03</_>
    <_>
      7.00218836e-03 6.12691464e-03 4.81400453e-03 2.01312918e-02
      1.00656459e-02 1.35667399e-02 1.26914661e-02 4.37636767e-03
      6.56455150e-03 9.19037219e-03 1.57549232e-02 1.22538293e-02
      1.00656459e-02 3.50109418e-03 1.09409196e-02 3.93873081e-03
      8.31509847e-03 8.31509847e-03 4.37636767e-03 8.31509847e-03
      1.79431085e-02 5.68927824e-03 7.43982522e-03 1.09409196e-02
      1.00656459e-02 6.56455150e-03 7.87746161e-03 1.40043767e-02
      8.31509847e-03 1.13785565e-02 1.70678347e-02 1.22538293e-02
      5.25164139e-03 1.26914661e-02 7.43982522e-03 1.09409196e-02
      3.06345732e-03 1.66301969e-02 1.70678347e-02 1.83807444e-02
      4.37636767e-03 1.13785565e-02 8.75273533e-03 3.93873081e-03
      7.87746161e-03 1.40043767e-02 6.56455150e-03 6.56455150e-03
      1.18161924e-02 2.18818383e-03 2.27571130e-02 7.87746161e-03
      8.31509847e-03 6.56455150e-03 7.00218836e-03 1.40043767e-02
      4.37636767e-03 1.75054707e-02 1.09409196e-02 1.26914661e-02
      7.43982522e-03 9.62800905e-03 2.62582069e-03 9.19037219e-03
      6.56455150e-03 1.09409196e-02 1.57549232e-02 2.31947489e-02
      6.56455150e-03 9.19037219e-03 1.88183803e-02 1.96936540e-02
      1.18161924e-02 2.53829323e-02 1.26914661e-02 9.19037219e-03
      6.12691464e-03 8.31509847e-03 1.09409196e-02 5.25164139e-03 0.
      6.56455150e-03 9.62800905e-03 5.25164139e-03 7.87746161e-03
      7.43982522e-03 7.43982522e-03 1.26914661e-02 1.31291030e-02
      3.50109418e-03 8.31509847e-03 7.00218836e-03 1.13785565e-02
      1.22538293e-02 5.68927824e-03 1.53172873e-02 3.50109418e-03
      2.27571130e-02 8.75273533e-03 1.13785565e-02</_>
    <_>
      4.48143389e-03 8.32266361e-03 1.13102859e-02 2.09133588e-02
      9.17627010e-03 8.32266361e-03 1.21638924e-02 1.08834831e-02
      5.76184411e-03 7.89585989e-03 1.53649170e-02 9.81647521e-03
      1.17370896e-02 2.13401625e-03 5.54844225e-03 8.32266361e-03
      1.00298766e-02 4.69483575e-03 3.62782762e-03 1.02432780e-02
      1.17370896e-02 6.18864689e-03 8.10926221e-03 1.04566794e-02
      1.00298766e-02 6.40204875e-03 8.53606500e-03 1.17370896e-02
      3.37174572e-02 1.00298766e-02 1.38711054e-02 6.18864689e-03
      1.10968845e-02 1.47247119e-02 7.68245850e-03 5.33504039e-03
      1.21638924e-02 1.70721300e-02 1.64319258e-02 1.10968845e-02
      1.13102859e-02 7.89585989e-03 1.17370896e-02 7.04225339e-03
      8.10926221e-03 1.34443026e-02 5.33504039e-03 6.40204875e-03
      9.81647521e-03 3.41442600e-03 3.45710628e-02 7.04225339e-03
      9.60307289e-03 4.26803250e-03 6.82885200e-03 1.13102859e-02
      1.02432780e-02 1.81391388e-02 1.53649170e-02 8.74946639e-03
      9.81647521e-03 6.40204875e-03 4.48143389e-03 7.25565525e-03
      1.10968845e-02 4.05463111e-03 2.04865560e-02 1.32309012e-02
      9.38967150e-03 1.00298766e-02 8.53606500e-03 1.49381142e-02
      1.34443026e-02 1.36577040e-02 1.36577040e-02 1.13102859e-02
      8.32266361e-03 5.76184411e-03 1.74989328e-02 5.97524550e-03
      7.04225339e-03 6.40204875e-03 3.62782762e-03 8.74946639e-03
      9.60307289e-03 9.81647521e-03 4.90823761e-03 8.10926221e-03
      4.26803250e-03 7.04225339e-03 1.13102859e-02 5.97524550e-03
      1.08834831e-02 6.61545061e-03 5.76184411e-03 9.60307289e-03
      3.41442600e-03 1.64319258e-02 1.32309012e-02 1.38711054e-02</_>
    <_>
      3.30969272e-03 1.13475174e-02 5.67375869e-03 1.98581554e-02
      5.20094577e-03 6.61938544e-03 1.04018915e-02 1.51300235e-02
      2.36406620e-03 4.72813239e-03 8.03782512e-03 7.56501174e-03
      8.98345187e-03 7.56501174e-03 6.61938544e-03 1.08747045e-02
      1.60756502e-02 2.83687934e-03 1.89125293e-03 7.56501174e-03
      9.45626479e-03 8.98345187e-03 1.70212761e-02 1.84397157e-02
      1.70212761e-02 3.78250587e-03 1.22931441e-02 7.09219836e-03
      3.73522453e-02 5.20094577e-03 8.98345187e-03 1.41843967e-02
      1.56028364e-02 1.37115838e-02 5.67375869e-03 4.72813239e-03
      1.89125296e-02 1.18203312e-02 1.04018915e-02 1.04018915e-02
      1.56028364e-02 1.08747045e-02 1.74940899e-02 8.03782512e-03
      3.30969272e-03 5.20094577e-03 8.98345187e-03 8.51063803e-03
      3.30969272e-03 1.89125293e-03 1.56028364e-02 2.36406620e-03
      1.04018915e-02 4.72813239e-03 1.32387709e-02 1.65484641e-02
      2.22222228e-02 5.67375869e-03 7.56501174e-03 7.56501174e-03
      1.27659570e-02 4.72813239e-03 9.45626479e-03 8.51063803e-03
      1.46572106e-02 2.36406620e-03 5.67375869e-03 3.21513005e-02
      1.46572106e-02 6.14657206e-03 4.25531901e-03 1.18203312e-02
      8.98345187e-03 6.61938544e-03 2.60047279e-02 1.65484641e-02
      6.61938544e-03 9.45626467e-04 2.55319141e-02 1.27659570e-02
      5.67375869e-03 1.13475174e-02 1.89125293e-03 8.98345187e-03
      1.46572106e-02 1.32387709e-02 1.22931441e-02 7.56501174e-03
      2.36406620e-03 9.45626479e-03 1.18203312e-02 2.36406620e-03
      1.65484641e-02 5.20094577e-03 8.51063803e-03 6.14657206e-03
      5.67375869e-03 6.14657206e-03 6.14657206e-03 9.92907770e-03</_>
    <_>
      9.76562500e-04 9.76562500e-04 6.83593750e-03 6.44531250e-02
      1.95312500e-03 0. 2.92968750e-03 1.17187500e-02 7.81250000e-03
      1.95312500e-02 9.76562500e-04 9.76562500e-04 1.95312500e-03
      7.81250000e-03 2.92968750e-03 3.90625000e-03 2.92968750e-03
      2.34375000e-02 2.44140625e-02 1.95312500e-03 9.76562500e-04
      9.76562500e-04 6.83593750e-03 1.95312500e-03 6.83593750e-03
      7.81250000e-03 9.76562500e-04 3.90625000e-03 3.51562500e-02
      2.92968750e-03 9.76562500e-04 1.95312500e-03 2.63671875e-02
      2.92968750e-03 4.88281250e-03 2.92968750e-03 4.88281250e-03
      9.76562500e-04 9.76562500e-04 9.76562500e-04 7.91015625e-02
      1.95312500e-03 8.59375000e-02 3.90625000e-03 1.95312500e-03
      2.92968750e-03 9.76562500e-04 1.85546875e-02 1.56250000e-02
      3.61328125e-02 2.92968750e-03 2.92968750e-03 2.92968750e-03
      2.92968750e-03 8.78906250e-03 9.76562500e-04 5.85937500e-03
      5.85937500e-03 2.92968750e-03 9.76562500e-04 9.76562500e-04
      1.95312500e-03 3.32031250e-02 8.78906250e-03 2.92968750e-03
      1.66015625e-02 1.95312500e-03 9.76562500e-03 9.76562500e-04
      2.92968750e-03 9.76562500e-04 9.76562500e-04 1.95312500e-03 0.
      1.95312500e-03 3.90625000e-03 1.95312500e-02 2.92968750e-02
      3.51562500e-02 1.95312500e-02 6.34765625e-02 2.92968750e-03 0.
      3.41796875e-02 1.26953125e-02 9.76562500e-04 2.53906250e-02
      5.85937500e-03 0. 2.14843750e-02 6.83593750e-03 1.95312500e-03
      3.90625000e-03 1.95312500e-03 1.56250000e-02 6.83593750e-03
      2.92968750e-03 1.95312500e-03 3.90625000e-03 4.88281250e-03</_>
    <_>
      1.70806702e-02 1.00043928e-02 5.27060684e-03 8.49153288e-03
      7.46669294e-03 5.27060684e-03 1.19564692e-02 7.75950449e-03
      1.51285937e-03 4.19696467e-03 9.07715596e-03 1.44941686e-02
      1.29813096e-02 1.65926502e-03 1.12244405e-03 2.19608610e-03
      6.34424901e-03 3.95295490e-03 5.17300284e-03 1.25908935e-02
      2.10824274e-02 8.34512711e-03 1.80567079e-03 1.21516762e-02
      5.22180460e-03 1.46405748e-03 1.10292323e-02 1.72270760e-02
      2.74754781e-02 8.05231556e-03 2.31321082e-02 1.64462458e-02
      1.03460057e-02 1.26396958e-02 1.90815479e-02 4.83138952e-03
      3.85535113e-03 1.46405743e-02 1.08828265e-02 2.09360216e-02
      6.92987163e-03 1.01507977e-02 6.49065478e-03 2.24488811e-03
      5.61222015e-03 2.52305903e-02 8.14992003e-03 7.61309871e-03
      6.73466409e-03 5.70982415e-03 1.24932900e-02 1.43477628e-02
      1.22980820e-02 2.24488811e-03 5.36821038e-03 2.22048704e-02
      2.09848233e-03 1.85447279e-02 1.78126991e-02 8.19872133e-03
      1.49821872e-02 8.54033511e-03 5.36821084e-04 2.25464851e-02
      1.05900150e-02 6.00263523e-03 2.10824274e-02 7.07627740e-03
      9.46757104e-03 1.04436092e-02 1.14684496e-02 1.14684496e-02
      2.08384171e-02 2.08872184e-02 5.46581438e-03 4.78258776e-03
      5.27060684e-03 3.75774736e-03 5.17300284e-03 5.46581438e-03
      7.80830625e-04 4.19696467e-03 3.95295490e-03 1.36157339e-02
      2.44009565e-03 2.63530342e-03 5.66102192e-03 2.67922506e-02
      4.53857798e-03 1.66902542e-02 6.14904100e-03 7.17388140e-03
      1.25908935e-02 3.56253982e-03 1.93255581e-02 1.22004782e-03
      9.76038282e-04 3.50397751e-02 8.10111780e-03 1.89839453e-02</_>
    <_>
      7.94971362e-03 4.62192670e-03 7.94971362e-03 3.71602885e-02
      1.09077469e-02 6.65557431e-03 1.40506569e-02 5.91606600e-03
      3.51266423e-03 1.05379922e-02 1.22018857e-02 9.05897561e-03
      9.24385339e-03 6.10094285e-03 6.10094285e-03 1.31262718e-02
      8.68922193e-03 4.80680354e-03 3.32778716e-03 1.03531154e-02
      9.24385339e-03 6.65557431e-03 1.10926237e-02 8.31946824e-03
      6.84045115e-03 4.43704939e-03 5.17655769e-03 9.24385339e-03
      4.82529141e-02 1.16472552e-02 1.25716403e-02 9.79848392e-03
      1.16472552e-02 1.03531154e-02 8.50434508e-03 4.62192670e-03
      8.50434508e-03 1.49750421e-02 1.70086902e-02 1.33111486e-02
      1.12775005e-02 6.28582016e-03 1.05379922e-02 8.13459046e-03
      4.06729523e-03 1.51599189e-02 7.76483677e-03 5.54631185e-03
      4.62192670e-03 2.58827885e-03 1.97818466e-02 2.77315592e-03
      8.13459046e-03 8.68922193e-03 5.17655769e-03 8.13459046e-03
      1.55296735e-02 1.68238133e-02 1.29413940e-02 1.12775005e-02
      7.02532846e-03 4.80680354e-03 1.34960255e-02 1.09077469e-02
      1.01682385e-02 4.25217254e-03 1.58994272e-02 1.51599189e-02
      6.28582016e-03 1.12775005e-02 9.61360708e-03 1.51599189e-02
      1.38657801e-02 1.27565172e-02 1.20170088e-02 6.10094285e-03
      1.14623783e-02 3.51266423e-03 1.94120910e-02 7.21020531e-03
      1.70086902e-02 8.87409877e-03 3.51266423e-03 6.84045115e-03
      1.46052884e-02 1.38657801e-02 7.21020531e-03 1.14623783e-02
      2.40340177e-03 6.84045115e-03 9.24385339e-03 5.17655769e-03
      9.79848392e-03 6.10094285e-03 5.91606600e-03 6.84045115e-03
      7.02532846e-03 1.29413940e-02 1.27565172e-02 1.14623783e-02</_>
    <_>
      6.03941502e-03 7.62873469e-03 7.94659834e-03 1.49396053e-02
      1.36681497e-02 8.58232658e-03 1.58931967e-02 9.53591801e-03
      3.17863934e-03 1.08073745e-02 1.27145573e-02 7.62873469e-03
      1.01716463e-02 7.62873469e-03 5.40368725e-03 8.58232658e-03
      1.27145573e-02 6.03941502e-03 4.45009535e-03 1.39860138e-02
      1.55753335e-02 3.17863934e-03 6.35727867e-03 1.43038779e-02
      1.17609659e-02 2.54291156e-03 6.03941502e-03 1.43038779e-02
      1.20788300e-02 1.08073745e-02 1.04895104e-02 7.94659834e-03
      1.43038779e-02 1.55753335e-02 1.01716463e-02 7.31087057e-03
      1.17609659e-02 1.81182455e-02 1.81182455e-02 1.33502856e-02
      1.04895104e-02 6.67514279e-03 1.11252377e-02 1.43038779e-02
      5.40368725e-03 1.20788300e-02 8.58232658e-03 6.99300691e-03
      5.40368725e-03 3.49650346e-03 1.93897001e-02 6.99300691e-03
      1.08073745e-02 5.08582313e-03 7.94659834e-03 8.58232658e-03
      1.14431018e-02 1.84361096e-02 1.20788300e-02 1.49396053e-02
      3.81436734e-03 8.58232658e-03 4.45009535e-03 1.17609659e-02
      7.62873469e-03 5.08582313e-03 1.81182455e-02 9.21805482e-03
      5.08582313e-03 1.49396053e-02 1.49396053e-02 2.00254284e-02
      1.68467890e-02 1.36681497e-02 1.33502856e-02 1.08073745e-02
      1.17609659e-02 3.49650346e-03 1.84361096e-02 1.08073745e-02
      2.86077545e-03 4.13223123e-03 2.86077545e-03 7.94659834e-03
      1.11252377e-02 1.11252377e-02 7.31087057e-03 1.68467890e-02
      4.13223123e-03 8.26446246e-03 6.99300691e-03 4.45009535e-03
      1.08073745e-02 3.81436734e-03 8.90019070e-03 5.08582313e-03
      4.13223123e-03 1.90718360e-02 1.36681497e-02 1.17609659e-02</_>
    <_>
      7.28699565e-03 1.56950690e-02 6.44618878e-03 1.65358745e-02
      7.00672669e-03 5.04484307e-03 9.80941765e-03 1.70964133e-02
      6.72645774e-03 3.36322887e-03 7.00672669e-03 9.52914823e-03
      1.40134534e-02 2.80269072e-03 2.80269072e-03 7.84753449e-03
      1.31726461e-02 5.60538145e-03 5.88565040e-03 8.12780298e-03
      1.09304935e-02 1.48542607e-02 1.12107629e-02 1.06502250e-02
      9.80941765e-03 5.04484307e-03 1.51345301e-02 1.56950690e-02
      2.97085214e-02 8.40807240e-03 1.12107629e-02 7.84753449e-03
      1.34529155e-02 1.14910323e-02 8.68834089e-03 4.20403620e-03
      1.14910323e-02 5.32511249e-03 7.00672669e-03 1.51345301e-02
      1.51345301e-02 1.17713008e-02 1.56950690e-02 7.00672669e-03
      3.36322887e-03 1.42937228e-02 1.31726461e-02 1.68161448e-02
      1.00896861e-02 1.28923776e-02 2.94282530e-02 6.44618878e-03
      1.45739913e-02 5.32511249e-03 1.03699556e-02 1.28923776e-02
      8.68834089e-03 8.68834089e-03 1.14910323e-02 5.88565040e-03
      1.62556060e-02 4.76457411e-03 6.16591983e-03 1.17713008e-02
      1.12107629e-02 9.52914823e-03 9.24887974e-03 7.28699565e-03
      1.34529155e-02 8.96861032e-03 3.92376725e-03 7.56726507e-03
      1.28923776e-02 1.12107629e-02 1.40134534e-02 1.48542607e-02
      6.16591983e-03 8.12780298e-03 1.40134534e-02 1.17713008e-02
      7.56726507e-03 7.28699565e-03 4.76457411e-03 1.26121081e-02
      9.80941765e-03 6.44618878e-03 1.20515702e-02 7.28699565e-03
      2.52242154e-03 8.96861032e-03 1.26121081e-02 5.04484307e-03
      1.09304935e-02 5.32511249e-03 9.80941765e-03 5.04484307e-03
      3.08295991e-03 9.80941765e-03 9.52914823e-03 1.31726461e-02</_>
    <_>
      7.04444200e-03 5.80130517e-03 5.49052097e-03 8.70195776e-03
      1.19133946e-02 1.26385577e-02 1.82326734e-02 4.55816835e-03
      2.79705785e-03 1.05666630e-02 1.41924787e-02 1.02558788e-02
      1.16026103e-02 5.17973676e-04 2.17548944e-03 2.07189471e-03
      1.03594735e-02 4.45457362e-03 3.83300520e-03 1.95794050e-02
      1.86470523e-02 4.66176309e-03 2.79705785e-03 1.39852893e-02
      7.04444200e-03 1.55392103e-03 6.00849465e-03 2.13405155e-02
      1.70931313e-02 1.14990156e-02 1.95794050e-02 8.90914723e-03
      1.24313682e-02 1.73003208e-02 1.38816945e-02 6.94084726e-03
      4.86895256e-03 1.87506471e-02 1.78182945e-02 2.14441102e-02
      5.07614203e-03 1.01522841e-02 6.11208938e-03 7.25163147e-04
      7.45882094e-03 2.15477049e-02 4.55816835e-03 4.14378941e-03
      4.86895256e-03 3.62581573e-03 1.08774472e-02 1.21205840e-02
      7.45882094e-03 3.31503153e-03 5.38692623e-03 9.42712091e-03
      7.25163147e-04 2.58986838e-02 1.88542418e-02 1.53320208e-02
      8.90914723e-03 1.26385577e-02 1.55392103e-03 1.76111050e-02
      9.94509459e-03 5.69771044e-03 2.62094680e-02 6.52646832e-03
      7.56241567e-03 1.45032629e-02 2.06153523e-02 1.88542418e-02
      2.17548944e-02 1.69895366e-02 1.08774472e-02 6.21568412e-03
      8.49476829e-03 3.31503153e-03 5.90489991e-03 3.83300520e-03
      1.03594735e-03 2.69346312e-03 3.62581573e-03 1.05666630e-02
      5.38692623e-03 8.59836303e-03 3.62581573e-03 3.11820153e-02
      3.62581573e-03 1.09810419e-02 3.62581573e-03 8.90914723e-03
      8.80555250e-03 5.49052097e-03 9.21993144e-03 3.83300520e-03
      2.38267891e-03 2.67274417e-02 1.17062051e-02 1.89578366e-02</_>
    <_>
      1.45089291e-02 4.46428591e-03 2.23214296e-03 4.79910746e-02
      1.11607146e-02 5.58035728e-03 1.22767864e-02 2.00892873e-02
      2.23214296e-03 7.81250000e-03 1.00446437e-02 1.33928582e-02
      1.33928582e-02 1.11607146e-02 6.69642910e-03 7.81250000e-03
      2.12053582e-02 5.58035728e-03 8.92857183e-03 1.22767864e-02
      1.00446437e-02 4.46428591e-03 4.46428591e-03 1.33928582e-02
      1.22767864e-02 1.11607148e-03 8.92857183e-03 1.11607146e-02
      4.46428591e-03 1.11607146e-02 7.81250000e-03 1.11607146e-02
      1.00446437e-02 1.11607146e-02 1.45089291e-02 8.92857183e-03
      1.89732146e-02 7.81250000e-03 1.11607146e-02 1.22767864e-02
      1.78571437e-02 1.56250000e-02 1.56250000e-02 8.92857183e-03
      1.00446437e-02 7.81250000e-03 6.69642910e-03 2.23214291e-02
      8.92857183e-03 2.23214296e-03 4.46428591e-03 4.46428591e-03
      6.69642910e-03 1.11607148e-03 3.34821455e-03 3.34821455e-03
      1.00446437e-02 2.45535728e-02 1.11607146e-02 1.33928582e-02
      3.34821455e-03 1.45089291e-02 2.23214296e-03 4.46428591e-03
      4.46428591e-03 3.34821455e-03 1.22767864e-02 2.00892873e-02
      6.69642910e-03 8.92857183e-03 8.92857183e-03 7.81250000e-03
      1.00446437e-02 3.34821455e-03 2.34375019e-02 5.58035728e-03
      8.92857183e-03 3.34821455e-03 2.34375019e-02 7.81250000e-03
      2.23214296e-03 4.46428591e-03 2.23214296e-03 7.81250000e-03
      2.23214296e-03 2.00892873e-02 1.00446437e-02 1.56250000e-02
      3.34821455e-03 1.22767864e-02 1.33928582e-02 7.81250000e-03
      8.92857183e-03 6.69642910e-03 1.56250000e-02 4.46428591e-03
      6.69642910e-03 7.81250000e-03 2.00892873e-02 1.22767864e-02</_>
    <_>
      9.00900923e-03 6.00600615e-03 9.00900923e-03 1.20120123e-02
      3.00300308e-03 9.00900923e-03 1.20120123e-02 9.00900923e-03
      9.00900923e-03 2.40240246e-02 9.00900923e-03 1.20120123e-02
      1.20120123e-02 0. 3.00300308e-03 1.50150154e-02 9.00900923e-03 0.
      3.00300308e-03 1.50150154e-02 6.00600615e-03 1.20120123e-02
      1.80180185e-02 9.00900923e-03 1.50150154e-02 6.00600615e-03
      6.00600615e-03 1.50150154e-02 3.00300308e-02 6.00600615e-03
      1.20120123e-02 1.50150154e-02 9.00900923e-03 3.00300308e-03
      9.00900923e-03 6.00600615e-03 9.00900923e-03 3.00300308e-03
      9.00900923e-03 1.20120123e-02 3.30330357e-02 6.00600615e-03
      2.10210215e-02 3.00300308e-03 6.00600615e-03 3.00300308e-03
      1.50150154e-02 1.80180185e-02 1.80180185e-02 6.00600615e-03
      2.10210215e-02 3.00300308e-03 1.20120123e-02 1.20120123e-02
      1.50150154e-02 3.00300308e-03 6.00600615e-03 3.30330357e-02
      9.00900923e-03 9.00900923e-03 0. 3.00300308e-03 1.80180185e-02
      6.00600615e-03 3.00300308e-03 3.00300308e-03 1.20120123e-02
      2.10210215e-02 0. 9.00900923e-03 9.00900923e-03 9.00900923e-03
      1.20120123e-02 6.00600615e-03 1.20120123e-02 1.20120123e-02
      1.80180185e-02 0. 1.50150154e-02 6.00600615e-03 6.00600615e-03
      2.10210215e-02 0. 1.80180185e-02 1.50150154e-02 1.50150154e-02 0.
      1.80180185e-02 0. 6.00600615e-03 1.80180185e-02 3.00300308e-03
      3.00300308e-03 0. 1.80180185e-02 3.00300308e-03 6.00600615e-03
      6.00600615e-03 1.80180185e-02 9.00900923e-03</_>
    <_>
      8.41367245e-03 1.29710780e-02 1.92813319e-03 4.03155107e-03
      1.06923748e-02 6.13496918e-03 8.76424182e-03 4.20683622e-03
      6.83610840e-03 6.83610840e-03 1.41980713e-02 1.50744952e-02
      9.29009635e-03 1.22699386e-03 8.23838729e-03 9.81595088e-03
      8.58895667e-03 9.81595088e-03 5.43382997e-03 1.06923748e-02
      1.85801927e-02 1.24452235e-02 2.62927241e-03 1.52497804e-02
      8.41367245e-03 7.53724761e-03 1.15687987e-02 2.05083247e-02
      5.08326013e-03 5.78439934e-03 3.10254153e-02 9.29009635e-03
      8.93952604e-03 1.48992110e-02 9.46538057e-03 6.83610840e-03
      2.45398772e-03 1.70026291e-02 1.06923748e-02 1.66520588e-02
      5.25854481e-03 9.11481120e-03 6.48553902e-03 1.22699386e-03
      9.46538057e-03 2.85714269e-02 1.31463623e-02 7.36196293e-03
      1.29710780e-02 1.01665203e-02 3.33041186e-03 8.76424182e-03
      1.56003498e-02 2.97984225e-03 8.93952604e-03 2.76950039e-02
      6.48553902e-03 8.58895667e-03 1.45486407e-02 1.33216474e-02
      2.06836108e-02 9.64066572e-03 3.50569654e-03 1.17440838e-02
      1.17440838e-02 1.27957929e-02 1.87554769e-02 3.33041186e-03
      1.27957929e-02 9.46538057e-03 1.75284827e-03 1.33216474e-02
      1.77037679e-02 2.08588950e-02 7.88781792e-03 1.08676599e-02
      6.31025387e-03 9.46538057e-03 6.31025387e-03 8.93952604e-03
      3.68098146e-03 3.33041186e-03 9.64066572e-03 1.03418054e-02
      5.78439934e-03 1.22699386e-03 8.76424182e-03 1.20946532e-02
      9.11481120e-03 4.03155107e-03 6.48553902e-03 7.71253277e-03
      1.19193690e-02 8.93952604e-03 7.18667824e-03 1.05170896e-02
      3.50569654e-03 2.31375974e-02 8.06310214e-03 1.43733565e-02</_>
    <_>
      1.06251547e-02 1.26019269e-02 7.90709164e-03 4.20064246e-03
      1.70496665e-02 6.17741514e-03 2.27328893e-02 7.65999500e-03
      2.71806284e-03 7.90709164e-03 1.13664446e-02 1.18606370e-02
      1.58141833e-02 4.94193227e-04 3.21225589e-03 2.47096620e-03
      1.45787001e-02 4.20064246e-03 4.94193239e-03 1.55670866e-02
      1.95206329e-02 1.01309614e-02 3.95354582e-03 1.65554732e-02
      9.63676814e-03 3.95354582e-03 1.28490236e-02 2.05090195e-02
      5.43612568e-03 1.30961202e-02 1.70496665e-02 1.26019269e-02
      1.48257967e-02 1.95206329e-02 1.28490236e-02 3.95354582e-03
      3.21225589e-03 1.82851497e-02 1.35903135e-02 1.77909564e-02
      8.64838157e-03 1.28490236e-02 8.89547821e-03 1.97677291e-03
      9.14257485e-03 1.58141833e-02 9.88386478e-03 1.01309614e-02
      6.17741514e-03 5.18902903e-03 2.47096620e-03 1.16135413e-02
      1.48257967e-02 2.96515925e-03 8.40128493e-03 9.63676814e-03
      7.41289812e-04 2.05090195e-02 1.45787001e-02 1.33432169e-02
      1.03780581e-02 9.88386478e-03 9.88386455e-04 1.33432169e-02
      1.13664446e-02 6.17741514e-03 1.85322464e-02 5.18902903e-03
      1.28490236e-02 1.87793430e-02 8.40128493e-03 1.28490236e-02
      2.17445027e-02 1.65554732e-02 1.26019269e-02 8.64838157e-03
      7.65999500e-03 4.94193239e-03 3.45935253e-03 9.88386478e-03
      1.23548310e-03 3.45935253e-03 3.45935253e-03 1.06251547e-02
      1.97677291e-03 2.22386955e-03 7.65999500e-03 1.92735363e-02
      3.70644918e-03 6.17741514e-03 8.89547821e-03 1.26019269e-02
      1.11193480e-02 5.43612568e-03 1.23548303e-02 2.96515925e-03
      2.22386955e-03 1.58141833e-02 1.30961202e-02 2.02619229e-02</_>
    <_>
      8.73362459e-03 8.73362459e-03 2.62008738e-02 1.09170303e-02
      2.18340615e-03 2.18340615e-03 8.73362459e-03 1.31004369e-02
      6.55021844e-03 2.18340615e-03 2.18340615e-03 8.73362459e-03
      1.31004369e-02 6.55021844e-03 6.55021844e-03 2.40174681e-02
      8.73362459e-03 4.36681230e-03 1.74672492e-02 6.55021844e-03
      6.55021844e-03 4.36681230e-03 8.73362459e-03 8.73362459e-03
      1.31004369e-02 0. 6.55021844e-03 4.36681230e-03 4.80349362e-02
      8.73362459e-03 1.09170303e-02 1.96506549e-02 1.09170303e-02
      4.36681230e-03 6.55021844e-03 6.55021844e-03 4.36681230e-03
      4.36681230e-03 1.31004369e-02 1.31004369e-02 8.73362459e-03
      6.55021844e-03 1.52838435e-02 1.09170303e-02 8.73362459e-03
      6.55021844e-03 1.31004369e-02 1.96506549e-02 6.55021844e-03
      1.96506549e-02 3.05676870e-02 2.18340615e-03 1.52838435e-02
      4.36681230e-03 4.36681230e-03 8.73362459e-03 2.18340605e-02
      2.18340605e-02 1.31004369e-02 6.55021844e-03 0. 1.31004369e-02
      8.73362459e-03 1.31004369e-02 2.18340615e-03 1.09170303e-02
      4.36681230e-03 2.40174681e-02 6.55021844e-03 1.31004369e-02
      2.18340615e-03 4.36681230e-03 1.31004369e-02 4.36681230e-03
      2.18340605e-02 0. 2.18340615e-03 1.09170303e-02 2.83842795e-02
      8.73362459e-03 6.55021844e-03 1.74672492e-02 2.18340615e-03
      8.73362459e-03 1.96506549e-02 2.18340605e-02 1.31004369e-02 0.
      2.18340615e-03 4.36681230e-03 2.18340615e-03 4.36681230e-03
      1.31004369e-02 1.31004369e-02 6.55021844e-03 6.55021844e-03
      6.55021844e-03 2.18340615e-03 1.74672492e-02 4.36681230e-03</_>
    <_>
      9.34773870e-03 5.93595253e-03 2.71833339e-03 7.73892924e-03
      1.26069654e-02 8.48785788e-03 1.57136321e-02 6.61553629e-03
      2.38547637e-03 9.44482163e-03 1.22463694e-02 1.19828582e-02
      1.37026198e-02 5.27023862e-04 2.87089311e-03 2.41321442e-03
      7.14256009e-03 5.40892873e-03 6.01916714e-03 1.66705959e-02
      2.06232741e-02 5.79726230e-03 2.34386907e-03 1.14142271e-02
      6.24107197e-03 2.77380971e-03 6.76809577e-03 1.97079182e-02
      7.64184585e-03 1.15113100e-02 2.24262513e-02 1.07069053e-02
      1.02769649e-02 1.41048227e-02 1.80020239e-02 5.93595253e-03
      3.30083352e-03 2.02072039e-02 1.80020239e-02 2.23291684e-02
      6.26881002e-03 1.14835724e-02 6.54619094e-03 1.66428578e-03
      7.80827412e-03 2.42569651e-02 8.46011937e-03 6.49071485e-03
      7.84988143e-03 6.85130991e-03 2.85702408e-03 1.47011913e-02
      1.19551197e-02 1.88619061e-03 3.64755979e-03 9.51416697e-03
      2.03875010e-03 2.48533338e-02 1.61713101e-02 1.24266669e-02
      6.69875043e-03 1.15529178e-02 3.07892868e-03 2.14276798e-02
      8.84845294e-03 7.93309603e-03 2.49365494e-02 4.39648842e-03
      6.08851248e-03 1.35916676e-02 2.23569069e-02 1.60326194e-02
      2.06648819e-02 1.93334538e-02 6.19946467e-03 6.11625053e-03
      9.33386944e-03 4.71547665e-03 6.36589341e-03 4.99285758e-03
      6.39363145e-03 3.88333364e-03 5.21476241e-03 1.00273220e-02
      2.05261912e-03 1.56720250e-03 5.38119068e-03 3.19126807e-02
      5.11767901e-03 1.15667861e-02 4.31327429e-03 9.77767911e-03
      1.00550605e-02 5.94982179e-03 1.23573225e-02 3.06505966e-03
      2.01101205e-03 2.53664888e-02 1.23295840e-02 1.91670246e-02</_>
    <_>
      3.77002824e-03 7.54005648e-03 4.71253507e-03 4.99528758e-02
      3.77002824e-03 2.82752118e-03 6.59754965e-03 1.50801130e-02
      2.82752118e-03 5.65504236e-03 3.77002824e-03 3.77002824e-03
      1.88501412e-03 4.71253507e-03 3.77002824e-03 4.05278020e-02
      9.42507014e-03 1.88501412e-03 2.82752118e-03 5.65504236e-03
      2.82752118e-03 3.77002824e-03 4.71253507e-03 3.77002824e-03
      5.65504236e-03 4.71253507e-03 2.82752118e-03 5.65504236e-03
      7.54005611e-02 9.42507060e-04 8.48256331e-03 2.82752118e-03
      1.97926480e-02 4.71253507e-03 4.71253507e-03 9.42507060e-04
      7.54005648e-03 3.77002824e-03 1.88501412e-03 2.82752118e-03
      3.29877473e-02 3.77002824e-03 3.11027337e-02 5.65504236e-03
      2.82752118e-03 9.42507060e-04 4.71253507e-03 1.31950993e-02
      1.22525916e-02 3.77002824e-03 2.73327045e-02 2.82752118e-03
      2.82752118e-03 4.52403389e-02 7.54005648e-03 3.77002824e-03
      3.58152688e-02 4.71253507e-03 7.54005648e-03 4.71253507e-03
      1.88501412e-03 0. 1.41376061e-02 5.65504236e-03 2.82752118e-03
      8.48256331e-03 2.82752118e-03 9.42507014e-03 3.77002824e-03
      1.88501412e-03 0. 4.71253507e-03 6.59754965e-03 3.77002824e-03
      4.71253507e-03 2.82752118e-03 4.71253507e-03 3.77002824e-03
      2.26201694e-02 4.71253507e-03 1.13100847e-02 2.82752123e-02
      1.88501412e-03 1.79076344e-02 4.71253507e-03 1.32893503e-01
      8.48256331e-03 9.42507014e-03 0. 5.65504236e-03 5.65504236e-03
      2.82752118e-03 9.42507060e-04 2.82752118e-03 1.88501412e-03
      2.82752118e-03 3.39302532e-02 5.65504236e-03 2.82752118e-03
      8.48256331e-03</_>
    <_>
      3.84763372e-03 1.23124281e-02 1.23124281e-02 2.53943838e-02
      8.08003079e-03 8.46479461e-03 9.61908419e-03 6.92574074e-03
      3.46287037e-03 8.46479461e-03 1.34667186e-02 1.00038480e-02
      1.03886109e-02 5.77145070e-03 4.61716065e-03 1.23124281e-02
      1.38514815e-02 7.31050409e-03 6.54097740e-03 1.03886109e-02
      1.23124281e-02 9.61908419e-03 1.23124281e-02 1.11581376e-02
      6.92574074e-03 3.46287037e-03 1.26971919e-02 8.08003079e-03
      3.30896489e-02 9.23432130e-03 1.00038480e-02 7.31050409e-03
      1.03886109e-02 9.23432130e-03 6.54097740e-03 5.00192400e-03
      1.34667186e-02 1.00038480e-02 6.54097740e-03 1.15429014e-02
      9.61908419e-03 8.46479461e-03 1.11581376e-02 6.54097740e-03
      4.23239730e-03 6.54097740e-03 1.15429014e-02 7.31050409e-03
      1.19276643e-02 5.38668735e-03 4.23239730e-02 6.54097740e-03
      1.11581376e-02 6.54097740e-03 7.31050409e-03 9.23432130e-03
      2.11619865e-02 1.11581376e-02 1.11581376e-02 1.07733747e-02
      9.23432130e-03 7.31050409e-03 6.54097740e-03 6.54097740e-03
      1.26971919e-02 7.31050409e-03 1.53905349e-02 1.19276643e-02
      9.23432130e-03 6.92574074e-03 5.77145070e-03 1.23124281e-02
      1.30819548e-02 1.11581376e-02 1.38514815e-02 6.54097740e-03
      8.84955749e-03 5.38668735e-03 2.11619865e-02 1.03886109e-02
      6.15621405e-03 7.31050409e-03 3.07810702e-03 9.61908419e-03
      1.69295892e-02 1.57752987e-02 9.61908419e-03 9.23432130e-03
      4.61716065e-03 6.15621405e-03 1.11581376e-02 3.84763372e-03
      1.50057720e-02 8.84955749e-03 3.46287037e-03 1.11581376e-02
      5.00192400e-03 8.84955749e-03 1.11581376e-02 8.84955749e-03</_>
    <_>
      8.77920259e-03 6.19421527e-03 7.70618906e-03 2.04848070e-02
      6.34053536e-03 9.31570958e-03 1.13641899e-02 8.24269559e-03
      4.43837466e-03 7.41354888e-03 1.57050174e-02 1.52172847e-02
      1.02424035e-02 1.95093395e-03 4.68224147e-03 4.43837466e-03
      7.12090870e-03 5.02365502e-03 5.07242838e-03 1.43881375e-02
      1.73633117e-02 7.31600216e-03 4.48714802e-03 9.26693622e-03
      6.53562881e-03 3.75554780e-03 7.65741570e-03 1.16080567e-02
      2.18992326e-02 9.02306940e-03 1.98507532e-02 1.42905908e-02
      1.27298441e-02 7.41354888e-03 1.42418174e-02 7.80373579e-03
      8.34024232e-03 1.58513375e-02 1.47783244e-02 1.85826458e-02
      7.21845543e-03 6.09666854e-03 7.36477552e-03 3.65800108e-03
      6.38930872e-03 1.98019799e-02 5.90157509e-03 7.02336244e-03
