<?xml version="1.0"?>
<opencv_storage>
<opencv_ml_svm>
  <format>3</format>
  <svmType>C_SVC</svmType>
  <kernel>
    <type>RBF</type>
    <gamma>5.0625000000000009e-01</gamma></kernel>
  <C>3.1250000000000000e+02</C>
  <term_criteria><epsilon>1.1920928955078125e-07</epsilon>
    <iterations>1000</iterations></term_criteria>
  <var_count>100</var_count>
  <class_count>5</class_count>
  <class_labels type_id="opencv-matrix">
    <rows>5</rows>
    <cols>1</cols>
    <dt>i</dt>
    <data>
      0 1 2 3 4</data></class_labels>
  <sv_total>907</sv_total>
  <support_vectors>
    <_>
      3.26797389e-03 3.26797389e-03 1.96078438e-02 9.80392192e-03
      1.30718956e-02 6.53594779e-03 3.26797389e-03 9.80392192e-03
      6.53594779e-03 6.53594779e-03 9.80392192e-03 1.30718956e-02
      3.26797389e-03 6.53594779e-03 1.30718956e-02 6.53594779e-03
      3.26797389e-03 6.53594779e-03 1.96078438e-02 1.30718956e-02 0.
      4.24836613e-02 1.30718956e-02 1.30718956e-02 6.53594779e-03 0.
      3.26797389e-03 6.53594779e-03 1.30718956e-02 3.26797389e-03
      1.30718956e-02 9.80392192e-03 6.53594779e-03 3.26797389e-03
      1.30718956e-02 6.53594779e-03 9.80392192e-03 2.61437912e-02 0.
      1.63398702e-02 1.63398702e-02 6.53594779e-03 1.30718956e-02
      6.53594779e-03 0. 2.28758175e-02 9.80392192e-03 6.53594779e-03
      3.26797389e-03 1.96078438e-02 6.53594779e-03 6.53594779e-03
      2.28758175e-02 6.53594779e-03 2.61437912e-02 1.30718956e-02
      6.53594779e-03 6.53594779e-03 6.53594779e-03 9.80392192e-03
      6.53594779e-03 9.80392192e-03 0. 6.53594779e-03 1.30718956e-02
      1.63398702e-02 6.53594779e-03 3.26797389e-03 2.94117648e-02
      9.80392192e-03 3.26797389e-03 9.80392192e-03 6.53594779e-03
      9.80392192e-03 1.63398702e-02 7.84313753e-02 6.53594779e-03
      9.80392192e-03 3.26797389e-03 2.28758175e-02 3.26797389e-03 0.
      3.26797389e-03 9.80392192e-03 0. 1.63398702e-02 3.26797389e-03
      9.80392192e-03 1.96078438e-02 6.53594779e-03 3.26797389e-03
      9.80392192e-03 3.26797389e-03 3.26797389e-03 6.53594779e-03
      3.26797389e-03 6.53594779e-03 9.80392192e-03 9.80392192e-03
      6.53594779e-03</_>
    <_>
      8.33333377e-03 8.33333377e-03 1.66666675e-02 1.66666675e-02
      4.16666688e-03 2.50000022e-02 8.33333377e-03 1.66666675e-02
      4.16666688e-03 0. 4.16666688e-03 1.25000011e-02 8.33333377e-03
      8.33333377e-03 4.16666688e-03 1.66666675e-02 8.33333377e-03
      1.25000011e-02 8.33333377e-03 4.16666688e-03 8.33333377e-03 0.
      8.33333377e-03 8.33333377e-03 1.66666675e-02 8.33333377e-03 0.
      1.25000011e-02 4.16666688e-03 1.66666675e-02 2.50000022e-02
      2.50000022e-02 3.33333351e-02 2.08333340e-02 4.16666688e-03
      8.33333377e-03 8.33333377e-03 4.16666688e-03 4.16666688e-03
      1.66666675e-02 0. 8.33333377e-03 4.16666688e-03 0. 4.16666688e-03
      1.66666675e-02 4.16666679e-02 4.16666688e-03 4.16666688e-03
      1.25000011e-02 8.33333377e-03 1.25000011e-02 4.16666688e-03
      8.33333377e-03 8.33333377e-03 3.33333351e-02 1.66666675e-02
      4.16666688e-03 4.16666688e-03 8.33333377e-03 1.25000011e-02 0.
      8.33333377e-03 4.16666688e-03 1.25000011e-02 0. 4.16666688e-03 0.
      0. 8.33333377e-03 4.16666688e-03 0. 1.25000011e-02 0.
      1.25000011e-02 4.16666688e-03 0. 0. 2.50000022e-02 8.33333377e-03
      2.91666687e-02 4.16666688e-03 0. 4.16666679e-02 1.25000011e-02
      4.16666679e-02 1.66666675e-02 1.66666675e-02 1.66666675e-02
      8.33333377e-03 0. 0. 8.33333377e-03 0. 8.33333377e-03
      8.33333377e-03 1.25000011e-02 0. 8.33333377e-03 1.66666675e-02</_>
    <_>
      1.54639166e-02 5.15463902e-03 1.80412363e-02 5.15463902e-03 0.
      5.15463902e-03 1.03092780e-02 1.54639166e-02 2.57731951e-03
      5.15463902e-03 2.06185561e-02 1.54639166e-02 2.57731951e-03
      2.57731951e-03 1.54639166e-02 1.03092780e-02 1.03092780e-02
      7.73195829e-03 7.73195829e-03 5.15463902e-03 1.28865978e-02 0.
      2.57731951e-03 1.80412363e-02 1.54639166e-02 1.28865978e-02
      2.31958758e-02 7.73195829e-03 1.28865978e-02 2.06185561e-02
      1.80412363e-02 1.03092780e-02 2.57731951e-03 2.31958758e-02
      1.03092780e-02 1.28865978e-02 1.03092780e-02 1.28865978e-02
      2.57731951e-03 1.03092780e-02 1.03092780e-02 1.28865978e-02
      1.28865978e-02 5.15463902e-03 7.73195829e-03 7.73195829e-03 0.
      1.80412363e-02 5.15463902e-03 7.73195829e-03 1.80412363e-02
      7.73195829e-03 1.28865978e-02 2.57731951e-03 1.54639166e-02
      2.06185561e-02 7.73195829e-03 1.28865978e-02 0. 1.54639166e-02
      5.15463902e-03 2.31958758e-02 7.73195829e-03 1.03092780e-02
      1.03092780e-02 1.54639166e-02 7.73195829e-03 7.73195829e-03
      1.03092780e-02 2.06185561e-02 2.57731951e-03 1.80412363e-02
      1.54639166e-02 2.57731951e-03 1.03092780e-02 5.15463902e-03
      1.03092780e-02 2.57731951e-03 5.15463902e-03 1.03092780e-02
      2.57731951e-03 1.28865978e-02 0. 2.57731951e-03 1.28865978e-02
      5.15463902e-03 5.15463902e-03 5.15463902e-03 7.73195829e-03
      7.73195829e-03 1.80412363e-02 7.73195829e-03 2.57731951e-03
      1.28865978e-02 2.57731951e-03 7.73195829e-03 2.06185561e-02
      2.57731951e-03 2.57731955e-02 1.54639166e-02</_>
    <_>
      8.54700804e-03 0. 5.69800567e-03 1.13960113e-02 1.70940161e-02
      2.84900283e-03 1.13960113e-02 1.13960113e-02 8.54700804e-03
      5.69800567e-03 2.84900293e-02 1.13960113e-02 5.69800567e-03
      1.13960113e-02 1.13960113e-02 8.54700804e-03 1.70940161e-02
      8.54700804e-03 5.69800567e-03 8.54700804e-03 8.54700804e-03
      1.13960113e-02 3.13390307e-02 1.42450146e-02 8.54700804e-03
      1.13960113e-02 5.69800567e-03 0. 1.13960113e-02 0. 8.54700804e-03
      5.69800567e-03 1.13960113e-02 1.13960113e-02 1.13960113e-02
      1.13960113e-02 1.42450146e-02 5.69800567e-03 1.70940161e-02
      1.13960113e-02 1.13960113e-02 5.69800567e-03 2.56410260e-02
      8.54700804e-03 1.42450146e-02 5.69800567e-03 2.84900283e-03
      1.13960113e-02 5.69800567e-03 5.69800567e-03 8.54700804e-03
      2.56410260e-02 5.69800567e-03 5.69800567e-03 8.54700804e-03
      1.70940161e-02 1.42450146e-02 1.42450146e-02 0. 5.69800567e-03
      1.13960113e-02 1.70940161e-02 8.54700804e-03 1.42450146e-02
      2.84900283e-03 5.69800567e-03 2.84900283e-03 2.84900283e-03
      5.69800567e-03 1.70940161e-02 1.13960113e-02 8.54700804e-03
      1.42450146e-02 2.84900283e-03 1.99430194e-02 1.13960113e-02
      4.55840454e-02 5.69800567e-03 5.69800567e-03 2.84900283e-03 0.
      1.99430194e-02 5.69800567e-03 5.69800567e-03 1.70940161e-02
      5.69800567e-03 1.13960113e-02 2.84900283e-03 5.69800567e-03
      8.54700804e-03 2.84900283e-03 8.54700804e-03 8.54700804e-03 0.
      1.70940161e-02 5.69800567e-03 1.99430194e-02 1.13960113e-02
      8.54700804e-03 5.69800567e-03</_>
    <_>
      0. 4.09836043e-03 1.63934417e-02 1.22950813e-02 4.09836043e-03
      2.04918012e-02 0. 1.22950813e-02 0. 8.19672085e-03 1.22950813e-02
      8.19672085e-03 0. 0. 2.04918012e-02 4.09836043e-03 4.09836043e-03
      1.63934417e-02 0. 4.09836043e-03 0. 3.68852429e-02 1.22950813e-02
      4.09836043e-03 4.09836043e-03 4.09836043e-03 4.09836043e-03
      4.09836043e-03 8.19672085e-03 1.63934417e-02 8.19672085e-03
      1.63934417e-02 4.09836043e-03 1.63934417e-02 8.19672085e-03
      2.04918012e-02 1.22950813e-02 1.63934417e-02 8.19672085e-03
      4.09836043e-03 8.19672085e-03 1.63934417e-02 4.09836043e-03
      8.19672085e-03 1.63934417e-02 8.19672085e-03 1.63934417e-02
      8.19672085e-03 8.19672085e-03 5.73770478e-02 1.22950813e-02
      8.19672085e-03 4.09836043e-03 0. 4.09836043e-03 4.09836043e-03
      8.19672085e-03 8.19672085e-03 2.04918012e-02 2.04918012e-02
      1.22950813e-02 4.09836043e-03 0. 1.63934417e-02 4.09836043e-03
      8.19672085e-03 2.45901626e-02 4.09836043e-03 8.19672085e-03
      2.86885239e-02 0. 0. 1.22950813e-02 1.22950813e-02 4.09836043e-03
      2.04918012e-02 4.09836024e-02 8.19672085e-03 3.68852429e-02
      1.22950813e-02 4.09836043e-03 4.09836043e-03 8.19672085e-03
      1.63934417e-02 0. 1.22950813e-02 4.09836043e-03 8.19672085e-03 0.
      4.09836043e-03 4.09836043e-03 8.19672085e-03 0. 8.19672085e-03
      8.19672085e-03 1.22950813e-02 0. 1.22950813e-02 2.04918012e-02
      8.19672085e-03</_>
    <_>
      7.66283507e-03 0. 1.14942528e-02 1.53256701e-02 7.66283507e-03
      7.66283507e-03 1.53256701e-02 1.14942528e-02 1.14942528e-02
      1.14942528e-02 5.74712642e-02 1.53256701e-02 3.83141753e-03
      3.83141753e-03 7.66283507e-03 7.66283507e-03 7.66283507e-03
      3.83141753e-03 1.14942528e-02 2.29885057e-02 1.53256701e-02
      3.83141753e-03 1.53256701e-02 3.83141753e-03 3.83141753e-03
      1.14942528e-02 1.91570874e-02 0. 7.66283507e-03 0. 1.91570874e-02
      1.14942528e-02 3.83141753e-03 3.83141753e-03 1.14942528e-02
      7.66283507e-03 1.14942528e-02 7.66283507e-03 0. 1.91570874e-02 0.
      7.66283507e-03 1.14942528e-02 0. 7.66283507e-03 2.29885057e-02
      2.29885057e-02 7.66283507e-03 3.83141753e-03 3.83141753e-03
      1.14942528e-02 1.53256701e-02 3.83141753e-03 7.66283507e-03
      7.66283507e-03 7.66283507e-03 7.66283507e-03 7.66283507e-03
      3.83141753e-03 1.53256701e-02 0. 1.91570874e-02 3.83141753e-03
      7.66283507e-03 0. 1.14942528e-02 7.66283507e-03 0. 1.53256701e-02
      1.53256701e-02 1.53256701e-02 7.66283507e-03 2.29885057e-02 0.
      7.66283507e-03 1.91570874e-02 4.21455912e-02 3.83141753e-03
      3.83141753e-03 7.66283507e-03 7.66283507e-03 3.83141753e-03 0.
      1.14942528e-02 1.91570874e-02 1.91570874e-02 1.14942528e-02
      3.83141753e-03 1.91570874e-02 7.66283507e-03 0. 1.14942528e-02
      1.14942528e-02 2.29885057e-02 1.14942528e-02 3.83141753e-03
      3.83141753e-03 3.83141753e-03 7.66283507e-03 1.53256701e-02</_>
    <_>
      0. 2.85714283e-03 5.71428565e-03 2.85714283e-03 1.42857144e-02
      8.57142825e-03 5.71428565e-03 1.42857144e-02 4.85714264e-02
      8.57142825e-03 1.14285713e-02 0. 8.57142825e-03 5.71428565e-03 0.
      1.71428565e-02 8.57142825e-03 5.71428565e-03 5.71428565e-03
      8.57142825e-03 2.85714283e-03 2.85714283e-03 8.57142825e-03 0.
      8.57142825e-03 1.42857144e-02 5.71428565e-03 1.14285713e-02 0.
      5.71428565e-03 2.85714283e-03 8.57142825e-03 2.85714283e-03
      6.57142848e-02 5.71428565e-03 5.71428565e-03 8.57142825e-03
      1.42857144e-02 1.14285713e-02 8.57142825e-03 1.99999996e-02
      2.85714283e-03 8.57142825e-03 5.14285713e-02 2.57142857e-02
      5.71428565e-03 1.42857144e-02 1.14285713e-02 5.71428565e-03
      1.42857144e-02 0. 0. 8.57142825e-03 2.85714283e-03 2.85714283e-03
      8.57142825e-03 2.85714283e-03 2.85714283e-03 1.42857144e-02
      2.28571426e-02 2.85714283e-03 5.71428565e-03 1.14285713e-02
      8.57142825e-03 2.85714283e-03 8.57142825e-03 1.99999996e-02
      5.71428565e-03 0. 1.42857144e-02 5.71428565e-03 1.71428565e-02
      5.71428565e-03 0. 2.28571426e-02 1.71428565e-02 3.14285718e-02
      8.57142825e-03 5.71428565e-03 1.14285713e-02 0. 1.14285713e-02
      2.85714283e-03 3.14285718e-02 2.85714283e-03 1.71428565e-02
      1.14285713e-02 3.14285718e-02 8.57142825e-03 0. 1.14285713e-02
      2.85714283e-03 0. 2.85714283e-03 5.71428565e-03 1.42857144e-02
      1.99999996e-02 8.57142825e-03 2.85714283e-03 5.71428565e-03</_>
    <_>
      6.60066027e-03 6.60066027e-03 9.90099087e-03 6.60066027e-03
      6.60066027e-03 6.60066027e-03 9.90099087e-03 9.90099087e-03
      6.60066027e-03 1.32013205e-02 1.32013205e-02 9.90099087e-03
      3.30033014e-03 1.98019817e-02 6.60066027e-03 1.32013205e-02
      3.30033014e-03 1.32013205e-02 9.90099087e-03 9.90099087e-03
      6.60066027e-03 6.60066027e-03 1.32013205e-02 9.90099087e-03
      1.65016502e-02 6.60066027e-03 9.90099087e-03 9.90099087e-03
      9.90099087e-03 2.31023114e-02 3.30033014e-03 2.31023114e-02
      1.32013205e-02 1.98019817e-02 6.60066027e-03 1.65016502e-02
      1.32013205e-02 1.65016502e-02 3.30033014e-03 6.60066027e-03 0.
      1.32013205e-02 6.60066027e-03 0. 9.90099087e-03 1.32013205e-02
      2.97029708e-02 1.65016502e-02 2.97029708e-02 6.60066027e-03
      3.30033014e-03 0. 1.32013205e-02 9.90099087e-03 1.32013205e-02
      9.90099087e-03 9.90099087e-03 9.90099087e-03 6.60066027e-03
      6.60066027e-03 9.90099087e-03 1.32013205e-02 1.98019817e-02
      9.90099087e-03 0. 2.31023114e-02 9.90099087e-03 9.90099087e-03
      6.60066027e-03 1.32013205e-02 0. 9.90099087e-03 6.60066027e-03
      6.60066027e-03 6.60066027e-03 6.60066027e-03 3.30033014e-03 0.
      9.90099087e-03 6.60066027e-03 6.60066027e-03 6.60066027e-03
      6.60066027e-03 2.31023114e-02 9.90099087e-03 2.97029708e-02
      3.30033014e-03 9.90099087e-03 2.64026411e-02 0. 9.90099087e-03
      3.30033014e-03 0. 2.64026411e-02 3.30033014e-03 1.32013205e-02
      3.30033014e-03 3.30033014e-03 6.60066027e-03 9.90099087e-03</_>
    <_>
      0. 7.26392306e-03 1.45278461e-02 1.45278461e-02 9.68523044e-03
      1.45278461e-02 7.26392306e-03 2.42130761e-03 1.93704609e-02
      7.26392306e-03 3.87409218e-02 2.90556923e-02 7.26392306e-03
      7.26392306e-03 9.68523044e-03 7.26392306e-03 9.68523044e-03
      1.21065378e-02 1.21065378e-02 1.93704609e-02 7.26392306e-03
      9.68523044e-03 7.26392306e-03 9.68523044e-03 2.42130756e-02
      9.68523044e-03 1.21065378e-02 2.42130761e-03 9.68523044e-03
      7.26392306e-03 9.68523044e-03 1.45278461e-02 7.26392306e-03
      4.84261522e-03 9.68523044e-03 1.45278461e-02 7.26392306e-03
      7.26392306e-03 4.84261522e-03 2.17917692e-02 9.68523044e-03
      9.68523044e-03 7.26392306e-03 0. 2.42130761e-03 9.68523044e-03
      9.68523044e-03 9.68523044e-03 4.84261522e-03 2.42130761e-03 0.
      2.42130761e-03 7.26392306e-03 4.84261522e-03 7.26392306e-03
      9.68523044e-03 2.42130761e-03 1.45278461e-02 2.42130761e-03
      7.26392306e-03 4.84261522e-03 2.42130761e-03 1.45278461e-02
      1.21065378e-02 1.21065378e-02 1.45278461e-02 2.42130761e-03
      7.26392306e-03 1.69491526e-02 1.21065378e-02 4.84261522e-03
      1.21065378e-02 2.42130761e-03 2.42130761e-03 7.26392306e-03
      1.21065378e-02 3.63196135e-02 2.42130761e-03 1.45278461e-02
      7.26392306e-03 2.17917692e-02 9.68523044e-03 1.21065378e-02
      1.93704609e-02 1.21065378e-02 0. 9.68523044e-03 1.21065378e-02
      1.45278461e-02 2.66343839e-02 0. 7.26392306e-03 1.69491526e-02
      4.84261522e-03 2.42130761e-03 1.21065378e-02 7.26392306e-03
      4.84261522e-03 1.45278461e-02 1.69491526e-02</_>
    <_>
      5.06329117e-03 1.01265823e-02 2.27848105e-02 1.01265823e-02
      1.26582282e-02 2.53164559e-03 1.26582282e-02 0. 7.59493653e-03
      1.01265823e-02 1.01265823e-02 1.01265823e-02 5.06329117e-03 0.
      7.59493653e-03 7.59493653e-03 7.59493653e-03 1.01265823e-02
      1.01265823e-02 1.77215189e-02 1.01265823e-02 2.53164559e-03
      2.53164559e-03 0. 7.59493653e-03 1.51898731e-02 2.02531647e-02
      7.59493653e-03 5.06329117e-03 1.26582282e-02 1.26582282e-02
      1.26582282e-02 1.77215189e-02 1.01265823e-02 5.06329117e-03
      2.02531647e-02 1.26582282e-02 2.53164559e-03 2.53164559e-03 0.
      7.59493653e-03 2.02531647e-02 1.26582282e-02 1.01265823e-02
      5.06329117e-03 5.06329117e-03 1.77215189e-02 7.59493653e-03
      1.26582282e-02 7.59493653e-03 2.53164563e-02 1.01265823e-02
      7.59493653e-03 1.51898731e-02 2.53164559e-03 5.06329117e-03
      1.51898731e-02 1.01265823e-02 5.06329117e-03 7.59493653e-03
      7.59493653e-03 5.06329117e-03 5.06329117e-03 7.59493653e-03
      1.26582282e-02 7.59493653e-03 7.59493653e-03 1.77215189e-02
      2.53164563e-02 7.59493653e-03 2.27848105e-02 5.06329117e-03
      1.26582282e-02 5.06329117e-03 1.01265823e-02 1.26582282e-02
      1.51898731e-02 1.51898731e-02 2.53164559e-03 7.59493653e-03
      1.26582282e-02 5.06329117e-03 1.01265823e-02 7.59493653e-03
      2.53164559e-03 1.01265823e-02 5.06329117e-03 2.53164559e-03
      7.59493653e-03 2.53164563e-02 1.26582282e-02 1.77215189e-02
      2.53164563e-02 7.59493653e-03 1.01265823e-02 5.06329117e-03
      5.06329117e-03 1.26582282e-02 1.77215189e-02 1.51898731e-02</_>
    <_>
      9.85221658e-03 4.92610829e-03 2.46305410e-02 2.46305410e-02 0.
      1.97044332e-02 9.85221658e-03 1.97044332e-02 0. 4.92610829e-03
      4.92610829e-03 1.97044332e-02 0. 1.47783253e-02 4.92610829e-03
      4.92610829e-03 4.92610829e-03 2.46305410e-02 0. 0. 0.
      4.92610829e-03 9.85221658e-03 1.47783253e-02 9.85221658e-03
      4.92610829e-03 3.94088663e-02 1.47783253e-02 4.92610829e-03
      9.85221658e-03 0. 9.85221658e-03 4.92610829e-03 1.97044332e-02
      4.92610829e-03 4.92610829e-03 4.92610829e-03 2.46305410e-02
      1.47783253e-02 9.85221658e-03 9.85221658e-03 3.44827585e-02 0.
      1.47783253e-02 4.92610829e-03 9.85221658e-03 1.97044332e-02
      4.92610829e-03 9.85221658e-03 4.92610829e-03 4.92610829e-03
      4.92610829e-03 9.85221658e-03 4.92610829e-03 9.85221658e-03 0.
      1.47783253e-02 0. 1.47783253e-02 9.85221658e-03 4.92610829e-03
      1.97044332e-02 0. 1.97044332e-02 0. 1.47783253e-02 1.47783253e-02
      0. 0. 4.92610820e-02 4.92610829e-03 4.92610829e-03 1.47783253e-02
      4.92610829e-03 0. 9.85221658e-03 9.85221658e-03 4.92610829e-03
      4.92610829e-03 9.85221658e-03 1.97044332e-02 4.92610829e-03 0.
      4.92610829e-03 4.92610829e-03 1.97044332e-02 0. 4.92610829e-03
      1.47783253e-02 9.85221658e-03 0. 4.92610829e-03 1.47783253e-02
      4.92610829e-03 0. 3.94088663e-02 1.47783253e-02 0. 9.85221658e-03
      3.94088663e-02</_>
    <_>
      1.26582282e-02 1.01265823e-02 1.51898731e-02 1.26582282e-02
      1.01265823e-02 7.59493653e-03 1.01265823e-02 1.26582282e-02
      2.53164559e-03 5.06329117e-03 7.59493653e-03 1.01265823e-02
      2.53164559e-03 5.06329117e-03 1.26582282e-02 1.26582282e-02
      1.26582282e-02 1.01265823e-02 1.01265823e-02 2.53164559e-03
      1.01265823e-02 0. 1.26582282e-02 1.26582282e-02 1.01265823e-02
      5.06329117e-03 2.02531647e-02 2.53164559e-03 7.59493653e-03
      1.01265823e-02 1.51898731e-02 1.51898731e-02 1.01265823e-02
      5.06329117e-03 7.59493653e-03 5.06329117e-03 5.06329117e-03
      2.02531647e-02 2.53164559e-03 2.27848105e-02 7.59493653e-03
      7.59493653e-03 3.29113938e-02 0. 2.53164559e-03 2.53164559e-03
      2.53164559e-03 1.01265823e-02 1.01265823e-02 5.06329117e-03
      1.26582282e-02 2.02531647e-02 1.51898731e-02 2.53164559e-03
      7.59493653e-03 1.01265823e-02 5.06329117e-03 2.53164563e-02
      2.53164559e-03 2.53164559e-03 1.51898731e-02 2.53164563e-02
      5.06329117e-03 7.59493653e-03 1.77215189e-02 7.59493653e-03
      5.06329117e-03 7.59493653e-03 2.53164559e-03 2.53164559e-03
      1.77215189e-02 2.53164559e-03 2.27848105e-02 2.53164559e-03
      7.59493653e-03 5.06329117e-03 7.59493653e-03 5.06329117e-03
      1.26582282e-02 2.02531647e-02 5.06329117e-03 1.26582282e-02
      7.59493653e-03 1.26582282e-02 1.51898731e-02 0. 1.26582282e-02
      7.59493653e-03 1.26582282e-02 1.77215189e-02 1.77215189e-02
      7.59493653e-03 3.29113938e-02 7.59493653e-03 2.53164559e-03
      2.53164559e-03 7.59493653e-03 2.53164559e-03 2.53164563e-02
      2.02531647e-02</_>
    <_>
      1.18694361e-02 8.90207663e-03 2.07715128e-02 1.48367956e-02
      2.96735903e-03 1.78041533e-02 2.37388723e-02 8.90207663e-03
      2.96735903e-03 0. 2.07715128e-02 1.78041533e-02 0. 1.18694361e-02
      1.18694361e-02 2.96735903e-03 2.96735903e-03 1.18694361e-02
      5.93471806e-03 1.48367956e-02 5.93471806e-03 0. 1.78041533e-02
      1.18694361e-02 1.18694361e-02 0. 8.90207663e-03 5.93471806e-03
      2.96735903e-03 2.67062318e-02 0. 1.78041533e-02 8.90207663e-03
      2.96735903e-03 2.96735903e-03 2.96735903e-03 5.93471806e-03
      8.90207663e-03 0. 2.07715128e-02 1.18694361e-02 1.48367956e-02
      8.90207663e-03 5.93471806e-03 5.93471806e-03 8.90207663e-03
      8.90207663e-03 1.18694361e-02 1.18694361e-02 1.78041533e-02
      5.93471806e-03 2.07715128e-02 0. 0. 2.96735903e-03 1.48367956e-02
      5.93471806e-03 1.78041533e-02 5.93471806e-03 8.90207663e-03
      5.93471806e-03 1.48367956e-02 8.90207663e-03 5.93471806e-03
      5.93471806e-03 5.93471806e-03 1.18694361e-02 2.96735903e-03
      1.78041533e-02 2.96735903e-03 2.96735903e-03 5.93471806e-03
      1.18694361e-02 1.48367956e-02 8.90207663e-03 1.78041533e-02
      5.34124635e-02 8.90207663e-03 5.93471806e-03 1.18694361e-02
      1.18694361e-02 2.96735903e-03 0. 8.90207663e-03 1.18694361e-02
      1.78041533e-02 5.93471806e-03 5.93471806e-03 1.78041533e-02
      2.96735903e-03 0. 1.18694361e-02 8.90207663e-03 2.07715128e-02
      2.96735903e-03 5.93471806e-03 2.07715128e-02 5.93471806e-03
      2.07715128e-02 2.37388723e-02</_>
    <_>
      0. 0. 1.68067235e-02 0. 0. 0. 0. 0. 1.68067235e-02 0. 0.
      8.40336177e-03 8.40336177e-03 8.40336177e-03 0. 0. 2.52100863e-02
      1.68067235e-02 0. 0. 0. 8.40336177e-03 8.40336177e-03 0.
      4.20168079e-02 8.40336177e-03 2.52100863e-02 1.68067235e-02 0.
      8.40336177e-03 0. 0. 0. 2.52100863e-02 0. 0. 8.40336177e-03 0.
      3.36134471e-02 0. 8.40336177e-03 8.40336177e-03 0. 2.52100863e-02
      5.88235334e-02 0. 8.40336177e-03 8.40336177e-03 0. 6.72268942e-02
      0. 0. 0. 0. 0. 0. 0. 0. 1.68067235e-02 0. 0. 0. 8.40336177e-03
      3.36134471e-02 0. 0. 1.68067235e-02 0. 1.68067235e-02 0. 0.
      1.68067235e-02 0. 8.40336177e-03 1.68067235e-02 6.72268942e-02 0.
      8.40336177e-03 0. 0. 8.40336177e-03 3.36134471e-02 8.40336177e-03
      8.40336159e-02 0. 5.04201725e-02 0. 6.72268942e-02 8.40336177e-03
      0. 0. 8.40336177e-03 0. 1.68067235e-02 0. 1.68067235e-02 0.
      8.40336177e-03 8.40336177e-03 0.</_>
    <_>
      4.85436898e-03 9.70873795e-03 7.28155347e-03 9.70873795e-03
      1.45631069e-02 1.94174759e-02 7.28155347e-03 1.21359229e-02
      1.21359229e-02 1.94174759e-02 4.85436898e-03 1.21359229e-02
      7.28155347e-03 2.42718449e-03 1.21359229e-02 1.21359229e-02 0.
      1.21359229e-02 1.21359229e-02 4.85436898e-03 2.42718449e-03
      9.70873795e-03 2.42718449e-03 1.69902910e-02 1.21359229e-02
      1.21359229e-02 1.45631069e-02 7.28155347e-03 1.45631069e-02
      7.28155347e-03 1.45631069e-02 9.70873795e-03 9.70873795e-03
      2.66990289e-02 1.21359229e-02 9.70873795e-03 1.21359229e-02
      1.94174759e-02 7.28155347e-03 1.45631069e-02 2.18446609e-02
      7.28155347e-03 9.70873795e-03 4.85436898e-03 2.42718449e-03
      2.66990289e-02 1.21359229e-02 2.18446609e-02 4.85436898e-03
      5.09708747e-02 7.28155347e-03 2.42718449e-03 2.42718449e-03
      9.70873795e-03 1.21359229e-02 4.85436898e-03 1.21359229e-02
      7.28155347e-03 0. 4.85436898e-03 9.70873795e-03 1.21359229e-02
      2.42718449e-03 4.85436898e-03 7.28155347e-03 9.70873795e-03
      4.85436898e-03 2.91262139e-02 9.70873795e-03 3.15533988e-02
      2.42718449e-03 1.21359229e-02 7.28155347e-03 4.85436898e-03
      9.70873795e-03 4.85436898e-03 4.85436898e-03 1.94174759e-02
      1.69902910e-02 4.85436898e-03 7.28155347e-03 2.42718449e-03
      4.85436898e-03 4.85436898e-03 2.42718449e-03 1.45631069e-02
      7.28155347e-03 0. 1.45631069e-02 2.42718449e-03 7.28155347e-03
      7.28155347e-03 1.69902910e-02 7.28155347e-03 9.70873795e-03
      2.42718449e-03 4.85436898e-03 4.85436898e-03 7.28155347e-03
      4.85436898e-03</_>
    <_>
      0. 8.77192989e-03 8.77192989e-03 0. 1.16959065e-02 0.
      8.77192989e-03 8.77192989e-03 1.16959065e-02 5.84795326e-03
      1.75438598e-02 1.46198831e-02 1.16959065e-02 0. 8.77192989e-03
      5.84795326e-03 8.77192989e-03 1.16959065e-02 8.77192989e-03
      5.84795326e-03 1.75438598e-02 1.75438598e-02 2.92397663e-03
      8.77192989e-03 5.84795326e-03 5.84795326e-03 1.46198831e-02
      1.46198831e-02 1.16959065e-02 1.75438598e-02 1.46198831e-02
      1.46198831e-02 1.16959065e-02 1.75438598e-02 1.16959065e-02
      1.46198831e-02 1.16959065e-02 8.77192989e-03 1.16959065e-02
      2.92397663e-03 8.77192989e-03 2.04678364e-02 1.46198831e-02
      1.75438598e-02 2.92397663e-03 1.16959065e-02 3.80116962e-02
      2.04678364e-02 2.92397663e-03 2.92397663e-02 5.84795326e-03 0.
      1.75438598e-02 2.92397663e-03 8.77192989e-03 5.84795326e-03
      8.77192989e-03 1.16959065e-02 2.33918130e-02 1.16959065e-02
      8.77192989e-03 5.84795326e-03 1.16959065e-02 2.92397663e-03
      2.92397663e-03 1.16959065e-02 5.84795326e-03 8.77192989e-03
      1.46198831e-02 2.04678364e-02 2.92397663e-03 0. 1.46198831e-02
      1.16959065e-02 2.92397663e-03 5.84795326e-03 5.84795326e-03 0.
      2.92397663e-03 2.33918130e-02 1.46198831e-02 2.92397663e-03 0.
      2.92397663e-03 0. 2.04678364e-02 8.77192989e-03 5.84795326e-03
      5.84795326e-03 2.63157897e-02 1.75438598e-02 0. 1.75438598e-02
      1.75438598e-02 8.77192989e-03 5.84795326e-03 5.84795326e-03
      5.84795326e-03 5.84795326e-03 5.84795326e-03</_>
    <_>
      7.01754401e-03 1.05263162e-02 1.40350880e-02 7.01754401e-03
      1.75438598e-02 7.01754401e-03 7.01754401e-03 1.05263162e-02
      1.40350880e-02 1.05263162e-02 1.40350880e-02 0. 0. 7.01754401e-03
      1.05263162e-02 7.01754401e-03 0. 1.05263162e-02 7.01754401e-03
      7.01754401e-03 7.01754401e-03 3.50877200e-03 1.05263162e-02
      1.05263162e-02 2.45614033e-02 1.05263162e-02 0. 1.75438598e-02
      1.05263162e-02 3.50877200e-03 1.75438598e-02 7.01754401e-03
      1.05263162e-02 3.85964923e-02 1.05263162e-02 0. 7.01754401e-03
      7.01754401e-03 0. 7.01754401e-03 1.05263162e-02 1.40350880e-02
      2.10526325e-02 2.80701760e-02 3.50877200e-03 0. 0. 3.50877200e-03
      1.40350880e-02 7.01754401e-03 1.75438598e-02 1.05263162e-02
      1.05263162e-02 3.50877200e-03 1.40350880e-02 2.10526325e-02
      3.50877200e-03 1.40350880e-02 3.85964923e-02 7.01754401e-03
      1.05263162e-02 3.50877200e-03 0. 1.05263162e-02 3.50877200e-03
      3.50877200e-03 7.01754401e-03 7.01754401e-03 0. 1.75438598e-02
      7.01754401e-03 7.01754401e-03 1.05263162e-02 1.05263162e-02
      1.40350880e-02 0. 1.75438598e-02 1.40350880e-02 2.10526325e-02
      1.40350880e-02 7.01754401e-03 0. 1.75438598e-02 1.75438598e-02
      1.40350880e-02 7.01754401e-03 1.75438598e-02 1.05263162e-02
      1.75438598e-02 7.01754401e-03 1.05263162e-02 1.40350880e-02
      3.50877200e-03 1.05263162e-02 1.05263162e-02 1.40350880e-02
      7.01754401e-03 1.05263162e-02 3.50877200e-03 7.01754401e-03</_>
    <_>
      8.40336177e-03 1.40056023e-02 8.40336177e-03 5.60224103e-03
      2.80112051e-03 1.40056023e-02 1.40056023e-02 1.12044821e-02
      5.60224103e-03 2.80112051e-03 4.48179282e-02 2.52100844e-02
      2.80112051e-03 1.12044821e-02 1.12044821e-02 5.60224103e-03
      5.60224103e-03 0. 1.40056023e-02 5.60224103e-03 5.60224103e-03
      1.40056023e-02 8.40336177e-03 8.40336177e-03 2.80112051e-03
      5.60224103e-03 1.12044821e-02 8.40336177e-03 1.12044821e-02
      1.68067235e-02 5.60224103e-03 8.40336177e-03 2.80112051e-03
      1.40056023e-02 2.80112051e-03 5.60224103e-03 2.80112051e-03
      2.80112051e-03 5.60224103e-03 2.80112051e-03 1.40056023e-02
      1.12044821e-02 2.80112051e-03 5.60224103e-03 5.60224103e-03
      1.68067235e-02 1.12044821e-02 1.40056023e-02 2.80112051e-03
      1.96078438e-02 5.60224103e-03 5.60224103e-03 5.60224103e-03
      5.60224103e-03 1.40056023e-02 8.40336177e-03 8.40336177e-03
      1.40056023e-02 1.68067235e-02 8.40336177e-03 5.60224103e-03
      1.12044821e-02 1.96078438e-02 1.96078438e-02 1.40056023e-02
      1.12044821e-02 1.12044821e-02 1.12044821e-02 3.08123250e-02
      1.96078438e-02 2.80112051e-03 8.40336177e-03 8.40336177e-03
      8.40336177e-03 8.40336177e-03 8.40336177e-03 3.36134471e-02
      2.80112051e-03 8.40336177e-03 2.80112051e-03 1.12044821e-02
      1.68067235e-02 5.60224103e-03 2.80112051e-03 5.60224103e-03
      1.40056023e-02 5.60224103e-03 1.12044821e-02 1.68067235e-02
      8.40336177e-03 8.40336177e-03 1.12044821e-02 5.60224103e-03
      1.12044821e-02 1.12044821e-02 5.60224103e-03 1.40056023e-02
      8.40336177e-03 1.40056023e-02 1.12044821e-02</_>
    <_>
      9.70873795e-03 1.29449842e-02 1.61812305e-02 1.29449842e-02
      9.70873795e-03 3.23624606e-03 0. 3.23624606e-03 1.94174759e-02
      3.23624606e-03 1.29449842e-02 6.47249212e-03 6.47249212e-03
      3.23624606e-03 3.23624606e-03 3.23624606e-03 2.26537231e-02
      6.47249212e-03 9.70873795e-03 1.94174759e-02 6.47249212e-03
      1.29449842e-02 6.47249212e-03 3.23624606e-03 6.47249212e-03
      1.94174759e-02 1.94174759e-02 3.23624606e-03 6.47249212e-03
      3.23624606e-03 2.58899685e-02 6.47249212e-03 1.29449842e-02
      1.94174759e-02 6.47249212e-03 9.70873795e-03 1.29449842e-02
      1.29449842e-02 9.70873795e-03 6.47249212e-03 3.23624606e-03
      1.29449842e-02 2.26537231e-02 6.47249212e-03 1.29449842e-02
      3.23624606e-03 0. 6.47249212e-03 1.94174759e-02 3.23624606e-03
      3.23624606e-03 1.29449842e-02 1.29449842e-02 0. 6.47249212e-03
      3.23624606e-03 2.26537231e-02 6.47249212e-03 6.47249212e-03
      1.29449842e-02 0. 3.23624606e-03 2.91262139e-02 1.61812305e-02
      1.29449842e-02 3.23624606e-03 1.94174759e-02 9.70873795e-03 0.
      6.47249212e-03 9.70873795e-03 1.94174759e-02 6.47249212e-03
      9.70873795e-03 6.47249212e-03 1.29449842e-02 1.61812305e-02
      6.47249212e-03 1.61812305e-02 9.70873795e-03 3.23624606e-03
      1.61812305e-02 1.29449842e-02 9.70873795e-03 3.23624606e-03
      1.61812305e-02 6.47249212e-03 3.23624606e-03 0. 3.23624606e-03
      1.94174759e-02 2.26537231e-02 1.29449842e-02 9.70873795e-03
      2.26537231e-02 3.23624606e-03 2.58899685e-02 3.23624606e-03
      1.29449842e-02 6.47249212e-03</_>
    <_>
      1.19760484e-02 2.99401209e-03 8.98203626e-03 1.19760484e-02
      3.59281451e-02 1.19760484e-02 2.99401209e-03 8.98203626e-03
      5.98802418e-03 8.98203626e-03 0. 1.19760484e-02 8.98203626e-03
      8.98203626e-03 5.98802418e-03 8.98203626e-03 2.69461088e-02
      2.99401209e-03 1.49700604e-02 5.98802418e-03 5.98802418e-03
      2.99401209e-03 2.99401209e-03 8.98203626e-03 8.98203626e-03
      8.98203626e-03 1.79640725e-02 8.98203626e-03 2.39520967e-02
      5.98802418e-03 8.98203626e-03 5.98802418e-03 8.98203626e-03
      1.79640725e-02 2.39520967e-02 2.99401209e-03 8.98203626e-03
      1.19760484e-02 1.49700604e-02 0. 8.98203626e-03 1.79640725e-02
      8.98203626e-03 5.98802418e-03 2.99401209e-03 5.98802418e-03
      2.09580846e-02 1.49700604e-02 2.09580846e-02 0. 8.98203626e-03
      8.98203626e-03 2.99401209e-03 1.19760484e-02 8.98203626e-03
      2.99401209e-03 1.19760484e-02 2.99401209e-02 0. 5.98802418e-03
      2.09580846e-02 8.98203626e-03 1.79640725e-02 5.98802418e-03
      1.49700604e-02 8.98203626e-03 1.49700604e-02 8.98203626e-03
      2.99401209e-03 8.98203626e-03 5.98802418e-03 2.99401209e-03
      1.49700604e-02 1.49700604e-02 5.98802418e-03 8.98203626e-03 0.
      8.98203626e-03 5.98802418e-03 1.19760484e-02 2.39520967e-02
      2.09580846e-02 8.98203626e-03 1.49700604e-02 1.19760484e-02
      2.39520967e-02 2.99401209e-03 1.49700604e-02 2.99401209e-03
      8.98203626e-03 5.98802418e-03 5.98802418e-03 2.99401209e-03
      5.98802418e-03 5.98802418e-03 8.98203626e-03 8.98203626e-03 0.
      1.19760484e-02 5.98802418e-03</_>
    <_>
      1.58730168e-02 9.92063526e-03 9.92063526e-03 1.98412705e-02
      3.96825420e-03 5.95238153e-03 1.19047631e-02 7.93650839e-03
      1.98412710e-03 3.96825420e-03 0. 9.92063526e-03 5.95238153e-03
      9.92063526e-03 1.19047631e-02 7.93650839e-03 1.78571437e-02
      1.19047631e-02 2.18253974e-02 1.19047631e-02 7.93650839e-03 0.
      5.95238153e-03 9.92063526e-03 1.78571437e-02 9.92063526e-03
      1.19047631e-02 7.93650839e-03 1.58730168e-02 1.19047631e-02
      1.58730168e-02 5.95238153e-03 9.92063526e-03 5.95238153e-03
      1.58730168e-02 1.38888899e-02 9.92063526e-03 5.95238153e-03
      7.93650839e-03 1.19047631e-02 7.93650839e-03 9.92063526e-03
      9.92063526e-03 1.98412710e-03 1.38888899e-02 1.78571437e-02
      1.78571437e-02 1.98412705e-02 1.19047631e-02 1.58730168e-02
      7.93650839e-03 9.92063526e-03 2.77777798e-02 9.92063526e-03
      1.19047631e-02 1.98412710e-03 9.92063526e-03 1.98412705e-02
      3.96825420e-03 3.96825420e-03 1.58730168e-02 7.93650839e-03
      3.17460336e-02 1.19047631e-02 9.92063526e-03 5.95238153e-03
      1.38888899e-02 3.96825420e-03 3.96825420e-03 1.38888899e-02
      1.78571437e-02 5.95238153e-03 3.96825420e-03 0. 9.92063526e-03
      1.98412710e-03 3.96825420e-03 7.93650839e-03 7.93650839e-03
      1.38888899e-02 1.19047631e-02 1.38888899e-02 5.95238153e-03
      9.92063526e-03 5.95238153e-03 1.19047631e-02 7.93650839e-03
      5.95238153e-03 3.96825420e-03 1.19047631e-02 3.96825420e-03
      1.78571437e-02 1.38888899e-02 9.92063526e-03 1.98412710e-03
      3.96825420e-03 1.58730168e-02 5.95238153e-03 0. 7.93650839e-03</_>
    <_>
      5.97014930e-03 2.98507465e-03 8.95522349e-03 1.49253737e-02 0.
      1.79104470e-02 5.97014930e-03 2.98507465e-03 1.19402986e-02
      2.98507465e-03 2.98507474e-02 2.38805972e-02 2.98507465e-03
      2.98507465e-03 5.97014930e-03 5.97014930e-03 1.19402986e-02
      2.08955221e-02 8.95522349e-03 1.79104470e-02 2.98507465e-03
      1.49253737e-02 1.19402986e-02 8.95522349e-03 1.19402986e-02
      2.98507465e-03 8.95522349e-03 1.19402986e-02 8.95522349e-03
      8.95522349e-03 2.38805972e-02 2.98507465e-03 1.49253737e-02
      5.97014930e-03 2.98507465e-03 5.97014930e-03 5.97014930e-03
      1.19402986e-02 2.98507465e-03 1.19402986e-02 1.79104470e-02
      1.19402986e-02 2.38805972e-02 1.19402986e-02 1.49253737e-02
      8.95522349e-03 2.38805972e-02 8.95522349e-03 2.98507465e-03
      8.95522349e-03 1.19402986e-02 1.49253737e-02 5.97014930e-03
      8.95522349e-03 2.38805972e-02 1.19402986e-02 8.95522349e-03
      8.95522349e-03 2.98507465e-03 5.97014930e-03 2.98507465e-03
      1.49253737e-02 2.98507465e-03 2.98507465e-03 1.19402986e-02
      1.19402986e-02 5.97014930e-03 5.97014930e-03 8.95522349e-03
      8.95522349e-03 1.79104470e-02 1.19402986e-02 1.49253737e-02
      2.98507465e-03 0. 2.98507465e-03 1.49253737e-02 8.95522349e-03
      5.97014930e-03 1.49253737e-02 1.79104470e-02 0. 5.97014930e-03
      2.38805972e-02 5.97014930e-03 2.98507474e-02 8.95522349e-03
      1.79104470e-02 2.98507465e-03 5.97014930e-03 2.98507465e-03
      8.95522349e-03 2.98507465e-03 5.97014930e-03 8.95522349e-03
      1.19402986e-02 8.95522349e-03 2.98507465e-03 1.79104470e-02
      8.95522349e-03</_>
    <_>
      8.77192989e-03 5.84795326e-03 2.04678364e-02 8.77192989e-03
      2.92397663e-03 1.46198831e-02 1.46198831e-02 1.46198831e-02
      2.63157897e-02 2.92397663e-03 2.04678364e-02 1.16959065e-02
      1.16959065e-02 8.77192989e-03 1.16959065e-02 5.84795326e-03
      5.84795326e-03 2.04678364e-02 0. 8.77192989e-03 2.92397663e-03
      1.16959065e-02 1.16959065e-02 5.84795326e-03 8.77192989e-03
      1.16959065e-02 8.77192989e-03 5.84795326e-03 2.92397663e-03
      1.16959065e-02 1.16959065e-02 8.77192989e-03 1.16959065e-02
      1.46198831e-02 8.77192989e-03 1.46198831e-02 8.77192989e-03
      1.46198831e-02 2.92397663e-03 5.84795326e-03 2.92397663e-03
      5.84795326e-03 8.77192989e-03 2.92397663e-03 5.84795326e-03
      1.16959065e-02 2.92397663e-02 5.84795326e-03 1.16959065e-02
      2.33918130e-02 1.16959065e-02 8.77192989e-03 1.46198831e-02
      5.84795326e-03 1.75438598e-02 8.77192989e-03 1.16959065e-02
      2.92397663e-03 1.16959065e-02 8.77192989e-03 1.16959065e-02
      5.84795326e-03 2.92397663e-03 5.84795326e-03 2.92397663e-03
      2.04678364e-02 1.46198831e-02 8.77192989e-03 8.77192989e-03
      2.33918130e-02 5.84795326e-03 0. 1.46198831e-02 1.16959065e-02
      1.75438598e-02 5.84795326e-03 1.46198831e-02 5.84795326e-03
      2.92397663e-03 1.46198831e-02 8.77192989e-03 2.92397663e-03
      2.92397663e-03 1.75438598e-02 1.16959065e-02 5.84795326e-03
      5.84795326e-03 1.46198831e-02 1.16959065e-02 0. 1.16959065e-02
      8.77192989e-03 8.77192989e-03 2.92397663e-03 5.84795326e-03
      1.16959065e-02 5.84795326e-03 8.77192989e-03 1.75438598e-02
      1.75438598e-02</_>
    <_>
      2.16216221e-02 1.08108111e-02 2.16216221e-02 0. 1.62162166e-02
      1.08108111e-02 3.24324332e-02 1.62162166e-02 5.40540554e-03 0. 0.
      5.40540554e-03 0. 1.08108111e-02 5.40540554e-03 1.62162166e-02
      5.40540554e-03 1.62162166e-02 1.08108111e-02 5.40540554e-03
      1.62162166e-02 1.08108111e-02 1.62162166e-02 2.70270277e-02
      1.62162166e-02 5.40540554e-03 1.08108111e-02 0. 1.08108111e-02
      5.40540554e-03 1.08108111e-02 5.40540554e-03 1.62162166e-02 0.
      5.40540554e-03 1.08108111e-02 2.16216221e-02 1.62162166e-02
      5.40540554e-03 1.62162166e-02 2.70270277e-02 0. 2.70270277e-02 0.
      1.08108111e-02 5.40540554e-03 0. 2.70270277e-02 5.40540554e-03
      5.40540554e-03 1.08108111e-02 1.62162166e-02 2.16216221e-02
      1.08108111e-02 1.08108111e-02 4.32432443e-02 1.08108111e-02
      1.62162166e-02 0. 1.62162166e-02 1.08108111e-02 1.08108111e-02
      1.08108111e-02 5.40540554e-03 2.16216221e-02 0. 5.40540554e-03
      5.40540554e-03 5.40540554e-03 0. 2.70270277e-02 1.62162166e-02
      1.62162166e-02 0. 5.40540554e-03 0. 0. 0. 1.08108111e-02
      2.16216221e-02 0. 2.70270277e-02 0. 1.08108111e-02 1.62162166e-02
      0. 5.40540554e-03 0. 5.40540554e-03 0. 1.08108111e-02
      5.40540554e-03 1.08108111e-02 1.08108111e-02 0. 5.40540554e-03
      1.62162166e-02 0. 0. 0.</_>
    <_>
      8.06451589e-03 4.03225794e-03 8.06451589e-03 3.22580636e-02
      8.06451589e-03 1.61290318e-02 0. 1.20967738e-02 4.03225794e-03
      4.03225794e-03 1.20967738e-02 1.61290318e-02 4.03225794e-03
      4.03225794e-03 8.06451589e-03 8.06451589e-03 4.03225794e-03
      1.20967738e-02 8.06451589e-03 2.82258056e-02 4.03225794e-03 0.
      1.20967738e-02 1.61290318e-02 8.06451589e-03 8.06451589e-03 0.
      8.06451589e-03 1.20967738e-02 4.03225794e-03 2.01612897e-02
      1.20967738e-02 1.20967738e-02 0. 4.03225794e-03 8.06451589e-03
      8.06451589e-03 1.61290318e-02 4.03225794e-03 4.03225794e-02
      4.03225794e-03 4.03225794e-03 2.41935477e-02 0. 1.61290318e-02
      8.06451589e-03 4.83870953e-02 4.03225794e-03 4.03225794e-03 0.
      1.20967738e-02 8.06451589e-03 4.03225794e-03 0. 1.61290318e-02
      1.20967738e-02 8.06451589e-03 0. 8.06451589e-03 4.03225794e-03
      4.03225794e-03 0. 4.03225794e-03 1.61290318e-02 8.06451589e-03
      8.06451589e-03 4.03225794e-03 0. 4.03225794e-03 2.41935477e-02
      8.06451589e-03 4.03225794e-03 4.03225794e-03 0. 4.03225794e-03
      4.03225794e-03 4.03225794e-03 8.06451589e-03 1.61290318e-02 0.
      8.06451589e-03 4.03225794e-03 0. 5.24193533e-02 1.20967738e-02
      4.43548374e-02 2.01612897e-02 2.01612897e-02 1.20967738e-02
      1.20967738e-02 0. 1.61290318e-02 1.61290318e-02 2.01612897e-02
      8.06451589e-03 0. 4.03225794e-03 4.03225794e-03 1.61290318e-02
      2.01612897e-02</_>
    <_>
      1.11358576e-02 1.11358576e-02 2.22717151e-02 0. 4.45434311e-03
      1.11358576e-02 8.90868623e-03 1.11358576e-02 1.33630298e-02
      8.90868623e-03 8.90868623e-03 2.00445447e-02 6.68151490e-03
      2.22717156e-03 6.68151490e-03 1.11358576e-02 6.68151490e-03
      6.68151490e-03 6.68151490e-03 1.55902011e-02 1.11358576e-02
      4.45434311e-03 1.33630298e-02 4.45434311e-03 8.90868623e-03
      8.90868623e-03 6.68151490e-03 1.33630298e-02 4.45434311e-03
      2.22717156e-03 8.90868623e-03 1.55902011e-02 6.68151490e-03
      3.34075727e-02 1.11358576e-02 6.68151490e-03 4.45434311e-03
      1.78173725e-02 6.68151490e-03 8.90868623e-03 1.33630298e-02
      2.22717156e-03 2.22717156e-03 0. 0. 6.68151490e-03 2.22717151e-02
      1.11358576e-02 4.45434311e-03 1.11358576e-02 1.11358576e-02
      2.22717156e-03 1.11358576e-02 1.33630298e-02 1.78173725e-02
      1.33630298e-02 1.11358576e-02 6.68151490e-03 1.78173725e-02
      1.55902011e-02 8.90868623e-03 6.68151490e-03 2.22717156e-03
      1.11358576e-02 2.22717156e-03 1.55902011e-02 1.55902011e-02
      8.90868623e-03 1.11358576e-02 2.89532300e-02 1.11358576e-02
      1.11358576e-02 1.33630298e-02 0. 8.90868623e-03 8.90868623e-03
      1.78173725e-02 6.68151490e-03 1.11358576e-02 2.22717156e-03
      6.68151490e-03 6.68151490e-03 2.22717156e-03 2.00445447e-02 0.
      4.45434302e-02 6.68151490e-03 2.00445447e-02 1.11358576e-02
      6.68151490e-03 8.90868623e-03 4.45434311e-03 8.90868623e-03
      8.90868623e-03 6.68151490e-03 8.90868623e-03 6.68151490e-03
      4.45434311e-03 1.55902011e-02 1.33630298e-02</_>
    <_>
      1.04166670e-02 2.08333340e-02 6.94444450e-03 6.94444450e-03
      6.94444450e-03 1.38888890e-02 3.47222225e-03 6.94444450e-03
      2.08333340e-02 1.04166670e-02 6.94444450e-03 1.38888890e-02 0.
      6.94444450e-03 3.47222225e-03 3.47222225e-03 0. 1.38888890e-02
      6.94444450e-03 1.38888890e-02 3.47222225e-03 6.94444450e-03
      6.94444450e-03 6.94444450e-03 3.47222225e-03 3.47222225e-03
      3.47222239e-02 3.47222225e-03 6.94444450e-03 2.08333340e-02
      3.47222225e-03 1.73611119e-02 3.47222225e-03 2.43055560e-02 0.
      1.04166670e-02 3.47222225e-03 1.73611119e-02 3.47222225e-03 0. 0.
      3.47222239e-02 6.94444450e-03 6.94444450e-03 1.04166670e-02
      2.08333340e-02 3.47222239e-02 6.94444450e-03 1.04166670e-02
      1.04166670e-02 6.94444450e-03 3.47222225e-03 1.38888890e-02
      3.47222225e-03 3.47222225e-03 0. 0. 6.94444450e-03 6.94444450e-03
      3.47222225e-03 6.94444450e-03 6.94444450e-03 3.47222225e-03
      3.47222225e-03 3.47222225e-03 2.08333340e-02 1.38888890e-02
      6.94444450e-03 3.47222225e-03 3.12500000e-02 0. 0. 1.04166670e-02
      5.20833321e-02 3.47222225e-03 3.47222239e-02 2.08333340e-02
      6.94444450e-03 0. 6.94444450e-03 1.38888890e-02 1.04166670e-02
      6.94444450e-03 6.94444450e-03 6.94444450e-03 2.43055560e-02
      3.47222225e-03 3.47222225e-03 1.73611119e-02 1.38888890e-02
      1.73611119e-02 3.47222225e-03 0. 1.73611119e-02 3.47222225e-03
      6.94444450e-03 1.04166670e-02 0. 2.43055560e-02 2.43055560e-02</_>
    <_>
      1.36612020e-02 8.19672085e-03 2.18579229e-02 2.73224036e-03
      8.19672085e-03 1.91256832e-02 5.46448072e-03 2.73224036e-03
      1.91256832e-02 8.19672085e-03 2.45901626e-02 1.09289614e-02
      5.46448072e-03 5.46448072e-03 1.36612020e-02 1.09289614e-02
      2.18579229e-02 1.63934417e-02 1.09289614e-02 0. 2.73224036e-03
      1.09289614e-02 2.73224036e-03 5.46448072e-03 2.73224036e-03
      8.19672085e-03 1.91256832e-02 1.63934417e-02 1.09289614e-02
      2.18579229e-02 8.19672085e-03 1.91256832e-02 1.09289614e-02
      1.36612020e-02 1.63934417e-02 8.19672085e-03 2.73224036e-03
      1.36612020e-02 1.91256832e-02 2.73224036e-03 2.73224036e-03
      1.09289614e-02 2.73224036e-03 2.73224036e-03 2.73224036e-03
      1.63934417e-02 1.09289614e-02 8.19672085e-03 1.09289614e-02
      5.46448072e-03 8.19672085e-03 8.19672085e-03 1.91256832e-02
      1.09289614e-02 8.19672085e-03 2.73224041e-02 2.73224036e-03
      1.63934417e-02 1.36612020e-02 1.09289614e-02 0. 2.73224036e-03
      2.18579229e-02 8.19672085e-03 2.73224036e-03 5.46448072e-03
      5.46448072e-03 1.63934417e-02 5.46448072e-03 1.36612020e-02 0.
      8.19672085e-03 2.18579229e-02 5.46448072e-03 8.19672085e-03 0.
      2.73224041e-02 2.73224036e-03 1.63934417e-02 2.18579229e-02
      8.19672085e-03 1.63934417e-02 5.46448072e-03 5.46448072e-03 0.
      5.46448072e-03 5.46448072e-03 1.09289614e-02 1.91256832e-02
      1.36612020e-02 0. 1.09289614e-02 1.09289614e-02 8.19672085e-03
      2.73224036e-03 5.46448072e-03 5.46448072e-03 5.46448072e-03
      8.19672085e-03 1.36612020e-02</_>
    <_>
      1.02389073e-02 0. 1.02389073e-02 6.82593836e-03 3.41296918e-03
      3.41296918e-03 1.36518767e-02 3.41296918e-03 1.70648452e-02
      3.41296918e-03 4.43685986e-02 1.70648452e-02 3.41296918e-03
      1.02389073e-02 3.41296918e-03 6.82593836e-03 6.82593836e-03
      6.82593836e-03 6.82593836e-03 0. 1.70648452e-02 2.04778146e-02
      1.36518767e-02 1.02389073e-02 3.41296918e-03 3.41296918e-03
      1.70648452e-02 6.82593836e-03 3.41296918e-03 2.04778146e-02
      6.82593836e-03 6.82593836e-03 1.02389073e-02 6.82593836e-03
      1.02389073e-02 3.41296918e-03 1.02389073e-02 1.70648452e-02 0.
      6.82593836e-03 3.41296918e-03 3.41296918e-03 1.02389073e-02
      1.02389073e-02 3.41296918e-03 1.70648452e-02 1.36518767e-02
      1.70648452e-02 1.70648452e-02 3.41296904e-02 6.82593836e-03
      1.02389073e-02 2.04778146e-02 3.41296918e-03 3.41296918e-03 0.
      3.41296918e-03 3.41296904e-02 1.36518767e-02 3.41296918e-03
      3.41296918e-03 3.41296918e-03 3.41296918e-03 6.82593836e-03
      3.41296918e-03 1.02389073e-02 3.41296918e-03 6.82593836e-03
      1.02389073e-02 1.70648452e-02 0. 6.82593836e-03 1.70648452e-02
      3.41296918e-03 6.82593836e-03 3.41296918e-03 4.77815680e-02
      3.41296918e-03 1.70648452e-02 1.02389073e-02 1.70648452e-02
      1.36518767e-02 3.41296918e-03 6.82593836e-03 6.82593836e-03
      2.04778146e-02 0. 6.82593836e-03 1.70648452e-02 6.82593836e-03
      6.82593836e-03 6.82593836e-03 6.82593836e-03 2.04778146e-02
      6.82593836e-03 1.36518767e-02 1.70648452e-02 6.82593836e-03
      2.04778146e-02 1.02389073e-02</_>
    <_>
      9.00900923e-03 6.00600615e-03 2.40240246e-02 6.00600615e-03
      3.00300308e-03 3.00300308e-03 2.10210215e-02 6.00600615e-03
      1.50150154e-02 3.00300308e-03 1.20120123e-02 1.20120123e-02
      6.00600615e-03 1.20120123e-02 6.00600615e-03 6.00600615e-03
      9.00900923e-03 0. 1.50150154e-02 9.00900923e-03 9.00900923e-03
      1.80180185e-02 3.00300308e-03 9.00900923e-03 9.00900923e-03 0.
      1.20120123e-02 3.00300308e-03 9.00900923e-03 1.50150154e-02
      9.00900923e-03 1.20120123e-02 6.00600615e-03 1.20120123e-02
      1.20120123e-02 1.50150154e-02 9.00900923e-03 2.10210215e-02
      6.00600615e-03 6.00600615e-03 9.00900923e-03 2.10210215e-02
      9.00900923e-03 2.10210215e-02 9.00900923e-03 2.10210215e-02
      2.10210215e-02 1.80180185e-02 2.10210215e-02 1.80180185e-02
      6.00600615e-03 3.00300308e-03 3.00300308e-03 6.00600615e-03
      1.20120123e-02 1.50150154e-02 6.00600615e-03 9.00900923e-03
      6.00600615e-03 3.00300308e-02 0. 1.20120123e-02 9.00900923e-03
      3.00300308e-03 0. 9.00900923e-03 1.50150154e-02 1.50150154e-02
      6.00600615e-03 3.30330357e-02 0. 1.50150154e-02 1.50150154e-02
      6.00600615e-03 1.20120123e-02 6.00600615e-03 3.00300308e-03
      1.80180185e-02 9.00900923e-03 1.50150154e-02 3.00300308e-03
      1.20120123e-02 3.00300308e-03 1.20120123e-02 0. 2.70270277e-02
      6.00600615e-03 1.20120123e-02 6.00600615e-03 9.00900923e-03
      9.00900923e-03 6.00600615e-03 0. 6.00600615e-03 6.00600615e-03
      9.00900923e-03 3.00300308e-03 0. 9.00900923e-03 1.80180185e-02</_>
    <_>
      4.44444455e-03 0. 4.44444455e-03 8.88888910e-03 8.88888910e-03
      8.88888910e-03 1.33333337e-02 4.44444455e-03 8.88888910e-03
      8.88888910e-03 1.77777782e-02 8.88888910e-03 0. 4.44444455e-03
      2.22222228e-02 1.33333337e-02 8.88888910e-03 0. 1.33333337e-02
      3.11111119e-02 0. 8.88888910e-03 1.33333337e-02 1.33333337e-02
      8.88888910e-03 8.88888910e-03 0. 0. 0. 4.44444455e-03
      1.77777782e-02 1.33333337e-02 3.11111119e-02 1.33333337e-02
      4.44444455e-03 4.44444455e-03 8.88888910e-03 2.22222228e-02
      8.88888910e-03 2.66666673e-02 4.44444455e-03 1.77777782e-02
      8.88888910e-03 0. 4.44444455e-03 8.88888910e-03 2.66666673e-02
      4.44444455e-03 8.88888910e-03 4.44444455e-03 1.33333337e-02
      8.88888910e-03 8.88888910e-03 0. 8.88888910e-03 1.77777782e-02 0.
      1.77777782e-02 0. 4.44444455e-03 8.88888910e-03 0. 0.
      1.77777782e-02 1.33333337e-02 8.88888910e-03 0. 1.33333337e-02
      8.88888910e-03 1.33333337e-02 3.11111119e-02 0. 8.88888910e-03 0.
      8.88888910e-03 4.44444455e-03 1.33333337e-02 8.88888910e-03
      4.44444455e-03 1.33333337e-02 8.88888910e-03 0. 0. 2.66666673e-02
      1.33333337e-02 2.66666673e-02 1.77777782e-02 3.11111119e-02
      1.33333337e-02 1.77777782e-02 1.77777782e-02 0. 8.88888910e-03
      1.77777782e-02 8.88888910e-03 8.88888910e-03 8.88888910e-03 0.
      1.33333337e-02 1.33333337e-02</_>
    <_>
      0. 8.54700897e-03 1.92307699e-02 1.49572659e-02 4.27350448e-03
      8.54700897e-03 8.54700897e-03 6.41025696e-03 2.13675224e-03
      2.13675220e-02 2.13675224e-03 1.28205139e-02 1.06837610e-02
      1.06837610e-02 1.49572659e-02 1.28205139e-02 6.41025696e-03
      1.06837610e-02 4.27350448e-03 1.06837610e-02 8.54700897e-03
      1.28205139e-02 1.06837610e-02 6.41025696e-03 2.35042740e-02
      2.35042740e-02 4.27350448e-03 8.54700897e-03 8.54700897e-03
      6.41025696e-03 1.70940179e-02 8.54700897e-03 4.27350448e-03
      8.54700897e-03 8.54700897e-03 1.06837610e-02 4.27350448e-03
      2.13675220e-02 8.54700897e-03 8.54700897e-03 8.54700897e-03
      8.54700897e-03 1.06837610e-02 8.54700897e-03 8.54700897e-03
      1.70940179e-02 4.27350448e-03 8.54700897e-03 4.27350448e-03
      6.41025696e-03 4.27350448e-03 1.06837610e-02 8.54700897e-03
      8.54700897e-03 1.06837610e-02 1.06837610e-02 4.27350448e-03
      6.41025696e-03 4.27350448e-03 1.28205139e-02 1.06837610e-02
      1.06837610e-02 8.54700897e-03 4.27350448e-03 1.06837610e-02
      1.92307699e-02 8.54700897e-03 4.27350448e-03 8.54700897e-03
      1.06837610e-02 1.70940179e-02 6.41025696e-03 8.54700897e-03
      2.13675224e-03 8.54700897e-03 4.27350448e-03 8.54700897e-03
      4.27350448e-03 1.49572659e-02 6.41025696e-03 8.54700897e-03
      1.70940179e-02 2.56410278e-02 2.77777798e-02 8.54700897e-03
      1.70940179e-02 8.54700897e-03 1.70940179e-02 2.13675224e-03
      4.27350448e-03 4.27350448e-03 1.49572659e-02 2.77777798e-02
      6.41025696e-03 6.41025696e-03 6.41025696e-03 1.49572659e-02
      4.27350448e-03 2.13675220e-02 8.54700897e-03</_>
    <_>
      3.36700329e-03 6.73400657e-03 3.36700329e-03 1.01010101e-02
      1.34680131e-02 6.73400657e-03 1.01010101e-02 1.01010101e-02 0.
      1.34680131e-02 6.73400657e-03 2.35690232e-02 1.68350171e-02
      6.73400657e-03 3.36700329e-03 1.01010101e-02 0. 0. 1.34680131e-02
      1.01010101e-02 3.36700329e-03 1.01010101e-02 6.73400657e-03
      3.36700329e-03 6.73400657e-03 3.36700329e-03 2.02020202e-02 0. 0.
      1.01010101e-02 1.68350171e-02 1.01010101e-02 6.73400657e-03
      1.68350171e-02 3.36700329e-03 1.34680131e-02 1.01010101e-02
      1.68350171e-02 0. 3.36700329e-03 1.34680131e-02 3.03030293e-02
      3.36700329e-03 6.73400657e-03 3.36700329e-03 3.03030293e-02
      4.71380465e-02 6.73400657e-03 0. 1.34680131e-02 1.01010101e-02
      1.01010101e-02 1.01010101e-02 6.73400657e-03 6.73400657e-03
      3.36700329e-03 0. 6.73400657e-03 3.36700329e-03 2.35690232e-02
      3.36700329e-03 1.01010101e-02 1.34680131e-02 1.01010101e-02
      6.73400657e-03 6.73400657e-03 6.73400657e-03 6.73400657e-03
      1.01010101e-02 5.38720526e-02 0. 1.34680131e-02 1.34680131e-02
      6.73400657e-03 6.73400657e-03 6.73400657e-03 3.36700329e-03
      3.36700329e-03 1.01010101e-02 2.02020202e-02 1.01010101e-02
      1.01010101e-02 3.36700329e-03 3.36700329e-03 1.68350171e-02
      3.36700343e-02 6.73400657e-03 3.36700329e-03 1.34680131e-02
      1.01010101e-02 6.73400657e-03 0. 0. 2.35690232e-02 1.34680131e-02
      1.34680131e-02 3.36700329e-03 6.73400657e-03 2.02020202e-02
      2.35690232e-02</_>
    <_>
      1.32158585e-02 6.60792924e-03 2.20264308e-03 8.81057233e-03
      6.60792924e-03 4.40528616e-03 1.76211447e-02 1.32158585e-02
      1.76211447e-02 8.81057233e-03 3.30396444e-02 1.32158585e-02
      1.32158585e-02 6.60792924e-03 4.40528616e-03 8.81057233e-03
      1.10132154e-02 8.81057233e-03 6.60792924e-03 6.60792924e-03
      1.76211447e-02 6.60792924e-03 4.40528616e-03 1.32158585e-02
      1.10132154e-02 8.81057233e-03 8.81057233e-03 2.20264308e-03
      1.10132154e-02 1.10132154e-02 6.60792924e-03 6.60792924e-03
      8.81057233e-03 4.40528616e-03 1.54185016e-02 8.81057233e-03
      2.20264308e-02 8.81057233e-03 4.40528616e-03 1.10132154e-02
      2.20264308e-03 1.76211447e-02 1.76211447e-02 1.32158585e-02 0.
      1.76211447e-02 8.81057233e-03 1.54185016e-02 2.20264308e-03
      6.60792924e-03 2.20264308e-03 6.60792924e-03 8.81057233e-03
      4.40528616e-03 8.81057233e-03 1.32158585e-02 0. 2.64317170e-02
      1.32158585e-02 1.32158585e-02 1.54185016e-02 1.32158585e-02
      4.40528616e-03 6.60792924e-03 1.32158585e-02 1.32158585e-02
      6.60792924e-03 6.60792924e-03 1.98237877e-02 6.60792924e-03
      6.60792924e-03 2.20264308e-03 1.10132154e-02 2.20264308e-03
      6.60792924e-03 8.81057233e-03 5.06607890e-02 1.10132154e-02
      1.54185016e-02 8.81057233e-03 4.40528616e-03 4.40528616e-03
      6.60792924e-03 6.60792924e-03 1.76211447e-02 2.20264308e-03
      1.76211447e-02 4.40528616e-03 4.40528616e-03 8.81057233e-03
      8.81057233e-03 1.10132154e-02 4.40528616e-03 8.81057233e-03
      1.54185016e-02 6.60792924e-03 1.76211447e-02 6.60792924e-03
      1.10132154e-02 2.20264308e-03</_>
    <_>
      2.27790442e-03 1.36674270e-02 2.73348540e-02 9.11161769e-03
      1.13895219e-02 1.36674270e-02 1.82232354e-02 6.83371350e-03
      1.59453303e-02 1.36674270e-02 2.73348540e-02 3.64464708e-02
      4.55580885e-03 2.27790442e-03 1.36674270e-02 4.55580885e-03
      1.13895219e-02 1.36674270e-02 2.27790442e-03 4.55580885e-03
      6.83371350e-03 9.11161769e-03 9.11161769e-03 1.13895219e-02
      1.36674270e-02 1.36674270e-02 1.59453303e-02 4.55580885e-03
      4.55580885e-03 1.59453303e-02 1.59453303e-02 0. 9.11161769e-03
      2.27790442e-03 9.11161769e-03 6.83371350e-03 6.83371350e-03
      1.36674270e-02 1.13895219e-02 2.05011405e-02 1.36674270e-02
      1.59453303e-02 2.27790442e-03 2.27790442e-03 6.83371350e-03
      6.83371350e-03 4.55580885e-03 6.83371350e-03 2.27790442e-03
      4.55580885e-03 4.55580885e-03 9.11161769e-03 1.13895219e-02
      9.11161769e-03 6.83371350e-03 9.11161769e-03 4.55580885e-03
      9.11161769e-03 4.55580885e-03 2.27790442e-03 9.11161769e-03
      2.27790442e-03 2.27790442e-03 1.36674270e-02 0. 1.59453303e-02
      9.11161769e-03 4.55580885e-03 1.13895219e-02 1.36674270e-02
      1.36674270e-02 1.36674270e-02 1.13895219e-02 4.55580885e-03
      6.83371350e-03 0. 2.27790438e-02 9.11161769e-03 1.36674270e-02
      9.11161769e-03 4.55580885e-03 4.55580885e-03 2.27790442e-03
      2.50569489e-02 2.50569489e-02 6.83371350e-03 4.55580885e-03
      9.11161769e-03 1.59453303e-02 1.36674270e-02 0. 9.11161769e-03
      1.59453303e-02 1.13895219e-02 6.83371350e-03 2.27790442e-03
      1.36674270e-02 6.83371350e-03 2.96127573e-02 1.59453303e-02</_>
    <_>
      3.04878037e-03 6.09756075e-03 1.21951215e-02 9.14634112e-03
      1.21951215e-02 9.14634112e-03 2.13414617e-02 9.14634112e-03
      1.21951215e-02 3.04878037e-03 4.57317047e-02 0. 0. 0.
      3.04878037e-03 0. 1.52439019e-02 1.21951215e-02 9.14634112e-03
      6.09756075e-03 9.14634112e-03 3.96341458e-02 1.52439019e-02
      1.82926822e-02 3.04878037e-03 0. 1.21951215e-02 6.09756075e-03
      9.14634112e-03 1.21951215e-02 2.43902430e-02 9.14634112e-03
      1.21951215e-02 1.52439019e-02 1.52439019e-02 6.09756075e-03 0.
      9.14634112e-03 6.09756075e-03 1.52439019e-02 0. 9.14634112e-03
      9.14634112e-03 1.82926822e-02 3.04878037e-03 1.21951215e-02
      1.52439019e-02 1.21951215e-02 3.04878037e-03 3.65853645e-02
      6.09756075e-03 1.21951215e-02 1.82926822e-02 0. 3.04878037e-03
      1.52439019e-02 6.09756075e-03 9.14634112e-03 3.65853645e-02
      6.09756075e-03 1.21951215e-02 6.09756075e-03 6.09756075e-03
      9.14634112e-03 6.09756075e-03 1.52439019e-02 9.14634112e-03
      6.09756075e-03 6.09756075e-03 6.09756075e-03 0. 1.52439019e-02
      3.04878037e-03 9.14634112e-03 1.21951215e-02 1.82926822e-02
      4.26829234e-02 6.09756075e-03 9.14634112e-03 9.14634112e-03
      9.14634112e-03 1.52439019e-02 3.04878037e-03 0. 3.04878037e-03
      3.04878037e-03 1.21951215e-02 3.04878037e-03 1.82926822e-02
      6.09756075e-03 9.14634112e-03 9.14634112e-03 3.04878037e-03
      6.09756075e-03 3.04878037e-03 3.04878037e-03 9.14634112e-03
      3.04878037e-03 9.14634112e-03 6.09756075e-03</_>
    <_>
      3.33333341e-03 3.33333341e-03 3.33333351e-02 1.99999996e-02
      3.33333341e-03 3.33333341e-03 9.99999978e-03 6.66666683e-03
      9.99999978e-03 3.33333341e-03 1.99999996e-02 9.99999978e-03
      6.66666683e-03 1.99999996e-02 9.99999978e-03 9.99999978e-03
      6.66666683e-03 1.66666675e-02 6.66666683e-03 6.66666683e-03 0.
      6.66666683e-03 1.33333337e-02 1.33333337e-02 6.66666683e-03
      9.99999978e-03 0. 1.99999996e-02 3.33333341e-03 3.33333341e-03
      1.33333337e-02 6.66666683e-03 6.66666683e-03 2.66666673e-02
      3.33333341e-03 9.99999978e-03 3.33333341e-03 6.66666683e-03
      9.99999978e-03 3.33333341e-03 0. 0. 9.99999978e-03 2.66666673e-02
      9.99999978e-03 6.66666683e-03 1.66666675e-02 1.33333337e-02
      1.33333337e-02 9.99999978e-03 6.66666683e-03 3.33333341e-03
      9.99999978e-03 6.66666683e-03 3.33333341e-03 3.33333341e-03
      6.66666683e-03 1.33333337e-02 3.00000012e-02 5.00000007e-02
      1.33333337e-02 3.33333341e-03 3.33333341e-03 1.33333337e-02
      3.33333341e-03 3.33333341e-03 3.33333341e-03 6.66666683e-03
      1.33333337e-02 1.66666675e-02 1.66666675e-02 9.99999978e-03
      6.66666683e-03 3.33333341e-03 1.66666675e-02 6.66666683e-03
      1.66666675e-02 3.33333341e-03 9.99999978e-03 9.99999978e-03
      1.33333337e-02 1.99999996e-02 1.66666675e-02 3.33333341e-03 0.
      1.33333337e-02 6.66666683e-03 1.33333337e-02 3.33333341e-03
      3.33333341e-03 6.66666683e-03 9.99999978e-03 0. 9.99999978e-03
      9.99999978e-03 1.99999996e-02 3.33333341e-03 1.66666675e-02
      1.99999996e-02 1.33333337e-02</_>
    <_>
      9.21658985e-03 6.91244239e-03 9.21658985e-03 2.07373276e-02
      4.60829493e-03 2.30414756e-02 6.91244239e-03 1.84331797e-02
      2.30414746e-03 6.91244239e-03 4.60829493e-03 2.30414746e-03
      6.91244239e-03 4.60829493e-03 2.53456216e-02 4.60829493e-03
      2.53456216e-02 1.38248848e-02 1.15207378e-02 9.21658985e-03
      1.84331797e-02 2.30414746e-03 3.68663594e-02 1.61290318e-02
      4.60829493e-03 4.60829493e-03 4.60829493e-03 4.60829493e-03
      6.91244239e-03 9.21658985e-03 9.21658985e-03 1.15207378e-02
      2.07373276e-02 4.60829493e-03 1.15207378e-02 2.30414746e-03
      4.60829493e-03 9.21658985e-03 6.91244239e-03 3.22580636e-02
      1.15207378e-02 1.38248848e-02 6.91244239e-03 2.30414746e-03
      9.21658985e-03 4.60829493e-03 0. 1.15207378e-02 0. 2.30414746e-03
      6.91244239e-03 4.60829493e-03 1.84331797e-02 4.60829493e-03
      1.38248848e-02 1.38248848e-02 6.91244239e-03 1.38248848e-02
      2.30414746e-03 2.30414746e-03 1.84331797e-02 9.21658985e-03
      2.76497696e-02 1.15207378e-02 1.15207378e-02 6.91244239e-03
      6.91244239e-03 9.21658985e-03 4.60829493e-03 2.30414746e-03
      2.07373276e-02 6.91244239e-03 2.07373276e-02 0. 1.15207378e-02 0.
      6.91244239e-03 6.91244239e-03 1.84331797e-02 1.61290318e-02
      4.60829493e-03 6.91244239e-03 9.21658985e-03 1.38248848e-02
      6.91244239e-03 0. 1.38248848e-02 6.91244239e-03 1.84331797e-02
      1.61290318e-02 6.91244239e-03 1.61290318e-02 1.38248848e-02
      9.21658985e-03 4.60829493e-03 2.30414746e-03 1.84331797e-02
      1.61290318e-02 6.91244239e-03 4.60829493e-03</_>
    <_>
      9.50118806e-03 0. 1.66270789e-02 1.66270789e-02 1.66270789e-02
      4.75059403e-03 2.37529702e-03 1.18764853e-02 1.42517816e-02
      7.12589081e-03 9.50118806e-03 9.50118806e-03 4.75059403e-03
      1.66270789e-02 0. 2.13776734e-02 4.75059403e-03 2.37529702e-03
      4.75059403e-03 9.50118806e-03 4.75059403e-03 7.12589081e-03
      1.42517816e-02 7.12589081e-03 1.18764853e-02 2.61282679e-02
      9.50118806e-03 1.18764853e-02 7.12589081e-03 1.18764853e-02
      4.75059403e-03 9.50118806e-03 4.75059403e-03 1.18764853e-02
      3.32541578e-02 2.37529706e-02 1.66270789e-02 1.18764853e-02
      9.50118806e-03 1.18764853e-02 1.90023761e-02 9.50118806e-03
      9.50118806e-03 7.12589081e-03 7.12589081e-03 2.37529702e-03
      3.32541578e-02 1.42517816e-02 7.12589081e-03 2.37529702e-03 0.
      1.66270789e-02 9.50118806e-03 1.42517816e-02 2.37529702e-03
      9.50118806e-03 1.18764853e-02 1.18764853e-02 4.75059403e-03 0.
      4.75059403e-03 7.12589081e-03 1.42517816e-02 1.18764853e-02
      2.37529702e-03 9.50118806e-03 4.75059403e-03 7.12589081e-03 0.
      2.13776734e-02 1.42517816e-02 4.75059403e-03 4.75059403e-03
      1.90023761e-02 1.90023761e-02 7.12589081e-03 2.37529702e-03
      9.50118806e-03 2.37529702e-03 2.37529702e-03 9.50118806e-03
      1.66270789e-02 4.75059403e-03 4.75059403e-03 4.75059403e-03
      1.90023761e-02 7.12589081e-03 2.37529702e-03 1.42517816e-02 0.
      4.75059403e-03 2.37529702e-03 0. 7.12589081e-03 1.66270789e-02
      1.42517816e-02 4.75059403e-03 3.08788605e-02 2.61282679e-02
      1.66270789e-02</_>
    <_>
      0. 1.02040814e-02 6.80272095e-03 0. 3.40136047e-03 1.70068033e-02
      3.40136047e-03 1.02040814e-02 1.36054419e-02 0. 3.40136066e-02
      1.70068033e-02 6.80272095e-03 1.70068033e-02 1.02040814e-02 0.
      6.80272095e-03 6.80272095e-03 6.80272095e-03 1.02040814e-02
      6.80272095e-03 1.70068033e-02 1.02040814e-02 1.02040814e-02
      1.36054419e-02 3.40136047e-03 6.80272095e-03 3.40136047e-03
      3.40136047e-03 1.36054419e-02 6.80272095e-03 2.72108838e-02
      6.80272095e-03 2.04081628e-02 6.80272095e-03 1.02040814e-02
      1.02040814e-02 1.36054419e-02 6.80272095e-03 6.80272095e-03
      3.40136047e-03 6.80272095e-03 6.80272095e-03 3.40136047e-03
      3.40136047e-03 1.02040814e-02 2.38095224e-02 2.72108838e-02
      6.80272095e-03 1.36054419e-02 3.40136047e-03 1.02040814e-02
      1.02040814e-02 3.40136047e-03 3.40136047e-03 3.06122452e-02
      1.02040814e-02 1.36054419e-02 3.40136047e-03 1.02040814e-02
      1.02040814e-02 1.70068033e-02 1.02040814e-02 1.70068033e-02
      2.72108838e-02 6.80272095e-03 3.40136047e-03 0. 0. 1.36054419e-02
      6.80272095e-03 3.40136047e-03 6.80272095e-03 1.02040814e-02
      2.04081628e-02 1.70068033e-02 2.38095224e-02 3.40136047e-03
      6.80272095e-03 0. 6.80272095e-03 1.70068033e-02 0. 1.70068033e-02
      2.38095224e-02 1.02040814e-02 1.02040814e-02 1.36054419e-02
      1.02040814e-02 0. 0. 6.80272095e-03 6.80272095e-03 2.38095224e-02
      3.40136047e-03 3.40136047e-03 1.36054419e-02 0. 3.40136066e-02
      6.80272095e-03</_>
    <_>
      0. 0. 3.14465398e-03 3.14465398e-03 0. 3.14465398e-03
      6.28930796e-03 3.14465398e-03 3.45911942e-02 3.14465398e-03
      7.23270401e-02 0. 3.14465398e-03 3.14465398e-03 3.14465398e-03
      1.25786159e-02 6.28930796e-03 6.28930796e-03 3.14465398e-03
      6.28930796e-03 3.14465398e-03 1.25786159e-02 6.28930796e-03
      1.88679248e-02 9.43396240e-03 9.43396240e-03 0. 1.25786159e-02
      3.14465398e-03 1.25786159e-02 1.25786159e-02 1.25786159e-02
      9.43396240e-03 2.51572318e-02 3.14465398e-03 6.28930796e-03
      3.14465398e-03 0. 9.43396240e-03 6.28930796e-03 9.43396240e-03
      9.43396240e-03 9.43396240e-03 0. 9.43396240e-03 0. 6.28930796e-03
      1.25786159e-02 3.14465398e-03 1.25786159e-02 6.28930796e-03
      2.83018854e-02 9.43396240e-03 9.43396240e-03 1.25786159e-02
      2.20125783e-02 9.43396240e-03 2.51572318e-02 3.45911942e-02
      3.14465398e-03 2.51572318e-02 1.88679248e-02 9.43396240e-03
      1.25786159e-02 6.28930796e-03 6.28930796e-03 6.28930796e-03
      6.28930796e-03 3.14465398e-03 1.57232694e-02 9.43396240e-03
      3.14465398e-03 6.28930796e-03 0. 1.25786159e-02 9.43396240e-03
      3.45911942e-02 1.57232694e-02 6.28930796e-03 1.25786159e-02
      9.43396240e-03 3.14465398e-03 0. 1.57232694e-02 1.88679248e-02
      3.14465389e-02 6.28930796e-03 1.57232694e-02 3.14465398e-03
      3.14465398e-03 1.25786159e-02 1.57232694e-02 9.43396240e-03
      1.88679248e-02 9.43396240e-03 3.14465398e-03 9.43396240e-03 0.
      6.28930796e-03 6.28930796e-03</_>
    <_>
      3.33333341e-03 3.33333341e-03 1.66666675e-02 1.33333337e-02
      3.33333341e-03 1.33333337e-02 0. 0. 9.99999978e-03 6.66666683e-03
      3.00000012e-02 9.99999978e-03 3.33333341e-03 6.66666683e-03
      9.99999978e-03 6.66666683e-03 0. 1.66666675e-02 1.33333337e-02
      6.66666683e-03 6.66666683e-03 6.66666683e-03 9.99999978e-03
      9.99999978e-03 3.33333341e-03 0. 1.33333337e-02 1.33333337e-02
      1.99999996e-02 6.66666683e-03 3.33333341e-03 9.99999978e-03
      6.66666683e-03 6.66666683e-03 9.99999978e-03 2.66666673e-02
      1.33333337e-02 3.00000012e-02 1.33333337e-02 1.66666675e-02
      6.66666683e-03 9.99999978e-03 1.66666675e-02 3.33333341e-03
      9.99999978e-03 2.66666673e-02 1.99999996e-02 1.66666675e-02
      1.33333337e-02 1.99999996e-02 6.66666683e-03 1.66666675e-02
      6.66666683e-03 9.99999978e-03 6.66666683e-03 1.33333337e-02
      6.66666683e-03 1.33333337e-02 6.66666683e-03 9.99999978e-03
      3.33333341e-03 3.33333341e-03 1.99999996e-02 3.00000012e-02
      3.33333341e-03 9.99999978e-03 3.33333341e-03 0. 6.66666683e-03
      6.66666683e-03 3.33333341e-03 3.33333341e-03 9.99999978e-03
      3.33333341e-03 9.99999978e-03 9.99999978e-03 3.66666690e-02
      3.33333341e-03 9.99999978e-03 1.66666675e-02 6.66666683e-03
      6.66666683e-03 9.99999978e-03 1.33333337e-02 0. 1.99999996e-02
      9.99999978e-03 9.99999978e-03 1.33333337e-02 1.33333337e-02 0.
      3.33333341e-03 3.33333341e-03 3.33333341e-03 3.33333341e-03
      2.33333334e-02 1.33333337e-02 0. 9.99999978e-03 3.33333341e-03</_>
    <_>
      1.09890113e-02 0. 0. 1.09890113e-02 2.74725277e-02 1.09890113e-02
      0. 5.49450563e-03 5.49450563e-03 1.09890113e-02 5.49450563e-03 0.
      0. 0. 5.49450563e-03 0. 5.49450563e-03 0. 1.64835174e-02
      2.74725277e-02 0. 0. 0. 5.49450563e-03 0. 1.64835174e-02 0. 0.
      5.49450563e-03 5.49450563e-03 2.74725277e-02 1.09890113e-02
      1.64835174e-02 1.64835174e-02 0. 5.49450563e-03 0. 0.
      1.09890113e-02 0. 0. 0. 4.94505502e-02 0. 5.49450563e-03
      1.64835174e-02 5.49450554e-02 5.49450563e-03 0. 1.09890113e-02
      5.49450554e-02 2.19780225e-02 5.49450563e-03 0. 0. 5.49450563e-03
      1.64835174e-02 0. 0. 0. 1.64835174e-02 1.09890113e-02 0.
      5.49450563e-03 1.09890113e-02 0. 0. 0. 2.74725277e-02 0.
      4.94505502e-02 0. 3.29670347e-02 0. 0. 0. 1.64835174e-02 0. 0.
      5.49450563e-03 4.94505502e-02 0. 0. 5.49450563e-03 1.09890113e-02
      2.74725277e-02 1.09890113e-02 5.49450563e-03 5.49450563e-03
      2.19780225e-02 5.49450563e-03 1.64835174e-02 6.59340695e-02
      1.64835174e-02 0. 7.14285746e-02 0. 0. 0. 0.</_>
    <_>
      0. 5.39083546e-03 2.69541773e-03 0. 8.08625296e-03 8.08625296e-03
      2.69541773e-03 5.39083546e-03 8.08625296e-03 1.07816709e-02
      1.34770889e-02 1.34770889e-02 2.69541773e-03 1.07816709e-02
      2.69541773e-03 1.34770889e-02 5.39083546e-03 5.39083546e-03
      8.08625296e-03 1.07816709e-02 5.39083546e-03 8.08625296e-03
      5.39083546e-03 8.08625296e-03 4.04312648e-02 1.61725059e-02
      5.39083546e-03 1.88679248e-02 0. 5.39083546e-03 2.69541773e-03
      2.69541773e-03 0. 1.34770889e-02 1.34770889e-02 5.39083546e-03
      8.08625296e-03 2.69541773e-03 2.69541773e-03 5.39083546e-03
      1.07816709e-02 0. 5.39083546e-03 2.15633418e-02 1.07816709e-02
      1.07816709e-02 3.77358496e-02 2.69541773e-03 1.07816709e-02
      5.39083546e-03 1.34770889e-02 0. 5.39083546e-03 5.39083546e-03 0.
      5.39083546e-03 8.08625296e-03 5.39083546e-03 4.85175177e-02
      2.96495948e-02 2.69541773e-03 1.07816709e-02 8.08625296e-03
      1.07816709e-02 1.07816709e-02 2.69541773e-03 8.08625296e-03
      1.61725059e-02 8.08625296e-03 1.61725059e-02 2.69541773e-03
      8.08625296e-03 1.07816709e-02 2.15633418e-02 5.39083546e-03
      3.23450118e-02 1.88679248e-02 2.69541773e-03 5.39083546e-03
      5.39083546e-03 2.69541773e-03 1.07816709e-02 5.39083546e-03
      5.12129366e-02 2.69541773e-03 3.77358496e-02 0. 4.58221026e-02
      2.69541773e-03 5.39083546e-03 1.34770889e-02 2.69541773e-03
      2.69541773e-03 1.34770889e-02 5.39083546e-03 1.88679248e-02 0.
      1.34770889e-02 8.08625296e-03 5.39083546e-03</_>
    <_>
      8.60585179e-03 6.88468153e-03 1.37693631e-02 8.60585179e-03
      5.16351126e-03 1.89328734e-02 6.88468153e-03 1.37693631e-02
      5.16351126e-03 5.16351126e-03 1.72117036e-02 1.37693631e-02
      5.16351126e-03 1.54905338e-02 8.60585179e-03 8.60585179e-03
      8.60585179e-03 5.16351126e-03 1.37693631e-02 6.88468153e-03
      6.88468153e-03 0. 3.44234076e-03 8.60585179e-03 1.72117036e-02
      1.37693631e-02 5.16351126e-03 1.89328734e-02 2.06540450e-02
      1.20481923e-02 6.88468153e-03 8.60585179e-03 6.88468153e-03
      1.20481923e-02 2.06540450e-02 6.88468153e-03 5.16351126e-03
      8.60585179e-03 6.88468153e-03 1.03270225e-02 3.44234076e-03
      5.16351126e-03 8.60585179e-03 1.72117038e-03 8.60585179e-03
      1.54905338e-02 2.40963846e-02 1.54905338e-02 1.20481923e-02
      5.16351126e-03 6.88468153e-03 8.60585179e-03 8.60585179e-03
      1.54905338e-02 1.89328734e-02 1.89328734e-02 3.44234076e-03
      1.20481923e-02 0. 1.03270225e-02 6.88468153e-03 1.54905338e-02
      8.60585179e-03 3.44234076e-03 6.88468153e-03 1.72117036e-02
      8.60585179e-03 8.60585179e-03 6.88468153e-03 8.60585179e-03
      5.16351126e-03 6.88468153e-03 8.60585179e-03 1.03270225e-02
      1.20481923e-02 1.72117038e-03 1.72117038e-03 6.88468153e-03
      1.03270225e-02 2.06540450e-02 1.20481923e-02 5.16351126e-03
      5.16351126e-03 1.89328734e-02 5.16351126e-03 4.64715995e-02
      8.60585179e-03 1.03270225e-02 1.20481923e-02 6.88468153e-03
      3.44234076e-03 1.03270225e-02 1.72117038e-03 1.20481923e-02
      8.60585179e-03 1.72117036e-02 1.03270225e-02 6.88468153e-03
      1.20481923e-02 1.20481923e-02</_>
    <_>
      7.71208201e-03 7.71208201e-03 1.79948583e-02 1.79948583e-02
      2.57069408e-03 5.14138816e-03 5.14138816e-03 5.14138816e-03
      1.79948583e-02 2.57069408e-03 3.08483280e-02 2.82776356e-02
      2.57069408e-03 7.71208201e-03 1.28534706e-02 7.71208201e-03
      5.14138816e-03 1.02827763e-02 0. 7.71208201e-03 0. 7.71208201e-03
      0. 5.14138816e-03 1.28534706e-02 2.57069408e-03 1.79948583e-02
      7.71208201e-03 7.71208201e-03 1.79948583e-02 1.28534706e-02
      2.57069413e-02 5.14138816e-03 1.54241640e-02 1.02827763e-02
      7.71208201e-03 1.54241640e-02 1.02827763e-02 7.71208201e-03
      7.71208201e-03 0. 2.31362469e-02 1.02827763e-02 0. 7.71208201e-03
      7.71208201e-03 4.62724939e-02 1.28534706e-02 1.02827763e-02
      2.57069413e-02 0. 1.54241640e-02 5.14138816e-03 2.57069408e-03
      2.05655526e-02 5.14138816e-03 7.71208201e-03 1.02827763e-02 0.
      1.02827763e-02 7.71208201e-03 1.02827763e-02 2.57069408e-03
      5.14138816e-03 7.71208201e-03 1.79948583e-02 0. 1.02827763e-02
      5.14138816e-03 3.08483280e-02 2.57069408e-03 5.14138816e-03
      2.57069408e-03 5.14138816e-03 7.71208201e-03 5.14138816e-03
      1.28534706e-02 1.28534706e-02 2.57069408e-03 2.05655526e-02
      5.14138816e-03 5.14138816e-03 1.28534706e-02 7.71208201e-03
      5.14138816e-03 3.59897166e-02 1.02827763e-02 1.79948583e-02
      1.28534706e-02 1.28534706e-02 2.57069408e-03 2.57069408e-03
      5.14138816e-03 1.28534706e-02 5.14138816e-03 5.14138816e-03
      1.28534706e-02 5.14138816e-03 1.54241640e-02 1.02827763e-02</_>
    <_>
      1.38504151e-02 2.77008303e-03 5.54016605e-03 2.77008303e-03
      5.54016605e-03 2.77008303e-03 2.77008303e-03 8.31024908e-03
      1.93905812e-02 2.77008303e-03 2.21606642e-02 2.77008303e-02
      5.54016605e-03 5.54016605e-03 1.38504151e-02 5.54016605e-03
      8.31024908e-03 8.31024908e-03 1.66204982e-02 5.54016605e-03
      5.54016605e-03 8.31024908e-03 8.31024908e-03 1.10803321e-02
      1.66204982e-02 5.54016605e-03 2.21606642e-02 1.38504151e-02
      1.38504151e-02 1.66204982e-02 8.31024908e-03 1.38504151e-02
      5.54016605e-03 5.54016605e-03 1.38504151e-02 5.54016605e-03
      1.38504151e-02 2.49307472e-02 8.31024908e-03 1.93905812e-02
      1.38504151e-02 1.10803321e-02 1.38504151e-02 2.77008303e-03
      1.10803321e-02 1.38504151e-02 2.49307472e-02 2.77008303e-03
      1.38504151e-02 2.77008303e-02 5.54016605e-03 1.66204982e-02
      1.10803321e-02 1.10803321e-02 1.10803321e-02 8.31024908e-03 0.
      8.31024908e-03 0. 1.38504151e-02 1.10803321e-02 1.10803321e-02
      1.38504151e-02 2.77008303e-03 2.77008303e-03 1.93905812e-02
      5.54016605e-03 8.31024908e-03 2.77008303e-03 1.10803321e-02
      2.77008303e-03 1.93905812e-02 5.54016605e-03 8.31024908e-03
      8.31024908e-03 1.93905812e-02 0. 5.54016605e-03 5.54016605e-03
      1.66204982e-02 1.38504151e-02 2.77008303e-03 1.10803321e-02
      5.54016605e-03 0. 5.54016605e-03 1.10803321e-02 5.54016605e-03
      8.31024908e-03 2.21606642e-02 2.77008303e-03 5.54016605e-03
      8.31024908e-03 5.54016605e-03 2.77008303e-03 8.31024908e-03
      5.54016605e-03 0. 2.77008303e-02 1.93905812e-02</_>
    <_>
      0. 3.40136047e-03 1.02040814e-02 2.04081628e-02 1.02040814e-02
      1.36054419e-02 1.02040814e-02 1.02040814e-02 3.40136047e-03 0.
      3.40136047e-03 3.40136047e-03 3.40136047e-03 6.80272095e-03
      2.38095224e-02 3.40136047e-03 1.02040814e-02 1.02040814e-02
      1.70068033e-02 1.70068033e-02 1.36054419e-02 0. 1.02040814e-02
      6.80272095e-03 1.02040814e-02 1.70068033e-02 6.80272095e-03
      2.38095224e-02 1.36054419e-02 6.80272095e-03 1.70068033e-02
      1.36054419e-02 6.80272095e-03 1.02040814e-02 0. 0. 1.36054419e-02
      1.02040814e-02 6.80272095e-03 2.04081628e-02 1.02040814e-02
      1.36054419e-02 1.70068033e-02 1.36054419e-02 1.02040814e-02
      3.40136047e-03 5.44217676e-02 1.02040814e-02 0. 6.80272095e-03
      1.70068033e-02 1.36054419e-02 3.40136047e-03 3.40136047e-03 0.
      1.02040814e-02 3.40136047e-03 6.80272095e-03 3.40136047e-03 0.
      1.02040814e-02 6.80272095e-03 0. 6.80272095e-03 3.40136047e-03
      3.40136047e-03 1.36054419e-02 0. 3.40136047e-03 1.02040814e-02
      1.02040814e-02 0. 2.04081628e-02 3.40136047e-03 1.70068033e-02
      3.40136047e-03 1.02040814e-02 1.02040814e-02 1.70068033e-02
      1.02040814e-02 1.02040814e-02 3.40136047e-03 1.02040814e-02
      2.38095224e-02 3.40136047e-03 4.08163257e-02 1.36054419e-02
      3.40136066e-02 3.06122452e-02 1.02040814e-02 6.80272095e-03
      3.40136047e-03 1.36054419e-02 6.80272095e-03 1.36054419e-02
      6.80272095e-03 1.02040814e-02 6.80272095e-03 0. 3.40136047e-03</_>
    <_>
      6.35930058e-03 2.70270277e-02 1.27186012e-02 1.43084265e-02
      1.90779008e-02 9.53895040e-03 7.94912595e-03 4.76947520e-03
      9.53895040e-03 7.94912595e-03 0. 6.35930058e-03 7.94912595e-03
      1.27186012e-02 9.53895040e-03 6.35930058e-03 3.65659781e-02
      7.94912595e-03 2.22575516e-02 4.76947520e-03 7.94912595e-03
      1.74880773e-02 7.94912595e-03 4.76947520e-03 6.35930058e-03
      1.43084265e-02 9.53895040e-03 1.11287758e-02 1.11287758e-02
      4.76947520e-03 6.35930058e-03 6.35930058e-03 9.53895040e-03
      1.43084265e-02 9.53895040e-03 4.76947520e-03 1.11287758e-02
      7.94912595e-03 3.17965029e-03 1.11287758e-02 1.11287758e-02
      3.17965029e-03 1.27186012e-02 2.06677262e-02 4.76947520e-03
      6.35930058e-03 6.35930058e-03 1.27186012e-02 6.35930058e-03
      6.35930058e-03 7.94912595e-03 7.94912595e-03 4.76947520e-03
      2.06677262e-02 6.35930058e-03 1.43084265e-02 7.94912595e-03
      7.94912595e-03 0. 7.94912595e-03 3.17965029e-03 1.58982519e-02
      1.58982519e-02 6.35930058e-03 4.76947520e-03 7.94912595e-03
      3.17965029e-03 3.33863273e-02 4.76947520e-03 6.35930058e-03
      9.53895040e-03 7.94912595e-03 1.58982519e-02 2.06677262e-02
      1.27186012e-02 2.54372023e-02 0. 7.94912595e-03 4.76947520e-03
      3.17965029e-03 1.43084265e-02 1.74880773e-02 1.27186012e-02
      9.53895040e-03 6.35930058e-03 3.17965029e-03 1.43084265e-02
      6.35930058e-03 7.94912595e-03 7.94912595e-03 2.86168531e-02
      9.53895040e-03 1.43084265e-02 3.17965029e-03 1.58982519e-02
      9.53895040e-03 1.58982514e-03 7.94912595e-03 4.76947520e-03
      4.76947520e-03</_>
    <_>
      7.51879718e-03 2.13032588e-02 1.75438598e-02 8.77192989e-03
      1.00250626e-02 3.75939859e-03 1.50375944e-02 1.87969916e-02
      1.75438598e-02 5.01253130e-03 8.77192989e-03 1.50375944e-02
      8.77192989e-03 7.51879718e-03 3.75939859e-03 1.12781953e-02
      6.26566401e-03 1.00250626e-02 7.51879718e-03 3.75939859e-03
      7.51879718e-03 2.75689214e-02 3.75939859e-03 1.00250626e-02
      1.62907261e-02 6.26566401e-03 1.62907261e-02 1.37844607e-02
      7.51879718e-03 1.25313280e-02 5.01253130e-03 1.62907261e-02
      1.62907261e-02 1.37844607e-02 8.77192989e-03 7.51879718e-03
      8.77192989e-03 1.25313280e-02 2.50626565e-03 7.51879718e-03
      1.12781953e-02 1.12781953e-02 5.01253130e-03 8.77192989e-03
      5.01253130e-03 1.00250626e-02 1.75438598e-02 1.25313280e-02
      2.00501252e-02 2.25563906e-02 5.01253130e-03 5.01253130e-03
      1.12781953e-02 3.75939859e-03 6.26566401e-03 7.51879718e-03
      1.12781953e-02 1.00250626e-02 0. 1.00250626e-02 1.25313280e-02
      1.12781953e-02 5.01253130e-03 8.77192989e-03 0. 1.00250626e-02
      1.12781953e-02 2.00501252e-02 6.26566401e-03 1.25313280e-02
      2.50626565e-03 1.00250626e-02 8.77192989e-03 7.51879718e-03
      1.00250626e-02 2.00501252e-02 2.50626560e-02 3.75939859e-03
      1.25313282e-03 7.51879718e-03 1.25313282e-03 7.51879718e-03
      1.12781953e-02 1.37844607e-02 6.26566401e-03 1.00250626e-02
      1.50375944e-02 1.00250626e-02 1.37844607e-02 1.37844607e-02
      7.51879718e-03 3.75939859e-03 0. 5.01253130e-03 1.75438598e-02
      6.26566401e-03 7.51879718e-03 3.75939859e-03 2.25563906e-02
      6.26566401e-03</_>
    <_>
      4.65116277e-03 9.30232555e-03 9.30232555e-03 4.65116277e-03
      1.86046511e-02 2.32558139e-03 4.65116277e-03 9.30232555e-03
      1.16279069e-02 4.65116277e-03 1.16279069e-02 3.02325580e-02
      1.62790697e-02 2.32558139e-03 6.97674416e-03 1.62790697e-02
      1.16279069e-02 1.39534883e-02 6.97674416e-03 1.39534883e-02
      4.65116277e-03 4.65116277e-03 2.32558139e-03 6.97674416e-03
      6.97674416e-03 2.32558139e-03 2.09302325e-02 4.65116277e-03
      1.39534883e-02 9.30232555e-03 6.97674416e-03 1.16279069e-02
      1.86046511e-02 6.97674416e-03 4.65116277e-03 1.86046511e-02
      9.30232555e-03 9.30232555e-03 9.30232555e-03 2.32558139e-03
      4.65116277e-03 2.55813953e-02 1.16279069e-02 0. 2.32558139e-03
      1.86046511e-02 1.86046511e-02 2.32558139e-03 6.97674416e-03
      4.65116277e-03 4.65116277e-03 9.30232555e-03 1.16279069e-02
      1.39534883e-02 6.97674416e-03 9.30232555e-03 9.30232555e-03
      4.65116277e-03 6.97674416e-03 4.65116277e-03 1.39534883e-02
      1.16279069e-02 6.97674416e-03 9.30232555e-03 4.65116277e-03
      1.62790697e-02 9.30232555e-03 1.39534883e-02 4.65116277e-03
      9.30232555e-03 2.55813953e-02 1.39534883e-02 1.86046511e-02
      9.30232555e-03 9.30232555e-03 6.97674416e-03 1.62790697e-02
      1.39534883e-02 1.16279069e-02 2.09302325e-02 1.62790697e-02
      6.97674416e-03 6.97674416e-03 2.32558139e-03 9.30232555e-03
      1.39534883e-02 9.30232555e-03 0. 9.30232555e-03 1.39534883e-02
      4.65116277e-03 4.65116277e-03 1.86046511e-02 1.86046511e-02
      1.62790697e-02 1.39534883e-02 4.65116277e-03 0. 6.97674416e-03
      1.62790697e-02</_>
    <_>
      4.68384055e-03 9.36768111e-03 9.36768111e-03 4.68384055e-03
      9.36768111e-03 4.68384055e-03 1.17096016e-02 1.40515212e-02
      2.10772827e-02 1.63934417e-02 4.21545655e-02 1.17096016e-02
      4.68384055e-03 9.36768111e-03 1.17096016e-02 7.02576060e-03
      4.68384055e-03 4.68384055e-03 0. 7.02576060e-03 9.36768111e-03
      1.40515212e-02 9.36768111e-03 1.17096016e-02 9.36768111e-03
      1.40515212e-02 9.36768111e-03 7.02576060e-03 2.34192028e-03
      4.68384055e-03 4.68384055e-03 1.40515212e-02 2.34192028e-03
      1.17096016e-02 4.68384055e-03 7.02576060e-03 2.34192028e-03
      2.34192028e-03 7.02576060e-03 2.34192028e-03 4.68384055e-03
      2.34192028e-03 2.34192028e-03 7.02576060e-03 1.63934417e-02
      1.17096016e-02 4.91803251e-02 9.36768111e-03 2.34192028e-03
      1.87353622e-02 7.02576060e-03 7.02576060e-03 1.17096016e-02
      9.36768111e-03 2.34192028e-03 9.36768111e-03 1.63934417e-02
      9.36768111e-03 1.17096016e-02 1.87353622e-02 2.34192028e-03
      7.02576060e-03 7.02576060e-03 1.63934417e-02 4.68384055e-03
      9.36768111e-03 1.40515212e-02 7.02576060e-03 2.10772827e-02
      1.87353622e-02 0. 4.68384055e-03 2.10772827e-02 3.98126431e-02
      4.68384055e-03 1.63934417e-02 3.27868834e-02 4.68384055e-03
      4.68384055e-03 9.36768111e-03 1.40515212e-02 2.34192028e-03
      9.36768111e-03 1.40515212e-02 9.36768111e-03 4.68384055e-03
      7.02576060e-03 1.17096016e-02 7.02576060e-03 9.36768111e-03
      9.36768111e-03 9.36768111e-03 2.34192028e-03 7.02576060e-03
      9.36768111e-03 1.40515212e-02 1.40515212e-02 2.34192028e-03
      7.02576060e-03 4.68384055e-03</_>
    <_>
      6.63716812e-03 8.84955749e-03 1.10619469e-02 6.63716812e-03
      4.42477874e-03 8.84955749e-03 6.63716812e-03 2.21238937e-03
      1.32743362e-02 0. 4.20353971e-02 1.32743362e-02 4.42477874e-03
      8.84955749e-03 1.10619469e-02 4.42477874e-03 2.21238937e-03
      6.63716812e-03 4.42477874e-03 2.21238937e-03 6.63716812e-03
      1.32743362e-02 4.42477874e-03 0. 3.09734512e-02 6.63716812e-03
      8.84955749e-03 2.65486725e-02 6.63716812e-03 1.54867256e-02 0.
      1.76991150e-02 8.84955749e-03 8.84955749e-03 6.63716812e-03
      4.42477874e-03 6.63716812e-03 6.63716812e-03 6.63716812e-03
      1.10619469e-02 1.10619469e-02 1.10619469e-02 6.63716812e-03
      4.42477874e-03 2.21238937e-02 8.84955749e-03 3.31858397e-02
      8.84955749e-03 8.84955749e-03 1.32743362e-02 8.84955749e-03
      4.42477874e-03 6.63716812e-03 2.21238937e-03 1.10619469e-02
      1.76991150e-02 8.84955749e-03 4.42477874e-03 1.99115053e-02
      1.10619469e-02 4.42477874e-03 8.84955749e-03 8.84955749e-03
      1.10619469e-02 1.10619469e-02 1.32743362e-02 1.76991150e-02
      6.63716812e-03 1.10619469e-02 1.32743362e-02 2.21238937e-03
      1.54867256e-02 1.10619469e-02 1.76991150e-02 1.10619469e-02
      2.87610628e-02 1.99115053e-02 6.63716812e-03 8.84955749e-03
      8.84955749e-03 4.42477874e-03 1.10619469e-02 0. 3.31858397e-02
      4.42477874e-03 1.32743362e-02 6.63716812e-03 1.54867256e-02
      8.84955749e-03 6.63716812e-03 6.63716812e-03 0. 4.42477874e-03
      1.10619469e-02 6.63716812e-03 2.21238937e-03 1.76991150e-02
      8.84955749e-03 8.84955749e-03 4.42477874e-03</_>
    <_>
      6.75675692e-03 1.18243247e-02 1.18243247e-02 8.44594650e-03
      5.06756781e-03 5.06756781e-03 3.37837846e-03 3.37837846e-03
      6.75675692e-03 1.68918930e-02 6.75675692e-03 5.06756781e-03
      1.01351356e-02 1.52027030e-02 8.44594650e-03 1.18243247e-02
      1.18243247e-02 6.75675692e-03 1.18243247e-02 1.01351356e-02
      1.01351356e-02 3.37837846e-03 1.52027030e-02 1.01351356e-02
      3.37837846e-03 1.01351356e-02 1.52027030e-02 2.53378376e-02
      1.52027030e-02 5.06756781e-03 1.52027030e-02 8.44594650e-03
      5.06756781e-03 6.75675692e-03 8.44594650e-03 1.52027030e-02
      1.35135138e-02 6.75675692e-03 5.06756781e-03 1.01351356e-02
      6.75675692e-03 5.06756781e-03 1.01351356e-02 1.18243247e-02
      1.52027030e-02 1.18243247e-02 5.06756781e-03 1.18243247e-02
      5.06756781e-03 6.75675692e-03 5.06756781e-03 8.44594650e-03
      5.06756781e-03 1.85810812e-02 6.75675692e-03 1.01351356e-02
      1.52027030e-02 1.52027030e-02 5.06756781e-03 3.37837846e-03
      1.18243247e-02 1.18243247e-02 1.85810812e-02 8.44594650e-03
      8.44594650e-03 1.52027030e-02 1.01351356e-02 1.01351356e-02
      1.35135138e-02 3.37837846e-03 1.35135138e-02 1.18243247e-02
      5.06756781e-03 1.01351356e-02 1.68918930e-02 6.75675692e-03
      1.01351356e-02 1.52027030e-02 1.35135138e-02 8.44594650e-03
      6.75675692e-03 1.35135138e-02 1.01351356e-02 6.75675692e-03
      1.68918930e-02 1.68918923e-03 1.52027030e-02 3.37837846e-03
      1.18243247e-02 1.68918930e-02 1.18243247e-02 1.85810812e-02
      1.68918930e-02 1.35135138e-02 1.35135138e-02 3.37837846e-03
      1.35135138e-02 6.75675692e-03 1.68918923e-03 6.75675692e-03</_>
    <_>
      5.22193220e-03 2.61096610e-03 1.04438644e-02 2.61096619e-02
      1.56657957e-02 7.83289783e-03 5.22193220e-03 2.61096610e-03 0.
      7.83289783e-03 2.61096610e-03 5.22193220e-03 5.22193220e-03
      1.04438644e-02 5.22193220e-03 1.56657957e-02 5.22193220e-03
      1.30548310e-02 1.04438644e-02 1.56657957e-02 7.83289783e-03
      1.04438644e-02 5.22193220e-03 1.04438644e-02 2.08877288e-02
      1.04438644e-02 1.82767622e-02 1.04438644e-02 2.61096610e-03
      1.82767622e-02 1.30548310e-02 2.61096610e-03 2.61096610e-03
      1.56657957e-02 1.04438644e-02 1.56657957e-02 1.04438644e-02
      2.61096619e-02 2.61096610e-03 1.04438644e-02 7.83289783e-03
      1.30548310e-02 1.04438644e-02 0. 1.04438644e-02 1.82767622e-02
      2.61096619e-02 2.61096610e-03 5.22193220e-03 0. 2.08877288e-02
      1.04438644e-02 5.22193220e-03 1.04438644e-02 1.82767622e-02
      1.30548310e-02 7.83289783e-03 1.56657957e-02 0. 0. 7.83289783e-03
      1.56657957e-02 0. 1.04438644e-02 7.83289783e-03 7.83289783e-03
      1.56657957e-02 2.61096610e-03 5.22193220e-03 1.04438644e-02
      2.87206266e-02 0. 2.61096619e-02 2.61096610e-03 5.22193220e-03
      7.83289783e-03 0. 1.04438644e-02 1.30548310e-02 1.82767622e-02
      1.30548310e-02 2.61096610e-03 0. 2.61096619e-02 7.83289783e-03
      2.34986953e-02 2.61096610e-03 2.61096610e-03 1.82767622e-02
      1.56657957e-02 1.04438644e-02 5.22193220e-03 1.82767622e-02
      1.30548310e-02 1.04438644e-02 2.08877288e-02 2.61096610e-03 0.
      1.04438644e-02 7.83289783e-03</_>
    <_>
      5.12820529e-03 1.53846163e-02 2.56410260e-02 0. 1.02564106e-02
      1.02564106e-02 5.12820529e-03 5.12820529e-03 1.53846163e-02 0.
      3.07692327e-02 2.05128212e-02 2.05128212e-02 5.12820529e-03
      1.53846163e-02 4.10256423e-02 5.12820529e-03 1.02564106e-02
      2.56410260e-02 0. 0. 5.12820529e-03 0. 1.53846163e-02
      1.02564106e-02 5.12820529e-03 3.07692327e-02 5.12820529e-03
      1.53846163e-02 2.05128212e-02 0. 1.02564106e-02 5.12820529e-03
      2.56410260e-02 5.12820529e-03 5.12820529e-03 0. 2.56410260e-02
      1.02564106e-02 5.12820529e-03 0. 5.12820529e-03 1.02564106e-02
      1.02564106e-02 0. 0. 1.53846163e-02 2.05128212e-02 5.12820529e-03
      1.02564106e-02 1.02564106e-02 1.53846163e-02 1.53846163e-02
      1.02564106e-02 5.12820529e-03 1.02564106e-02 5.12820529e-03
      2.05128212e-02 1.53846163e-02 1.53846163e-02 1.02564106e-02
      5.12820529e-03 5.12820529e-03 0. 0. 1.53846163e-02 0.
      5.12820529e-03 5.12820529e-03 2.05128212e-02 0. 0. 1.02564106e-02
      0. 5.12820529e-03 0. 2.56410260e-02 1.53846163e-02 2.05128212e-02
      5.12820529e-03 5.12820529e-03 1.02564106e-02 5.12820529e-03
      5.12820529e-03 1.02564106e-02 0. 1.02564106e-02 5.12820529e-03
      1.02564106e-02 2.05128212e-02 1.53846163e-02 0. 5.12820529e-03
      3.07692327e-02 5.12820529e-03 1.02564106e-02 1.02564106e-02
      5.12820529e-03 1.53846163e-02 5.12820529e-03</_>
    <_>
      9.28792544e-03 1.54798757e-02 2.16718260e-02 3.09597515e-03
      6.19195029e-03 1.54798757e-02 3.09597515e-03 1.23839006e-02
      2.16718260e-02 1.23839006e-02 9.28792544e-03 9.28792544e-03
      6.19195029e-03 6.19195029e-03 9.28792544e-03 9.28792544e-03
      1.23839006e-02 9.28792544e-03 6.19195029e-03 1.23839006e-02
      3.09597515e-03 1.54798757e-02 3.09597515e-03 6.19195029e-03 0.
      1.23839006e-02 2.78637763e-02 9.28792544e-03 3.09597515e-03
      3.09597515e-03 9.28792544e-03 9.28792544e-03 3.09597515e-03
      1.85758509e-02 1.23839006e-02 9.28792544e-03 2.47678012e-02
      1.85758509e-02 6.19195029e-03 3.09597515e-03 3.09597515e-03
      1.23839006e-02 3.09597515e-03 3.09597515e-03 0. 1.23839006e-02
      2.47678012e-02 3.09597515e-03 1.23839006e-02 1.54798757e-02
      6.19195029e-03 6.19195029e-03 1.23839006e-02 1.54798757e-02
      1.54798757e-02 1.23839006e-02 6.19195029e-03 1.23839006e-02 0.
      1.85758509e-02 1.23839006e-02 2.78637763e-02 3.09597515e-03
      3.09597515e-03 9.28792544e-03 6.19195029e-03 3.09597515e-03
      6.19195029e-03 3.09597515e-03 1.85758509e-02 9.28792544e-03
      1.23839006e-02 6.19195029e-03 1.54798757e-02 6.19195029e-03
      6.19195029e-03 9.28792544e-03 3.09597515e-03 6.19195029e-03
      9.28792544e-03 2.16718260e-02 3.09597515e-03 3.09597515e-03
      6.19195029e-03 9.28792544e-03 1.85758509e-02 9.28792544e-03
      6.19195029e-03 1.54798757e-02 3.09597515e-03 3.09597515e-03
      1.23839006e-02 3.09597515e-03 2.47678012e-02 9.28792544e-03
      1.23839006e-02 1.23839006e-02 3.09597515e-03 1.23839006e-02
      3.09597515e-02</_>
    <_>
      8.40336177e-03 1.26050431e-02 1.68067235e-02 1.05042020e-02
      1.05042020e-02 1.47058833e-02 1.05042020e-02 8.40336177e-03
      1.05042020e-02 6.30252156e-03 4.20168089e-03 2.10084044e-03
      8.40336177e-03 1.68067235e-02 1.47058833e-02 8.40336177e-03
      1.68067235e-02 1.68067235e-02 3.36134471e-02 1.47058833e-02
      1.05042020e-02 1.47058833e-02 1.05042020e-02 1.26050431e-02
      2.10084044e-03 6.30252156e-03 6.30252156e-03 0. 1.47058833e-02
      6.30252156e-03 1.68067235e-02 1.26050431e-02 1.47058833e-02 0.
      6.30252156e-03 4.20168089e-03 8.40336177e-03 1.26050431e-02
      2.10084044e-03 1.68067235e-02 4.20168089e-03 8.40336177e-03
      1.47058833e-02 0. 6.30252156e-03 2.10084044e-03 2.10084044e-03
      2.52100863e-02 4.20168089e-03 8.40336177e-03 8.40336177e-03
      1.89075638e-02 1.26050431e-02 6.30252156e-03 6.30252156e-03
      1.89075638e-02 2.10084044e-03 2.94117667e-02 2.10084044e-03 0.
      1.05042020e-02 6.30252156e-03 2.10084044e-03 4.20168089e-03
      2.52100863e-02 1.05042020e-02 8.40336177e-03 6.30252156e-03
      1.68067235e-02 2.10084044e-03 1.05042020e-02 1.05042020e-02
      1.05042020e-02 6.30252156e-03 2.10084044e-03 4.20168089e-03
      4.20168089e-03 4.20168089e-03 1.26050431e-02 8.40336177e-03
      6.30252156e-03 1.26050431e-02 6.30252156e-03 2.10084044e-03
      1.89075638e-02 2.10084044e-03 2.73109265e-02 4.20168089e-03
      1.26050431e-02 1.05042020e-02 8.40336177e-03 1.26050431e-02
      1.89075638e-02 2.10084044e-03 2.52100863e-02 4.20168089e-03
      2.52100863e-02 4.20168089e-03 1.26050431e-02 1.26050431e-02</_>
    <_>
      2.89855083e-03 2.89855083e-03 2.02898551e-02 1.44927539e-02
      5.79710165e-03 2.60869581e-02 1.44927539e-02 2.89855083e-03
      1.15942033e-02 1.15942033e-02 2.02898551e-02 1.44927539e-02
      2.89855083e-03 8.69565271e-03 5.79710165e-03 5.79710165e-03
      5.79710165e-03 2.02898551e-02 2.89855083e-03 5.79710165e-03
      5.79710165e-03 2.89855083e-03 1.15942033e-02 2.02898551e-02
      5.79710165e-03 0. 1.44927539e-02 1.44927539e-02 0. 1.73913054e-02
      5.79710165e-03 5.79710165e-03 2.89855083e-03 5.79710165e-03
      2.89855083e-03 2.89855083e-03 8.69565271e-03 1.44927539e-02
      8.69565271e-03 1.15942033e-02 1.44927539e-02 2.89855083e-03
      5.79710165e-03 0. 2.89855083e-03 1.44927539e-02 4.34782617e-02
      2.89855083e-03 8.69565271e-03 1.15942033e-02 2.31884066e-02
      8.69565271e-03 1.73913054e-02 5.79710165e-03 1.15942033e-02
      1.73913054e-02 0. 1.73913054e-02 5.79710165e-03 2.89855083e-03
      1.15942033e-02 1.73913054e-02 5.79710165e-03 1.15942033e-02
      2.89855083e-03 5.79710165e-03 2.89855083e-03 1.15942033e-02
      8.69565271e-03 1.44927539e-02 2.89855083e-03 5.79710165e-03
      1.15942033e-02 2.89855083e-03 8.69565271e-03 2.89855083e-03 0.
      1.44927539e-02 2.89855078e-02 1.44927539e-02 1.73913054e-02
      8.69565271e-03 2.89855083e-03 2.60869581e-02 8.69565271e-03
      4.05797102e-02 2.89855083e-03 3.18840593e-02 8.69565271e-03
      1.15942033e-02 2.89855083e-03 2.89855083e-03 0. 5.79710165e-03
      2.89855083e-03 1.15942033e-02 1.15942033e-02 2.89855083e-03
      1.15942033e-02 1.73913054e-02</_>
    <_>
      3.80952377e-03 1.52380951e-02 5.71428565e-03 1.90476188e-03
      7.61904754e-03 3.80952377e-03 7.61904754e-03 1.52380951e-02
      1.14285713e-02 1.52380951e-02 4.95238081e-02 1.90476179e-02
      1.90476188e-03 9.52380896e-03 7.61904754e-03 3.80952377e-03
      5.71428565e-03 5.71428565e-03 9.52380896e-03 9.52380896e-03
      1.90476188e-03 5.71428565e-03 1.33333337e-02 5.71428565e-03
      5.71428565e-03 9.52380896e-03 9.52380896e-03 7.61904754e-03
      1.90476188e-03 5.71428565e-03 7.61904754e-03 2.09523812e-02
      7.61904754e-03 1.33333337e-02 1.14285713e-02 0. 3.80952377e-03
      3.80952377e-03 5.71428565e-03 7.61904754e-03 7.61904754e-03
      5.71428565e-03 7.61904754e-03 1.14285713e-02 1.90476188e-03
      3.80952377e-03 3.04761901e-02 3.80952377e-03 1.14285713e-02
      1.90476179e-02 1.33333337e-02 1.14285713e-02 1.52380951e-02
      7.61904754e-03 9.52380896e-03 5.71428565e-03 1.90476179e-02
      1.33333337e-02 1.14285713e-02 2.28571426e-02 1.90476188e-03
      7.61904754e-03 5.71428565e-03 1.71428565e-02 1.90476188e-03
      7.61904754e-03 1.14285713e-02 1.14285713e-02 1.90476179e-02
      2.28571426e-02 1.90476188e-03 7.61904754e-03 7.61904754e-03
      1.14285713e-02 7.61904754e-03 2.85714287e-02 2.66666673e-02
      7.61904754e-03 9.52380896e-03 3.80952377e-03 9.52380896e-03
      1.90476188e-03 1.14285713e-02 1.33333337e-02 7.61904754e-03
      1.71428565e-02 1.90476188e-03 9.52380896e-03 9.52380896e-03
      1.71428565e-02 1.90476188e-03 1.14285713e-02 9.52380896e-03
      5.71428565e-03 1.14285713e-02 7.61904754e-03 1.52380951e-02
      7.61904754e-03 9.52380896e-03 1.14285713e-02</_>
    <_>
      4.83091781e-03 1.69082116e-02 1.20772943e-02 1.20772945e-03
      1.20772943e-02 2.41545890e-03 7.24637695e-03 7.24637695e-03
      2.41545890e-03 1.20772943e-02 1.69082116e-02 7.24637695e-03
      2.17391308e-02 9.66183562e-03 7.24637695e-03 8.45410582e-03
      1.32850241e-02 7.24637695e-03 2.05314010e-02 6.03864715e-03
      6.03864715e-03 1.44927539e-02 3.62318847e-03 6.03864715e-03
      4.83091781e-03 1.57004837e-02 1.93236712e-02 6.03864715e-03
      1.32850241e-02 4.83091781e-03 4.83091781e-03 2.41545890e-03
      8.45410582e-03 9.66183562e-03 1.57004837e-02 1.44927539e-02
      2.29468588e-02 1.20772943e-02 9.66183562e-03 1.20772945e-03
      2.41545890e-03 1.32850241e-02 1.20772943e-02 2.41545886e-02
      6.03864715e-03 2.65700482e-02 1.81159414e-02 1.32850241e-02
      1.57004837e-02 1.57004837e-02 2.41545890e-03 1.08695654e-02
      9.66183562e-03 1.20772943e-02 0. 4.83091781e-03 1.20772943e-02
      8.45410582e-03 3.62318847e-03 1.32850241e-02 2.41545890e-03
      1.44927539e-02 1.20772945e-03 4.83091781e-03 3.62318847e-03
      4.83091781e-03 7.24637695e-03 2.17391308e-02 8.45410582e-03
      2.41545890e-03 0. 4.83091781e-03 9.66183562e-03 2.41545886e-02
      7.24637695e-03 4.83091772e-02 2.53623184e-02 2.53623184e-02
      1.44927539e-02 3.62318847e-03 7.24637695e-03 8.45410582e-03
      1.32850241e-02 4.83091781e-03 7.24637695e-03 4.83091781e-03
      8.45410582e-03 2.41545890e-03 9.66183562e-03 1.44927539e-02
      1.08695654e-02 6.03864715e-03 7.24637695e-03 3.62318847e-03
      8.45410582e-03 4.83091781e-03 3.62318847e-03 8.45410582e-03
      8.45410582e-03 6.03864715e-03</_>
    <_>
      1.20481923e-02 1.20481923e-02 6.02409616e-03 1.50602404e-02
      9.03614424e-03 3.01204808e-03 9.03614424e-03 2.71084327e-02
      1.80722885e-02 9.03614424e-03 3.31325307e-02 6.02409616e-03 0.
      3.01204808e-03 9.03614424e-03 6.02409616e-03 1.20481923e-02
      2.10843366e-02 1.20481923e-02 6.02409616e-03 3.01204808e-03
      6.02409616e-03 6.02409616e-03 9.03614424e-03 6.02409616e-03
      9.03614424e-03 1.80722885e-02 6.02409616e-03 1.20481923e-02
      9.03614424e-03 3.01204808e-03 1.50602404e-02 6.02409616e-03
      2.71084327e-02 1.20481923e-02 0. 9.03614424e-03 1.80722885e-02 0.
      6.02409616e-03 1.20481923e-02 1.50602404e-02 6.02409616e-03
      2.10843366e-02 6.02409616e-03 2.10843366e-02 3.01204808e-02
      9.03614424e-03 2.40963846e-02 6.02409616e-03 6.02409616e-03
      1.20481923e-02 6.02409616e-03 0. 9.03614424e-03 9.03614424e-03
      1.20481923e-02 1.50602404e-02 1.80722885e-02 2.10843366e-02
      6.02409616e-03 1.80722885e-02 9.03614424e-03 9.03614424e-03
      6.02409616e-03 3.01204808e-03 9.03614424e-03 1.80722885e-02
      6.02409616e-03 1.80722885e-02 6.02409616e-03 9.03614424e-03 0.
      3.01204808e-03 6.02409616e-03 1.50602404e-02 3.01204808e-03
      3.01204808e-03 9.03614424e-03 6.02409616e-03 1.50602404e-02 0.
      3.01204808e-03 1.20481923e-02 1.20481923e-02 1.80722885e-02
      1.20481923e-02 0. 1.50602404e-02 3.01204808e-03 9.03614424e-03
      3.01204808e-03 0. 9.03614424e-03 6.02409616e-03 2.10843366e-02
      3.01204808e-03 0. 1.50602404e-02 1.20481923e-02</_>
    <_>
      1.15606934e-02 0. 4.04624268e-02 0. 0. 5.78034669e-03
      5.78034669e-03 0. 0. 0. 5.78034669e-03 5.78034669e-03 0.
      1.15606934e-02 1.73410401e-02 5.78034669e-03 1.15606934e-02
      2.31213868e-02 5.78034669e-03 2.89017335e-02 5.78034669e-03 0.
      2.31213868e-02 1.15606934e-02 5.78034669e-03 1.15606934e-02
      2.31213868e-02 5.78034669e-03 5.78034669e-03 1.73410401e-02
      5.78034669e-03 3.46820801e-02 5.78034669e-03 0. 1.15606934e-02
      5.78034669e-03 0. 1.73410401e-02 0. 2.31213868e-02 0.
      2.89017335e-02 5.78034669e-03 0. 5.78034669e-03 2.31213868e-02
      1.15606934e-02 0. 1.73410401e-02 0. 5.78034669e-03 5.78034669e-03
      1.15606934e-02 1.73410401e-02 1.73410401e-02 5.78034669e-03 0.
      1.15606934e-02 0. 0. 1.15606934e-02 1.73410401e-02 0.
      1.73410401e-02 0. 2.89017335e-02 1.73410401e-02 1.15606934e-02
      5.78034669e-03 1.73410401e-02 1.15606934e-02 0. 5.78034669e-03
      5.78034669e-03 1.73410401e-02 0. 1.15606934e-02 0. 1.73410401e-02
      1.73410401e-02 2.89017335e-02 5.78034669e-03 0. 2.89017335e-02 0.
      5.78034669e-03 1.15606934e-02 1.73410401e-02 1.15606934e-02 0. 0.
      5.78034669e-03 0. 1.15606934e-02 5.78034669e-03 1.73410401e-02
      1.15606934e-02 1.15606934e-02 2.89017335e-02 2.31213868e-02</_>
    <_>
      7.00934557e-03 1.63551401e-02 4.67289705e-03 9.34579410e-03
      4.67289705e-03 4.67289705e-03 9.34579410e-03 7.00934557e-03
      2.33644852e-03 9.34579410e-03 1.40186911e-02 2.10280363e-02
      2.33644843e-02 7.00934557e-03 1.40186911e-02 7.00934557e-03
      2.33644852e-03 1.63551401e-02 1.16822422e-02 1.40186911e-02
      7.00934557e-03 2.33644852e-03 9.34579410e-03 7.00934557e-03
      1.16822422e-02 9.34579410e-03 2.10280363e-02 2.33644852e-03
      7.00934557e-03 1.40186911e-02 1.86915882e-02 4.67289705e-03
      1.40186911e-02 9.34579410e-03 1.16822422e-02 1.40186911e-02
      2.33644852e-03 1.16822422e-02 9.34579410e-03 0. 4.67289705e-03
      2.80373823e-02 7.00934557e-03 1.16822422e-02 7.00934557e-03
      1.40186911e-02 2.33644843e-02 4.67289705e-03 4.67289705e-03
      7.00934557e-03 9.34579410e-03 1.16822422e-02 7.00934557e-03
      1.40186911e-02 9.34579410e-03 4.67289705e-03 1.63551401e-02
      9.34579410e-03 0. 7.00934557e-03 2.33644852e-03 7.00934557e-03
      1.16822422e-02 2.33644852e-03 9.34579410e-03 1.40186911e-02
      4.67289705e-03 1.86915882e-02 9.34579410e-03 4.67289705e-03
      9.34579410e-03 9.34579410e-03 1.16822422e-02 1.16822422e-02
      9.34579410e-03 1.40186911e-02 1.40186911e-02 1.63551401e-02
      9.34579410e-03 9.34579410e-03 1.16822422e-02 7.00934557e-03
      4.67289705e-03 7.00934557e-03 1.16822422e-02 2.80373823e-02
      1.16822422e-02 0. 1.16822422e-02 7.00934557e-03 4.67289705e-03
      9.34579410e-03 2.33644852e-03 1.16822422e-02 0. 2.57009342e-02
      1.16822422e-02 2.33644852e-03 2.80373823e-02 1.16822422e-02</_>
    <_>
      1.54320989e-02 1.85185187e-02 1.23456791e-02 3.08641978e-03
      9.25925933e-03 3.08641978e-03 9.25925933e-03 2.46913582e-02
      9.25925933e-03 9.25925933e-03 0. 2.77777780e-02 9.25925933e-03 0.
      1.85185187e-02 9.25925933e-03 1.23456791e-02 1.23456791e-02
      3.08641978e-03 6.17283955e-03 9.25925933e-03 2.77777780e-02
      3.08641978e-03 6.17283955e-03 1.23456791e-02 1.23456791e-02
      1.23456791e-02 1.23456791e-02 9.25925933e-03 6.17283955e-03
      2.16049384e-02 9.25925933e-03 0. 6.17283955e-03 1.54320989e-02
      3.08641978e-03 3.08641978e-03 3.08641978e-02 6.17283955e-03
      3.08641978e-03 9.25925933e-03 9.25925933e-03 1.23456791e-02 0.
