<?xml version="1.0"?>
<opencv_storage>
<opencv_ml_svm>
  <format>3</format>
  <svmType>C_SVC</svmType>
  <kernel>
    <type>RBF</type>
    <gamma>5.0625000000000009e-01</gamma></kernel>
  <C>3.1250000000000000e+02</C>
  <term_criteria><epsilon>1.1920928955078125e-07</epsilon>
    <iterations>1000</iterations></term_criteria>
  <var_count>100</var_count>
  <class_count>5</class_count>
  <class_labels type_id="opencv-matrix">
    <rows>5</rows>
    <cols>1</cols>
    <dt>i</dt>
    <data>
      0 1 2 3 4</data></class_labels>
  <sv_total>955</sv_total>
  <support_vectors>
    <_>
      1.01763913e-02 8.14111251e-03 1.01763913e-02 7.46268686e-03
      1.22116692e-02 1.08548170e-02 6.78426074e-03 1.15332427e-02
      3.39213037e-03 2.71370425e-03 7.46268686e-03 1.56037994e-02
      6.78426074e-03 1.15332427e-02 1.35685215e-02 2.30664853e-02
      1.28900949e-02 1.01763913e-02 1.22116692e-02 6.10583462e-03
      1.42469471e-02 1.28900949e-02 1.42469471e-02 2.10312083e-02
      1.35685215e-02 6.78426074e-03 3.39213037e-03 6.78426074e-03
      3.39213037e-03 9.49796475e-03 1.22116692e-02 4.07055626e-03
      1.89959295e-02 6.78426074e-03 4.74898238e-03 6.78426074e-03
      6.10583462e-03 2.71370425e-03 1.83175039e-02 6.78426074e-03
      1.22116692e-02 8.81953910e-03 6.78426074e-03 3.32428776e-02
      8.81953910e-03 6.78426074e-03 6.10583462e-03 9.49796475e-03
      1.15332427e-02 1.15332427e-02 5.42740850e-03 1.01763913e-02
      1.01763913e-02 8.81953910e-03 6.78426074e-03 6.10583462e-03
      1.22116692e-02 6.78426074e-03 8.81953910e-03 7.46268686e-03
      1.15332427e-02 9.49796475e-03 4.07055626e-03 5.42740850e-03
      1.08548170e-02 9.49796475e-03 1.35685212e-03 1.15332427e-02
      1.76390782e-02 6.10583462e-03 8.81953910e-03 2.71370425e-03
      1.01763913e-02 1.01763913e-02 8.81953910e-03 1.35685215e-02
      1.35685212e-03 2.23880596e-02 9.49796475e-03 1.62822250e-02
      7.46268686e-03 8.81953910e-03 9.49796475e-03 6.10583462e-03
      9.49796475e-03 1.08548170e-02 1.01763913e-02 3.39213037e-03
      1.28900949e-02 1.49253737e-02 6.78426074e-03 2.64586173e-02
      1.08548170e-02 5.42740850e-03 1.83175039e-02 1.28900949e-02
      4.07055626e-03 2.71370425e-03 2.23880596e-02 1.08548170e-02</_>
    <_>
      7.12328777e-03 1.20547945e-02 1.64383557e-02 7.67123280e-03
      2.73972610e-03 6.57534227e-03 1.64383557e-03 5.47945220e-03
      6.02739723e-03 7.67123280e-03 9.31506883e-03 1.15068490e-02
      7.67123280e-03 7.67123280e-03 1.47945210e-02 6.57534227e-03
      7.12328777e-03 1.31506845e-02 1.31506845e-02 8.76712333e-03
      8.21917783e-03 9.31506883e-03 1.69863012e-02 7.67123280e-03
      1.75342467e-02 1.80821922e-02 1.09589044e-02 1.15068490e-02
      7.12328777e-03 1.47945210e-02 7.12328777e-03 8.21917783e-03
      1.69863012e-02 6.02739723e-03 4.93150670e-03 1.75342467e-02
      1.26027400e-02 8.21917783e-03 1.42465755e-02 2.19178083e-03
      8.76712333e-03 1.09589044e-02 1.09589044e-02 1.26027400e-02
      1.31506845e-02 1.26027400e-02 8.76712333e-03 7.67123280e-03
      1.42465755e-02 1.31506845e-02 1.91780832e-02 5.47945220e-03
      8.76712333e-03 7.67123280e-03 1.36986300e-02 6.57534227e-03
      9.86301340e-03 1.04109589e-02 7.12328777e-03 9.86301340e-03
      1.20547945e-02 1.26027400e-02 8.76712333e-03 1.09589044e-02
      1.36986300e-02 8.76712333e-03 3.28767113e-03 1.36986300e-02
      1.20547945e-02 7.12328777e-03 4.93150670e-03 8.76712333e-03
      8.21917783e-03 7.12328777e-03 9.31506883e-03 1.20547945e-02
      1.15068490e-02 7.67123280e-03 1.20547945e-02 1.64383557e-02
      7.67123280e-03 1.15068490e-02 9.31506883e-03 6.02739723e-03
      1.47945210e-02 1.26027400e-02 1.31506845e-02 3.83561640e-03
      6.57534227e-03 8.21917783e-03 9.31506883e-03 6.57534227e-03
      7.67123280e-03 1.04109589e-02 3.83561640e-03 9.31506883e-03
      6.57534227e-03 1.26027400e-02 1.36986300e-02 2.02739723e-02</_>
    <_>
      6.16438361e-03 8.90410971e-03 8.90410971e-03 1.02739725e-02
      2.05479469e-03 9.58904158e-03 5.47945220e-03 1.02739725e-02
      8.21917877e-03 3.42465751e-03 8.90410971e-03 1.09589044e-02
      3.42465751e-03 6.84931502e-03 1.30136991e-02 1.02739725e-02
      4.79452079e-03 1.30136991e-02 8.21917877e-03 2.32876725e-02
      9.58904158e-03 4.10958938e-03 1.43835619e-02 3.42465751e-03
      1.64383575e-02 1.30136991e-02 9.58904158e-03 8.90410971e-03
      6.16438361e-03 1.09589044e-02 1.02739725e-02 7.53424689e-03
      2.39726026e-02 2.73972610e-03 4.04109582e-02 1.02739725e-02
      8.21917877e-03 6.84931502e-03 1.36986300e-02 8.21917877e-03
      1.16438363e-02 8.90410971e-03 1.30136991e-02 1.50684938e-02
      1.43835619e-02 9.58904158e-03 1.09589044e-02 9.58904158e-03
      1.09589044e-02 7.53424689e-03 1.30136991e-02 1.09589044e-02
      4.10958938e-03 5.47945220e-03 1.30136991e-02 4.79452079e-03
      1.02739725e-02 6.84931502e-03 4.79452079e-03 9.58904158e-03
      2.73972610e-03 6.84931502e-03 6.16438361e-03 2.26027407e-02
      6.16438361e-03 6.16438361e-03 6.16438361e-03 1.02739725e-02
      1.30136991e-02 5.47945220e-03 1.23287672e-02 3.69863026e-02
      1.64383575e-02 8.90410971e-03 6.16438361e-03 1.02739725e-02
      7.53424689e-03 1.02739725e-02 1.57534257e-02 1.84931513e-02
      3.42465751e-03 1.02739725e-02 8.90410971e-03 3.42465751e-03
      1.09589044e-02 4.10958938e-03 1.36986300e-02 8.21917877e-03
      5.47945220e-03 4.79452079e-03 9.58904158e-03 9.58904158e-03
      4.79452079e-03 6.16438361e-03 8.90410971e-03 8.90410971e-03
      8.21917877e-03 5.47945220e-03 8.90410971e-03 2.80821919e-02</_>
    <_>
      8.83218832e-03 3.92541708e-03 8.83218832e-03 1.37389600e-02
      9.81354248e-03 1.07948966e-02 1.17762517e-02 1.57016683e-02
      3.92541708e-03 5.88812586e-03 1.37389600e-02 6.86948001e-03
      9.81354248e-03 1.17762517e-02 1.86457317e-02 1.17762517e-02
      7.85083417e-03 1.07948966e-02 5.88812586e-03 1.66830234e-02
      8.83218832e-03 5.88812586e-03 9.81354248e-03 8.83218832e-03
      1.47203142e-02 6.86948001e-03 4.90677124e-03 9.81354248e-03
      8.83218832e-03 1.07948966e-02 1.47203142e-02 4.90677124e-03
      1.96270850e-02 4.90677124e-03 6.86948001e-03 2.94406293e-03
      9.81354248e-03 1.07948966e-02 1.47203142e-02 4.90677124e-03
      6.86948001e-03 8.83218832e-03 1.57016683e-02 6.18253201e-02
      4.90677124e-03 5.88812586e-03 2.94406293e-03 1.17762517e-02
      1.57016683e-02 9.81354248e-03 5.88812586e-03 7.85083417e-03
      1.47203142e-02 5.88812586e-03 1.37389600e-02 3.92541708e-03
      3.92541708e-03 8.83218832e-03 1.17762517e-02 1.57016683e-02
      8.83218832e-03 1.07948966e-02 9.81354248e-03 1.17762517e-02
      5.88812586e-03 1.96270854e-03 4.90677124e-03 6.86948001e-03
      4.90677124e-03 1.17762517e-02 7.85083417e-03 3.92541708e-03
      1.07948966e-02 1.37389600e-02 4.90677124e-03 1.66830234e-02
      7.85083417e-03 2.64965650e-02 1.76643766e-02 1.07948966e-02
      5.88812586e-03 7.85083417e-03 7.85083417e-03 3.92541708e-03
      8.83218832e-03 1.07948966e-02 1.17762517e-02 7.85083417e-03
      4.90677124e-03 1.17762517e-02 2.94406293e-03 7.85083417e-03
      6.86948001e-03 1.37389600e-02 7.85083417e-03 6.86948001e-03
      4.90677124e-03 1.37389600e-02 9.81354248e-03 1.86457317e-02</_>
    <_>
      1.38888890e-02 1.08024692e-02 1.23456791e-02 6.17283955e-03 0.
      4.62962966e-03 6.17283955e-03 1.08024692e-02 7.71604944e-03
      1.08024692e-02 9.25925933e-03 7.71604944e-03 6.17283955e-03
      4.62962966e-03 2.31481493e-02 9.25925933e-03 0. 1.23456791e-02
      1.23456791e-02 4.62962966e-03 1.85185187e-02 3.08641978e-03
      7.71604944e-03 7.71604944e-03 4.01234552e-02 1.54320989e-03
      3.08641978e-03 4.62962966e-03 7.71604944e-03 1.08024692e-02
      7.71604944e-03 1.08024692e-02 1.08024692e-02 7.71604944e-03
      6.17283955e-03 1.54320989e-02 4.62962966e-03 1.08024692e-02
      1.54320989e-02 6.17283955e-03 3.08641978e-03 1.08024692e-02
      1.38888890e-02 7.71604944e-03 4.62962966e-03 2.00617276e-02
      1.23456791e-02 6.17283955e-03 9.25925933e-03 1.69753097e-02
      1.08024692e-02 1.38888890e-02 6.17283955e-03 7.71604944e-03
      7.71604944e-03 7.71604944e-03 3.08641978e-03 3.08641978e-02
      1.85185187e-02 1.23456791e-02 1.38888890e-02 3.08641978e-03
      1.08024692e-02 7.71604944e-03 9.25925933e-03 6.17283955e-03
      6.17283955e-03 1.23456791e-02 6.17283955e-03 1.08024692e-02
      4.62962966e-03 1.38888890e-02 1.23456791e-02 1.38888890e-02
      6.17283955e-03 1.23456791e-02 1.08024692e-02 4.62962966e-03
      6.17283955e-03 9.25925933e-03 7.71604944e-03 1.23456791e-02
      4.62962966e-03 1.54320989e-02 1.54320989e-02 9.25925933e-03
      1.85185187e-02 6.17283955e-03 1.54320989e-02 3.08641978e-03
      1.23456791e-02 1.08024692e-02 1.23456791e-02 1.54320989e-02
      6.17283955e-03 1.38888890e-02 6.17283955e-03 4.62962966e-03
      3.08641978e-03 2.93209888e-02</_>
    <_>
      9.47867334e-03 1.42180100e-02 1.18483417e-02 2.36966833e-03 0.
      4.73933667e-03 1.18483417e-03 2.36966833e-03 9.47867334e-03
      3.55450250e-03 2.96208542e-02 4.73933667e-03 1.42180100e-02
      5.92417084e-03 1.30331758e-02 3.55450250e-03 1.42180100e-02
      4.73933667e-03 3.55450250e-03 1.06635075e-02 4.73933667e-02
      1.06635075e-02 1.30331758e-02 1.18483417e-02 1.42180100e-02
      2.36966833e-03 4.73933667e-03 9.47867334e-03 1.89573467e-02
      8.29383917e-03 5.92417084e-03 1.30331758e-02 0. 1.18483417e-02
      1.65876783e-02 1.30331758e-02 1.65876783e-02 1.30331758e-02
      4.73933667e-03 3.55450250e-03 2.01421808e-02 1.18483417e-03
      9.47867334e-03 1.30331758e-02 5.92417084e-03 7.10900500e-03
      2.36966833e-03 1.18483417e-03 7.10900500e-03 7.10900500e-03
      4.73933667e-03 4.73933667e-03 1.18483417e-02 5.92417084e-03
      5.92417084e-03 2.25118492e-02 4.73933667e-03 1.06635075e-02
      1.06635075e-02 1.18483417e-02 9.47867334e-03 7.10900500e-03
      7.10900500e-03 1.65876783e-02 2.36966833e-03 1.42180100e-02
      3.55450250e-03 1.18483417e-02 4.73933667e-03 1.30331758e-02
      7.10900500e-03 3.55450250e-03 4.73933667e-03 7.10900500e-03
      2.36966833e-02 8.29383917e-03 8.29383917e-03 3.55450250e-03
      8.29383917e-03 7.10900500e-03 3.55450250e-03 1.77725125e-02
      1.89573467e-02 1.30331758e-02 1.65876783e-02 7.10900500e-03
      2.36966833e-03 1.18483417e-02 5.92417084e-03 5.92417084e-03
      1.18483417e-02 3.19905207e-02 3.55450250e-03 3.55450250e-03
      3.08056884e-02 8.29383917e-03 7.10900500e-03 8.29383917e-03
      1.06635075e-02 3.79146934e-02</_>
    <_>
      3.79867037e-03 8.54700804e-03 5.69800567e-03 3.79867037e-03
      2.94396952e-02 2.84900283e-03 1.89933518e-03 3.79867032e-02
      4.74833790e-03 9.49667592e-04 9.49667580e-03 8.54700804e-03
      1.42450137e-02 7.59734074e-03 9.49667580e-03 1.89933518e-03
      3.79867037e-03 5.69800567e-03 7.59734074e-03 2.84900283e-03
      2.94396952e-02 8.54700804e-03 7.59734074e-03 8.54700804e-03
      1.42450137e-02 2.65906919e-02 9.49667580e-03 9.49667580e-03
      9.49667592e-04 7.59734074e-03 3.79867037e-03 5.69800567e-03
      5.79297245e-02 8.54700804e-03 1.89933516e-02 1.70940161e-02
      7.59734074e-03 3.79867037e-03 7.59734074e-03 3.79867037e-03
      1.42450137e-02 7.59734074e-03 2.84900283e-03 2.08926871e-02
      8.54700804e-03 3.79867037e-03 1.04463436e-02 4.74833790e-03
      4.74833790e-03 8.54700804e-03 7.59734074e-03 4.74833790e-03
      9.49667580e-03 3.79867037e-03 6.64767297e-03 6.64767297e-03
      8.54700804e-03 8.54700804e-03 4.74833790e-03 3.79867037e-03
      9.49667580e-03 5.69800567e-03 3.79867037e-03 1.42450137e-02
      2.84900283e-03 5.69800567e-03 7.59734074e-03 8.54700804e-03
      5.69800567e-03 4.74833790e-03 3.79867037e-03 2.94396952e-02
      4.74833790e-03 4.74833790e-03 1.23456791e-02 8.54700804e-03
      4.74833790e-03 1.23456791e-02 3.79867037e-03 5.41310534e-02
      4.74833790e-03 1.04463436e-02 1.32953459e-02 1.04463436e-02
      8.54700804e-03 4.74833790e-03 9.49667580e-03 7.59734074e-03
      5.69800567e-03 5.69800567e-03 6.64767297e-03 9.49667580e-03
      5.69800567e-03 1.04463436e-02 1.23456791e-02 7.59734074e-03
      2.84900283e-03 9.49667592e-04 1.80436838e-02 5.88793904e-02</_>
    <_>
      2.22222228e-03 8.88888910e-03 8.14814772e-03 1.25925923e-02
      5.92592591e-03 7.40740728e-03 1.03703700e-02 1.03703700e-02
      4.44444455e-03 8.14814772e-03 1.25925923e-02 1.18518518e-02
      5.18518500e-03 1.03703700e-02 1.18518518e-02 1.18518518e-02
      7.40740728e-03 7.40740728e-03 1.18518518e-02 6.66666683e-03
      1.55555559e-02 3.70370364e-03 2.07407400e-02 6.66666683e-03
      1.03703700e-02 2.96296296e-03 9.62962955e-03 7.40740728e-03
      1.70370378e-02 1.33333337e-02 5.92592591e-03 6.66666683e-03
      1.48148146e-02 2.96296296e-03 1.11111114e-02 1.25925923e-02
      1.18518518e-02 8.14814772e-03 1.48148146e-02 5.92592591e-03
      7.40740728e-03 1.40740741e-02 8.14814772e-03 3.70370373e-02
      8.88888910e-03 1.40740741e-02 1.11111114e-02 1.11111114e-02
      4.44444455e-03 5.92592591e-03 7.40740728e-03 1.18518518e-02
      8.88888910e-03 1.18518518e-02 1.03703700e-02 9.62962955e-03
      2.22222228e-03 7.40740728e-03 5.92592591e-03 1.03703700e-02
      1.18518518e-02 7.40740728e-03 1.25925923e-02 1.70370378e-02
      8.14814772e-03 5.92592591e-03 3.70370364e-03 8.88888910e-03
      1.25925923e-02 1.40740741e-02 9.62962955e-03 9.62962955e-03
      1.62962954e-02 1.48148146e-02 1.55555559e-02 8.14814772e-03
      7.40740728e-03 2.29629632e-02 8.14814772e-03 1.03703700e-02
      1.03703700e-02 1.70370378e-02 5.92592591e-03 6.66666683e-03
      1.18518518e-02 1.33333337e-02 8.88888910e-03 5.18518500e-03
      3.70370364e-03 1.03703700e-02 9.62962955e-03 8.88888910e-03
      8.14814772e-03 8.88888910e-03 2.22222228e-03 1.03703700e-02
      7.40740728e-03 6.66666683e-03 9.62962955e-03 2.37037037e-02</_>
    <_>
      4.26944951e-03 6.16698293e-03 1.09108156e-02 1.80265661e-02
      3.32068303e-03 1.51802655e-02 2.22960152e-02 4.74383309e-03
      3.32068303e-03 6.64136605e-03 1.18595827e-02 2.27703974e-02
      7.59013277e-03 1.51802655e-02 1.32827321e-02 2.13472489e-02
      5.69259934e-03 9.01328307e-03 9.48766619e-03 4.26944951e-03
      3.79506638e-03 1.04364324e-02 9.96204931e-03 8.06451589e-03
      1.13851987e-02 0. 6.64136605e-03 1.23339659e-02 7.11574964e-03
      1.56546496e-02 9.96204931e-03 9.48766619e-03 6.64136605e-03
      7.59013277e-03 5.69259934e-03 1.85009483e-02 1.23339659e-02
      1.28083490e-02 1.04364324e-02 4.74383309e-03 6.64136605e-03
      9.01328307e-03 9.96204931e-03 6.64136605e-03 1.47058824e-02
      1.04364324e-02 3.32068303e-03 1.56546496e-02 1.89753324e-02
      1.13851987e-02 1.75521821e-02 1.51802655e-02 9.01328307e-03
      1.42314993e-02 1.13851987e-02 1.13851987e-02 2.84629967e-03
      5.21821622e-03 1.37571152e-02 1.32827321e-02 1.09108156e-02
      1.47058824e-02 9.48766619e-03 4.74383309e-03 1.51802655e-02
      4.74383309e-03 5.21821622e-03 7.59013277e-03 1.28083490e-02
      9.01328307e-03 4.26944951e-03 1.89753319e-03 1.75521821e-02
      1.28083490e-02 7.59013277e-03 1.47058824e-02 7.59013277e-03
      1.13851987e-02 1.13851987e-02 9.01328307e-03 7.59013277e-03
      1.04364324e-02 6.16698293e-03 4.74383309e-03 1.18595827e-02
      1.56546496e-02 1.66034158e-02 7.11574964e-03 1.56546496e-02
      1.75521821e-02 7.11574964e-03 4.74383309e-03 9.01328307e-03
      1.47058824e-02 9.48766596e-04 1.37571152e-02 2.84629967e-03
      6.64136605e-03 1.04364324e-02 4.26944951e-03</_>
    <_>
      1.08953100e-02 1.04216011e-02 1.51586924e-02 1.13690197e-02
      5.68450987e-03 1.13690197e-02 9.00047366e-03 1.23164374e-02
      5.68450987e-03 5.21080056e-03 8.05305503e-03 1.04216011e-02
      1.46849835e-02 9.47418250e-03 6.63192803e-03 9.47418250e-03
      1.27901463e-02 9.00047366e-03 1.18427286e-02 7.10563688e-03
      1.75272375e-02 1.27901463e-02 9.47418250e-03 1.89483650e-02
      1.23164374e-02 3.31596402e-03 8.05305503e-03 8.05305503e-03
      6.15821872e-03 1.61061101e-02 7.57934619e-03 8.52676481e-03
      6.63192803e-03 8.05305503e-03 1.23164374e-02 1.27901463e-02
      1.23164374e-02 6.63192803e-03 1.04216011e-02 7.10563688e-03
      1.65798198e-02 1.27901463e-02 4.73709125e-03 1.13690197e-02
      1.04216011e-02 1.37375649e-02 6.63192803e-03 7.10563688e-03
      7.57934619e-03 9.00047366e-03 1.46849835e-02 1.13690197e-02
      1.42112738e-02 4.26338241e-03 1.08953100e-02 8.52676481e-03
      1.65798198e-02 9.94789228e-03 8.52676481e-03 9.94789228e-03
      1.13690197e-02 1.08953100e-02 6.63192803e-03 8.05305503e-03
      8.52676481e-03 1.18427286e-02 2.84225494e-03 1.42112738e-02
      1.23164374e-02 7.57934619e-03 6.63192803e-03 7.57934619e-03
      1.04216011e-02 1.04216011e-02 8.52676481e-03 9.94789228e-03
      9.00047366e-03 7.10563688e-03 1.18427286e-02 9.94789228e-03
      8.52676481e-03 9.00047366e-03 1.46849835e-02 9.94789228e-03
      1.08953100e-02 9.00047366e-03 1.27901463e-02 6.63192803e-03
      1.32638561e-02 6.63192803e-03 5.21080056e-03 1.23164374e-02
      1.04216011e-02 9.47418250e-03 5.68450987e-03 1.27901463e-02
      1.23164374e-02 8.52676481e-03 1.75272375e-02 8.05305503e-03</_>
    <_>
      0. 3.13971750e-03 1.25588700e-02 7.84929376e-03 1.56985875e-02
      7.84929376e-03 1.09890113e-02 4.70957626e-03 0. 3.13971750e-03
      1.25588700e-02 1.25588700e-02 1.25588700e-02 1.56985875e-03
      1.88383050e-02 6.27943501e-03 3.13971750e-03 6.27943501e-03
      9.41915251e-03 2.51177400e-02 1.88383050e-02 1.25588700e-02
      2.98273154e-02 1.56985875e-03 3.29670347e-02 4.70957626e-03
      3.13971750e-03 7.84929376e-03 2.35478804e-02 4.70957626e-03
      9.41915251e-03 1.56985875e-03 1.09890113e-02 6.27943501e-03
      7.84929376e-03 1.56985875e-03 9.41915251e-03 2.04081647e-02
      1.09890113e-02 3.13971750e-03 1.25588700e-02 6.27943501e-03
      1.88383050e-02 2.35478804e-02 4.70957626e-03 7.84929376e-03
      9.41915251e-03 9.41915251e-03 1.41287288e-02 3.13971750e-03
      4.70957626e-03 1.25588700e-02 1.09890113e-02 1.25588700e-02
      2.51177400e-02 6.27943501e-03 6.27943501e-03 4.70957626e-03
      3.13971750e-03 1.56985875e-02 4.70957626e-03 4.70957626e-03
      2.98273154e-02 2.98273154e-02 6.27943501e-03 1.56985875e-03
      4.70957626e-03 6.27943501e-03 6.27943501e-03 1.25588700e-02
      4.70957626e-03 1.72684453e-02 9.41915251e-03 6.27943501e-03
      7.84929376e-03 1.25588700e-02 6.27943501e-03 7.84929376e-03
      4.70957626e-03 1.41287288e-02 0. 2.66875997e-02 6.27943501e-03
      1.56985875e-02 1.56985875e-03 9.41915251e-03 4.70957626e-03
      1.56985875e-02 1.09890113e-02 9.41915251e-03 3.13971750e-03
      1.09890113e-02 6.27943501e-03 1.09890113e-02 7.84929376e-03
      3.13971750e-03 4.70957626e-03 3.13971750e-03 1.41287288e-02
      2.98273154e-02</_>
    <_>
      3.92156886e-03 7.84313772e-03 1.76470596e-02 3.92156886e-03
      5.88235352e-03 1.17647070e-02 3.92156886e-03 1.07843140e-02
      2.94117676e-03 7.84313772e-03 1.37254912e-02 1.27450991e-02
      7.84313772e-03 1.07843140e-02 1.66666675e-02 1.07843140e-02
      7.84313772e-03 1.27450991e-02 1.27450991e-02 1.96078438e-02
      5.88235352e-03 1.27450991e-02 2.45098062e-02 5.88235352e-03
      1.47058833e-02 1.96078443e-03 1.27450991e-02 1.27450991e-02
      8.82352982e-03 1.27450991e-02 9.80392192e-03 1.07843140e-02
      1.17647070e-02 4.90196096e-03 1.96078443e-03 1.66666675e-02
      2.05882359e-02 1.07843140e-02 1.37254912e-02 4.90196096e-03
      5.88235352e-03 9.80392192e-03 1.17647070e-02 1.07843140e-02
      1.27450991e-02 1.27450991e-02 1.17647070e-02 5.88235352e-03
      1.17647070e-02 1.96078438e-02 1.76470596e-02 7.84313772e-03
      8.82352982e-03 1.17647070e-02 1.47058833e-02 8.82352982e-03
      4.90196096e-03 7.84313772e-03 9.80392192e-03 7.84313772e-03
      1.76470596e-02 6.86274562e-03 1.07843140e-02 9.80392192e-03
      1.17647070e-02 9.80392215e-04 8.82352982e-03 9.80392192e-03
      1.76470596e-02 7.84313772e-03 8.82352982e-03 6.86274562e-03
      6.86274562e-03 5.88235352e-03 4.90196096e-03 1.37254912e-02
      1.07843140e-02 2.94117676e-03 9.80392192e-03 1.07843140e-02
      8.82352982e-03 1.17647070e-02 6.86274562e-03 1.37254912e-02
      1.76470596e-02 8.82352982e-03 7.84313772e-03 1.07843140e-02
      6.86274562e-03 3.92156886e-03 9.80392192e-03 1.07843140e-02
      5.88235352e-03 1.17647070e-02 7.84313772e-03 3.92156886e-03
      6.86274562e-03 4.90196096e-03 4.90196096e-03 1.96078438e-02</_>
    <_>
      1.61534585e-02 1.51438676e-02 9.59111564e-03 8.07672925e-03
      1.51438673e-03 7.06713833e-03 9.59111564e-03 5.55275148e-03
      1.26198893e-02 1.66582540e-02 2.52397778e-03 8.07672925e-03
      6.05754694e-03 8.07672925e-03 1.00959111e-02 1.00959111e-02
      5.04795555e-03 9.59111564e-03 9.08632018e-03 1.00959111e-02
      2.01918231e-03 9.08632018e-03 1.46390721e-02 2.01918222e-02
      9.08632018e-03 4.54316009e-03 1.56486630e-02 8.07672925e-03
      1.51438676e-02 4.03836463e-03 1.16102984e-02 1.66582540e-02
      1.51438673e-03 8.07672925e-03 7.57193379e-03 2.47349832e-02
      4.54316009e-03 1.56486630e-02 8.58152471e-03 7.06713833e-03
      1.00959111e-02 8.07672925e-03 1.06007075e-02 9.59111564e-03
      7.06713833e-03 1.06007075e-02 7.57193379e-03 5.55275148e-03
      1.71630494e-02 1.00959111e-02 9.08632018e-03 1.06007075e-02
      5.55275148e-03 9.59111564e-03 1.26198893e-02 1.11055030e-02
      5.55275148e-03 1.66582540e-02 1.06007075e-02 1.41342767e-02
      1.31246848e-02 1.11055030e-02 1.51438676e-02 1.61534585e-02
      8.07672925e-03 5.04795555e-03 4.03836463e-03 7.06713833e-03
      1.11055030e-02 8.07672925e-03 1.06007075e-02 1.06007075e-02
      8.07672925e-03 9.08632018e-03 7.57193379e-03 1.31246848e-02
      1.46390721e-02 8.58152471e-03 6.56234240e-03 6.05754694e-03
      1.21150939e-02 1.56486630e-02 4.03836463e-03 1.21150939e-02
      7.57193379e-03 1.36294803e-02 1.41342767e-02 1.00959111e-02
      8.58152471e-03 7.06713833e-03 2.06966195e-02 9.08632018e-03
      1.26198893e-02 1.11055030e-02 5.55275148e-03 8.58152471e-03
      1.11055030e-02 7.57193379e-03 2.52397778e-03 2.12014150e-02</_>
    <_>
      3.34896171e-03 9.37709305e-03 2.27729399e-02 2.00937707e-02
      4.01875423e-03 7.36771571e-03 1.13864699e-02 4.01875423e-03
      1.33958471e-03 7.36771571e-03 1.33958468e-02 1.13864699e-02
      6.02813112e-03 9.37709305e-03 1.54052237e-02 6.69792341e-03
      4.01875423e-03 1.33958471e-03 1.20562622e-02 4.68854653e-03
      1.13864699e-02 6.02813112e-03 1.47354314e-02 6.02813112e-03
      1.27260545e-02 6.02813112e-03 6.69792341e-03 6.69792341e-03
      9.37709305e-03 1.47354314e-02 1.20562622e-02 5.35833882e-03
      2.67916941e-03 6.69792341e-03 6.69792341e-03 2.27729399e-02
      1.33958468e-02 8.70730076e-03 1.60750169e-02 2.67916941e-03
      9.37709305e-03 1.80843938e-02 1.27260545e-02 3.41594107e-02
      1.20562622e-02 1.00468853e-02 6.69792341e-03 1.13864699e-02
      8.03750847e-03 8.70730076e-03 1.13864699e-02 1.60750169e-02
      1.00468853e-02 6.02813112e-03 1.60750169e-02 8.03750847e-03
      4.68854653e-03 5.35833882e-03 6.69792341e-03 9.37709305e-03
      1.00468853e-02 6.69792341e-03 1.27260545e-02 2.00937707e-02
      1.94239784e-02 4.01875423e-03 2.00937712e-03 1.07166776e-02
      1.20562622e-02 1.00468853e-02 4.01875423e-03 4.68854653e-03
      1.00468853e-02 1.60750169e-02 7.36771571e-03 1.33958468e-02
      3.34896171e-03 3.08104474e-02 1.54052237e-02 8.70730076e-03
      4.68854653e-03 9.37709305e-03 1.07166776e-02 9.37709305e-03
      1.00468853e-02 1.27260545e-02 1.27260545e-02 1.07166776e-02
      6.69792341e-03 9.37709305e-03 6.69792341e-03 8.70730076e-03
      4.68854653e-03 8.70730076e-03 4.68854653e-03 1.00468853e-02
      2.00937712e-03 7.36771571e-03 7.36771571e-03 2.94708628e-02</_>
    <_>
      4.84966068e-03 1.06692538e-02 1.26091177e-02 3.87972849e-03
      1.16391852e-02 1.16391852e-02 4.84966068e-03 4.84966068e-03
      3.87972849e-03 7.75945699e-03 1.06692538e-02 2.23084390e-02
      7.75945699e-03 1.35790501e-02 1.93986427e-02 2.23084390e-02
      2.90979631e-03 4.84966068e-03 1.35790501e-02 6.78952504e-03
      2.13385075e-02 4.84966068e-03 1.64888464e-02 3.87972849e-03
      1.74587779e-02 8.72938894e-03 3.87972849e-03 2.90979631e-03
      1.45489816e-02 1.06692538e-02 4.84966068e-03 3.87972849e-03
      7.75945699e-03 2.90979631e-03 1.74587779e-02 7.75945699e-03
      1.93986427e-02 9.69932135e-03 1.45489816e-02 2.90979631e-03
      8.72938894e-03 8.72938894e-03 1.35790501e-02 3.78273539e-02
      1.35790501e-02 1.06692538e-02 1.06692538e-02 3.87972849e-03
      1.35790501e-02 1.26091177e-02 1.16391852e-02 1.06692538e-02
      5.81959262e-03 5.81959262e-03 2.13385075e-02 6.78952504e-03
      2.90979631e-03 9.69932135e-03 1.93986425e-03 1.06692538e-02
      8.72938894e-03 5.81959262e-03 3.87972849e-03 3.78273539e-02
      9.69932135e-03 1.93986425e-03 3.87972849e-03 8.72938894e-03
      2.42483038e-02 5.81959262e-03 2.90979631e-03 1.55189140e-02
      8.72938894e-03 7.75945699e-03 1.16391852e-02 8.72938894e-03
      4.84966068e-03 1.35790501e-02 1.64888464e-02 3.87972849e-03
      2.90979631e-03 1.35790501e-02 1.16391852e-02 6.78952504e-03
      1.74587779e-02 2.90979631e-03 1.74587779e-02 9.69932135e-03
      5.81959262e-03 3.87972849e-03 2.90979631e-03 2.90979631e-03
      6.78952504e-03 6.78952504e-03 3.87972849e-03 5.81959262e-03
      9.69932124e-04 4.84966068e-03 2.13385075e-02 2.90979631e-02</_>
    <_>
      3.94218136e-03 1.83968451e-02 1.05124833e-02 1.57687254e-02
      2.62812083e-03 1.83968451e-02 1.57687254e-02 1.31406039e-02
      3.94218136e-03 1.18265441e-02 7.88436271e-03 2.10249666e-02
      7.88436271e-03 2.62812078e-02 7.88436271e-03 1.18265441e-02
      9.19842254e-03 3.94218136e-03 2.10249666e-02 1.31406041e-03
      6.57030195e-03 9.19842254e-03 5.25624165e-03 1.18265441e-02
      7.88436271e-03 1.31406041e-03 9.19842254e-03 1.83968451e-02
      3.94218136e-03 2.62812078e-02 1.05124833e-02 7.88436271e-03
      7.88436271e-03 7.88436271e-03 1.31406041e-03 1.31406039e-02
      1.57687254e-02 5.25624165e-03 1.31406039e-02 1.31406041e-03
      1.97109058e-02 1.57687254e-02 7.88436271e-03 6.57030195e-03
      1.31406039e-02 3.94218136e-03 1.05124833e-02 1.97109058e-02
      1.97109058e-02 1.44546647e-02 1.83968451e-02 1.31406039e-02
      7.88436271e-03 6.57030195e-03 1.57687254e-02 1.05124833e-02
      1.18265441e-02 1.44546647e-02 9.19842254e-03 5.25624165e-03
      6.57030195e-03 1.18265441e-02 5.25624165e-03 5.25624165e-03
      1.44546647e-02 5.25624165e-03 7.88436271e-03 5.25624165e-03
      1.44546647e-02 2.62812083e-03 1.31406041e-03 2.62812083e-03
      1.31406039e-02 7.88436271e-03 6.57030195e-03 1.44546647e-02
      5.25624165e-03 7.88436271e-03 1.18265441e-02 1.31406039e-02
      7.88436271e-03 9.19842254e-03 1.05124833e-02 2.62812083e-03
      1.44546647e-02 1.05124833e-02 1.18265441e-02 5.25624165e-03
      1.57687254e-02 1.83968451e-02 9.19842254e-03 1.31406041e-03
      1.31406039e-02 6.57030195e-03 2.62812083e-03 1.70827862e-02 0.
      7.88436271e-03 1.18265441e-02 0.</_>
    <_>
      3.83729837e-03 1.22793550e-02 1.61166526e-02 6.90713711e-03
      2.30237911e-03 9.20951646e-03 5.37221786e-03 9.97697562e-03
      8.44205637e-03 6.90713711e-03 5.37221786e-03 6.90713711e-03
      4.60475823e-03 1.07444357e-02 1.53491935e-02 3.83729837e-03
      9.20951646e-03 1.53491935e-02 1.76515728e-02 1.38142742e-02
      3.06983874e-03 1.38142742e-02 1.07444357e-02 9.97697562e-03
      1.68841127e-02 6.13967748e-03 1.30468151e-02 7.67459674e-03
      6.13967748e-03 2.22563315e-02 4.60475823e-03 9.20951646e-03
      4.60475823e-03 8.44205637e-03 1.91864930e-02 2.45587099e-02
      1.15118949e-02 4.60475823e-03 1.76515728e-02 1.38142742e-02
      1.22793550e-02 1.07444357e-02 7.67459674e-03 5.37221786e-03
      1.15118949e-02 1.76515728e-02 1.07444357e-02 3.83729837e-03
      1.30468151e-02 9.97697562e-03 1.15118949e-02 1.30468151e-02
      6.13967748e-03 2.30237911e-03 1.15118949e-02 8.44205637e-03
      7.67459674e-03 1.61166526e-02 1.22793550e-02 6.13967748e-03
      8.44205637e-03 7.67459674e-03 8.44205637e-03 6.90713711e-03
      1.30468151e-02 5.37221786e-03 6.90713711e-03 1.53491935e-02
      9.20951646e-03 9.97697562e-03 9.97697562e-03 6.90713711e-03
      3.83729837e-03 1.15118949e-02 5.37221786e-03 7.67459674e-03
      1.22793550e-02 9.97697562e-03 1.45817343e-02 4.60475823e-03
      9.97697562e-03 9.20951646e-03 8.44205637e-03 4.60475823e-03
      1.68841127e-02 1.07444357e-02 1.99539512e-02 6.13967748e-03
      1.22793550e-02 9.20951646e-03 1.38142742e-02 1.22793550e-02
      7.67459674e-03 1.22793550e-02 7.67459674e-03 1.22793550e-02
      1.15118949e-02 8.44205637e-03 5.37221786e-03 1.30468151e-02</_>
    <_>
      3.91772762e-03 1.37120467e-02 1.37120467e-02 2.93829571e-03
      6.85602333e-03 8.81488714e-03 4.89715952e-03 5.87659143e-03
      9.79431905e-04 1.07737510e-02 2.05680691e-02 1.37120467e-02
      5.87659143e-03 1.37120467e-02 1.37120467e-02 4.89715952e-03
      4.89715952e-03 2.93829571e-03 1.37120467e-02 1.56709105e-02
      1.76297743e-02 4.89715952e-03 2.54652295e-02 9.79431905e-03
      1.17531829e-02 9.79431905e-04 7.83545524e-03 5.87659143e-03
      1.56709105e-02 1.86092071e-02 1.95886381e-03 6.85602333e-03
      4.89715952e-03 1.95886381e-03 6.85602333e-03 2.54652295e-02
      1.07737510e-02 1.46914786e-02 1.66503415e-02 1.95886381e-03
      1.56709105e-02 8.81488714e-03 9.79431905e-03 1.86092071e-02
      6.85602333e-03 1.07737510e-02 1.07737510e-02 8.81488714e-03
      1.27326148e-02 8.81488714e-03 1.07737510e-02 7.83545524e-03
      8.81488714e-03 1.17531829e-02 1.27326148e-02 9.79431905e-03
      7.83545524e-03 6.85602333e-03 9.79431905e-03 1.17531829e-02
      4.89715952e-03 6.85602333e-03 1.07737510e-02 3.62389795e-02
      1.37120467e-02 3.91772762e-03 3.91772762e-03 7.83545524e-03
      2.15475019e-02 1.37120467e-02 1.95886381e-02 5.87659143e-03
      3.91772762e-03 7.83545524e-03 5.87659143e-03 6.85602333e-03
      9.79431905e-03 9.79431905e-03 1.46914786e-02 7.83545524e-03
      8.81488714e-03 1.95886381e-02 5.87659143e-03 8.81488714e-03
      8.81488714e-03 6.85602333e-03 1.46914786e-02 7.83545524e-03
      5.87659143e-03 1.17531829e-02 2.93829571e-03 6.85602333e-03
      1.95886381e-03 8.81488714e-03 2.93829571e-03 1.17531829e-02
      9.79431905e-04 6.85602333e-03 9.79431905e-03 3.03623900e-02</_>
    <_>
      6.98080286e-03 6.98080286e-03 7.85340369e-03 4.36300179e-03
      9.59860347e-03 1.04712043e-02 2.61780107e-03 2.00698078e-02
      3.49040143e-03 1.74520072e-03 9.59860347e-03 9.59860347e-03
      5.23560215e-03 8.72600358e-03 1.22164050e-02 1.39616057e-02
      5.23560215e-03 1.13438051e-02 9.59860347e-03 1.04712043e-02
      1.13438051e-02 1.74520072e-03 7.85340369e-03 1.13438051e-02
      2.18150094e-02 1.83246080e-02 9.59860347e-03 4.36300179e-03
      7.85340369e-03 1.74520072e-02 8.72600358e-03 9.59860347e-03
      3.40314135e-02 3.49040143e-03 9.59860347e-03 1.13438051e-02
      1.65794063e-02 7.85340369e-03 9.59860347e-03 6.98080286e-03
      1.65794063e-02 1.30890049e-02 5.23560215e-03 2.35602092e-02
      6.10820251e-03 7.85340369e-03 8.72600358e-03 7.85340369e-03
      9.59860347e-03 8.72600358e-03 1.65794063e-02 8.72600358e-03
      1.13438051e-02 7.85340369e-03 1.13438051e-02 6.10820251e-03
      7.85340369e-03 9.59860347e-03 5.23560215e-03 8.72600358e-03
      1.13438051e-02 1.22164050e-02 4.36300179e-03 1.74520072e-02
      6.10820251e-03 8.72600358e-04 6.98080286e-03 8.72600358e-03
      1.30890049e-02 5.23560215e-03 1.13438051e-02 2.18150094e-02
      6.10820251e-03 9.59860347e-03 7.85340369e-03 2.00698078e-02
      6.10820251e-03 1.30890049e-02 6.98080286e-03 3.05410121e-02
      7.85340369e-03 1.04712043e-02 1.04712043e-02 6.10820251e-03
      1.83246080e-02 5.23560215e-03 9.59860347e-03 6.10820251e-03
      8.72600358e-03 8.72600358e-03 5.23560215e-03 1.48342066e-02
      4.36300179e-03 8.72600358e-03 3.49040143e-03 3.49040143e-03
      6.10820251e-03 5.23560215e-03 7.85340369e-03 2.87958123e-02</_>
    <_>
      1.23192286e-02 1.01767536e-02 1.17836101e-02 1.07123721e-02
      3.74933053e-03 2.08891258e-02 1.60685591e-02 1.07123721e-02
      7.49866106e-03 9.10551660e-03 2.67809303e-03 1.07123721e-02
      6.42742356e-03 1.01767536e-02 1.01767536e-02 1.49973221e-02
      7.49866106e-03 5.35618607e-03 1.01767536e-02 4.82056756e-03
      3.74933053e-03 8.03427957e-03 1.49973221e-02 1.44617027e-02
      8.03427957e-03 8.56989808e-03 1.01767536e-02 1.17836101e-02
      6.96304208e-03 1.17836101e-02 5.89180505e-03 2.14247443e-02
      1.01767536e-02 6.96304208e-03 6.42742356e-03 1.49973221e-02
      7.49866106e-03 1.01767536e-02 8.56989808e-03 6.96304208e-03
      9.10551660e-03 9.10551660e-03 8.56989808e-03 3.05302627e-02
      8.56989808e-03 1.87466517e-02 5.89180505e-03 6.96304208e-03
      1.28548471e-02 1.23192286e-02 1.44617027e-02 8.56989808e-03
      9.10551660e-03 9.64113511e-03 9.64113511e-03 6.42742356e-03
      2.14247452e-03 1.87466517e-02 1.23192286e-02 6.42742356e-03
      6.96304208e-03 1.01767536e-02 7.49866106e-03 5.89180505e-03
      8.56989808e-03 2.67809303e-03 1.01767536e-02 6.42742356e-03
      1.17836101e-02 9.10551660e-03 1.76754147e-02 1.71397962e-02
      1.17836101e-02 7.49866106e-03 5.35618607e-03 1.12479916e-02
      1.12479916e-02 2.78521683e-02 1.07123721e-02 1.17836101e-02
      4.82056756e-03 1.12479916e-02 7.49866106e-03 3.21371178e-03
      8.03427957e-03 9.64113511e-03 1.60685591e-02 3.21371178e-03
      9.64113511e-03 1.17836101e-02 1.71397962e-02 7.49866106e-03
      1.23192286e-02 7.49866106e-03 5.89180505e-03 9.64113511e-03
      7.49866106e-03 9.64113511e-03 6.96304208e-03 5.35618607e-03</_>
    <_>
      5.13808616e-03 7.70712923e-03 9.63391177e-03 1.28452154e-02
      7.06486870e-03 5.78034669e-03 1.02761723e-02 6.42260769e-03
      3.85356462e-03 7.70712923e-03 1.09184328e-02 5.78034669e-03
      9.63391177e-03 7.06486870e-03 1.54142585e-02 6.42260769e-03
      4.49582562e-03 1.09184328e-02 9.63391177e-03 1.15606934e-02
      2.24791262e-02 4.49582562e-03 1.28452154e-02 1.09184328e-02
      1.79833025e-02 2.31213868e-02 3.85356462e-03 1.02761723e-02
      1.28452154e-02 9.63391177e-03 9.63391177e-03 7.70712923e-03
      8.34938977e-03 5.78034669e-03 1.99100841e-02 8.99165124e-03
      9.63391177e-03 5.13808616e-03 9.63391177e-03 3.85356462e-03
      1.22029549e-02 1.02761723e-02 1.22029549e-02 1.99100841e-02
      8.34938977e-03 7.70712923e-03 9.63391177e-03 8.34938977e-03
      8.34938977e-03 9.63391177e-03 1.02761723e-02 7.70712923e-03
      9.63391177e-03 6.42260769e-03 7.06486870e-03 1.54142585e-02
      7.06486870e-03 8.34938977e-03 1.02761723e-02 8.34938977e-03
      8.34938977e-03 8.99165124e-03 1.09184328e-02 2.24791262e-02
      5.78034669e-03 5.13808616e-03 1.92678231e-03 1.09184328e-02
      5.78034669e-03 9.63391177e-03 7.70712923e-03 1.34874759e-02
      9.63391177e-03 1.15606934e-02 1.28452154e-02 9.63391177e-03
      5.78034669e-03 1.60565190e-02 1.15606934e-02 2.82594748e-02
      3.21130385e-03 1.73410401e-02 8.99165124e-03 7.06486870e-03
      1.15606934e-02 7.06486870e-03 1.02761723e-02 7.70712923e-03
      6.42260769e-03 1.34874759e-02 1.92678231e-03 1.22029549e-02
      4.49582562e-03 1.15606934e-02 1.28452154e-02 1.28452154e-02
      5.78034669e-03 9.63391177e-03 7.06486870e-03 2.95439959e-02</_>
    <_>
      4.33369447e-03 3.25027085e-03 9.75081231e-03 3.25027085e-03
      1.08342357e-02 1.30010834e-02 1.40845068e-02 1.19176600e-02 0.
      6.50054170e-03 1.19176600e-02 8.66738893e-03 9.75081231e-03
      1.08342357e-02 1.30010834e-02 1.40845068e-02 4.33369447e-03
      1.95016246e-02 7.58396555e-03 1.84182022e-02 5.41711785e-03
      3.25027085e-03 3.14192846e-02 2.16684723e-03 2.05850489e-02
      5.41711785e-03 3.25027085e-03 7.58396555e-03 1.95016246e-02
      8.66738893e-03 8.66738893e-03 1.08342362e-03 6.50054170e-03
      4.33369447e-03 3.57529782e-02 6.50054170e-03 1.08342357e-02
      2.05850489e-02 9.75081231e-03 8.66738893e-03 2.16684723e-03
      1.40845068e-02 4.33369447e-03 2.92524379e-02 3.25027085e-03
      4.33369447e-03 1.08342357e-02 4.33369447e-03 1.40845068e-02
      5.41711785e-03 7.58396555e-03 7.58396555e-03 7.58396555e-03
      9.75081231e-03 1.08342357e-02 1.19176600e-02 3.25027085e-03
      5.41711785e-03 3.25027085e-03 1.40845068e-02 2.16684723e-03
      1.19176600e-02 2.38353200e-02 1.40845068e-02 8.66738893e-03
      5.41711785e-03 1.30010834e-02 4.33369447e-03 1.19176600e-02
      1.19176600e-02 1.08342357e-02 3.14192846e-02 1.19176600e-02
      8.66738893e-03 9.75081231e-03 7.58396555e-03 1.19176600e-02
      2.81690136e-02 7.58396555e-03 1.40845068e-02 2.16684723e-03
      2.38353200e-02 9.75081231e-03 1.19176600e-02 4.33369447e-03
      2.16684723e-03 8.66738893e-03 1.08342357e-02 8.66738893e-03
      5.41711785e-03 3.25027085e-03 1.84182022e-02 5.41711785e-03
      6.50054170e-03 1.19176600e-02 3.25027085e-03 2.16684723e-03 0.
      4.33369447e-03 1.95016246e-02</_>
    <_>
      3.13479616e-03 1.48902815e-02 1.01880878e-02 3.13479616e-03
      1.25391847e-02 1.25391847e-02 5.48589323e-03 1.25391847e-02
      4.70219413e-03 5.48589323e-03 1.33228833e-02 5.48589323e-03
      9.40438826e-03 1.17554860e-02 1.72413792e-02 9.40438826e-03
      6.26959233e-03 1.25391847e-02 1.33228833e-02 1.09717865e-02
      1.48902815e-02 1.01880878e-02 1.88087765e-02 7.05329143e-03
      1.48902815e-02 9.40438826e-03 9.40438826e-03 1.17554860e-02
      1.25391847e-02 1.01880878e-02 6.26959233e-03 5.48589323e-03
      1.48902815e-02 3.91849503e-03 1.48902815e-02 9.40438826e-03
      1.41065829e-02 7.05329143e-03 1.41065829e-02 6.26959233e-03
      8.62068962e-03 1.17554860e-02 8.62068962e-03 1.33228833e-02
      5.48589323e-03 1.09717865e-02 1.64576806e-02 7.05329143e-03
      7.83699006e-03 6.26959233e-03 8.62068962e-03 7.05329143e-03
      7.05329143e-03 1.48902815e-02 1.64576806e-02 1.72413792e-02
      4.70219413e-03 8.62068962e-03 5.48589323e-03 9.40438826e-03
      1.64576806e-02 9.40438826e-03 1.01880878e-02 1.95924751e-02
      7.83699006e-03 3.13479616e-03 1.17554860e-02 6.26959233e-03
      7.05329143e-03 1.25391847e-02 3.13479616e-03 1.88087765e-02 0.
      7.05329143e-03 1.09717865e-02 9.40438826e-03 5.48589323e-03
      7.05329143e-03 1.25391847e-02 2.19435729e-02 6.26959233e-03
      1.64576806e-02 7.05329143e-03 4.70219413e-03 1.25391847e-02
      1.01880878e-02 7.05329143e-03 5.48589323e-03 5.48589323e-03
      6.26959233e-03 7.83699006e-03 1.17554860e-02 6.26959233e-03
      1.56739801e-02 8.62068962e-03 4.70219413e-03 3.13479616e-03
      1.01880878e-02 5.48589323e-03 3.84012535e-02</_>
    <_>
      9.28792544e-03 4.64396272e-03 7.73993786e-03 4.64396272e-03
      2.08978318e-02 7.73993786e-03 1.08359130e-02 1.78018566e-02
      5.41795650e-03 4.64396272e-03 9.28792544e-03 7.73993786e-03
      4.64396272e-03 1.70278624e-02 8.51393119e-03 1.47058815e-02
      3.09597515e-03 1.39318882e-02 1.23839006e-02 1.70278624e-02
      2.08978318e-02 3.09597515e-03 1.47058815e-02 2.32198136e-03
      2.39938069e-02 2.47678012e-02 4.64396272e-03 6.96594408e-03
      4.64396272e-03 1.54798757e-02 1.08359130e-02 4.64396272e-03
      3.40557247e-02 5.41795650e-03 1.39318882e-02 3.86996893e-03
      1.31578948e-02 8.51393119e-03 9.28792544e-03 1.54798757e-03
      3.09597515e-03 6.96594408e-03 6.19195029e-03 4.02476788e-02
      7.73993786e-03 1.54798757e-02 8.51393119e-03 6.96594408e-03
      1.00619197e-02 1.08359130e-02 1.16099063e-02 6.96594408e-03
      3.86996893e-03 9.28792544e-03 8.51393119e-03 4.64396272e-03
      1.00619197e-02 6.96594408e-03 1.08359130e-02 6.96594408e-03
      1.23839006e-02 9.28792544e-03 1.00619197e-02 1.47058815e-02
      7.73993786e-03 2.32198136e-03 3.09597515e-03 7.73993786e-03
      1.23839006e-02 3.09597515e-03 1.00619197e-02 1.39318882e-02
      8.51393119e-03 8.51393119e-03 3.09597515e-03 1.47058815e-02
      5.41795650e-03 1.85758509e-02 1.08359130e-02 1.54798757e-02
      3.09597515e-03 1.39318882e-02 1.16099063e-02 4.64396272e-03
      9.28792544e-03 4.64396272e-03 1.31578948e-02 6.96594408e-03
      6.19195029e-03 3.86996893e-03 4.64396272e-03 1.39318882e-02
      6.96594408e-03 1.16099063e-02 1.23839006e-02 9.28792544e-03
      3.86996893e-03 3.09597515e-03 1.47058815e-02 2.55417954e-02</_>
    <_>
      4.86618001e-03 8.51581525e-03 1.58150848e-02 8.51581525e-03
      9.73236002e-03 1.33819953e-02 2.43309001e-03 4.86618001e-03 0.
      2.43309001e-03 8.51581525e-03 1.58150848e-02 4.86618001e-03
      1.09489048e-02 1.21654496e-02 6.08272478e-03 6.08272478e-03
      1.33819953e-02 1.21654496e-02 8.51581525e-03 8.51581525e-03
      7.29927002e-03 2.31143553e-02 7.29927002e-03 2.55474448e-02
      2.43309001e-03 4.86618001e-03 3.64963501e-03 7.29927002e-03
      8.51581525e-03 1.58150848e-02 6.08272478e-03 9.73236002e-03
      2.43309001e-03 6.08272478e-03 9.73236002e-03 1.21654496e-02
      1.58150848e-02 1.33819953e-02 0. 8.51581525e-03 4.86618001e-03
      1.21654496e-02 4.01459858e-02 6.08272478e-03 4.86618001e-03
      1.09489048e-02 9.73236002e-03 1.33819953e-02 7.29927002e-03
      1.45985400e-02 6.08272478e-03 3.64963501e-03 7.29927002e-03
      8.51581525e-03 4.86618001e-03 3.64963501e-03 1.33819953e-02
      9.73236002e-03 1.33819953e-02 1.09489048e-02 8.51581525e-03
      1.33819953e-02 1.94647200e-02 9.73236002e-03 6.08272478e-03
      3.64963501e-03 8.51581525e-03 9.73236002e-03 4.86618001e-03
      1.70316305e-02 4.86618001e-03 1.58150848e-02 6.08272478e-03
      6.08272478e-03 1.09489048e-02 1.21654496e-02 5.47445267e-02
      1.21654496e-02 1.21654496e-02 2.43309001e-03 1.33819953e-02
      3.64963501e-03 1.21654496e-02 1.33819953e-02 4.86618001e-03
      6.08272478e-03 7.29927002e-03 3.64963501e-03 1.58150848e-02
      7.29927002e-03 2.06812657e-02 1.09489048e-02 1.45985400e-02
      1.21654496e-02 6.08272478e-03 1.21654500e-03 4.86618001e-03
      9.73236002e-03 2.06812657e-02</_>
    <_>
      3.22840991e-03 1.12994350e-02 1.04923323e-02 8.07102490e-03
      5.64971752e-03 7.26392213e-03 1.45278443e-02 7.26392213e-03
      8.87812767e-03 1.04923323e-02 1.29136397e-02 8.87812767e-03
      7.26392213e-03 8.87812767e-03 1.45278443e-02 1.12994350e-02
      8.87812767e-03 9.68522951e-03 1.12994350e-02 8.07102490e-03
      1.69491526e-02 3.22840991e-03 2.25988701e-02 5.64971752e-03
      1.37207424e-02 4.84261476e-03 8.87812767e-03 5.64971752e-03
      1.37207424e-02 1.53349470e-02 7.26392213e-03 8.87812767e-03
      1.77562553e-02 3.22840991e-03 9.68522951e-03 1.04923323e-02
      8.87812767e-03 9.68522951e-03 2.25988701e-02 4.84261476e-03
      5.64971752e-03 1.37207424e-02 8.07102490e-03 3.06698941e-02
      8.07102490e-03 1.93704590e-02 4.03551245e-03 1.37207424e-02
      1.21065369e-02 4.03551245e-03 4.03551245e-03 1.21065369e-02
      8.87812767e-03 1.53349470e-02 1.12994350e-02 9.68522951e-03
      4.03551245e-03 1.04923323e-02 7.26392213e-03 8.87812767e-03
      1.29136397e-02 4.03551245e-03 9.68522951e-03 1.45278443e-02
      6.45681983e-03 4.84261476e-03 4.03551245e-03 9.68522951e-03
      1.12994350e-02 1.37207424e-02 7.26392213e-03 7.26392213e-03
      1.37207424e-02 1.77562553e-02 1.21065369e-02 1.12994350e-02
      1.29136397e-02 1.04923323e-02 9.68522951e-03 1.21065369e-02
      6.45681983e-03 1.61420498e-02 8.87812767e-03 7.26392213e-03
      1.45278443e-02 1.21065369e-02 1.12994350e-02 7.26392213e-03
      6.45681983e-03 1.12994350e-02 8.07102490e-03 8.87812767e-03
      8.87812767e-03 8.87812767e-03 3.22840991e-03 4.03551245e-03
      5.64971752e-03 5.64971752e-03 5.64971752e-03 1.93704590e-02</_>
    <_>
      4.22386499e-03 8.44772998e-03 8.44772998e-03 6.33579772e-03
      1.05596625e-03 1.26715954e-02 5.27983112e-03 1.37275616e-02
      4.22386499e-03 1.05596622e-02 1.37275616e-02 9.50369611e-03
      7.39176385e-03 1.37275616e-02 1.37275616e-02 3.16789886e-03
      7.39176385e-03 1.58394929e-02 1.37275616e-02 1.16156284e-02
      1.37275616e-02 1.16156284e-02 1.58394929e-02 9.50369611e-03
      1.68954600e-02 0. 1.58394929e-02 6.33579772e-03 1.79514270e-02
      1.05596622e-02 1.16156284e-02 1.05596622e-02 4.22386499e-03
      5.27983112e-03 3.16789886e-03 1.05596622e-02 9.50369611e-03
      1.26715954e-02 1.58394929e-02 5.27983112e-03 9.50369611e-03
      1.37275616e-02 1.47835277e-02 1.79514270e-02 7.39176385e-03
      9.50369611e-03 6.33579772e-03 6.33579772e-03 9.50369611e-03
      4.22386499e-03 9.50369611e-03 6.33579772e-03 6.33579772e-03
      1.79514270e-02 2.11193245e-02 1.47835277e-02 5.27983112e-03
      1.37275616e-02 2.11193250e-03 6.33579772e-03 1.16156284e-02
      6.33579772e-03 1.68954600e-02 1.58394929e-02 6.33579772e-03
      4.22386499e-03 1.37275616e-02 5.27983112e-03 1.16156284e-02
      1.05596622e-02 1.47835277e-02 9.50369611e-03 8.44772998e-03
      8.44772998e-03 1.16156284e-02 1.47835277e-02 9.50369611e-03
      2.63991561e-02 1.05596622e-02 1.16156284e-02 3.16789886e-03
      8.44772998e-03 1.16156284e-02 6.33579772e-03 1.26715954e-02
      1.16156284e-02 7.39176385e-03 9.50369611e-03 5.27983112e-03
      5.27983112e-03 7.39176385e-03 1.16156284e-02 7.39176385e-03
      5.27983112e-03 6.33579772e-03 1.37275616e-02 3.16789886e-03
      1.68954600e-02 9.50369611e-03 1.47835277e-02</_>
    <_>
      9.91131924e-03 1.25195608e-02 1.93009898e-02 2.60824198e-03
      4.69483528e-03 1.66927483e-02 2.60824198e-03 1.35628581e-02
      1.09546157e-02 6.78142905e-03 2.60824198e-03 1.30412094e-02
      9.91131924e-03 7.82472547e-03 3.65153863e-03 7.30307726e-03
      1.04329679e-02 9.91131924e-03 1.14762643e-02 7.82472547e-03
      9.91131924e-03 1.35628581e-02 7.30307726e-03 2.03442872e-02
      8.86802282e-03 1.30412094e-02 1.40845068e-02 1.46061545e-02
      5.73813217e-03 1.30412094e-02 7.82472547e-03 1.09546157e-02
      8.86802282e-03 1.14762643e-02 8.34637415e-03 2.50391215e-02
      1.09546157e-02 2.60824198e-03 1.93009898e-02 6.78142905e-03
      1.40845068e-02 1.09546157e-02 4.17318707e-03 5.73813217e-03
      9.91131924e-03 1.72143970e-02 6.78142905e-03 5.21648396e-03
      1.93009898e-02 1.35628581e-02 1.19979130e-02 4.69483528e-03
      1.25195608e-02 4.17318707e-03 6.25978038e-03 5.73813217e-03
      1.46061545e-02 1.35628581e-02 1.09546157e-02 3.65153863e-03
      1.51278032e-02 1.30412094e-02 4.69483528e-03 2.60824198e-03
      9.91131924e-03 8.86802282e-03 1.35628581e-02 1.14762643e-02
      1.04329679e-02 7.30307726e-03 5.21648396e-03 1.25195608e-02
      5.21648396e-03 8.34637415e-03 1.56494509e-03 4.69483528e-03
      7.82472547e-03 9.38967057e-03 8.86802282e-03 1.51278032e-02
      9.91131924e-03 6.25978038e-03 1.40845068e-02 4.17318707e-03
      1.14762643e-02 1.56494509e-02 1.09546157e-02 4.69483528e-03
      1.04329679e-02 7.30307726e-03 9.38967057e-03 1.04329679e-02
      1.51278032e-02 8.34637415e-03 1.40845068e-02 9.91131924e-03
      8.34637415e-03 1.66927483e-02 6.78142905e-03 1.87793411e-02</_>
    <_>
      6.10376429e-03 7.12105818e-03 1.52594103e-02 1.22075286e-02
      3.05188214e-03 1.01729399e-02 9.15564597e-03 3.05188214e-03
      5.08646993e-03 3.05188214e-03 1.32248225e-02 1.22075286e-02
      3.05188214e-03 5.08646993e-03 1.32248225e-02 2.54323501e-02
      7.12105818e-03 9.15564597e-03 1.83112919e-02 1.01729401e-03
      1.93285868e-02 5.08646993e-03 1.72939990e-02 2.03458802e-03
      2.64496449e-02 0. 5.08646993e-03 1.32248225e-02 1.11902338e-02
      2.33977623e-02 1.72939990e-02 1.01729401e-03 0. 2.03458802e-03
      3.05188214e-03 1.62767041e-02 1.72939990e-02 3.05188214e-03
      2.23804675e-02 0. 7.12105818e-03 1.42421164e-02 1.62767041e-02
      2.95015257e-02 1.52594103e-02 2.03458802e-03 1.01729399e-02
      1.22075286e-02 8.13835207e-03 1.01729399e-02 1.01729399e-02
      1.93285868e-02 6.10376429e-03 4.06917604e-03 1.52594103e-02
      3.05188214e-03 6.10376429e-03 6.10376429e-03 1.11902338e-02
      1.52594103e-02 1.22075286e-02 8.13835207e-03 1.11902338e-02
      2.74669379e-02 1.32248225e-02 1.01729401e-03 3.05188214e-03
      7.12105818e-03 1.11902338e-02 5.08646993e-03 5.08646993e-03 0.
      8.13835207e-03 1.11902338e-02 9.15564597e-03 2.23804675e-02
      4.06917604e-03 2.54323501e-02 1.52594103e-02 3.05188214e-03
      3.05188214e-03 1.32248225e-02 6.10376429e-03 4.06917604e-03
      2.03458797e-02 1.01729399e-02 1.22075286e-02 2.03458802e-03
      8.13835207e-03 8.13835207e-03 5.08646993e-03 3.05188214e-03
      7.12105818e-03 7.12105818e-03 1.01729401e-03 1.11902338e-02
      1.01729401e-03 7.12105818e-03 1.32248225e-02 4.37436439e-02</_>
    <_>
      6.31578919e-03 5.26315765e-03 2.10526306e-02 1.47368414e-02
      1.15789473e-02 8.42105225e-03 1.05263153e-03 1.57894734e-02
      4.21052612e-03 2.10526306e-03 6.31578919e-03 1.68421045e-02
      8.42105225e-03 9.47368331e-03 9.47368331e-03 1.99999996e-02
      6.31578919e-03 8.42105225e-03 1.15789473e-02 1.05263153e-02
      6.31578919e-03 6.31578919e-03 2.73684189e-02 4.21052612e-03
      2.42105257e-02 7.36842072e-03 7.36842072e-03 4.21052612e-03
      9.47368331e-03 1.05263153e-02 3.15789459e-03 6.31578919e-03
      2.21052617e-02 5.26315765e-03 9.47368331e-03 2.10526306e-03
      1.36842094e-02 9.47368331e-03 1.57894734e-02 1.05263153e-03
      6.31578919e-03 8.42105225e-03 9.47368331e-03 1.78947356e-02
      1.26315784e-02 1.15789473e-02 4.21052612e-03 9.47368331e-03
      1.89473666e-02 1.26315784e-02 1.36842094e-02 7.36842072e-03
      8.42105225e-03 8.42105225e-03 9.47368331e-03 7.36842072e-03
      8.42105225e-03 6.31578919e-03 1.05263153e-02 6.31578919e-03
      7.36842072e-03 9.47368331e-03 6.31578919e-03 5.26315765e-03
      1.15789473e-02 3.15789459e-03 9.47368331e-03 4.21052612e-03
      1.15789473e-02 1.05263153e-02 1.26315784e-02 6.31578919e-03
      1.36842094e-02 9.47368331e-03 1.15789473e-02 3.15789459e-03
      5.26315765e-03 9.47368331e-03 1.57894734e-02 2.52631567e-02
      4.21052612e-03 1.05263153e-02 2.21052617e-02 5.26315765e-03
      1.36842094e-02 1.36842094e-02 2.21052617e-02 8.42105225e-03
      1.36842094e-02 1.57894734e-02 3.15789459e-03 1.57894734e-02
      4.21052612e-03 1.15789473e-02 8.42105225e-03 5.26315765e-03
      1.05263153e-03 4.21052612e-03 1.89473666e-02 1.47368414e-02</_>
    <_>
      3.10077518e-03 6.97674416e-03 1.39534883e-02 1.55038759e-03
      3.87596898e-03 7.75193796e-03 4.65116277e-03 2.32558139e-03
      6.20155036e-03 1.24031007e-02 1.31782945e-02 9.30232555e-03
      1.62790697e-02 1.16279069e-02 1.47286821e-02 8.52713175e-03
      5.42635657e-03 1.08527131e-02 7.75193796e-03 1.39534883e-02
      1.47286821e-02 1.31782945e-02 1.31782945e-02 1.93798449e-02
      1.00775193e-02 7.75193796e-04 6.20155036e-03 1.31782945e-02
      1.86046511e-02 1.31782945e-02 6.20155036e-03 5.42635657e-03
      4.65116277e-03 5.42635657e-03 7.75193796e-03 1.55038759e-02
      1.00775193e-02 1.31782945e-02 1.39534883e-02 3.10077518e-03
      1.47286821e-02 9.30232555e-03 1.16279069e-02 1.39534883e-02
      1.08527131e-02 1.08527131e-02 5.42635657e-03 6.97674416e-03
      9.30232555e-03 8.52713175e-03 6.20155036e-03 1.39534883e-02
      1.93798449e-02 1.86046511e-02 5.42635657e-03 2.17054263e-02
      6.97674416e-03 6.20155036e-03 1.08527131e-02 1.47286821e-02
      1.47286821e-02 8.52713175e-03 1.24031007e-02 2.79069766e-02
      1.16279069e-02 3.10077518e-03 3.10077518e-03 7.75193796e-03
      9.30232555e-03 1.55038759e-02 1.39534883e-02 9.30232555e-03
      6.20155036e-03 9.30232555e-03 1.93798449e-02 7.75193796e-03
      1.08527131e-02 6.97674416e-03 1.00775193e-02 1.08527131e-02
      8.52713175e-03 1.39534883e-02 4.65116277e-03 5.42635657e-03
      8.52713175e-03 6.97674416e-03 7.75193796e-03 7.75193796e-03
      6.97674416e-03 9.30232555e-03 6.97674416e-03 5.42635657e-03
      3.87596898e-03 1.16279069e-02 3.87596898e-03 1.08527131e-02
      1.55038759e-03 1.24031007e-02 6.97674416e-03 3.02325580e-02</_>
    <_>
      1.23809520e-02 6.19047601e-03 1.38095235e-02 1.42857144e-02
      1.19047621e-02 7.14285718e-03 5.71428565e-03 7.61904754e-03
      4.28571412e-03 8.09523836e-03 4.28571412e-03 7.14285718e-03
      1.47619043e-02 1.04761906e-02 1.14285713e-02 8.57142825e-03
      8.57142825e-03 1.28571428e-02 1.71428565e-02 4.28571412e-03
      9.04761907e-03 1.66666657e-02 1.28571428e-02 6.66666683e-03
      2.14285720e-02 4.28571412e-03 9.52380896e-03 1.14285713e-02
      1.04761906e-02 1.14285713e-02 5.23809530e-03 1.23809520e-02
      2.38095224e-03 9.04761907e-03 9.04761907e-03 9.99999978e-03
      4.28571412e-03 9.52380896e-03 8.09523836e-03 9.52380896e-03
      5.23809530e-03 6.66666683e-03 8.09523836e-03 1.14285713e-02
      6.66666683e-03 1.71428565e-02 7.14285718e-03 8.57142825e-03
      1.52380951e-02 1.42857144e-02 9.99999978e-03 1.38095235e-02
      1.47619043e-02 2.04761904e-02 1.09523805e-02 5.71428565e-03
      7.61904754e-03 1.04761906e-02 1.04761906e-02 8.09523836e-03
      6.66666683e-03 1.19047621e-02 1.09523805e-02 8.57142825e-03
      8.57142825e-03 7.61904754e-03 1.57142859e-02 1.04761906e-02
      8.09523836e-03 8.09523836e-03 9.04761907e-03 4.28571412e-03
      8.09523836e-03 1.33333337e-02 1.09523805e-02 4.28571412e-03
      6.19047601e-03 9.52380896e-03 8.57142825e-03 8.09523836e-03
      9.52380896e-03 1.23809520e-02 4.76190448e-03 9.04761907e-03
      3.80952377e-03 9.52380896e-03 1.19047621e-02 9.52380896e-03
      2.09523812e-02 1.19047621e-02 1.14285713e-02 1.42857144e-02
      1.33333337e-02 8.57142825e-03 9.99999978e-03 1.33333337e-02
      5.23809530e-03 1.47619043e-02 1.33333337e-02 1.61904767e-02</_>
    <_>
      6.11888105e-03 9.61538404e-03 1.57342665e-02 9.61538404e-03
      3.49650346e-03 8.74125864e-03 6.11888105e-03 1.39860138e-02
      1.04895104e-02 9.61538404e-03 8.74125864e-03 1.13636367e-02
      1.39860138e-02 1.04895104e-02 1.31118875e-02 1.13636367e-02
      1.13636367e-02 1.13636367e-02 1.31118875e-02 8.74125864e-03
      3.49650346e-03 1.13636367e-02 2.01048944e-02 8.74125864e-03
      2.79720277e-02 1.13636367e-02 1.13636367e-02 1.04895104e-02
      1.13636367e-02 1.39860138e-02 3.49650346e-03 1.04895104e-02
      6.99300691e-03 6.99300691e-03 1.22377621e-02 2.09790207e-02
      7.86713324e-03 5.24475519e-03 1.66083910e-02 4.37062932e-03
      1.57342665e-02 1.57342665e-02 6.99300691e-03 2.62237759e-03
      8.74125864e-03 9.61538404e-03 1.22377621e-02 6.99300691e-03
      1.13636367e-02 4.37062932e-03 6.11888105e-03 1.22377621e-02
      1.57342665e-02 2.62237759e-03 6.99300691e-03 1.22377621e-02
      1.39860138e-02 1.48601402e-02 1.04895104e-02 9.61538404e-03
      8.74125864e-03 1.22377621e-02 5.24475519e-03 2.18531471e-02
      7.86713324e-03 7.86713324e-03 4.37062932e-03 6.99300691e-03
      5.24475519e-03 6.11888105e-03 6.99300691e-03 2.53496505e-02
      6.99300691e-03 1.22377621e-02 6.11888105e-03 6.11888105e-03
      6.99300691e-03 8.74125864e-03 1.39860138e-02 1.22377621e-02
      9.61538404e-03 1.74825173e-02 6.11888105e-03 3.49650346e-03
      5.24475519e-03 1.22377621e-02 1.48601402e-02 5.24475519e-03
      8.74125864e-03 8.74125864e-03 6.99300691e-03 4.37062932e-03
      5.24475519e-03 2.62237759e-03 1.22377621e-02 9.61538404e-03
      4.37062932e-03 6.99300691e-03 7.86713324e-03 2.36013979e-02</_>
    <_>
      4.12492640e-03 7.07130227e-03 9.42840334e-03 1.94460824e-02
      1.59104299e-02 1.11962287e-02 1.35533297e-02 7.07130227e-03
      5.30347694e-03 4.12492640e-03 1.76782571e-02 9.42840334e-03
      5.89275220e-03 4.71420167e-03 1.35533297e-02 1.29640549e-02
      4.12492640e-03 7.66057754e-03 8.83912854e-03 6.48202747e-03
      2.23924574e-02 5.30347694e-03 1.82675309e-02 5.30347694e-03
      9.42840334e-03 1.76782557e-03 7.66057754e-03 1.06069539e-02
      1.41426045e-02 8.83912854e-03 8.83912854e-03 4.12492640e-03
      1.11962287e-02 7.07130227e-03 7.66057754e-03 3.53565114e-03
      1.23747792e-02 6.48202747e-03 1.47318803e-02 6.48202747e-03
      5.30347694e-03 9.42840334e-03 1.53211551e-02 1.17855044e-02
      1.53211551e-02 8.83912854e-03 1.29640549e-02 1.70889813e-02
      8.24985281e-03 1.11962287e-02 1.00176781e-02 1.47318803e-02
      7.07130227e-03 1.11962287e-02 1.82675309e-02 1.76782571e-02
      2.94637610e-03 4.12492640e-03 6.48202747e-03 1.06069539e-02
      1.11962287e-02 5.89275220e-03 7.66057754e-03 1.17855044e-02
      1.11962287e-02 8.83912854e-03 5.89275220e-03 1.41426045e-02
      5.30347694e-03 1.17855044e-02 7.66057754e-03 6.48202747e-03
      1.76782571e-02 1.41426045e-02 1.53211551e-02 1.35533297e-02
      5.89275220e-03 1.23747792e-02 1.35533297e-02 8.24985281e-03
      7.66057754e-03 1.35533297e-02 1.06069539e-02 1.11962287e-02
      1.17855044e-02 1.29640549e-02 4.71420167e-03 1.06069539e-02
      5.89275220e-03 1.53211551e-02 4.71420167e-03 7.07130227e-03
      4.12492640e-03 1.41426045e-02 1.06069539e-02 1.06069539e-02
      7.66057754e-03 8.24985281e-03 1.00176781e-02 1.64997056e-02</_>
    <_>
      4.10677632e-03 2.05338816e-03 6.16016425e-03 3.90143767e-02
      4.10677632e-03 4.10677632e-03 2.25872695e-02 0. 2.25872695e-02
      4.10677632e-03 2.05338816e-03 2.05338816e-03 2.05338816e-03
      2.05338816e-03 4.10677632e-03 1.02669410e-02 0. 2.05338816e-03 0.
      2.05338821e-02 6.16016425e-03 2.05338816e-03 4.10677632e-03 0.
      8.21355265e-03 0. 8.21355265e-03 4.10677632e-03 6.16016425e-03
      4.10677632e-03 1.43737169e-02 0. 2.05338816e-03 1.43737169e-02
      6.98151961e-02 0. 0. 0. 0. 1.02669410e-02 4.10677632e-03
      2.05338816e-03 3.49075980e-02 3.28542106e-02 2.05338821e-02
      4.10677632e-03 0. 1.64271053e-02 0. 6.16016425e-03 2.05338816e-03
      1.02669410e-02 4.10677632e-03 2.05338816e-03 2.05338816e-03
      2.05338816e-03 4.10677632e-03 4.10677632e-03 2.05338816e-03
      2.87474338e-02 2.05338816e-03 6.16016425e-03 8.21355265e-03
      3.69609855e-02 1.64271053e-02 1.23203285e-02 0. 2.25872695e-02
      1.02669410e-02 4.10677632e-03 2.46406570e-02 1.84804928e-02
      8.21355265e-03 8.21355265e-03 2.05338816e-03 1.64271053e-02
      1.02669410e-02 4.10677642e-02 4.10677632e-03 1.02669410e-02
      4.10677632e-03 2.05338816e-03 2.05338816e-03 4.92813140e-02 0.
      1.02669410e-02 1.02669410e-02 5.95482551e-02 1.02669410e-02
      2.66940463e-02 0. 1.64271053e-02 0. 2.05338816e-03 6.16016425e-03
      8.21355265e-03 1.64271053e-02 4.10677632e-03 2.05338816e-03
      1.64271053e-02</_>
    <_>
      4.37445333e-03 9.62379761e-03 1.13735786e-02 5.24934381e-03
      4.37445333e-03 8.74890666e-03 4.37445333e-03 1.04986876e-02
      6.99912524e-03 1.31233595e-02 1.04986876e-02 9.62379761e-03
      7.87401572e-03 1.04986876e-02 6.12423476e-03 8.74890666e-03
      8.74890666e-03 6.12423476e-03 1.31233595e-02 1.48731414e-02
      1.13735786e-02 6.99912524e-03 1.92475952e-02 3.49956262e-03
      2.62467191e-02 1.74978131e-03 7.87401572e-03 4.37445333e-03
      1.57480314e-02 8.74890666e-03 1.13735786e-02 6.99912524e-03
      6.12423476e-03 4.37445333e-03 2.01224852e-02 7.87401572e-03
      1.13735786e-02 1.22484695e-02 1.48731414e-02 3.49956262e-03
      1.31233595e-02 1.48731414e-02 1.31233595e-02 1.66229233e-02
      9.62379761e-03 1.48731414e-02 6.99912524e-03 9.62379761e-03
      1.13735786e-02 6.99912524e-03 1.13735786e-02 9.62379761e-03
      1.48731414e-02 9.62379761e-03 6.99912524e-03 1.39982505e-02
      2.62467191e-03 5.24934381e-03 7.87401572e-03 8.74890666e-03
      6.99912524e-03 1.13735786e-02 1.48731414e-02 2.44969390e-02
      4.37445333e-03 6.12423476e-03 5.24934381e-03 8.74890666e-03
      6.99912524e-03 1.22484695e-02 4.37445333e-03 9.62379761e-03
      1.31233595e-02 8.74890666e-03 1.31233595e-02 6.99912524e-03
      1.39982505e-02 7.87401572e-03 8.74890666e-03 1.31233595e-02
      5.24934381e-03 1.83727033e-02 1.31233595e-02 6.12423476e-03
      1.31233595e-02 1.13735786e-02 1.04986876e-02 9.62379761e-03
      6.99912524e-03 1.31233595e-02 1.13735786e-02 9.62379761e-03
      4.37445333e-03 1.04986876e-02 7.87401572e-03 1.13735786e-02
      3.49956262e-03 6.12423476e-03 9.62379761e-03 2.88713910e-02</_>
    <_>
      4.17827303e-03 1.32311974e-02 2.29805019e-02 9.74930357e-03
      9.05292481e-03 9.74930357e-03 9.05292481e-03 6.26740931e-03
      1.39275764e-03 1.11420611e-02 3.48189403e-03 7.66016683e-03
      7.66016683e-03 1.60167124e-02 1.04456823e-02 1.39275761e-02
      6.26740931e-03 2.78551527e-03 1.60167124e-02 4.17827303e-03
      5.57103055e-03 4.87465179e-03 1.46239549e-02 1.67130921e-02
      6.96378807e-03 4.17827303e-03 1.04456823e-02 8.35654605e-03
      2.78551527e-03 2.01949850e-02 5.57103055e-03 6.96378807e-03
      1.53203337e-02 2.78551527e-03 1.18384399e-02 2.85515320e-02
      9.74930357e-03 1.32311974e-02 1.67130921e-02 4.17827303e-03
      6.96378807e-03 1.18384399e-02 6.96378807e-03 2.57660169e-02
      1.67130921e-02 1.94986071e-02 6.26740931e-03 9.05292481e-03
      1.18384399e-02 1.39275761e-02 1.53203337e-02 1.25348186e-02
      6.26740931e-03 3.48189403e-03 1.32311974e-02 4.87465179e-03
      3.48189403e-03 8.35654605e-03 8.35654605e-03 7.66016683e-03
      1.53203337e-02 1.04456823e-02 6.26740931e-03 1.11420611e-02
      1.11420611e-02 4.17827303e-03 3.48189403e-03 8.35654605e-03
      1.18384399e-02 1.18384399e-02 4.17827303e-03 9.05292481e-03
      9.05292481e-03 1.25348186e-02 4.87465179e-03 5.57103055e-03
      1.32311974e-02 2.29805019e-02 1.60167124e-02 2.78551527e-03
      1.11420611e-02 1.18384399e-02 5.57103055e-03 3.48189403e-03
      8.35654605e-03 1.39275761e-02 1.81058496e-02 4.17827303e-03
      9.74930357e-03 9.05292481e-03 1.25348186e-02 1.74094699e-02
      4.87465179e-03 1.32311974e-02 1.18384399e-02 9.74930357e-03
      2.08913651e-03 3.48189403e-03 7.66016683e-03 2.01949850e-02</_>
    <_>
      4.20609862e-03 7.88643491e-03 1.15667712e-02 5.25762327e-03
      8.41219723e-03 7.88643491e-03 5.25762327e-03 8.41219723e-03
      3.68033629e-03 1.26182958e-02 6.83491025e-03 9.98948421e-03
      7.36067258e-03 1.57728698e-02 1.10410089e-02 8.41219723e-03
      5.78338560e-03 1.36698205e-02 1.26182958e-02 2.10304931e-02
      4.73186094e-03 6.83491025e-03 1.89274438e-02 9.46372189e-03
      1.57728698e-02 4.20609862e-03 7.88643491e-03 9.98948421e-03
      1.47213452e-02 6.30914792e-03 7.88643491e-03 7.36067258e-03
      1.10410089e-02 5.78338560e-03 1.10410089e-02 7.36067258e-03
      9.46372189e-03 1.89274438e-02 7.36067258e-03 5.78338560e-03
      1.20925335e-02 8.41219723e-03 8.93795956e-03 1.78759191e-02
      1.05152465e-02 8.41219723e-03 1.20925335e-02 5.78338560e-03
      1.10410089e-02 4.20609862e-03 1.57728698e-02 4.73186094e-03
      9.46372189e-03 1.99789684e-02 9.46372189e-03 5.78338560e-03
      5.25762327e-03 1.26182958e-02 1.15667712e-02 8.93795956e-03
      8.93795956e-03 1.10410089e-02 1.62986331e-02 2.47108303e-02
      8.93795956e-03 4.73186094e-03 6.30914792e-03 5.78338560e-03
      1.15667712e-02 1.31440582e-02 9.46372189e-03 9.98948421e-03
      8.93795956e-03 7.36067258e-03 1.31440582e-02 1.31440582e-02
      1.10410089e-02 1.15667712e-02 1.20925335e-02 1.94532052e-02
      6.30914792e-03 1.20925335e-02 6.30914792e-03 8.41219723e-03
      1.05152465e-02 5.78338560e-03 1.68243945e-02 4.20609862e-03
      1.10410089e-02 3.68033629e-03 8.93795956e-03 1.31440582e-02
      4.73186094e-03 1.47213452e-02 3.68033629e-03 7.36067258e-03
      7.88643491e-03 7.88643491e-03 6.30914792e-03 3.10199782e-02</_>
    <_>
      6.45161280e-03 1.07526882e-02 1.07526882e-02 6.45161280e-03
      1.00358417e-02 1.57706086e-02 8.60214978e-03 2.22222209e-02
      3.58422939e-03 3.58422939e-03 1.00358417e-02 1.14695337e-02
      6.45161280e-03 9.31899622e-03 4.30107489e-03 1.07526882e-02
      2.86738342e-03 1.07526882e-02 1.00358417e-02 8.60214978e-03
      2.07885299e-02 2.86738342e-03 1.86379924e-02 6.45161280e-03
      1.86379924e-02 5.73476683e-03 9.31899622e-03 2.86738342e-03
      8.60214978e-03 1.00358417e-02 5.73476683e-03 5.73476683e-03
      4.01433669e-02 1.00358417e-02 2.36559138e-02 4.30107489e-03
      5.73476683e-03 7.16845877e-03 1.64874550e-02 5.01792086e-03
      1.14695337e-02 7.16845877e-03 5.01792086e-03 3.51254456e-02
      1.07526882e-02 1.07526882e-02 7.16845877e-03 5.73476683e-03
      1.14695337e-02 5.01792086e-03 1.07526882e-02 5.73476683e-03
      7.16845877e-03 6.45161280e-03 1.00358417e-02 7.16845877e-03
      1.21863792e-02 1.21863792e-02 5.01792086e-03 5.73476683e-03
      5.73476683e-03 1.00358417e-02 4.30107489e-03 2.29390673e-02
      7.16845877e-03 5.01792086e-03 4.30107489e-03 1.21863792e-02
      1.29032256e-02 6.45161280e-03 2.07885299e-02 2.15053763e-02
      5.73476683e-03 5.01792086e-03 4.30107489e-03 7.16845877e-03
      6.45161280e-03 2.22222209e-02 1.00358417e-02 4.37275954e-02
      4.30107489e-03 8.60214978e-03 1.00358417e-02 7.88530428e-03
      3.58422939e-03 5.01792086e-03 1.07526882e-02 4.30107489e-03
      8.60214978e-03 6.45161280e-03 7.16845877e-03 1.64874550e-02
      4.30107489e-03 6.45161280e-03 1.00358417e-02 9.31899622e-03 0.
      5.73476683e-03 1.43369175e-02 1.57706086e-02</_>
    <_>
      5.57103055e-03 1.39275761e-02 1.88022275e-02 2.50696372e-02
      6.26740931e-03 1.53203337e-02 2.08913647e-02 5.57103055e-03
      2.78551527e-03 5.57103055e-03 1.04456823e-02 1.88022275e-02
      6.26740931e-03 1.53203337e-02 1.11420611e-02 2.01949850e-02
      3.48189403e-03 4.87465179e-03 1.46239549e-02 1.39275764e-03
      1.46239549e-02 1.25348186e-02 8.35654605e-03 6.96378807e-03
      1.39275761e-02 2.78551527e-03 1.04456823e-02 7.66016683e-03
      2.78551527e-03 2.36768797e-02 1.60167124e-02 5.57103055e-03
      4.17827303e-03 4.17827303e-03 5.57103055e-03 1.94986071e-02
      1.25348186e-02 5.57103055e-03 2.15877425e-02 4.87465179e-03
      7.66016683e-03 1.32311974e-02 1.53203337e-02 9.74930357e-03
      2.01949850e-02 1.46239549e-02 5.57103055e-03 1.46239549e-02
      1.18384399e-02 7.66016683e-03 6.26740931e-03 2.64623947e-02
      6.96378807e-03 3.48189403e-03 1.46239549e-02 1.18384399e-02
      3.48189403e-03 1.11420611e-02 4.17827303e-03 6.96378807e-03
      9.74930357e-03 6.26740931e-03 1.04456823e-02 3.48189403e-03
      2.78551523e-02 3.48189403e-03 2.08913651e-03 1.04456823e-02
      1.53203337e-02 2.78551527e-03 5.57103055e-03 9.05292481e-03
      1.39275761e-02 2.08913647e-02 6.96378807e-03 1.32311974e-02
      3.48189403e-03 4.87465179e-03 1.74094699e-02 6.26740931e-03
      5.57103055e-03 5.57103055e-03 7.66016683e-03 5.57103055e-03
      1.81058496e-02 1.32311974e-02 1.60167124e-02 6.96378807e-03
      9.74930357e-03 9.05292481e-03 6.26740931e-03 6.26740931e-03
      4.87465179e-03 1.11420611e-02 6.96378818e-04 1.25348186e-02
      2.78551527e-03 4.17827303e-03 7.66016683e-03 6.96378807e-03</_>
    <_>
      2.15053763e-02 1.99123845e-02 1.47351651e-02 9.15969722e-03
      1.99123845e-03 7.56670628e-03 9.15969722e-03 8.36320221e-03
      2.66825967e-02 6.77021081e-03 2.38948618e-03 5.17722033e-03
      3.58422939e-03 8.36320221e-03 9.55794472e-03 3.98247689e-03
      6.37196330e-03 5.57546783e-03 1.07526882e-02 3.18598165e-03
      4.77897236e-03 9.55794472e-03 7.16845877e-03 3.02668251e-02
      3.58422939e-03 9.15969722e-03 6.37196330e-03 1.55316610e-02
      6.37196330e-03 8.36320221e-03 9.95619223e-03 2.82755867e-02
      3.18598165e-03 7.16845877e-03 1.71246510e-02 3.90282758e-02
      5.97371580e-03 6.77021081e-03 5.57546783e-03 1.19474316e-02
      1.19474316e-02 7.16845877e-03 5.97371580e-03 1.19474309e-03
      8.76144972e-03 2.98685785e-02 7.96495378e-03 3.58422939e-03
      5.17722033e-03 1.35404216e-02 5.57546783e-03 9.15969722e-03
      5.17722033e-03 6.37196330e-03 7.16845877e-03 5.97371580e-03
      1.59299083e-03 2.74790917e-02 2.07088813e-02 5.17722033e-03
      8.36320221e-03 2.07088813e-02 6.77021081e-03 7.56670628e-03
      6.37196330e-03 9.55794472e-03 8.76144972e-03 8.76144972e-03
      5.17722033e-03 9.55794472e-03 3.98247689e-03 3.70370373e-02
      3.58422939e-03 9.55794472e-03 3.58422939e-03 1.07526882e-02
      4.77897236e-03 5.97371580e-03 9.55794472e-03 9.55794472e-03
      6.77021081e-03 7.16845877e-03 3.58422939e-03 7.16845877e-03
      7.16845877e-03 5.57546783e-03 6.77021081e-03 6.37196330e-03
      8.36320221e-03 7.16845877e-03 2.90720817e-02 3.98247689e-03
      2.46913582e-02 6.37196330e-03 5.57546783e-03 1.39386700e-02
      2.82755867e-02 1.43369175e-02 2.78773392e-03 4.38072486e-03</_>
    <_>
      7.68049154e-03 9.21658985e-03 1.30568352e-02 8.44854116e-03
      1.07526882e-02 1.22887865e-02 9.98463854e-03 6.14439324e-03
      6.91244239e-03 6.91244239e-03 1.30568352e-02 9.21658985e-03
      3.84024577e-03 5.37634408e-03 1.68970823e-02 1.07526882e-02
      3.84024577e-03 1.22887865e-02 1.45929344e-02 1.76651310e-02
      1.61290318e-02 4.60829493e-03 1.76651310e-02 8.44854116e-03
      1.92012284e-02 4.60829493e-03 6.91244239e-03 9.21658985e-03
      1.15207378e-02 1.61290318e-02 9.21658985e-03 1.22887865e-02
      2.15053763e-02 6.91244239e-03 9.98463854e-03 9.21658985e-03
      8.44854116e-03 6.14439324e-03 1.38248848e-02 6.14439324e-03
      1.53609831e-02 5.37634408e-03 3.07219662e-03 9.98463854e-03
      9.21658985e-03 1.30568352e-02 6.91244239e-03 7.68049154e-03
      1.45929344e-02 6.14439324e-03 6.91244239e-03 9.21658985e-03
      6.14439324e-03 8.44854116e-03 9.98463854e-03 9.98463854e-03
      4.60829493e-03 1.22887865e-02 3.07219662e-03 8.44854116e-03
      1.15207378e-02 9.21658985e-03 7.68049154e-03 2.68817209e-02
      7.68049154e-03 6.14439324e-03 7.68049154e-03 9.21658985e-03
      1.30568352e-02 6.14439324e-03 1.30568352e-02 9.98463854e-03
      1.07526882e-02 1.68970823e-02 1.30568352e-02 1.30568352e-02
      5.37634408e-03 1.61290318e-02 1.30568352e-02 1.22887865e-02
      4.60829493e-03 1.15207378e-02 1.53609831e-02 6.14439324e-03
      9.98463854e-03 3.84024577e-03 1.30568352e-02 3.84024577e-03
      6.14439324e-03 8.44854116e-03 9.21658985e-03 6.14439324e-03
      6.91244239e-03 8.44854116e-03 6.91244239e-03 6.91244239e-03
      6.91244239e-03 8.44854116e-03 1.15207378e-02 2.91858688e-02</_>
    <_>
      9.79363453e-03 8.04477092e-03 9.09408927e-03 4.89681726e-03
      2.44840863e-03 7.69499829e-03 1.01434067e-02 8.39454401e-03
      2.27352232e-02 8.39454401e-03 5.94613515e-03 4.54704463e-03
      2.09863600e-03 7.34522566e-03 1.04931798e-02 7.69499829e-03
      5.59636252e-03 1.50402244e-02 5.24658989e-03 1.39909061e-02
      5.24658989e-03 4.54704463e-03 1.32913608e-02 1.18922703e-02
      3.84749915e-03 1.08429519e-02 9.44386143e-03 9.44386143e-03
      6.64568041e-03 3.84749915e-03 9.09408927e-03 2.27352232e-02
      2.09863600e-03 8.04477092e-03 4.61699925e-02 2.02868134e-02
      6.99545303e-03 1.08429519e-02 4.19727201e-03 1.15424981e-02
      7.34522566e-03 4.54704463e-03 9.44386143e-03 1.29415886e-02
      7.34522566e-03 2.72822678e-02 7.69499829e-03 5.24658989e-03
      1.39909061e-02 5.94613515e-03 7.69499829e-03 2.79818126e-03
      3.84749915e-03 8.74431618e-03 7.34522566e-03 4.54704463e-03
      4.89681726e-03 2.23854501e-02 1.08429519e-02 8.74431618e-03
      8.39454401e-03 1.01434067e-02 7.34522566e-03 1.81881785e-02
      6.64568041e-03 1.36411339e-02 1.25918156e-02 1.36411339e-02
      7.69499829e-03 9.44386143e-03 1.11927250e-02 3.95243093e-02
      6.99545303e-03 5.94613515e-03 8.04477092e-03 9.09408927e-03
      1.01434067e-02 2.55334042e-02 8.04477092e-03 1.01434067e-02
      8.39454401e-03 8.04477092e-03 3.84749915e-03 9.44386143e-03
      8.39454401e-03 7.34522566e-03 8.04477092e-03 9.44386143e-03
      5.94613515e-03 6.29590778e-03 2.44840868e-02 8.04477092e-03
      1.32913608e-02 6.29590778e-03 1.08429519e-02 9.09408927e-03
      1.67890880e-02 7.69499829e-03 3.49772652e-03 8.04477092e-03</_>
    <_>
      7.33496295e-03 8.14995915e-03 2.20048893e-02 6.51996722e-03
      1.54849226e-02 1.05949463e-02 8.14995915e-03 1.54849226e-02
      1.62999181e-03 4.88997530e-03 1.14099430e-02 1.95599012e-02
      5.70497150e-03 1.38549302e-02 3.25998361e-03 1.71149131e-02
      3.25998361e-03 8.96495488e-03 1.14099430e-02 7.33496295e-03
      1.71149131e-02 2.44498765e-03 1.05949463e-02 5.70497150e-03
      3.01548485e-02 4.07497957e-03 1.62999181e-03 4.88997530e-03
      4.88997530e-03 1.22249387e-02 7.33496295e-03 2.44498765e-03
      5.86797036e-02 2.44498765e-03 2.44498765e-03 3.09698451e-02
      1.14099430e-02 2.44498765e-03 1.05949463e-02 1.62999181e-03
      6.51996722e-03 8.14995915e-03 8.96495488e-03 5.21597378e-02
      1.38549302e-02 8.96495488e-03 1.62999181e-03 1.46699259e-02
      7.33496295e-03 1.05949463e-02 1.30399344e-02 8.14995915e-03
      4.88997530e-03 0. 9.77995060e-03 8.14995915e-03 3.25998361e-03
      5.70497150e-03 4.07497957e-03 1.30399344e-02 5.70497150e-03
      8.96495488e-03 4.88997530e-03 7.33496295e-03 2.60798689e-02
      8.14995903e-04 2.44498765e-03 1.14099430e-02 1.30399344e-02
      6.51996722e-03 1.46699259e-02 5.70497150e-03 7.33496295e-03
      8.96495488e-03 3.25998361e-03 1.22249387e-02 1.62999181e-03
      2.85248570e-02 1.30399344e-02 6.51996722e-03 4.07497957e-03
      7.33496295e-03 8.96495488e-03 2.44498765e-03 7.33496295e-03
      9.77995060e-03 1.87449064e-02 6.51996722e-03 6.51996722e-03
      1.05949463e-02 2.44498765e-03 1.14099430e-02 6.51996722e-03
      2.44498765e-03 8.96495488e-03 4.88997530e-03 1.62999181e-03
      5.70497150e-03 1.22249387e-02 4.31947820e-02</_>
    <_>
      9.60512273e-03 1.17395939e-02 2.02774815e-02 5.33617940e-03
      3.20170750e-03 7.47065060e-03 3.20170750e-03 1.38740661e-02
      3.20170750e-03 3.20170750e-03 7.47065060e-03 8.53788666e-03
      4.26894333e-03 1.49413012e-02 1.06723588e-02 1.06723588e-02
      1.17395939e-02 7.47065060e-03 2.02774815e-02 1.28068300e-02
      1.06723588e-02 1.38740661e-02 9.60512273e-03 1.06723588e-02
      1.70757733e-02 6.40341500e-03 7.47065060e-03 2.13447167e-03 0.
      1.38740661e-02 1.06723588e-02 4.26894333e-03 2.02774815e-02
      4.26894333e-03 1.06723588e-02 1.38740661e-02 1.49413012e-02
      8.53788666e-03 1.06723588e-02 9.60512273e-03 1.17395939e-02
      7.47065060e-03 9.60512273e-03 1.17395939e-02 1.06723588e-02
      1.28068300e-02 4.26894333e-03 9.60512273e-03 7.47065060e-03
      7.47065060e-03 1.06723588e-02 7.47065060e-03 1.06723583e-03
      8.53788666e-03 1.38740661e-02 1.06723588e-02 7.47065060e-03
      1.38740661e-02 5.33617940e-03 1.06723588e-02 9.60512273e-03
      7.47065060e-03 4.26894333e-03 2.66808961e-02 6.40341500e-03
      5.33617940e-03 6.40341500e-03 7.47065060e-03 1.49413012e-02
      1.06723588e-02 1.06723588e-02 9.60512273e-03 1.38740661e-02
      1.06723588e-02 7.47065060e-03 1.17395939e-02 9.60512273e-03
      3.09498385e-02 9.60512273e-03 1.70757733e-02 3.20170750e-03
      5.33617940e-03 9.60512273e-03 4.26894333e-03 1.28068300e-02
      8.53788666e-03 1.49413012e-02 1.06723588e-02 9.60512273e-03
      1.17395939e-02 3.20170750e-03 2.24119518e-02 7.47065060e-03
      1.28068300e-02 1.49413012e-02 5.33617940e-03 3.20170750e-03
      7.47065060e-03 7.47065060e-03 2.24119518e-02</_>
    <_>
      8.58652592e-03 8.25627521e-03 1.65125504e-02 6.93527097e-03
      7.26552214e-03 6.93527097e-03 6.93527097e-03 1.28797889e-02
      1.18890358e-02 7.92602450e-03 1.08982828e-02 1.02377813e-02
      9.24702827e-03 9.57727898e-03 8.25627521e-03 7.92602450e-03
      1.25495382e-02 5.28401602e-03 7.59577285e-03 4.95376484e-03
      1.48612950e-02 1.35402912e-02 1.15587851e-02 1.12285344e-02
      6.27476908e-03 6.93527097e-03 1.02377813e-02 1.15587851e-02
      8.25627521e-03 8.25627521e-03 6.60501979e-03 6.93527097e-03
      6.27476908e-03 6.93527097e-03 9.57727898e-03 1.55217974e-02
      7.92602450e-03 1.08982828e-02 1.58520490e-02 5.61426720e-03
      1.78335533e-02 9.57727898e-03 8.25627521e-03 1.25495382e-02
      9.90752969e-03 1.05680320e-02 6.27476908e-03 6.60501979e-03
      1.08982828e-02 8.58652592e-03 9.57727898e-03 1.08982828e-02
      9.90752969e-03 9.90752969e-03 9.90752969e-03 1.02377813e-02
      1.61822997e-02 1.48612950e-02 4.62351413e-03 6.93527097e-03
      1.15587851e-02 1.05680320e-02 7.59577285e-03 9.57727898e-03
      1.65125504e-02 8.25627521e-03 7.59577285e-03 1.15587851e-02
      1.08982828e-02 6.27476908e-03 9.57727898e-03 9.24702827e-03
      9.57727898e-03 9.57727898e-03 8.25627521e-03 1.05680320e-02
      1.12285344e-02 8.58652592e-03 1.25495382e-02 1.81638058e-02
      9.24702827e-03 1.22192875e-02 1.15587851e-02 1.18890358e-02
      8.58652592e-03 8.25627521e-03 8.91677663e-03 1.18890358e-02
      1.02377813e-02 4.62351413e-03 8.25627521e-03 1.58520490e-02
      7.59577285e-03 1.08982828e-02 1.55217974e-02 7.92602450e-03
      1.12285344e-02 1.05680320e-02 1.28797889e-02 1.45310443e-02</_>
    <_>
      6.68449234e-03 1.27005354e-02 9.35828872e-03 8.02139007e-03
      7.35294120e-03 1.27005354e-02 1.33689847e-02 5.34759369e-03
      1.00267380e-02 8.68983939e-03 8.02139007e-03 1.47058824e-02
      1.00267380e-02 7.35294120e-03 1.80481281e-02 1.47058824e-02
      7.35294120e-03 6.01604301e-03 9.35828872e-03 1.27005354e-02
      8.68983939e-03 1.27005354e-02 7.35294120e-03 7.35294120e-03
      9.35828872e-03 8.02139007e-03 9.35828872e-03 6.68449234e-03
      9.35828872e-03 8.02139007e-03 1.00267380e-02 1.27005354e-02
      4.01069503e-03 6.68449234e-03 1.47058824e-02 1.33689847e-02
      8.02139007e-03 1.00267380e-02 1.00267380e-02 6.68449234e-03
      6.01604301e-03 5.34759369e-03 1.27005354e-02 8.02139007e-03
      1.20320860e-02 1.40374331e-02 1.13636367e-02 1.06951874e-02
      1.20320860e-02 6.68449234e-03 6.68449234e-03 1.13636367e-02
      1.00267380e-02 1.06951874e-02 1.60427801e-02 1.27005354e-02
      3.34224617e-03 1.20320860e-02 8.68983939e-03 1.27005354e-02
      1.47058824e-02 1.13636367e-02 1.00267380e-02 1.40374331e-02
      8.02139007e-03 4.01069503e-03 1.27005354e-02 1.13636367e-02
      1.13636367e-02 9.35828872e-03 6.68449234e-03 2.27272734e-02
      1.93850268e-02 8.02139007e-03 8.02139007e-03 1.53743317e-02
      1.06951874e-02 4.01069503e-03 1.20320860e-02 7.35294120e-03
      1.00267380e-02 1.33689847e-02 6.01604301e-03 5.34759369e-03
      1.00267380e-02 1.06951874e-02 1.13636367e-02 9.35828872e-03
      6.01604301e-03 1.13636367e-02 1.40374331e-02 4.67914436e-03
      8.68983939e-03 1.33689847e-02 6.01604301e-03 1.00267380e-02
      6.68449234e-03 1.33689847e-02 6.68449234e-03 1.27005354e-02</_>
    <_>
      1.00959111e-02 7.06713833e-03 1.00959111e-02 9.59111564e-03
      3.53356916e-03 1.00959111e-02 9.08632018e-03 9.08632018e-03
      6.56234240e-03 1.11055030e-02 8.58152471e-03 9.08632018e-03
      1.06007075e-02 1.86774358e-02 9.08632018e-03 9.59111564e-03
      8.58152471e-03 9.08632018e-03 8.07672925e-03 1.41342767e-02
      9.59111564e-03 1.51438676e-02 9.59111564e-03 1.36294803e-02
      1.56486630e-02 1.16102984e-02 1.11055030e-02 1.41342767e-02
      5.55275148e-03 1.06007075e-02 4.03836463e-03 1.31246848e-02
      1.46390721e-02 7.57193379e-03 5.55275148e-03 9.08632018e-03
      1.71630494e-02 5.55275148e-03 7.06713833e-03 3.53356916e-03
      6.05754694e-03 1.46390721e-02 8.58152471e-03 7.57193379e-03
      1.26198893e-02 1.00959111e-02 3.02877347e-03 5.55275148e-03
      1.06007075e-02 5.04795555e-03 1.76678449e-02 9.59111564e-03
      1.41342767e-02 1.16102984e-02 1.76678449e-02 1.21150939e-02
      4.54316009e-03 9.08632018e-03 1.26198893e-02 6.56234240e-03
      1.06007075e-02 1.31246848e-02 5.04795555e-03 1.46390721e-02
      1.41342767e-02 5.55275148e-03 6.05754694e-03 8.58152471e-03
      1.00959111e-02 1.16102984e-02 2.01918231e-03 1.16102984e-02
      7.06713833e-03 9.59111564e-03 1.76678449e-02 1.00959111e-02
      8.58152471e-03 3.02877347e-03 1.31246848e-02 1.26198893e-02
      1.00959111e-02 8.58152471e-03 1.16102984e-02 8.07672925e-03
      1.56486630e-02 5.55275148e-03 1.26198893e-02 5.55275148e-03
      9.08632018e-03 5.55275148e-03 1.31246848e-02 5.04795555e-03
      6.56234240e-03 1.41342767e-02 6.56234240e-03 8.07672925e-03
      8.07672925e-03 1.41342767e-02 1.16102984e-02 3.02877352e-02</_>
    <_>
      7.84753449e-03 5.60538145e-03 5.60538145e-03 7.84753449e-03
      3.92376706e-02 1.00896861e-02 2.24215258e-03 1.45739913e-02
      6.72645774e-03 2.24215258e-03 1.90582965e-02 1.34529155e-02
      1.90582965e-02 5.60538145e-03 2.24215258e-03 1.34529155e-02
      5.60538145e-03 5.60538145e-03 4.48430516e-03 1.00896861e-02
      3.92376706e-02 1.34529155e-02 1.12107629e-02 4.48430516e-03
      1.34529155e-02 2.91479826e-02 2.24215258e-03 4.48430516e-03
      8.96861032e-03 0. 1.12107629e-03 6.72645774e-03 6.83856532e-02
      4.48430516e-03 2.69058309e-02 2.24215258e-03 2.24215258e-03
      3.36322887e-03 2.24215258e-03 0. 5.60538145e-03 3.36322887e-03
      5.60538145e-03 4.37219739e-02 8.96861032e-03 4.48430516e-03
      1.90582965e-02 4.48430516e-03 7.84753449e-03 1.45739913e-02
      8.96861032e-03 1.12107629e-03 2.13004500e-02 1.23318397e-02
      2.24215258e-03 2.69058309e-02 6.72645774e-03 5.60538145e-03
      1.12107629e-02 8.96861032e-03 3.36322887e-03 5.60538145e-03
      1.12107629e-03 3.02690603e-02 3.36322887e-03 3.36322887e-03
      3.36322887e-03 1.12107629e-02 2.24215258e-03 8.96861032e-03
      3.36322887e-03 2.13004500e-02 6.72645774e-03 2.24215258e-03
      2.13004500e-02 4.48430516e-03 2.24215258e-03 2.57847551e-02
      5.60538145e-03 1.90582965e-02 1.12107629e-03 6.72645774e-03
      1.23318397e-02 6.72645774e-03 6.72645774e-03 1.12107629e-03
      3.36322887e-03 0. 2.24215258e-03 2.24215258e-03 1.12107629e-03
      1.12107629e-02 5.60538145e-03 8.96861032e-03 1.90582965e-02
      1.12107629e-02 2.24215258e-03 2.24215258e-03 1.79372206e-02
      2.46636793e-02</_>
    <_>
      1.59574468e-02 5.31914877e-03 8.86524841e-03 1.06382975e-02
      8.86524841e-03 8.86524841e-03 5.31914877e-03 5.31914877e-03 0.
      1.24113467e-02 1.77304968e-02 7.09219836e-03 5.31914877e-03
      1.41843967e-02 1.41843967e-02 1.06382975e-02 1.77304959e-03
      1.06382975e-02 1.41843967e-02 1.24113467e-02 2.12765951e-02 0.
      2.12765951e-02 5.31914877e-03 1.06382975e-02 0. 1.06382975e-02
      1.77304959e-03 1.06382975e-02 1.41843967e-02 7.09219836e-03
      5.31914877e-03 0. 5.31914877e-03 0. 7.09219836e-03 3.54609918e-03
      1.41843967e-02 2.30496451e-02 1.77304959e-03 0. 1.06382975e-02
      1.77304968e-02 1.41843967e-02 8.86524841e-03 2.65957434e-02
      8.86524841e-03 1.24113467e-02 7.09219836e-03 3.54609918e-03
      1.24113467e-02 1.24113467e-02 1.06382975e-02 5.31914877e-03
      1.41843967e-02 1.24113467e-02 0. 1.06382975e-02 7.09219836e-03
      2.30496451e-02 1.77304968e-02 8.86524841e-03 1.41843967e-02
      5.31914877e-03 7.09219836e-03 1.77304959e-03 3.54609918e-03
      1.24113467e-02 2.12765951e-02 1.41843967e-02 5.31914877e-03
      5.31914877e-03 1.59574468e-02 2.12765951e-02 8.86524841e-03
      8.86524841e-03 1.06382975e-02 2.30496451e-02 1.41843967e-02
      1.06382975e-02 1.77304959e-03 1.77304968e-02 1.06382975e-02
      1.24113467e-02 1.24113467e-02 7.09219836e-03 1.24113467e-02
      1.59574468e-02 7.09219836e-03 7.09219836e-03 1.59574468e-02
      5.31914877e-03 1.24113467e-02 8.86524841e-03 3.54609918e-03
      1.41843967e-02 3.54609918e-03 5.31914877e-03 1.24113467e-02
      1.24113467e-02</_>
    <_>
      9.53137409e-03 7.94281159e-03 1.50913429e-02 2.54169982e-02
      3.17712477e-03 7.14853080e-03 1.58856232e-02 4.76568704e-03
      8.73709284e-03 2.38284352e-03 1.74741857e-02 1.50913429e-02
      9.53137409e-03 9.53137409e-03 1.74741857e-02 1.35027803e-02
      6.35424955e-03 1.35027803e-02 9.53137409e-03 1.11199366e-02
      1.35027803e-02 5.55996830e-03 1.03256553e-02 1.03256553e-02
      1.11199366e-02 0. 1.03256553e-02 6.35424955e-03 4.76568704e-03
      1.66799054e-02 1.35027803e-02 5.55996830e-03 3.97140579e-03
      4.76568704e-03 5.55996830e-03 1.19142178e-02 1.11199366e-02
      4.76568704e-03 2.70055607e-02 7.94281194e-04 8.73709284e-03
      1.03256553e-02 1.11199366e-02 5.55996830e-03 1.19142178e-02
      7.14853080e-03 5.55996830e-03 1.27084991e-02 1.11199366e-02
      1.82684679e-02 1.19142178e-02 1.58856232e-02 7.14853080e-03
      7.14853080e-03 8.73709284e-03 6.35424955e-03 6.35424955e-03
      5.55996830e-03 1.11199366e-02 1.50913429e-02 1.03256553e-02
      1.03256553e-02 8.73709284e-03 1.82684679e-02 1.42970616e-02
      1.19142178e-02 7.94281194e-04 9.53137409e-03 1.11199366e-02
      8.73709284e-03 3.97140579e-03 1.58856239e-03 1.66799054e-02
      2.30341554e-02 7.94281159e-03 1.42970616e-02 9.53137409e-03
      1.19142178e-02 1.98570304e-02 3.97140579e-03 6.35424955e-03
      1.19142178e-02 9.53137409e-03 4.76568704e-03 1.58856232e-02
      1.82684679e-02 1.42970616e-02 1.35027803e-02 1.11199366e-02
      8.73709284e-03 3.97140579e-03 3.17712477e-03 4.76568704e-03
      1.11199366e-02 0. 1.03256553e-02 3.97140579e-03 9.53137409e-03
      8.73709284e-03 1.42970616e-02</_>
    <_>
      6.62800344e-03 5.79950307e-03 9.11350455e-03 1.32560069e-02
      3.31400172e-03 7.45650381e-03 5.79950307e-03 9.11350455e-03
      4.97100269e-03 7.45650381e-03 1.40845077e-02 7.45650381e-03
      9.94200539e-03 9.94200539e-03 1.32560069e-02 1.32560069e-02
      5.79950307e-03 1.82270091e-02 4.97100269e-03 1.40845077e-02
      5.79950307e-03 4.97100269e-03 1.65700093e-02 7.45650381e-03
      2.40265131e-02 8.28500430e-04 4.14250232e-03 1.07705053e-02
      9.94200539e-03 9.11350455e-03 9.11350455e-03 1.07705053e-02
      5.79950307e-03 4.14250232e-03 1.65700093e-02 6.62800344e-03
      1.07705053e-02 1.07705053e-02 4.97100269e-03 2.48550135e-03
      2.48550135e-03 9.11350455e-03 1.40845077e-02 3.47970165e-02
      8.28500465e-03 6.62800344e-03 9.94200539e-03 6.62800344e-03
      1.65700093e-02 9.11350455e-03 1.32560069e-02 1.40845077e-02
      1.40845077e-02 1.40845077e-02 1.07705053e-02 7.45650381e-03
      4.14250232e-03 9.11350455e-03 1.15990061e-02 1.82270091e-02
      1.15990061e-02 1.82270091e-02 1.24275060e-02 1.98840108e-02
      6.62800344e-03 4.14250232e-03 1.32560069e-02 9.11350455e-03
      1.07705053e-02 9.94200539e-03 9.94200539e-03 9.94200539e-03
      7.45650381e-03 1.15990061e-02 9.11350455e-03 8.28500465e-03
      8.28500465e-03 4.97100269e-03 8.28500465e-03 1.15990061e-02
      5.79950307e-03 1.15990061e-02 6.62800344e-03 9.94200539e-03
      6.62800344e-03 5.79950307e-03 1.57415085e-02 4.14250232e-03
      1.32560069e-02 1.24275060e-02 1.24275060e-02 1.73985083e-02
      4.14250232e-03 9.94200539e-03 4.97100269e-03 7.45650381e-03
      4.14250232e-03 1.07705053e-02 6.62800344e-03 3.06545161e-02</_>
    <_>
      1.06899906e-02 6.80272095e-03 1.74927115e-02 3.88726918e-03
      5.83090354e-03 1.06899906e-02 0. 1.55490767e-02 0. 1.45772593e-02
      6.80272095e-03 6.80272095e-03 7.77453836e-03 1.26336245e-02
      1.26336245e-02 5.83090354e-03 4.85908659e-03 6.80272095e-03
      1.55490767e-02 4.85908659e-03 1.16618071e-02 1.06899906e-02
      1.26336245e-02 1.06899906e-02 2.13799812e-02 7.77453836e-03
      7.77453836e-03 9.71817318e-03 1.36054419e-02 1.45772593e-02
      8.74635577e-03 1.65208932e-02 8.74635577e-03 4.85908659e-03
      1.26336245e-02 1.84645280e-02 1.26336245e-02 1.65208932e-02
      1.74927115e-02 4.85908659e-03 1.16618071e-02 8.74635577e-03
      1.26336245e-02 8.74635577e-03 8.74635577e-03 2.42954325e-02
      2.13799812e-02 3.88726918e-03 1.45772593e-02 7.77453836e-03
      1.74927115e-02 4.85908659e-03 4.85908659e-03 1.55490767e-02
      1.45772593e-02 9.71817318e-03 4.85908659e-03 1.26336245e-02
      5.83090354e-03 6.80272095e-03 7.77453836e-03 4.85908659e-03
      4.85908659e-03 1.84645280e-02 1.26336245e-02 0. 1.26336245e-02
      8.74635577e-03 1.36054419e-02 1.55490767e-02 7.77453836e-03
      1.06899906e-02 4.85908659e-03 6.80272095e-03 7.77453836e-03
      7.77453836e-03 5.83090354e-03 4.85908659e-03 1.45772593e-02
      2.91545186e-02 6.80272095e-03 1.45772593e-02 4.85908659e-03
      5.83090354e-03 2.13799812e-02 4.85908659e-03 5.83090354e-03
      5.83090354e-03 1.94363459e-03 5.83090354e-03 6.80272095e-03
      9.71817318e-03 2.91545177e-03 1.16618071e-02 5.83090354e-03
      1.06899906e-02 7.77453836e-03 1.06899906e-02 1.06899906e-02
      1.45772593e-02</_>
    <_>
      1.20259020e-02 8.32562428e-03 1.29509717e-02 1.66512486e-02
      9.25069384e-04 1.48011101e-02 3.05272900e-02 3.70027754e-03
      7.40055507e-03 7.40055507e-03 1.11008324e-02 8.32562428e-03
      5.55041619e-03 1.01757636e-02 8.32562428e-03 9.25069395e-03
      9.25069395e-03 1.85013877e-03 2.77520809e-03 5.55041619e-03
      2.77520809e-03 1.75763182e-02 1.85013877e-03 2.31267344e-02
      7.40055507e-03 5.55041619e-03 1.66512486e-02 9.25069395e-03
      9.25069384e-04 1.11008324e-02 1.29509717e-02 8.32562428e-03
      2.77520809e-03 6.47548586e-03 5.55041619e-03 2.22016647e-02
      7.40055507e-03 5.55041619e-03 1.48011101e-02 7.40055507e-03
      7.40055507e-03 1.66512486e-02 7.40055507e-03 1.01757636e-02
      1.11008324e-02 1.01757636e-02 5.55041619e-03 1.38760405e-02
      1.57261789e-02 1.94264576e-02 1.01757636e-02 6.47548586e-03
      6.47548586e-03 5.55041619e-03 1.48011101e-02 9.25069395e-03
      4.62534698e-03 1.11008324e-02 1.66512486e-02 1.38760405e-02
      1.48011101e-02 1.20259020e-02 1.01757636e-02 5.55041619e-03
      1.38760405e-02 5.55041619e-03 3.70027754e-03 1.20259020e-02
      1.29509717e-02 9.25069395e-03 3.70027754e-03 1.85013877e-03
      1.20259020e-02 1.75763182e-02 6.47548586e-03 1.29509717e-02
      5.55041619e-03 1.01757636e-02 1.57261789e-02 2.77520809e-03
      1.20259020e-02 8.32562428e-03 9.25069384e-04 1.11008324e-02
      8.32562428e-03 2.22016647e-02 1.11008324e-02 1.29509717e-02
      2.22016647e-02 1.20259020e-02 1.94264576e-02 6.47548586e-03
      1.11008324e-02 1.20259020e-02 4.62534698e-03 1.20259020e-02
      5.55041619e-03 1.20259020e-02 3.70027754e-03 1.01757636e-02</_>
    <_>
      7.64655881e-03 6.79694116e-03 5.94732352e-03 3.82327940e-03
      8.49617645e-03 1.86915882e-02 4.67289705e-03 1.40186911e-02
      4.24808823e-03 3.82327940e-03 7.64655881e-03 8.49617645e-03
      5.52251469e-03 1.14698382e-02 1.14698382e-02 1.10450294e-02
      4.67289705e-03 1.65675431e-02 1.52931176e-02 1.06202206e-02
      8.49617645e-03 1.01954117e-02 1.82667784e-02 6.37213234e-03
      1.40186911e-02 7.22174998e-03 2.54885294e-03 8.07136763e-03
      7.22174998e-03 1.06202206e-02 9.34579410e-03 1.48683088e-02
      8.07136763e-03 8.07136763e-03 1.35938823e-02 5.09770587e-03
      9.34579410e-03 1.01954117e-02 9.77060292e-03 6.79694116e-03
      7.22174998e-03 8.49617645e-03 8.07136763e-03 1.65675431e-02
      8.07136763e-03 1.74171627e-02 1.65675431e-02 4.67289705e-03
      1.31690735e-02 7.22174998e-03 7.22174998e-03 9.77060292e-03
      7.22174998e-03 6.37213234e-03 8.49617645e-03 1.10450294e-02
      4.24808823e-03 1.27442647e-02 1.01954117e-02 1.31690735e-02
      6.79694116e-03 9.34579410e-03 1.14698382e-02 1.95412058e-02
      9.77060292e-03 5.09770587e-03 1.01954117e-02 1.35938823e-02
      1.27442647e-02 1.06202206e-02 9.77060292e-03 2.25148685e-02
      9.34579410e-03 7.64655881e-03 1.31690735e-02 9.34579410e-03
      7.22174998e-03 1.78419705e-02 6.79694116e-03 1.57179274e-02
      5.94732352e-03 1.01954117e-02 4.67289705e-03 6.79694116e-03
      1.06202206e-02 6.79694116e-03 1.10450294e-02 6.79694116e-03
      1.01954117e-02 6.79694116e-03 1.06202206e-02 1.06202206e-02
      1.10450294e-02 1.06202206e-02 1.27442647e-02 1.06202206e-02
      8.07136763e-03 9.77060292e-03 1.27442647e-02 2.76125744e-02</_>
    <_>
      4.03714180e-03 2.42228503e-03 5.24828397e-03 3.18934172e-02
      5.24828397e-03 1.29188532e-02 3.10859904e-02 6.45942660e-03
      1.61485665e-03 3.22971330e-03 7.26685487e-03 2.74525639e-02
      7.26685487e-03 7.67056923e-03 1.29188532e-02 3.75454165e-02
      2.82599917e-03 5.24828397e-03 8.07428360e-03 6.45942660e-03
      6.05571223e-03 2.42228503e-03 1.33225676e-02 1.61485665e-03
      8.07428360e-03 4.03714163e-04 4.84457007e-03 6.45942660e-03
      6.05571223e-03 1.17077110e-02 1.37262819e-02 2.82599917e-03
      1.33225676e-02 2.82599917e-03 2.01857090e-03 8.07428325e-04
      8.47799703e-03 8.47799703e-03 1.17077110e-02 0. 8.07428325e-04
      9.28542577e-03 1.69559941e-02 1.45337097e-02 3.10859904e-02
      2.42228503e-03 3.22971330e-03 2.46265642e-02 1.49374241e-02
      1.17077110e-02 1.17077110e-02 1.81671381e-02 8.47799703e-03
      2.82599917e-03 2.66451351e-02 2.42228503e-03 2.01857090e-03
      6.86314097e-03 5.65199833e-03 8.47799703e-03 1.17077110e-02
      7.67056923e-03 7.67056923e-03 8.47799703e-03 3.27008478e-02
      2.82599917e-03 2.01857090e-03 1.33225676e-02 2.50302777e-02
      8.47799703e-03 4.03714180e-03 4.84457007e-03 3.18934172e-02
      2.50302777e-02 3.22971330e-03 1.65522806e-02 2.82599917e-03
      2.82599917e-03 1.81671381e-02 8.07428360e-03 6.45942660e-03
      1.04965679e-02 8.88171140e-03 8.07428360e-03 6.45942660e-03
      1.25151388e-02 3.18934172e-02 9.68914013e-03 8.47799703e-03
      2.62414198e-02 2.01857090e-03 1.61485665e-03 4.44085570e-03
      7.67056923e-03 8.07428325e-04 9.28542577e-03 2.42228503e-03
      5.24828397e-03 1.41299954e-02 1.09002823e-02</_>
    <_>
      5.25920372e-03 7.51314778e-03 1.12697221e-02 5.25920372e-03
      1.80315562e-02 1.35236662e-02 9.76709276e-03 6.76183309e-03
      3.00525920e-03 5.25920372e-03 1.72802396e-02 1.27723515e-02
      1.72802396e-02 1.12697221e-02 1.50262956e-02 1.27723515e-02
      4.50788904e-03 1.35236662e-02 9.01577808e-03 1.20210368e-02
      2.10368149e-02 1.05184074e-02 1.27723515e-02 6.01051841e-03
      9.01577808e-03 5.25920372e-03 1.27723515e-02 1.12697221e-02
      1.27723515e-02 9.01577808e-03 1.35236662e-02 4.50788904e-03
      1.27723515e-02 6.76183309e-03 1.27723515e-02 7.51314778e-03
      1.65289249e-02 1.42749809e-02 1.05184074e-02 3.75657389e-03
      6.01051841e-03 9.76709276e-03 9.01577808e-03 2.62960177e-02
      7.51314778e-03 7.51314778e-03 3.75657389e-03 7.51314778e-03
      1.20210368e-02 1.12697221e-02 1.42749809e-02 8.26446246e-03
      1.35236662e-02 1.27723515e-02 1.50262956e-02 1.20210368e-02
      4.50788904e-03 1.12697221e-02 1.05184074e-02 9.76709276e-03
      1.05184074e-02 9.01577808e-03 6.76183309e-03 2.17881296e-02
      9.76709276e-03 3.00525920e-03 3.75657389e-03 6.76183309e-03
      7.51314778e-03 1.35236662e-02 6.76183309e-03 1.12697221e-02
      9.01577808e-03 7.51314778e-03 1.05184074e-02 7.51314778e-03
      1.20210368e-02 1.35236662e-02 7.51314778e-03 2.25394452e-03
      9.76709276e-03 1.80315562e-02 1.05184074e-02 6.76183309e-03
      1.27723515e-02 6.01051841e-03 9.76709276e-03 9.76709276e-03
      7.51314778e-03 6.76183309e-03 9.76709276e-03 5.25920372e-03
      7.51314778e-03 1.50262956e-02 6.76183309e-03 6.01051841e-03
      7.51314801e-04 6.76183309e-03 9.76709276e-03 1.72802396e-02</_>
    <_>
      3.89105058e-03 3.89105058e-03 3.89105058e-03 3.11284047e-02
      6.48508407e-03 7.78210117e-03 1.16731515e-02 1.29701686e-03
      2.59403372e-03 1.29701686e-03 1.94552522e-02 1.29701681e-02
      9.07911826e-03 6.48508407e-03 2.98313871e-02 1.68612190e-02
      1.29701686e-03 7.78210117e-03 6.48508407e-03 7.78210117e-03
      1.55642023e-02 0. 2.59403363e-02 1.29701686e-03 9.07911826e-03
      1.29701686e-03 1.29701686e-03 2.59403372e-03 1.68612190e-02
      7.78210117e-03 1.29701681e-02 1.03761349e-02 0. 5.18806744e-03 0.
      0. 1.29701686e-03 2.33463030e-02 1.16731515e-02 0. 2.59403372e-03
      2.20492873e-02 2.85343714e-02 1.03761349e-02 1.16731515e-02
      3.89105058e-03 2.59403372e-03 1.16731515e-02 3.89105058e-03
      9.07911826e-03 1.29701681e-02 2.33463030e-02 5.18806744e-03
      5.18806744e-03 2.46433206e-02 3.89105058e-03 2.59403372e-03
      5.18806744e-03 9.07911826e-03 2.85343714e-02 1.03761349e-02
      1.16731515e-02 1.29701681e-02 1.42671857e-02 1.81582365e-02
      6.48508407e-03 2.59403372e-03 9.07911826e-03 1.16731515e-02
      2.59403363e-02 1.29701681e-02 0. 1.55642023e-02 1.94552522e-02
      2.59403363e-02 1.03761349e-02 3.89105058e-03 1.55642023e-02
      1.55642023e-02 3.89105058e-03 0. 1.94552522e-02 7.78210117e-03
      1.03761349e-02 1.03761349e-02 1.16731515e-02 1.03761349e-02
      1.42671857e-02 1.42671857e-02 1.81582365e-02 5.18806744e-03
      1.29701686e-03 3.89105058e-03 1.94552522e-02 3.89105058e-03
      7.78210117e-03 3.89105058e-03 7.78210117e-03 2.59403372e-03
      1.55642023e-02</_>
    <_>
      1.33647798e-02 1.17924521e-02 9.43396240e-03 1.72955971e-02
      4.71698120e-03 9.43396240e-03 4.71698120e-03 8.64779856e-03
      7.86163472e-03 1.49371065e-02 6.28930796e-03 8.64779856e-03
      8.64779856e-03 7.86163472e-03 1.65094342e-02 9.43396240e-03
      6.28930796e-03 5.50314458e-03 7.86163472e-03 1.02201253e-02
      1.02201253e-02 7.07547134e-03 6.28930796e-03 2.35849060e-03
      5.50314458e-03 7.07547134e-03 7.86163472e-03 9.43396240e-03
      2.35849060e-03 6.28930796e-03 1.65094342e-02 4.71698120e-03
      7.07547134e-03 8.64779856e-03 5.50314458e-03 8.64779856e-03
      4.71698120e-03 7.07547134e-03 7.07547134e-03 4.71698120e-03 0.
      4.71698120e-03 1.33647798e-02 2.59433948e-02 4.71698120e-03
      9.43396240e-03 5.50314458e-03 2.12264135e-02 3.14465398e-03
      1.02201253e-02 8.64779856e-03 1.88679248e-02 6.28930796e-03
      6.28930796e-03 1.57232694e-02 7.07547134e-03 2.35849060e-03
      1.33647798e-02 3.93081736e-03 1.10062892e-02 1.10062892e-02
      1.10062892e-02 8.64779856e-03 1.25786159e-02 1.17924521e-02
      9.43396240e-03 6.28930796e-03 1.41509427e-02 1.65094342e-02
      8.64779856e-03 3.93081736e-03 3.93081736e-03 1.49371065e-02
      2.75157224e-02 8.64779856e-03 2.12264135e-02 1.17924521e-02
      1.80817600e-02 7.86163472e-03 5.50314458e-03 1.02201253e-02
      1.02201253e-02 1.02201253e-02 2.04402506e-02 9.43396240e-03
      2.12264135e-02 1.02201253e-02 1.72955971e-02 1.02201253e-02
      2.35849041e-02 7.07547134e-03 1.02201253e-02 1.02201253e-02
      8.64779856e-03 9.43396240e-03 1.33647798e-02 1.10062892e-02
      1.10062892e-02 1.10062892e-02 1.10062892e-02</_>
    <_>
      8.29301961e-03 8.29301961e-03 1.38217006e-02 1.10573601e-02
      6.21976517e-03 1.31306155e-02 8.29301961e-03 5.52868005e-03
      8.29301961e-03 4.14650980e-03 2.76434002e-03 1.45127848e-02
      1.45127848e-02 9.67518985e-03 6.91085029e-03 1.24395303e-02
      1.03662750e-02 4.83759493e-03 2.00414658e-02 2.07325490e-03
      8.29301961e-03 1.52038699e-02 4.14650980e-03 2.00414658e-02
      5.52868005e-03 2.76434002e-03 1.45127848e-02 1.86592955e-02
      2.76434002e-03 1.58949550e-02 7.60193495e-03 1.65860392e-02
      3.45542515e-03 9.67518985e-03 6.91085029e-03 1.17484452e-02
      5.52868005e-03 2.07325490e-03 9.67518985e-03 7.60193495e-03
      8.29301961e-03 9.67518985e-03 6.21976517e-03 2.55701449e-02
      2.28058044e-02 1.17484452e-02 5.52868005e-03 4.14650980e-03
      1.17484452e-02 1.45127848e-02 9.67518985e-03 1.10573601e-02
      1.58949550e-02 2.76434002e-03 9.67518985e-03 3.45542515e-03
      4.14650980e-03 7.60193495e-03 1.17484452e-02 8.98410473e-03
      1.24395303e-02 2.00414658e-02 2.76434002e-03 4.83759493e-03
      2.62612309e-02 4.14650980e-03 8.29301961e-03 2.07325500e-02
      1.31306155e-02 4.83759493e-03 4.14650980e-03 1.38217001e-03
      6.91085029e-03 1.65860392e-02 4.83759493e-03 1.10573601e-02
      5.52868005e-03 1.52038699e-02 6.21976517e-03 2.76434002e-03
      8.98410473e-03 4.83759493e-03 6.21976517e-03 7.60193495e-03
      8.98410473e-03 1.45127848e-02 1.65860392e-02 5.52868005e-03
      1.38217006e-02 6.21976517e-03 2.21147202e-02 4.83759493e-03
      1.65860392e-02 8.98410473e-03 3.45542515e-03 1.65860392e-02
      9.67518985e-03 2.21147202e-02 9.67518985e-03 2.14236360e-02</_>
    <_>
      1.17395939e-02 1.17395939e-02 1.17395939e-02 1.92102455e-02
      5.33617940e-03 2.13447167e-03 2.45464239e-02 1.06723588e-02
      8.53788666e-03 7.47065060e-03 5.33617940e-03 6.40341500e-03
      8.53788666e-03 1.06723588e-02 1.17395939e-02 1.38740661e-02
      4.26894333e-03 1.06723588e-02 4.26894333e-03 9.60512273e-03
      3.20170750e-03 4.26894333e-03 5.33617940e-03 4.26894333e-03
      1.60085373e-02 2.88153682e-02 1.49413012e-02 7.47065060e-03
